{"learner":{"attributes":{"scikit_learn":"{\"_estimator_type\": \"classifier\"}"},"feature_names":[],"feature_types":[],"gradient_booster":{"model":{"cats":{"enc":[],"feature_segments":[],"sorted_idx":[]},"gbtree_model_param":{"num_parallel_tree":"1","num_trees":"200"},"iteration_indptr":[0,1,2,3,4,5,6,7,8,9,10,11,12,13,14,15,16,17,18,19,20,21,22,23,24,25,26,27,28,29,30,31,32,33,34,35,36,37,38,39,40,41,42,43,44,45,46,47,48,49,50,51,52,53,54,55,56,57,58,59,60,61,62,63,64,65,66,67,68,69,70,71,72,73,74,75,76,77,78,79,80,81,82,83,84,85,86,87,88,89,90,91,92,93,94,95,96,97,98,99,100,101,102,103,104,105,106,107,108,109,110,111,112,113,114,115,116,117,118,119,120,121,122,123,124,125,126,127,128,129,130,131,132,133,134,135,136,137,138,139,140,141,142,143,144,145,146,147,148,149,150,151,152,153,154,155,156,157,158,159,160,161,162,163,164,165,166,167,168,169,170,171,172,173,174,175,176,177,178,179,180,181,182,183,184,185,186,187,188,189,190,191,192,193,194,195,196,197,198,199,200],"tree_info":[0,0,0,0,0,0,0,0,0,0,0,0,0,0,0,0,0,0,0,0,0,0,0,0,0,0,0,0,0,0,0,0,0,0,0,0,0,0,0,0,0,0,0,0,0,0,0,0,0,0,0,0,0,0,0,0,0,0,0,0,0,0,0,0,0,0,0,0,0,0,0,0,0,0,0,0,0,0,0,0,0,0,0,0,0,0,0,0,0,0,0,0,0,0,0,0,0,0,0,0,0,0,0,0,0,0,0,0,0,0,0,0,0,0,0,0,0,0,0,0,0,0,0,0,0,0,0,0,0,0,0,0,0,0,0,0,0,0,0,0,0,0,0,0,0,0,0,0,0,0,0,0,0,0,0,0,0,0,0,0,0,0,0,0,0,0,0,0,0,0,0,0,0,0,0,0,0,0,0,0,0,0,0,0,0,0,0,0,0,0,0,0,0,0,0,0,0,0,0,0],"trees":[{"base_weights":[2.2423977E-2,-1.46449525E-2,6.781508E-2],"categories":[],"categories_nodes":[],"categories_segments":[],"categories_sizes":[],"default_left":[0,0,0],"id":0,"left_children":[1,-1,-1],"loss_changes":[1.386519E1,0E0,0E0],"parents":[2147483647,0,0],"right_children":[2,-1,-1],"split_conditions":[1.762291E0,-1.46449525E-2,6.781508E-2],"split_indices":[0,0,0],"split_type":[0,0,0],"sum_hessian":[3.1020578E1,2.5720724E1,5.299855E0],"tree_param":{"num_deleted":"0","num_feature":"5","num_nodes":"3","size_leaf_vector":"1"}},{"base_weights":[8.716023E-2,8.671803E-2,-5.155682E-1,-5.549244E-2,-1.0497526E0,-5.4722197E-2,8.4413993E-1,-7.686283E-2,-6.380625E-4,1.1854874E-2,6.437811E-2],"categories":[],"categories_nodes":[],"categories_segments":[],"categories_sizes":[],"default_left":[0,0,0,0,0,0,0,0,0,0,0],"id":1,"left_children":[1,-1,3,5,7,-1,9,-1,-1,-1,-1],"loss_changes":[3.1684029E1,0E0,5.711238E0,1.3699477E1,5.443777E0,0E0,1.8185143E0,0E0,0E0,0E0,0E0],"parents":[2147483647,0,0,2,2,3,3,4,4,6,6],"right_children":[2,-1,4,6,8,-1,10,-1,-1,-1,-1],"split_conditions":[-8.3931834E-1,8.671803E-2,7.208788E-1,-2.172017E-1,1.3980504E0,-5.4722197E-2,2.447407E-1,-7.686283E-2,-6.380625E-4,1.1854874E-2,6.437811E-2],"split_indices":[4,0,4,4,4,0,4,0,0,0,0],"split_type":[0,0,0,0,0,0,0,0,0,0,0],"sum_hessian":[3.0012688E1,7.5370684E0,2.2475618E1,1.2668518E1,9.807101E0,5.778547E0,6.8899713E0,6.3428297E0,3.464271E0,3.556223E0,3.3337486E0],"tree_param":{"num_deleted":"0","num_feature":"5","num_nodes":"11","size_leaf_vector":"1"}},{"base_weights":[3.995815E-2,8.085729E-2,-4.4025993E-1,-6.070999E-2,-1.4118044E-1,7.5307053E-1,-9.340882E-1,4.8602972E-2,2.0342637E-2,-8.2358964E-2,2.623774E-2],"categories":[],"categories_nodes":[],"categories_segments":[],"categories_sizes":[],"default_left":[0,0,0,0,0,0,0,0,0,0,0],"id":2,"left_children":[1,-1,3,-1,5,7,9,-1,-1,-1,-1],"loss_changes":[2.3197742E1,0E0,5.2784863E0,0E0,1.3547187E1,2.919197E-1,1.1316433E1,0E0,0E0,0E0,0E0],"parents":[2147483647,0,0,2,2,4,4,5,5,6,6],"right_children":[2,-1,4,-1,6,8,10,-1,-1,-1,-1],"split_conditions":[-8.8784856E-1,8.085729E-2,-4.237025E-1,-6.070999E-2,7.208788E-1,-7.052349E-2,1.3697374E0,4.8602972E-2,2.0342637E-2,-8.2358964E-2,2.623774E-2],"split_indices":[4,0,4,0,4,4,4,0,0,0,0],"split_type":[0,0,0,0,0,0,0,0,0,0,0],"sum_hessian":[2.8688347E1,6.1435304E0,2.2544815E1,5.4310036E0,1.7113811E1,8.066526E0,9.047285E0,3.8338783E0,4.2326484E0,5.99016E0,3.0571253E0],"tree_param":{"num_deleted":"0","num_feature":"5","num_nodes":"11","size_leaf_vector":"1"}},{"base_weights":[7.4974885E-3,8.0197535E-2,-5.280873E-1,-7.9427674E-2,-1.7144233E-1,7.7206624E-1,-9.213699E-1,2.1126151E-2,5.2442826E-2,-7.1970366E-2,5.5414005E-3],"categories":[],"categories_nodes":[],"categories_segments":[],"categories_sizes":[],"default_left":[0,0,0,0,0,0,0,0,0,0,0],"id":3,"left_children":[1,-1,3,-1,5,7,9,-1,-1,-1,-1],"loss_changes":[2.8813618E1,0E0,9.275133E0,0E0,1.4870905E1,4.6687937E-1,6.365225E0,0E0,0E0,0E0,0E0],"parents":[2147483647,0,0,2,2,4,4,5,5,6,6],"right_children":[2,-1,4,-1,6,8,10,-1,-1,-1,-1],"split_conditions":[-9.652113E-1,8.0197535E-2,-3.6766493E-1,-7.9427674E-2,7.208788E-1,2.447407E-1,1.3980504E0,2.1126151E-2,5.2442826E-2,-7.1970366E-2,5.5414005E-3],"split_indices":[4,0,4,0,4,4,4,0,0,0,0],"split_type":[0,0,0,0,0,0,0,0,0,0,0],"sum_hessian":[3.1708086E1,7.464221E0,2.4243864E1,5.232154E0,1.901171E1,8.406143E0,1.0605567E1,4.8313746E0,3.574769E0,6.7988605E0,3.8067062E0],"tree_param":{"num_deleted":"0","num_feature":"5","num_nodes":"11","size_leaf_vector":"1"}},{"base_weights":[8.498667E-2,7.8605555E-2,-4.385857E-1,-3.3114664E-2,-9.537739E-1,-5.798745E-2,8.185832E-1,-6.859993E-2,-1.8465357E-3,6.370988E-2,1.6877089E-2],"categories":[],"categories_nodes":[],"categories_segments":[],"categories_sizes":[],"default_left":[0,0,0,0,0,0,0,0,0,0,0],"id":4,"left_children":[1,-1,3,5,7,-1,9,-1,-1,-1,-1],"loss_changes":[2.617091E1,0E0,5.1879644E0,1.5360021E1,4.1551523E0,0E0,1.5728602E0,0E0,0E0,0E0,0E0],"parents":[2147483647,0,0,2,2,3,3,4,4,6,6],"right_children":[2,-1,4,6,8,-1,10,-1,-1,-1,-1],"split_conditions":[-8.3931834E-1,7.8605555E-2,7.208788E-1,-3.6766493E-1,1.3980504E0,-5.798745E-2,-7.052349E-2,-6.859993E-2,-1.8465357E-3,6.370988E-2,1.6877089E-2],"split_indices":[4,0,4,4,4,0,4,0,0,0,0],"split_type":[0,0,0,0,0,0,0,0,0,0,0],"sum_hessian":[3.1726484E1,7.7398896E0,2.3986593E1,1.4018122E1,9.968472E0,5.879272E0,8.13885E0,6.5048156E0,3.463656E0,3.3331013E0,4.8057485E0],"tree_param":{"num_deleted":"0","num_feature":"5","num_nodes":"11","size_leaf_vector":"1"}},{"base_weights":[1.7002206E-2,7.183432E-2,-4.7605562E-1,-7.25406E-2,-2.0385699E-1,7.1711016E-1,-9.8501796E-1,4.7215465E-2,2.0463308E-2,-6.856243E-2,-1.7748533E-3],"categories":[],"categories_nodes":[],"categories_segments":[],"categories_sizes":[],"default_left":[0,0,0,0,0,0,0,0,0,0,0],"id":5,"left_children":[1,-1,3,-1,5,7,9,-1,-1,-1,-1],"loss_changes":[2.4138012E1,0E0,6.5020437E0,0E0,1.5951828E1,3.3420897E-1,4.3107624E0,0E0,0E0,0E0,0E0],"parents":[2147483647,0,0,2,2,4,4,5,5,6,6],"right_children":[2,-1,4,-1,6,8,10,-1,-1,-1,-1],"split_conditions":[-8.143056E-1,7.183432E-2,-3.6766493E-1,-7.25406E-2,7.208788E-1,-7.052349E-2,1.3980504E0,4.7215465E-2,2.0463308E-2,-6.856243E-2,-1.7748533E-3],"split_indices":[4,0,4,0,4,4,4,0,0,0,0],"split_type":[0,0,0,0,0,0,0,0,0,0,0],"sum_hessian":[3.2506462E1,7.886029E0,2.4620436E1,4.4292183E0,2.0191217E1,9.304025E0,1.0887193E1,4.163632E0,5.140393E0,7.4234533E0,3.4637392E0],"tree_param":{"num_deleted":"0","num_feature":"5","num_nodes":"11","size_leaf_vector":"1"}},{"base_weights":[2.6575333E-2,7.0859514E-2,-5.432144E-1,-1.420482E-1,-1.0641171E0,-5.891586E-2,4.9532175E-1,-7.2024174E-2,-9.213298E-3,4.186387E-2,6.0230284E-3],"categories":[],"categories_nodes":[],"categories_segments":[],"categories_sizes":[],"default_left":[0,0,0,0,0,0,0,0,0,0,0],"id":6,"left_children":[1,-1,3,5,7,-1,9,-1,-1,-1,-1],"loss_changes":[2.580958E1,0E0,4.6842713E0,9.979866E0,3.0173187E0,0E0,1.1185098E0,0E0,0E0,0E0,0E0],"parents":[2147483647,0,0,2,2,3,3,4,4,6,6],"right_children":[2,-1,4,6,8,-1,10,-1,-1,-1,-1],"split_conditions":[-8.143056E-1,7.0859514E-2,7.208788E-1,-4.3532372E-1,1.2001098E0,-5.891586E-2,-7.052349E-2,-7.2024174E-2,-9.213298E-3,4.186387E-2,6.0230284E-3],"split_indices":[4,0,4,4,4,0,4,0,0,0,0],"split_type":[0,0,0,0,0,0,0,0,0,0,0],"sum_hessian":[3.0601551E1,8.462053E0,2.2139498E1,1.3226207E1,8.91329E0,4.7137046E0,8.512503E0,5.7965565E0,3.1167336E0,3.8065376E0,4.705965E0],"tree_param":{"num_deleted":"0","num_feature":"5","num_nodes":"11","size_leaf_vector":"1"}},{"base_weights":[-8.027689E-2,6.6809855E-2,-6.2174535E-1,-5.8615334E-2,-3.91127E-1,1.7800699E-1,-8.552383E-1,-1.090727E-2,3.210402E-2,-5.824246E-2,-8.552563E-3],"categories":[],"categories_nodes":[],"categories_segments":[],"categories_sizes":[],"default_left":[0,0,0,0,0,0,0,0,0,0,0],"id":7,"left_children":[1,-1,3,-1,5,7,9,-1,-1,-1,-1],"loss_changes":[2.3153105E1,0E0,2.3015423E0,0E0,4.595424E0,1.6813123E0,1.799972E0,0E0,0E0,0E0,0E0],"parents":[2147483647,0,0,2,2,4,4,5,5,6,6],"right_children":[2,-1,4,-1,6,8,10,-1,-1,-1,-1],"split_conditions":[-8.143056E-1,6.6809855E-2,-3.6766493E-1,-5.8615334E-2,5.0193536E-1,2.447407E-1,1.1998663E0,-1.090727E-2,3.210402E-2,-5.824246E-2,-8.552563E-3],"split_indices":[4,0,4,0,4,4,4,0,0,0,0],"split_type":[0,0,0,0,0,0,0,0,0,0,0],"sum_hessian":[2.8104342E1,7.3663483E0,2.0737993E1,4.916761E0,1.5821232E1,7.3834524E0,8.437779E0,4.269102E0,3.1143503E0,5.325386E0,3.1123939E0],"tree_param":{"num_deleted":"0","num_feature":"5","num_nodes":"11","size_leaf_vector":"1"}},{"base_weights":[2.8806569E-2,6.916814E-2,-4.562728E-1,-6.239561E-2,-1.0227559E-1,5.6639385E-1,-7.0229787E-1,1.0635607E-2,4.453994E-2,-5.6446083E-2,4.8719733E-3],"categories":[],"categories_nodes":[],"categories_segments":[],"categories_sizes":[],"default_left":[0,0,0,0,0,0,0,0,0,0,0],"id":8,"left_children":[1,-1,3,-1,5,7,9,-1,-1,-1,-1],"loss_changes":[2.0658503E1,0E0,6.372443E0,0E0,7.265397E0,8.02865E-1,3.3403678E0,0E0,0E0,0E0,0E0],"parents":[2147483647,0,0,2,2,4,4,5,5,6,6],"right_children":[2,-1,4,-1,6,8,10,-1,-1,-1,-1],"split_conditions":[-8.3931834E-1,6.916814E-2,-3.6766493E-1,-6.239561E-2,7.208788E-1,2.447407E-1,1.1998663E0,1.0635607E-2,4.453994E-2,-5.6446083E-2,4.8719733E-3],"split_indices":[4,0,4,0,4,4,4,0,0,0,0],"split_type":[0,0,0,0,0,0,0,0,0,0,0],"sum_hessian":[2.9479847E1,7.2850194E0,2.2194826E1,6.077837E0,1.611699E1,7.648967E0,8.468022E0,4.4514656E0,3.1975014E0,5.253762E0,3.2142606E0],"tree_param":{"num_deleted":"0","num_feature":"5","num_nodes":"11","size_leaf_vector":"1"}},{"base_weights":[2.4632107E-2,-1.0306985E-2,5.0273784E-2],"categories":[],"categories_nodes":[],"categories_segments":[],"categories_sizes":[],"default_left":[0,0,0],"id":9,"left_children":[1,-1,-1],"loss_changes":[7.3589845E0,0E0,0E0],"parents":[2147483647,0,0],"right_children":[2,-1,-1],"split_conditions":[1.762291E0,-1.0306985E-2,5.0273784E-2],"split_indices":[0,0,0],"split_type":[0,0,0],"sum_hessian":[3.0595686E1,2.5407639E1,5.1880474E0],"tree_param":{"num_deleted":"0","num_feature":"5","num_nodes":"3","size_leaf_vector":"1"}},{"base_weights":[-3.4117024E-2,6.323879E-2,-4.4809797E-1,-4.6654366E-2,-8.9038444E-1,-5.547742E-2,6.451447E-1,-6.105582E-2,-6.066324E-3,4.4421878E-2,1.3911085E-2],"categories":[],"categories_nodes":[],"categories_segments":[],"categories_sizes":[],"default_left":[0,0,0,0,0,0,0,0,0,0,0],"id":10,"left_children":[1,-1,3,5,7,-1,9,-1,-1,-1,-1],"loss_changes":[1.7986292E1,0E0,4.4512997E0,1.124534E1,2.9000902E0,0E0,5.836055E-1,0E0,0E0,0E0,0E0],"parents":[2147483647,0,0,2,2,3,3,4,4,6,6],"right_children":[2,-1,4,6,8,-1,10,-1,-1,-1,-1],"split_conditions":[-8.143056E-1,6.323879E-2,7.208788E-1,-3.6766493E-1,1.3980504E0,-5.547742E-2,-7.052349E-2,-6.105582E-2,-6.066324E-3,4.4421878E-2,1.3911085E-2],"split_indices":[4,0,4,4,4,0,4,0,0,0,0],"split_type":[0,0,0,0,0,0,0,0,0,0,0],"sum_hessian":[3.1395388E1,7.0911803E0,2.4304207E1,1.3319856E1,1.0984351E1,5.0133634E0,8.306492E0,7.2700653E0,3.7142859E0,4.1400576E0,4.166435E0],"tree_param":{"num_deleted":"0","num_feature":"5","num_nodes":"11","size_leaf_vector":"1"}},{"base_weights":[-1.4084034E-2,6.6552415E-2,-4.8819026E-1,-6.392549E-2,-2.1639933E-1,6.434625E-1,-9.5659477E-1,9.189382E-3,4.852645E-2,-6.524493E-2,-7.948051E-3],"categories":[],"categories_nodes":[],"categories_segments":[],"categories_sizes":[],"default_left":[0,0,0,0,0,0,0,0,0,0,0],"id":11,"left_children":[1,-1,3,-1,5,7,9,-1,-1,-1,-1],"loss_changes":[1.8869854E1,0E0,4.418046E0,0E0,1.1732612E1,1.1263354E0,2.5120745E0,0E0,0E0,0E0,0E0],"parents":[2147483647,0,0,2,2,4,4,5,5,6,6],"right_children":[2,-1,4,-1,6,8,10,-1,-1,-1,-1],"split_conditions":[-8.143056E-1,6.6552415E-2,-3.6766493E-1,-6.392549E-2,7.208788E-1,1.5871434E-1,1.2001098E0,9.189382E-3,4.852645E-2,-6.524493E-2,-7.948051E-3],"split_indices":[4,0,4,0,4,4,4,0,0,0,0],"split_type":[0,0,0,0,0,0,0,0,0,0,0],"sum_hessian":[2.7569912E1,6.7138667E0,2.0856045E1,4.389153E0,1.6466892E1,7.678132E0,8.788759E0,3.8413057E0,3.8368263E0,5.6747823E0,3.113977E0],"tree_param":{"num_deleted":"0","num_feature":"5","num_nodes":"11","size_leaf_vector":"1"}},{"base_weights":[-1.6839387E-2,-9.140409E-3,4.1476075E-2],"categories":[],"categories_nodes":[],"categories_segments":[],"categories_sizes":[],"default_left":[0,0,0],"id":12,"left_children":[1,-1,-1],"loss_changes":[4.346576E0,0E0,0E0],"parents":[2147483647,0,0],"right_children":[2,-1,-1],"split_conditions":[1.5390967E0,-9.140409E-3,4.1476075E-2],"split_indices":[0,0,0],"split_type":[0,0,0],"sum_hessian":[2.8863659E1,2.478701E1,4.07665E0],"tree_param":{"num_deleted":"0","num_feature":"5","num_nodes":"3","size_leaf_vector":"1"}},{"base_weights":[-9.1482796E-2,6.372621E-2,-5.370621E-1,-6.5599926E-2,-2.1802285E-1,4.8211634E-1,-8.904302E-1,3.8849752E-2,6.566486E-3,-5.1797755E-2,-2.224612E-2],"categories":[],"categories_nodes":[],"categories_segments":[],"categories_sizes":[],"default_left":[0,0,0,0,0,0,0,0,0,0,0],"id":13,"left_children":[1,-1,3,-1,5,7,9,-1,-1,-1,-1],"loss_changes":[1.8535725E1,0E0,5.35546E0,0E0,8.603466E0,8.4493375E-1,1.3607073E-1,0E0,0E0,0E0,0E0],"parents":[2147483647,0,0,2,2,4,4,5,5,6,6],"right_children":[2,-1,4,-1,6,8,10,-1,-1,-1,-1],"split_conditions":[-8.3931834E-1,6.372621E-2,-3.6766493E-1,-6.5599926E-2,7.208788E-1,-7.052349E-2,1.3697374E0,3.8849752E-2,6.566486E-3,-5.1797755E-2,-2.224612E-2],"split_indices":[4,0,4,0,4,4,4,0,0,0,0],"split_type":[0,0,0,0,0,0,0,0,0,0,0],"sum_hessian":[2.8328514E1,6.5101256E0,2.1818388E1,5.455298E0,1.636309E1,8.154881E0,8.20821E0,3.770397E0,4.384484E0,5.1881638E0,3.0200467E0],"tree_param":{"num_deleted":"0","num_feature":"5","num_nodes":"11","size_leaf_vector":"1"}},{"base_weights":[-4.911862E-2,6.1502595E-2,-4.4457012E-1,-5.860622E-2,-2.6533198E-1,1.5469445E-1,-6.2750244E-1,-1.2896254E-2,3.4308385E-2,-5.49632E-2,1.3997248E-2],"categories":[],"categories_nodes":[],"categories_segments":[],"categories_sizes":[],"default_left":[0,0,0,0,0,0,0,0,0,0,0],"id":14,"left_children":[1,-1,3,-1,5,7,9,-1,-1,-1,-1],"loss_changes":[1.557803E1,0E0,2.744697E0,0E0,3.153677E0,2.3931298E0,5.011466E0,0E0,0E0,0E0,0E0],"parents":[2147483647,0,0,2,2,4,4,5,5,6,6],"right_children":[2,-1,4,-1,6,8,10,-1,-1,-1,-1],"split_conditions":[-8.8784856E-1,6.1502595E-2,-5.433104E-1,-5.860622E-2,5.0193536E-1,1.5871434E-1,1.3980504E0,-1.2896254E-2,3.4308385E-2,-5.49632E-2,1.3997248E-2],"split_indices":[4,0,4,0,4,4,4,0,0,0,0],"split_type":[0,0,0,0,0,0,0,0,0,0,0],"sum_hessian":[2.8714712E1,6.2824183E0,2.2432293E1,3.3390627E0,1.9093231E1,9.105739E0,9.987493E0,5.415786E0,3.6899526E0,6.4321704E0,3.5553224E0],"tree_param":{"num_deleted":"0","num_feature":"5","num_nodes":"11","size_leaf_vector":"1"}},{"base_weights":[-3.6683496E-2,6.050856E-2,-4.1450474E-1,-6.165519E-2,-1.3667583E-1,4.690514E-2,-4.6219525E-1,-4.377836E-4,-6.7101693E-1,-4.9933534E-2,-4.830246E-3],"categories":[],"categories_nodes":[],"categories_segments":[],"categories_sizes":[],"default_left":[0,0,0,0,0,0,0,0,0,0,0],"id":15,"left_children":[1,-1,3,-1,5,-1,7,-1,9,-1,-1],"loss_changes":[1.3955841E1,0E0,4.9857435E0,0E0,6.74685E0,0E0,1.3690085E0,0E0,1.7721472E0,0E0,0E0],"parents":[2147483647,0,0,2,2,4,4,6,6,8,8],"right_children":[2,-1,4,-1,6,-1,8,-1,10,-1,-1],"split_conditions":[-8.3931834E-1,6.050856E-2,-3.6766493E-1,-6.165519E-2,-7.052349E-2,4.690514E-2,7.208788E-1,-4.377836E-4,1.3980504E0,-4.9933534E-2,-4.830246E-3],"split_indices":[4,0,4,0,4,0,4,0,4,0,0],"split_type":[0,0,0,0,0,0,0,0,0,0,0],"sum_hessian":[2.7559875E1,5.89678E0,2.1663095E1,4.61805E0,1.7045046E1,3.5248992E0,1.3520146E1,4.591657E0,8.928489E0,5.2151103E0,3.7133782E0],"tree_param":{"num_deleted":"0","num_feature":"5","num_nodes":"11","size_leaf_vector":"1"}},{"base_weights":[1.0018713E-1,5.633774E-2,-2.8543448E-1,-5.73577E-2,-5.5235736E-3,5.7773614E-1,-6.0539293E-1,3.95345E-2,1.0521319E-2,-4.45307E-2,-4.4496763E-3],"categories":[],"categories_nodes":[],"categories_segments":[],"categories_sizes":[],"default_left":[0,0,0,0,0,0,0,0,0,0,0],"id":16,"left_children":[1,-1,3,-1,5,7,9,-1,-1,-1,-1],"loss_changes":[1.0634031E1,0E0,4.7537565E0,0E0,5.9131417E0,5.042553E-1,1.1472268E0,0E0,0E0,0E0,0E0],"parents":[2147483647,0,0,2,2,4,4,5,5,6,6],"right_children":[2,-1,4,-1,6,8,10,-1,-1,-1,-1],"split_conditions":[-8.143056E-1,5.633774E-2,-3.6766493E-1,-5.73577E-2,5.0193536E-1,-1.118288E-1,1.1998663E0,3.95345E-2,1.0521319E-2,-4.45307E-2,-4.4496763E-3],"split_indices":[4,0,4,0,4,4,4,0,0,0,0],"split_type":[0,0,0,0,0,0,0,0,0,0,0],"sum_hessian":[2.505023E1,6.315568E0,1.8734661E1,3.8338094E0,1.4900852E1,7.573728E0,7.327124E0,4.0645733E0,3.5091548E0,4.253269E0,3.0738547E0],"tree_param":{"num_deleted":"0","num_feature":"5","num_nodes":"11","size_leaf_vector":"1"}},{"base_weights":[3.8079735E-2,5.5344023E-2,-3.2413954E-1,-4.2297807E-2,-1.6206856E-1,3.6642665E-1,-6.124642E-1,3.4037192E-4,3.8525425E-2,-4.9637876E-2,6.6325753E-3],"categories":[],"categories_nodes":[],"categories_segments":[],"categories_sizes":[],"default_left":[0,0,0,0,0,0,0,0,0,0,0],"id":17,"left_children":[1,-1,3,-1,5,7,9,-1,-1,-1,-1],"loss_changes":[1.1049383E1,0E0,1.6725588E0,0E0,4.4052215E0,1.2600207E0,2.9247954E0,0E0,0E0,0E0,0E0],"parents":[2147483647,0,0,2,2,4,4,5,5,6,6],"right_children":[2,-1,4,-1,6,8,10,-1,-1,-1,-1],"split_conditions":[-8.143056E-1,5.5344023E-2,-3.6766493E-1,-4.2297807E-2,7.208788E-1,2.447407E-1,1.3697374E0,3.4037192E-4,3.8525425E-2,-4.9637876E-2,6.6325753E-3],"split_indices":[4,0,4,0,4,4,4,0,0,0,0],"split_type":[0,0,0,0,0,0,0,0,0,0,0],"sum_hessian":[2.6614286E1,6.216228E0,2.0398058E1,3.8340344E0,1.6564024E1,7.7070217E0,8.857001E0,4.6158857E0,3.091136E0,5.6440363E0,3.2129657E0],"tree_param":{"num_deleted":"0","num_feature":"5","num_nodes":"11","size_leaf_vector":"1"}},{"base_weights":[-1.0404323E-1,5.7184424E-2,-5.03232E-1,-1.568838E-1,-8.819849E-1,-4.354321E-2,3.3697593E-1,-5.8707286E-2,-1.3074626E-2,2.6748583E-2,4.911353E-3],"categories":[],"categories_nodes":[],"categories_segments":[],"categories_sizes":[],"default_left":[0,0,0,0,0,0,0,0,0,0,0],"id":18,"left_children":[1,-1,3,5,7,-1,9,-1,-1,-1,-1],"loss_changes":[1.3676267E1,0E0,2.5667744E0,4.520477E0,1.4393878E0,0E0,3.1651366E-1,0E0,0E0,0E0,0E0],"parents":[2147483647,0,0,2,2,3,3,4,4,6,6],"right_children":[2,-1,4,6,8,-1,10,-1,-1,-1,-1],"split_conditions":[-8.3931834E-1,5.7184424E-2,7.208788E-1,-3.6766493E-1,1.3980504E0,-4.354321E-2,-1.118288E-1,-5.8707286E-2,-1.3074626E-2,2.6748583E-2,4.911353E-3],"split_indices":[4,0,4,4,4,0,4,0,0,0,0],"split_type":[0,0,0,0,0,0,0,0,0,0,0],"sum_hessian":[2.530243E1,5.6808724E0,1.9621555E1,1.0987927E1,8.633628E0,4.1805954E0,6.8073325E0,5.2631683E0,3.3704598E0,3.0430145E0,3.764318E0],"tree_param":{"num_deleted":"0","num_feature":"5","num_nodes":"11","size_leaf_vector":"1"}},{"base_weights":[3.4851328E-2,5.3051334E-2,-3.1477648E-1,-4.3095462E-2,-1.1525353E-1,3.0253822E-1,-5.037099E-1,-5.219969E-3,3.7783194E-2,-4.2720105E-2,1.0229435E-3],"categories":[],"categories_nodes":[],"categories_segments":[],"categories_sizes":[],"default_left":[0,0,0,0,0,0,0,0,0,0,0],"id":19,"left_children":[1,-1,3,-1,5,7,9,-1,-1,-1,-1],"loss_changes":[9.745544E0,0E0,2.1207702E0,0E0,2.758331E0,1.6206264E0,1.615962E0,0E0,0E0,0E0,0E0],"parents":[2147483647,0,0,2,2,4,4,5,5,6,6],"right_children":[2,-1,4,-1,6,8,10,-1,-1,-1,-1],"split_conditions":[-8.143056E-1,5.3051334E-2,-4.237025E-1,-4.3095462E-2,7.208788E-1,2.447407E-1,1.3980504E0,-5.219969E-3,3.7783194E-2,-4.2720105E-2,1.0229435E-3],"split_indices":[4,0,4,0,4,4,4,0,0,0,0],"split_type":[0,0,0,0,0,0,0,0,0,0,0],"sum_hessian":[2.5232155E1,5.895076E0,1.9337078E1,4.280159E0,1.505692E1,7.361102E0,7.695818E0,4.283674E0,3.077428E0,4.233443E0,3.4623752E0],"tree_param":{"num_deleted":"0","num_feature":"5","num_nodes":"11","size_leaf_vector":"1"}},{"base_weights":[5.3454716E-2,5.5493392E-2,-2.5887692E-1,-3.7888402E-1,1.4024811E-2,-1.18493915E-1,-4.5138832E-2,-3.260627E-2,1.9926827E-1,3.0290363E-2,-1.3973834E-2],"categories":[],"categories_nodes":[],"categories_segments":[],"categories_sizes":[],"default_left":[0,0,0,0,0,0,0,0,0,0,0],"id":20,"left_children":[1,-1,3,5,-1,7,-1,-1,9,-1,-1],"loss_changes":[9.290904E0,0E0,1.5220044E0,2.3916988E0,0E0,2.399838E0,0E0,0E0,1.9513562E0,0E0,0E0],"parents":[2147483647,0,0,2,2,3,3,5,5,8,8],"right_children":[2,-1,4,6,-1,8,-1,-1,10,-1,-1],"split_conditions":[-8.3931834E-1,5.5493392E-2,1.3980504E0,7.208788E-1,1.4024811E-2,-3.6766493E-1,-4.5138832E-2,-3.260627E-2,-7.052349E-2,3.0290363E-2,-1.3973834E-2],"split_indices":[4,0,4,4,0,4,0,0,4,0,0],"split_type":[0,0,0,0,0,0,0,0,0,0,0],"sum_hessian":[2.6287624E1,5.415853E0,2.087177E1,1.7316505E1,3.5552652E0,1.2386318E1,4.9301867E0,4.2301707E0,8.156148E0,4.2671647E0,3.8889835E0],"tree_param":{"num_deleted":"0","num_feature":"5","num_nodes":"11","size_leaf_vector":"1"}},{"base_weights":[1.8966235E-1,5.265351E-2,-3.1700168E-2,-3.2559272E-2,1.631274E-1,6.9847524E-1,-3.695072E-1,1.7477501E-2,5.058838E-2,-4.5422867E-2,2.7264569E-2],"categories":[],"categories_nodes":[],"categories_segments":[],"categories_sizes":[],"default_left":[0,0,0,0,0,0,0,0,0,0,0],"id":21,"left_children":[1,-1,3,-1,5,7,9,-1,-1,-1,-1],"loss_changes":[4.9644303E0,0E0,2.701834E0,0E0,5.151234E0,6.1971426E-1,5.0588255E0,0E0,0E0,0E0,0E0],"parents":[2147483647,0,0,2,2,4,4,5,5,6,6],"right_children":[2,-1,4,-1,6,8,10,-1,-1,-1,-1],"split_conditions":[-8.3931834E-1,5.265351E-2,-4.237025E-1,-3.2559272E-2,7.208788E-1,1.5871434E-1,1.3980504E0,1.7477501E-2,5.058838E-2,-4.5422867E-2,2.7264569E-2],"split_indices":[4,0,4,0,4,4,4,0,0,0,0],"split_type":[0,0,0,0,0,0,0,0,0,0,0],"sum_hessian":[2.4799967E1,4.2940655E0,2.0505901E1,4.345697E0,1.6160204E1,7.9042897E0,8.255914E0,4.74043E0,3.16386E0,5.19955E0,3.0563638E0],"tree_param":{"num_deleted":"0","num_feature":"5","num_nodes":"11","size_leaf_vector":"1"}},{"base_weights":[5.3449377E-2,5.1347353E-2,-2.751707E-1,-3.757315E-2,-1.3366093E-1,2.553535E-1,-5.643287E-1,-3.2485954E-3,3.607003E-2,-3.8474284E-2,-1.0989408E-2],"categories":[],"categories_nodes":[],"categories_segments":[],"categories_sizes":[],"default_left":[0,0,0,0,0,0,0,0,0,0,0],"id":22,"left_children":[1,-1,3,-1,5,7,9,-1,-1,-1,-1],"loss_changes":[8.809348E0,0E0,1.2957891E0,0E0,3.0235355E0,1.4977341E0,4.2945814E-1,0E0,0E0,0E0,0E0],"parents":[2147483647,0,0,2,2,4,4,5,5,6,6],"right_children":[2,-1,4,-1,6,8,10,-1,-1,-1,-1],"split_conditions":[-8.143056E-1,5.1347353E-2,-3.6766493E-1,-3.757315E-2,7.208788E-1,2.5065613E-1,9.914022E-1,-3.2485954E-3,3.607003E-2,-3.8474284E-2,-1.0989408E-2],"split_indices":[4,0,4,0,4,4,4,0,0,0,0],"split_type":[0,0,0,0,0,0,0,0,0,0,0],"sum_hessian":[2.5653557E1,5.9379783E0,1.9715578E1,3.5286283E0,1.618695E1,8.718637E0,7.4683127E0,5.6771703E0,3.041467E0,3.9079518E0,3.5603611E0],"tree_param":{"num_deleted":"0","num_feature":"5","num_nodes":"11","size_leaf_vector":"1"}},{"base_weights":[-6.624965E-2,4.7076415E-2,-3.2409897E-1,-5.253784E-2,-1.1325091E-1,3.8822824E-1,-5.8067596E-1,6.5339133E-3,3.4561563E-2,-4.287927E-2,-5.444062E-3],"categories":[],"categories_nodes":[],"categories_segments":[],"categories_sizes":[],"default_left":[0,0,0,0,0,0,0,0,0,0,0],"id":23,"left_children":[1,-1,3,-1,5,7,9,-1,-1,-1,-1],"loss_changes":[7.113601E0,0E0,3.1914918E0,0E0,4.4138227E0,6.2914073E-1,1.1671896E0,0E0,0E0,0E0,0E0],"parents":[2147483647,0,0,2,2,4,4,5,5,6,6],"right_children":[2,-1,4,-1,6,8,10,-1,-1,-1,-1],"split_conditions":[-8.143056E-1,4.7076415E-2,-4.237025E-1,-5.253784E-2,7.208788E-1,2.447407E-1,1.2001098E0,6.5339133E-3,3.4561563E-2,-4.287927E-2,-5.444062E-3],"split_indices":[4,0,4,0,4,4,4,0,0,0,0],"split_type":[0,0,0,0,0,0,0,0,0,0,0],"sum_hessian":[2.5200981E1,4.5940676E0,2.0606915E1,3.738664E0,1.686825E1,8.219429E0,8.648821E0,5.2166224E0,3.0028071E0,4.934763E0,3.7140582E0],"tree_param":{"num_deleted":"0","num_feature":"5","num_nodes":"11","size_leaf_vector":"1"}},{"base_weights":[2.7763208E-2,5.1722843E-2,-2.472954E-1,-4.4900775E-2,-1.3879517E-2,2.490894E-2,-2.1601404E-1,-4.815635E-1,1.9551402E-2,1.8375488E-4,-4.063701E-2],"categories":[],"categories_nodes":[],"categories_segments":[],"categories_sizes":[],"default_left":[0,0,0,0,0,0,0,0,0,0,0],"id":24,"left_children":[1,-1,3,-1,5,-1,7,9,-1,-1,-1],"loss_changes":[7.2622457E0,0E0,3.1286254E0,0E0,1.788143E0,0E0,2.1772733E0,1.4543884E0,0E0,0E0,0E0],"parents":[2147483647,0,0,2,2,4,4,6,6,7,7],"right_children":[2,-1,4,-1,6,-1,8,10,-1,-1,-1],"split_conditions":[-8.3931834E-1,5.1722843E-2,-3.6766493E-1,-4.4900775E-2,-7.052349E-2,2.490894E-2,1.3980504E0,7.208788E-1,1.9551402E-2,1.8375488E-4,-4.063701E-2],"split_indices":[4,0,4,0,4,0,4,4,0,0,0],"split_type":[0,0,0,0,0,0,0,0,0,0,0],"sum_hessian":[2.4303125E1,4.622879E0,1.9680246E1,4.4439797E0,1.5236267E1,3.8977308E0,1.1338536E1,8.031761E0,3.3067749E0,3.659208E0,4.3725533E0],"tree_param":{"num_deleted":"0","num_feature":"5","num_nodes":"11","size_leaf_vector":"1"}},{"base_weights":[1.5039866E-1,5.090749E-2,-9.2688546E-2,-3.765982E-2,7.758437E-2,3.656631E-1,-3.0174133E-1,5.373802E-3,2.6157403E-2,-3.3320215E-2,5.5240206E-3],"categories":[],"categories_nodes":[],"categories_segments":[],"categories_sizes":[],"default_left":[0,0,0,0,0,0,0,0,0,0,0],"id":25,"left_children":[1,-1,3,-1,5,7,9,-1,-1,-1,-1],"loss_changes":[5.2979026E0,0E0,2.3287678E0,0E0,1.9632088E0,3.540064E-1,1.2561723E0,0E0,0E0,0E0,0E0],"parents":[2147483647,0,0,2,2,4,4,5,5,6,6],"right_children":[2,-1,4,-1,6,8,10,-1,-1,-1,-1],"split_conditions":[-8.3931834E-1,5.090749E-2,-5.4408985E-1,-3.765982E-2,7.208788E-1,-1.1269214E-1,9.914022E-1,5.373802E-3,2.6157403E-2,-3.3320215E-2,5.5240206E-3],"split_indices":[4,0,4,0,4,4,4,0,0,0,0],"split_type":[0,0,0,0,0,0,0,0,0,0,0],"sum_hessian":[2.3668396E1,4.48168E0,1.9186716E1,3.2307615E0,1.5955954E1,9.0891905E0,6.8667636E0,4.081034E0,5.0081563E0,3.3163824E0,3.5503812E0],"tree_param":{"num_deleted":"0","num_feature":"5","num_nodes":"11","size_leaf_vector":"1"}},{"base_weights":[-2.0246737E-2,4.8136245E-2,-3.758401E-1,-5.5111885E-1,1.2070655E-2,-2.9359704E-1,-5.0336845E-2,-3.619874E-2,2.3807194E-3],"categories":[],"categories_nodes":[],"categories_segments":[],"categories_sizes":[],"default_left":[0,0,0,0,0,0,0,0,0],"id":26,"left_children":[1,-1,3,5,-1,7,-1,-1,-1],"loss_changes":[8.330686E0,0E0,2.022182E0,1.3357944E0,0E0,1.546257E0,0E0,0E0,0E0],"parents":[2147483647,0,0,2,2,3,3,5,5],"right_children":[2,-1,4,6,-1,8,-1,-1,-1],"split_conditions":[-8.143056E-1,4.8136245E-2,1.3697374E0,5.0193536E-1,1.2070655E-2,-3.6766493E-1,-5.0336845E-2,-3.619874E-2,2.3807194E-3],"split_indices":[4,0,4,4,0,4,0,0,0],"split_type":[0,0,0,0,0,0,0,0,0],"sum_hessian":[2.179824E1,5.337192E0,1.6461048E1,1.290392E1,3.557129E0,9.294774E0,3.6091464E0,3.6142547E0,5.680519E0],"tree_param":{"num_deleted":"0","num_feature":"5","num_nodes":"9","size_leaf_vector":"1"}},{"base_weights":[6.320017E-2,4.835554E-2,-1.3991357E-1,-2.912124E-2,-2.1258048E-3,3.6961257E-1,-4.404109E-1,4.21805E-3,3.6611468E-2,-3.8980808E-2,4.4731135E-3],"categories":[],"categories_nodes":[],"categories_segments":[],"categories_sizes":[],"default_left":[0,0,0,0,0,0,0,0,0,0,0],"id":27,"left_children":[1,-1,3,-1,5,7,9,-1,-1,-1,-1],"loss_changes":[4.8102045E0,0E0,1.3197095E0,0E0,3.0179477E0,9.7524905E-1,1.5972373E0,0E0,0E0,0E0,0E0],"parents":[2147483647,0,0,2,2,4,4,5,5,6,6],"right_children":[2,-1,4,-1,6,8,10,-1,-1,-1,-1],"split_conditions":[-8.3931834E-1,4.835554E-2,-3.6766493E-1,-2.912124E-2,7.208788E-1,2.447407E-1,1.3980504E0,4.21805E-3,3.6611468E-2,-3.8980808E-2,4.4731135E-3],"split_indices":[4,0,4,0,4,4,4,0,0,0,0],"split_type":[0,0,0,0,0,0,0,0,0,0,0],"sum_hessian":[2.446284E1,3.798238E0,2.06646E1,4.1404386E0,1.6524162E1,9.025623E0,7.4985394E0,5.7416296E0,3.2839935E0,4.2844605E0,3.214079E0],"tree_param":{"num_deleted":"0","num_feature":"5","num_nodes":"11","size_leaf_vector":"1"}},{"base_weights":[3.6511037E-3,4.4718467E-2,-2.3341322E-1,-3.654142E-2,-7.0239924E-2,3.178107E-2,-3.274479E-1,-4.9882025E-1,6.5684216E-3,-9.923939E-3,-3.6146924E-2],"categories":[],"categories_nodes":[],"categories_segments":[],"categories_sizes":[],"default_left":[0,0,0,0,0,0,0,0,0,0,0],"id":28,"left_children":[1,-1,3,-1,5,-1,7,9,-1,-1,-1],"loss_changes":[5.3223677E0,0E0,1.5654353E0,0E0,3.1321402E0,0E0,1.0455691E0,4.8138022E-1,0E0,0E0,0E0],"parents":[2147483647,0,0,2,2,4,4,6,6,7,7],"right_children":[2,-1,4,-1,6,-1,8,10,-1,-1,-1],"split_conditions":[-8.143056E-1,4.4718467E-2,-3.6766493E-1,-3.654142E-2,-7.052349E-2,3.178107E-2,1.2001098E0,4.474611E-1,6.5684216E-3,-9.923939E-3,-3.6146924E-2],"split_indices":[4,0,4,0,4,0,4,4,0,0,0],"split_type":[0,0,0,0,0,0,0,0,0,0,0],"sum_hessian":[2.3217041E1,4.297484E0,1.8919558E1,3.814041E0,1.5105516E1,3.6413229E0,1.1464193E1,8.283163E0,3.1810308E0,4.3454337E0,3.9377294E0],"tree_param":{"num_deleted":"0","num_feature":"5","num_nodes":"11","size_leaf_vector":"1"}},{"base_weights":[-3.6502525E-2,4.5491885E-2,-3.1075203E-1,-1.03957504E-1,-5.303979E-1,-3.4747835E-2,2.5275627E-1,-4.0696353E-2,-1.8511342E-3,3.0239303E-2,-9.266973E-3],"categories":[],"categories_nodes":[],"categories_segments":[],"categories_sizes":[],"default_left":[0,0,0,0,0,0,0,0,0,0,0],"id":29,"left_children":[1,-1,3,5,7,-1,9,-1,-1,-1,-1],"loss_changes":[6.662823E0,0E0,8.4443045E-1,2.5883877E0,1.2792361E0,0E0,1.3258619E0,0E0,0E0,0E0,0E0],"parents":[2147483647,0,0,2,2,3,3,4,4,6,6],"right_children":[2,-1,4,6,8,-1,10,-1,-1,-1,-1],"split_conditions":[-8.143056E-1,4.5491885E-2,5.0193536E-1,-3.6766493E-1,1.3980504E0,-3.4747835E-2,-7.052349E-2,-4.0696353E-2,-1.8511342E-3,3.0239303E-2,-9.266973E-3],"split_indices":[4,0,4,4,4,0,4,0,0,0,0],"split_type":[0,0,0,0,0,0,0,0,0,0,0],"sum_hessian":[2.358293E1,4.7780337E0,1.8804895E1,1.0444651E1,8.360245E0,3.5744028E0,6.870248E0,4.8965945E0,3.4636505E0,3.5983346E0,3.2719133E0],"tree_param":{"num_deleted":"0","num_feature":"5","num_nodes":"11","size_leaf_vector":"1"}},{"base_weights":[9.385798E-3,4.9623962E-2,-2.1689287E-1,1.6380277E-2,-5.004348E-1,-2.6457798E-1,2.709513E-2,-3.906411E-2,-1.7792793E-3,-4.865458E-3,-1.8579869E-2],"categories":[],"categories_nodes":[],"categories_segments":[],"categories_sizes":[],"default_left":[0,0,0,0,0,0,0,0,0,0,0],"id":30,"left_children":[1,-1,3,5,7,9,-1,-1,-1,-1,-1],"loss_changes":[5.470489E0,0E0,1.3326712E0,1.9084413E0,1.1563127E0,1.1531353E-1,0E0,0E0,0E0,0E0,0E0],"parents":[2147483647,0,0,2,2,3,3,4,4,5,5],"right_children":[2,-1,4,6,8,10,-1,-1,-1,-1,-1],"split_conditions":[-8.143056E-1,4.9623962E-2,7.208788E-1,2.447407E-1,1.3980504E0,-2.630742E-1,2.709513E-2,-3.906411E-2,-1.7792793E-3,-4.865458E-3,-1.8579869E-2],"split_indices":[4,0,4,4,4,4,0,0,0,0,0],"split_type":[0,0,0,0,0,0,0,0,0,0,0],"sum_hessian":[2.262398E1,3.5994904E0,1.9024488E1,1.0954405E1,8.070084E0,7.4617157E0,3.4926896E0,4.606349E0,3.4637341E0,3.6562884E0,3.8054273E0],"tree_param":{"num_deleted":"0","num_feature":"5","num_nodes":"11","size_leaf_vector":"1"}},{"base_weights":[-2.9417247E-2,4.715373E-2,-2.6450396E-1,-5.503163E-1,2.6012834E-2,-1.19772535E-2,-4.0353738E-2,3.1009419E-2,-3.6770996E-1,-7.6279403E-3,-2.499768E-2],"categories":[],"categories_nodes":[],"categories_segments":[],"categories_sizes":[],"default_left":[0,0,0,0,0,0,0,0,0,0,0],"id":31,"left_children":[1,-1,3,5,7,-1,-1,-1,9,-1,-1],"loss_changes":[5.748872E0,0E0,1.6876796E0,6.20867E-1,2.7894824E0,0E0,0E0,0E0,1.2895894E-1,0E0,0E0],"parents":[2147483647,0,0,2,2,3,3,4,4,8,8],"right_children":[2,-1,4,6,8,-1,-1,-1,10,-1,-1],"split_conditions":[-8.3931834E-1,4.715373E-2,4.1006684E-1,-2.630742E-1,9.032037E-1,-1.19772535E-2,-4.0353738E-2,3.1009419E-2,1.5387704E0,-7.6279403E-3,-2.499768E-2],"split_indices":[4,0,4,4,4,0,0,0,4,0,0],"split_type":[0,0,0,0,0,0,0,0,0,0,0],"sum_hessian":[2.3054884E1,3.901948E0,1.9152935E1,9.203855E0,9.949081E0,5.038451E0,4.1654034E0,3.7359257E0,6.2131557E0,3.1850007E0,3.028155E0],"tree_param":{"num_deleted":"0","num_feature":"5","num_nodes":"11","size_leaf_vector":"1"}},{"base_weights":[-1.17615415E-2,4.5494225E-2,-2.1580517E-1,5.9564956E-2,-5.80377E-1,-2.1885587E-2,2.2297818E-2,-3.8526677E-2,-9.199344E-3],"categories":[],"categories_nodes":[],"categories_segments":[],"categories_sizes":[],"default_left":[0,0,0,0,0,0,0,0,0],"id":32,"left_children":[1,-1,3,5,7,-1,-1,-1,-1],"loss_changes":[4.5838895E0,0E0,2.0334063E0,2.5489013E0,5.1103234E-1,0E0,0E0,0E0,0E0],"parents":[2147483647,0,0,2,2,3,3,4,4],"right_children":[2,-1,4,6,8,-1,-1,-1,-1],"split_conditions":[-8.3931834E-1,4.5494225E-2,7.208788E-1,-2.172017E-1,1.3980504E0,-2.1885587E-2,2.2297818E-2,-3.8526677E-2,-9.199344E-3],"split_indices":[4,0,4,4,4,0,0,0,0],"split_type":[0,0,0,0,0,0,0,0,0],"sum_hessian":[2.2330982E1,3.4207063E0,1.8910276E1,1.1249709E1,7.6605673E0,4.8609548E0,6.3887544E0,4.5391617E0,3.1214054E0],"tree_param":{"num_deleted":"0","num_feature":"5","num_nodes":"9","size_leaf_vector":"1"}},{"base_weights":[-3.1117301E-2,4.5655828E-2,-2.5698367E-1,-5.6855015E-2,-2.6717177E-2,-2.8547987E-1,2.2742491E-2,-2.3651018E-4,-3.042385E-2],"categories":[],"categories_nodes":[],"categories_segments":[],"categories_sizes":[],"default_left":[0,0,0,0,0,0,0,0,0],"id":33,"left_children":[1,-1,3,5,-1,7,-1,-1,-1],"loss_changes":[5.086727E0,0E0,1.03201E0,1.5614016E0,0E0,8.198016E-1,0E0,0E0,0E0],"parents":[2147483647,0,0,2,2,3,3,5,5],"right_children":[2,-1,4,6,-1,8,-1,-1,-1],"split_conditions":[-8.3931834E-1,4.5655828E-2,7.208788E-1,1.5871434E-1,-2.6717177E-2,-2.630742E-1,2.2742491E-2,-2.3651018E-4,-3.042385E-2],"split_indices":[4,0,4,4,0,4,0,0,0],"split_type":[0,0,0,0,0,0,0,0,0],"sum_hessian":[2.1750767E1,3.6112432E0,1.8139524E1,1.12366905E1,6.902833E0,8.0722065E0,3.1644843E0,4.8613544E0,3.2108521E0],"tree_param":{"num_deleted":"0","num_feature":"5","num_nodes":"9","size_leaf_vector":"1"}},{"base_weights":[-1.0791366E-3,4.4650655E-2,-1.9521749E-1,-2.7518636E-2,-7.123363E-2,2.6980871E-2,-3.3337894E-1,-4.7728243E-1,5.1997195E-4,-1.0439611E-2,-3.2650363E-2],"categories":[],"categories_nodes":[],"categories_segments":[],"categories_sizes":[],"default_left":[0,0,0,0,0,0,0,0,0,0,0],"id":34,"left_children":[1,-1,3,-1,5,-1,7,9,-1,-1,-1],"loss_changes":[4.2320266E0,0E0,8.4265685E-1,0E0,2.7409568E0,0E0,5.8916664E-1,2.5741458E-1,0E0,0E0,0E0],"parents":[2147483647,0,0,2,2,4,4,6,6,7,7],"right_children":[2,-1,4,-1,6,-1,8,10,-1,-1,-1],"split_conditions":[-8.3931834E-1,4.4650655E-2,-3.6766493E-1,-2.7518636E-2,-7.052349E-2,2.6980871E-2,1.3697374E0,5.0193536E-1,5.1997195E-4,-1.0439611E-2,-3.2650363E-2],"split_indices":[4,0,4,0,4,0,4,4,0,0,0],"split_type":[0,0,0,0,0,0,0,0,0,0,0],"sum_hessian":[2.2376837E1,3.3497746E0,1.9027061E1,4.033609E0,1.4993453E1,4.184429E0,1.0809025E1,7.3457823E0,3.463242E0,3.7714913E0,3.574291E0],"tree_param":{"num_deleted":"0","num_feature":"5","num_nodes":"11","size_leaf_vector":"1"}},{"base_weights":[1.19978964E-1,-3.3955115E-3,4.87965E-2],"categories":[],"categories_nodes":[],"categories_segments":[],"categories_sizes":[],"default_left":[0,0,0],"id":35,"left_children":[1,-1,-1],"loss_changes":[3.7194576E0,0E0,0E0],"parents":[2147483647,0,0],"right_children":[2,-1,-1],"split_conditions":[1.762291E0,-3.3955115E-3,4.87965E-2],"split_indices":[0,0,0],"split_type":[0,0,0],"sum_hessian":[2.1715412E1,1.8561625E1,3.153788E0],"tree_param":{"num_deleted":"0","num_feature":"5","num_nodes":"3","size_leaf_vector":"1"}},{"base_weights":[-3.3315364E-2,4.091279E-2,-2.731329E-1,-3.7025094E-2,-2.8913012E-2,-2.8386539E-2,4.6009105E-2],"categories":[],"categories_nodes":[],"categories_segments":[],"categories_sizes":[],"default_left":[0,0,0,0,0,0,0],"id":36,"left_children":[1,-1,3,5,-1,-1,-1],"loss_changes":[4.5728965E0,0E0,1.2297875E0,6.038972E0,0E0,0E0,0E0],"parents":[2147483647,0,0,2,2,3,3],"right_children":[2,-1,4,6,-1,-1,-1],"split_conditions":[-8.143056E-1,4.091279E-2,7.208788E-1,2.447407E-1,-2.8913012E-2,-2.8386539E-2,4.6009105E-2],"split_indices":[4,0,4,4,0,0,0],"split_type":[0,0,0,0,0,0,0],"sum_hessian":[2.0297466E1,3.9300845E0,1.6367382E1,9.859465E0,6.507918E0,6.6045713E0,3.2548933E0],"tree_param":{"num_deleted":"0","num_feature":"5","num_nodes":"7","size_leaf_vector":"1"}},{"base_weights":[-3.1800855E-2,3.9033327E-2,-2.3756343E-1,-3.4940052E-1,1.0751634E-2,3.95213E-4,-3.1099865E-2],"categories":[],"categories_nodes":[],"categories_segments":[],"categories_sizes":[],"default_left":[0,0,0,0,0,0,0],"id":37,"left_children":[1,-1,3,5,-1,-1,-1],"loss_changes":[3.7441328E0,0E0,9.736912E-1,1.4284837E0,0E0,0E0,0E0],"parents":[2147483647,0,0,2,2,3,3],"right_children":[2,-1,4,6,-1,-1,-1],"split_conditions":[-8.143056E-1,3.9033327E-2,1.2001098E0,-7.052349E-2,1.0751634E-2,3.95213E-4,-3.1099865E-2],"split_indices":[4,0,4,4,0,0,0],"split_type":[0,0,0,0,0,0,0],"sum_hessian":[2.0287075E1,3.5349746E0,1.6752102E1,1.3615662E1,3.1364396E0,6.312539E0,7.303123E0],"tree_param":{"num_deleted":"0","num_feature":"5","num_nodes":"7","size_leaf_vector":"1"}},{"base_weights":[-2.2045288E-3,2.940522E-1,-3.0296762E-2,3.7440192E-2,1.1440313E-1,-3.373424E-2,5.1363724E-1,4.258733E-2,5.2112597E-3],"categories":[],"categories_nodes":[],"categories_segments":[],"categories_sizes":[],"default_left":[0,0,0,0,0,0,0,0,0],"id":38,"left_children":[1,3,-1,-1,5,-1,7,-1,-1],"loss_changes":[4.1964526E0,1.2005539E0,0E0,0E0,4.2737107E0,0E0,1.1356897E0,0E0,0E0],"parents":[2147483647,0,0,1,1,4,4,6,6],"right_children":[2,4,-1,-1,6,-1,8,-1,-1],"split_conditions":[7.208788E-1,-8.143056E-1,-3.0296762E-2,3.7440192E-2,-3.6766493E-1,-3.373424E-2,-7.052349E-2,4.258733E-2,5.2112597E-3],"split_indices":[4,4,0,0,4,0,4,0,0],"split_type":[0,0,0,0,0,0,0,0,0],"sum_hessian":[2.1466127E1,1.4744027E1,6.7221007E0,3.2780483E0,1.1465979E1,3.6203647E0,7.8456144E0,3.7052512E0,4.1403627E0],"tree_param":{"num_deleted":"0","num_feature":"5","num_nodes":"9","size_leaf_vector":"1"}},{"base_weights":[-5.2203406E-2,3.207023E-2,-2.0251437E-1,-2.8388768E-2,-2.7450688E-2,1.5687257E-2,-3.0859894E-1,-3.3141326E-2,8.2680555E-3],"categories":[],"categories_nodes":[],"categories_segments":[],"categories_sizes":[],"default_left":[0,0,0,0,0,0,0,0,0],"id":39,"left_children":[1,-1,3,-1,5,-1,7,-1,-1],"loss_changes":[2.391215E0,0E0,1.1729228E0,0E0,1.4029087E0,0E0,1.4474738E0,0E0,0E0],"parents":[2147483647,0,0,2,2,4,4,6,6],"right_children":[2,-1,4,-1,6,-1,8,-1,-1],"split_conditions":[-7.8418493E-1,3.207023E-2,-1.1269214E-1,-2.8388768E-2,7.208788E-1,1.5687257E-2,1.3980504E0,-3.3141326E-2,8.2680555E-3],"split_indices":[4,0,4,0,4,0,4,0,0],"split_type":[0,0,0,0,0,0,0,0,0],"sum_hessian":[2.0689901E1,3.1031718E0,1.7586731E1,4.9712443E0,1.2615486E1,5.6467557E0,6.9687304E0,3.7600577E0,3.2086728E0],"tree_param":{"num_deleted":"0","num_feature":"5","num_nodes":"9","size_leaf_vector":"1"}},{"base_weights":[-2.0020597E-2,3.3631634E-2,-1.8262404E-1,1.4860852E-2,-2.6397282E-2,-3.03377E-2,2.9610917E-1,3.500531E-2,-7.1162084E-4],"categories":[],"categories_nodes":[],"categories_segments":[],"categories_sizes":[],"default_left":[0,0,0,0,0,0,0,0,0],"id":40,"left_children":[1,-1,3,5,-1,-1,7,-1,-1],"loss_changes":[2.5125656E0,0E0,1.23335E0,2.3484058E0,0E0,0E0,1.1650352E0,0E0,0E0],"parents":[2147483647,0,0,2,2,3,3,6,6],"right_children":[2,-1,4,6,-1,-1,8,-1,-1],"split_conditions":[-8.1981176E-1,3.3631634E-2,9.032037E-1,-3.6766493E-1,-2.6397282E-2,-3.03377E-2,-1.118288E-1,3.500531E-2,-7.1162084E-4],"split_indices":[4,0,4,4,0,0,4,0,0],"split_type":[0,0,0,0,0,0,0,0,0],"sum_hessian":[2.0217913E1,3.247532E0,1.697038E1,1.1404985E1,5.565397E0,3.1922083E0,8.212777E0,3.022379E0,5.1903977E0],"tree_param":{"num_deleted":"0","num_feature":"5","num_nodes":"9","size_leaf_vector":"1"}},{"base_weights":[-1.1772012E-2,4.2581107E-2,-2.0474084E-1,-2.940843E-2,-8.684924E-2,2.0955072E-1,-2.312818E-2,-6.4119836E-4,2.2878276E-2],"categories":[],"categories_nodes":[],"categories_segments":[],"categories_sizes":[],"default_left":[0,0,0,0,0,0,0,0,0],"id":41,"left_children":[1,-1,3,-1,5,7,-1,-1,-1],"loss_changes":[3.7256606E0,0E0,7.7286476E-1,0E0,1.7801067E0,5.0980914E-1,0E0,0E0,0E0],"parents":[2147483647,0,0,2,2,4,4,5,5],"right_children":[2,-1,4,-1,6,8,-1,-1,-1],"split_conditions":[-8.3931834E-1,4.2581107E-2,-3.6766493E-1,-2.940843E-2,7.208788E-1,2.447407E-1,-2.312818E-2,-6.4119836E-4,2.2878276E-2],"split_indices":[4,0,4,0,4,4,0,0,0],"split_type":[0,0,0,0,0,0,0,0,0],"sum_hessian":[2.0315275E1,3.0875385E0,1.7227737E1,3.1132417E0,1.4114495E1,8.1372795E0,5.977216E0,4.7904058E0,3.3468735E0],"tree_param":{"num_deleted":"0","num_feature":"5","num_nodes":"9","size_leaf_vector":"1"}},{"base_weights":[-8.0463305E-2],"categories":[],"categories_nodes":[],"categories_segments":[],"categories_sizes":[],"default_left":[0],"id":42,"left_children":[-1],"loss_changes":[0E0],"parents":[2147483647],"right_children":[-1],"split_conditions":[-4.0231654E-3],"split_indices":[0],"split_type":[0],"sum_hessian":[2.0212025E1],"tree_param":{"num_deleted":"0","num_feature":"5","num_nodes":"1","size_leaf_vector":"1"}},{"base_weights":[-1.22864634E-1],"categories":[],"categories_nodes":[],"categories_segments":[],"categories_sizes":[],"default_left":[0],"id":43,"left_children":[-1],"loss_changes":[0E0],"parents":[2147483647],"right_children":[-1],"split_conditions":[-6.143232E-3],"split_indices":[0],"split_type":[0],"sum_hessian":[1.9197681E1],"tree_param":{"num_deleted":"0","num_feature":"5","num_nodes":"1","size_leaf_vector":"1"}},{"base_weights":[8.915557E-2,3.252396E-2,-5.5050276E-2,-1.6553925E-1,1.6315749E-2,2.4585993E-4,-1.5453301E-2],"categories":[],"categories_nodes":[],"categories_segments":[],"categories_sizes":[],"default_left":[0,0,0,0,0,0,0],"id":44,"left_children":[1,-1,3,5,-1,-1,-1],"loss_changes":[1.6277058E0,0E0,7.5215745E-1,3.320427E-1,0E0,0E0,0E0],"parents":[2147483647,0,0,2,2,3,3],"right_children":[2,-1,4,6,-1,-1,-1],"split_conditions":[-8.1981176E-1,3.252396E-2,1.2001098E0,-7.052349E-2,1.6315749E-2,2.4585993E-4,-1.5453301E-2],"split_indices":[4,0,4,4,0,0,0],"split_type":[0,0,0,0,0,0,0],"sum_hessian":[1.866612E1,3.09766E0,1.5568461E1,1.2509999E1,3.0584617E0,6.159978E0,6.350022E0],"tree_param":{"num_deleted":"0","num_feature":"5","num_nodes":"7","size_leaf_vector":"1"}},{"base_weights":[-1.6212794E-1,3.1275257E-2,-3.4118885E-1,-1.7130986E-1,-3.5552293E-2,-3.051332E-2,1.5831193E-1,-2.0929724E-3,1.8608222E-2],"categories":[],"categories_nodes":[],"categories_segments":[],"categories_sizes":[],"default_left":[0,0,0,0,0,0,0,0,0],"id":45,"left_children":[1,-1,3,5,-1,-1,7,-1,-1],"loss_changes":[3.035813E0,0E0,9.433222E-1,1.9680396E0,0E0,0E0,3.6578536E-1,0E0,0E0],"parents":[2147483647,0,0,2,2,3,3,6,6],"right_children":[2,-1,4,6,-1,-1,8,-1,-1],"split_conditions":[-7.8418493E-1,3.1275257E-2,9.032037E-1,-1.1269214E-1,-3.5552293E-2,-3.051332E-2,3.3925745E-1,-2.0929724E-3,1.8608222E-2],"split_indices":[4,0,4,4,0,0,4,0,0],"split_type":[0,0,0,0,0,0,0,0,0],"sum_hessian":[1.9012136E1,3.0597956E0,1.595234E1,1.1934078E1,4.018262E0,4.753045E0,7.1810327E0,4.124581E0,3.056452E0],"tree_param":{"num_deleted":"0","num_feature":"5","num_nodes":"9","size_leaf_vector":"1"}},{"base_weights":[-2.2391757E-2,2.7770996E-2,-1.5559512E-1,1.1708161E-2,-3.8350552E-1,-1.9067317E-1,2.0252703E-2,-2.9730925E-2,-3.3188735E-3,-1.6673045E-2,-1.8295931E-3],"categories":[],"categories_nodes":[],"categories_segments":[],"categories_sizes":[],"default_left":[0,0,0,0,0,0,0,0,0,0,0],"id":46,"left_children":[1,-1,3,5,7,9,-1,-1,-1,-1,-1],"loss_changes":[1.6723028E0,0E0,6.7275345E-1,9.5903647E-1,4.5922196E-1,1.6367155E-1,0E0,0E0,0E0,0E0,0E0],"parents":[2147483647,0,0,2,2,3,3,4,4,5,5],"right_children":[2,-1,4,6,8,10,-1,-1,-1,-1,-1],"split_conditions":[-7.8418493E-1,2.7770996E-2,7.208788E-1,1.5871434E-1,1.3980504E0,-3.5841566E-1,2.0252703E-2,-2.9730925E-2,-3.3188735E-3,-1.6673045E-2,-1.8295931E-3],"split_indices":[4,0,4,4,4,4,0,0,0,0,0],"split_type":[0,0,0,0,0,0,0,0,0,0,0],"sum_hessian":[1.9604847E1,3.079E0,1.6525848E1,1.0077118E1,6.44873E0,6.993915E0,3.0832028E0,3.3461673E0,3.102563E0,3.0257514E0,3.9681635E0],"tree_param":{"num_deleted":"0","num_feature":"5","num_nodes":"11","size_leaf_vector":"1"}},{"base_weights":[-1.05460145E-1,2.6491296E-1,-4.4535685E-1,-3.516045E-3,3.309871E-2,-1.2688513E-2,-2.9055906E-2],"categories":[],"categories_nodes":[],"categories_segments":[],"categories_sizes":[],"default_left":[0,0,0,0,0,0,0],"id":47,"left_children":[1,3,5,-1,-1,-1,-1],"loss_changes":[2.7165685E0,1.4448739E0,1.4219809E-1,0E0,0E0,0E0,0E0],"parents":[2147483647,0,0,1,1,2,2],"right_children":[2,4,6,-1,-1,-1,-1],"split_conditions":[-7.052349E-2,-3.6766493E-1,9.032037E-1,-3.516045E-3,3.309871E-2,-1.2688513E-2,-2.9055906E-2],"split_indices":[4,4,4,0,0,0,0],"split_type":[0,0,0,0,0,0,0],"sum_hessian":[1.964196E1,9.50515E0,1.0136809E1,5.6000195E0,3.9051304E0,5.3940096E0,4.7427998E0],"tree_param":{"num_deleted":"0","num_feature":"5","num_nodes":"7","size_leaf_vector":"1"}},{"base_weights":[7.1011394E-2,3.5217676E-2,-9.1574624E-2,-2.9470447E-2,7.52821E-2,2.4989203E-2,-1.747039E-1,-1.6937561E-2,-2.287629E-4],"categories":[],"categories_nodes":[],"categories_segments":[],"categories_sizes":[],"default_left":[0,0,0,0,0,0,0,0,0],"id":48,"left_children":[1,-1,3,-1,5,-1,7,-1,-1],"loss_changes":[2.0641997E0,0E0,1.4015003E0,0E0,1.4799474E0,0E0,2.4964222E-1,0E0,0E0],"parents":[2147483647,0,0,2,2,4,4,6,6],"right_children":[2,-1,4,-1,6,-1,8,-1,-1],"split_conditions":[-8.143056E-1,3.5217676E-2,-3.6766493E-1,-2.9470447E-2,-7.052349E-2,2.4989203E-2,8.613749E-1,-1.6937561E-2,-2.287629E-4],"split_indices":[4,0,4,0,4,0,4,0,0],"split_type":[0,0,0,0,0,0,0,0,0],"sum_hessian":[1.8419722E1,3.0819633E0,1.5337757E1,3.2145097E0,1.2123248E1,4.122896E0,8.000351E0,3.5683782E0,4.431973E0],"tree_param":{"num_deleted":"0","num_feature":"5","num_nodes":"9","size_leaf_vector":"1"}},{"base_weights":[-7.571007E-2,1.22046106E-1,-2.9761298E-2,-8.79027E-2,3.273461E-2,2.7284374E-2,-3.6463836E-1,-5.713498E-3,-3.1384192E-2],"categories":[],"categories_nodes":[],"categories_segments":[],"categories_sizes":[],"default_left":[0,0,0,0,0,0,0,0,0],"id":49,"left_children":[1,3,-1,5,-1,-1,7,-1,-1],"loss_changes":[2.1623209E0,1.7978178E0,0E0,2.3107123E0,0E0,0E0,5.198144E-1,0E0,0E0],"parents":[2147483647,0,0,1,1,3,3,6,6],"right_children":[2,4,-1,6,-1,-1,8,-1,-1],"split_conditions":[9.032037E-1,2.5065613E-1,-2.9761298E-2,-7.319804E-1,3.273461E-2,2.7284374E-2,-2.0943522E-1,-5.713498E-3,-3.1384192E-2],"split_indices":[4,4,0,4,0,0,4,0,0],"split_type":[0,0,0,0,0,0,0,0,0],"sum_hessian":[1.9339956E1,1.4561955E1,4.778E0,1.1043858E1,3.518098E0,3.0618458E0,7.9820113E0,4.8244653E0,3.1575463E0],"tree_param":{"num_deleted":"0","num_feature":"5","num_nodes":"9","size_leaf_vector":"1"}},{"base_weights":[-8.675127E-2,3.4298312E-2,-2.5966293E-1,-3.384244E-2,-1.2528941E-1,1.0121761E-1,-2.2049746E-2,-1.3118743E-2,3.1050066E-2],"categories":[],"categories_nodes":[],"categories_segments":[],"categories_sizes":[],"default_left":[0,0,0,0,0,0,0,0,0],"id":50,"left_children":[1,-1,3,-1,5,7,-1,-1,-1],"loss_changes":[2.925548E0,0E0,8.978063E-1,0E0,1.0804548E0,1.9105773E0,0E0,0E0,0E0],"parents":[2147483647,0,0,2,2,4,4,5,5],"right_children":[2,-1,4,-1,6,8,-1,-1,-1],"split_conditions":[-8.143056E-1,3.4298312E-2,-3.00572E-1,-3.384244E-2,9.032037E-1,4.1006684E-1,-2.2049746E-2,-1.3118743E-2,3.1050066E-2],"split_indices":[4,0,4,0,4,4,0,0,0],"split_type":[0,0,0,0,0,0,0,0,0],"sum_hessian":[1.9562756E1,3.0345662E0,1.652819E1,3.0431461E0,1.34850445E1,8.247302E0,5.237742E0,5.1441526E0,3.1031494E0],"tree_param":{"num_deleted":"0","num_feature":"5","num_nodes":"9","size_leaf_vector":"1"}},{"base_weights":[1.0033622E-1,3.394955E-2,-2.9304098E-2,1.2803195E-1,-2.6394847E-1,-2.3990096E-1,4.3661367E-2,-2.8435484E-2,3.4129552E-3,-5.0023425E-4,-2.2783754E-2],"categories":[],"categories_nodes":[],"categories_segments":[],"categories_sizes":[],"default_left":[0,0,0,0,0,0,0,0,0,0,0],"id":51,"left_children":[1,-1,3,5,7,9,-1,-1,-1,-1,-1],"loss_changes":[1.658825E0,0E0,7.281216E-1,3.4809299E0,8.361806E-1,4.3059403E-1,0E0,0E0,0E0,0E0,0E0],"parents":[2147483647,0,0,2,2,3,3,4,4,5,5],"right_children":[2,-1,4,6,8,10,-1,-1,-1,-1,-1],"split_conditions":[-8.143056E-1,3.394955E-2,7.208788E-1,2.447407E-1,1.3980504E0,-2.630742E-1,4.3661367E-2,-2.8435484E-2,3.4129552E-3,-5.0023425E-4,-2.2783754E-2],"split_indices":[4,0,4,4,4,4,0,0,0,0,0],"split_type":[0,0,0,0,0,0,0,0,0,0,0],"sum_hessian":[2.0847425E1,3.0401394E0,1.7807285E1,1.0931647E1,6.8756385E0,7.772246E0,3.159401E0,3.2146583E0,3.66098E0,4.269586E0,3.5026598E0],"tree_param":{"num_deleted":"0","num_feature":"5","num_nodes":"11","size_leaf_vector":"1"}},{"base_weights":[1.9180775E-2,-6.499721E-2,1.5855096E-2,1.02835014E-1,-2.8993312E-2,-3.4045327E-2,2.0683588E-2,1.1479242E-2,-2.1481654E-2],"categories":[],"categories_nodes":[],"categories_segments":[],"categories_sizes":[],"default_left":[0,0,0,0,0,0,0,0,0],"id":52,"left_children":[1,3,-1,5,-1,7,-1,-1,-1],"loss_changes":[5.424968E-1,1.5334245E0,0E0,5.974953E-1,0E0,1.1878105E0,0E0,0E0,0E0],"parents":[2147483647,0,0,1,1,3,3,5,5],"right_children":[2,4,-1,6,-1,8,-1,-1,-1],"split_conditions":[1.3980504E0,7.208788E-1,1.5855096E-2,2.447407E-1,-2.8993312E-2,-2.630742E-1,2.0683588E-2,1.1479242E-2,-2.1481654E-2],"split_indices":[4,4,0,4,0,4,0,0,0],"split_type":[0,0,0,0,0,0,0,0,0],"sum_hessian":[1.9810179E1,1.6055508E1,3.754672E0,1.2712028E1,3.3434792E0,9.443813E0,3.268214E0,5.918923E0,3.524891E0],"tree_param":{"num_deleted":"0","num_feature":"5","num_nodes":"9","size_leaf_vector":"1"}},{"base_weights":[1.8364371E-1,3.7715605E-1,1.8731253E-2,-4.6726046E-3,4.846784E-2,-2.435042E-2,2.5248164E-1,2.9845217E-3,2.0956837E-2],"categories":[],"categories_nodes":[],"categories_segments":[],"categories_sizes":[],"default_left":[0,0,0,0,0,0,0,0,0],"id":53,"left_children":[1,3,5,-1,-1,-1,7,-1,-1],"loss_changes":[6.280537E-1,2.6279979E0,1.5175855E0,0E0,0E0,0E0,2.5536728E-1,0E0,0E0],"parents":[2147483647,0,0,1,1,2,2,6,6],"right_children":[2,4,6,-1,-1,-1,8,-1,-1],"split_conditions":[-7.052349E-2,-3.6766493E-1,4.1152108E-1,-4.6726046E-3,4.846784E-2,-2.435042E-2,1.3697374E0,2.9845217E-3,2.0956837E-2],"split_indices":[4,4,4,0,0,0,4,0,0],"split_type":[0,0,0,0,0,0,0,0,0],"sum_hessian":[1.8901804E1,8.104627E0,1.0797176E1,4.9852E0,3.1194267E0,3.0704756E0,7.726701E0,4.212144E0,3.514557E0],"tree_param":{"num_deleted":"0","num_feature":"5","num_nodes":"9","size_leaf_vector":"1"}},{"base_weights":[-3.183147E-3],"categories":[],"categories_nodes":[],"categories_segments":[],"categories_sizes":[],"default_left":[0],"id":54,"left_children":[-1],"loss_changes":[0E0],"parents":[2147483647],"right_children":[-1],"split_conditions":[-1.5915735E-4],"split_indices":[0],"split_type":[0],"sum_hessian":[1.9737562E1],"tree_param":{"num_deleted":"0","num_feature":"5","num_nodes":"1","size_leaf_vector":"1"}},{"base_weights":[4.0845685E-2,2.1239504E-1,-1.5425876E-2,4.7912274E-2,3.0211119E-2,2.6202878E-2,-1.9989423E-1,-1.656821E-2,-2.5582341E-3],"categories":[],"categories_nodes":[],"categories_segments":[],"categories_sizes":[],"default_left":[0,0,0,0,0,0,0,0,0],"id":55,"left_children":[1,3,-1,5,-1,-1,7,-1,-1],"loss_changes":[1.266021E0,8.7502766E-1,0E0,1.3985717E0,0E0,0E0,1.3821802E-1,0E0,0E0],"parents":[2147483647,0,0,1,1,3,3,6,6],"right_children":[2,4,-1,6,-1,-1,8,-1,-1],"split_conditions":[7.208788E-1,1.5871434E-1,-1.5425876E-2,-7.3596144E-1,3.0211119E-2,2.6202878E-2,-3.5841566E-1,-1.656821E-2,-2.5582341E-3],"split_indices":[4,4,0,4,0,0,4,0,0],"split_type":[0,0,0,0,0,0,0,0,0],"sum_hessian":[1.903058E1,1.302628E1,6.004301E0,9.965291E0,3.060989E0,3.0295014E0,6.93579E0,3.0297067E0,3.9060833E0],"tree_param":{"num_deleted":"0","num_feature":"5","num_nodes":"9","size_leaf_vector":"1"}},{"base_weights":[-2.3630254E-1,1.7777842E-2,-3.9120382E-1,-2.6705805E-2,3.2909196E-3],"categories":[],"categories_nodes":[],"categories_segments":[],"categories_sizes":[],"default_left":[0,0,0,0,0],"id":56,"left_children":[1,-1,3,-1,-1],"loss_changes":[1.6803231E0,0E0,9.3648934E-1,0E0,0E0],"parents":[2147483647,0,0,2,2],"right_children":[2,-1,4,-1,-1],"split_conditions":[-7.212613E-1,1.7777842E-2,9.914022E-1,-2.6705805E-2,3.2909196E-3],"split_indices":[4,0,4,0,0],"split_type":[0,0,0,0,0],"sum_hessian":[1.5810994E1,3.0109882E0,1.2800006E1,9.622373E0,3.1776333E0],"tree_param":{"num_deleted":"0","num_feature":"5","num_nodes":"5","size_leaf_vector":"1"}},{"base_weights":[1.21700846E-1,2.7173957E-1,-3.997604E-2,-1.0967484E-3,2.8644284E-2,-3.0960843E-1,2.0604583E-2,8.6551235E-4,-2.80078E-2],"categories":[],"categories_nodes":[],"categories_segments":[],"categories_sizes":[],"default_left":[0,0,0,0,0,0,0,0,0],"id":57,"left_children":[1,3,5,-1,-1,7,-1,-1,-1],"loss_changes":[5.1848507E-1,9.837992E-1,1.4615955E0,0E0,0E0,6.179791E-1,0E0,0E0,0E0],"parents":[2147483647,0,0,1,1,2,2,5,5],"right_children":[2,4,6,-1,-1,8,-1,-1,-1],"split_conditions":[-7.052349E-2,-3.6766493E-1,1.3980504E0,-1.0967484E-3,2.8644284E-2,5.0193536E-1,2.0604583E-2,8.6551235E-4,-2.80078E-2],"split_indices":[4,4,4,0,0,4,0,0,0],"split_type":[0,0,0,0,0,0,0,0,0],"sum_hessian":[1.9926136E1,9.98196E0,9.944176E0,5.5230765E0,4.4588842E0,6.4263535E0,3.517822E0,3.192125E0,3.2342284E0],"tree_param":{"num_deleted":"0","num_feature":"5","num_nodes":"9","size_leaf_vector":"1"}},{"base_weights":[1.4856762E-1,8.260652E-3,3.3399068E-2,3.458217E-1,-4.1499388E-1,6.127652E-3,2.9986436E-2,-3.4213576E-2,-4.058476E-3],"categories":[],"categories_nodes":[],"categories_segments":[],"categories_sizes":[],"default_left":[0,0,0,0,0,0,0,0,0],"id":58,"left_children":[1,3,-1,5,7,-1,-1,-1,-1],"loss_changes":[1.3796611E0,2.4262402E0,0E0,4.6130025E-1,6.2254E-1,0E0,0E0,0E0,0E0],"parents":[2147483647,0,0,1,1,3,3,4,4],"right_children":[2,4,-1,6,8,-1,-1,-1,-1],"split_conditions":[1.3980504E0,-1.12559E-1,3.3399068E-2,-4.237025E-1,4.105948E-1,6.127652E-3,2.9986436E-2,-3.4213576E-2,-4.058476E-3],"split_indices":[4,4,0,4,4,0,0,0,0],"split_type":[0,0,0,0,0,0,0,0,0],"sum_hessian":[1.8006987E1,1.4977171E1,3.0298142E0,8.433828E0,6.5433426E0,5.2766066E0,3.1572223E0,3.0407457E0,3.5025969E0],"tree_param":{"num_deleted":"0","num_feature":"5","num_nodes":"9","size_leaf_vector":"1"}},{"base_weights":[7.319498E-2,2.8655678E-2,-4.8116986E-2,-3.4215328E-1,3.1921932E-1,-1.7734657E-3,-3.280148E-2,2.2459313E-2,6.53872E-3],"categories":[],"categories_nodes":[],"categories_segments":[],"categories_sizes":[],"default_left":[0,0,0,0,0,0,0,0,0],"id":59,"left_children":[1,-1,3,5,7,-1,-1,-1,-1],"loss_changes":[1.2562535E0,0E0,1.9698125E0,9.441788E-1,1.4149606E-1,0E0,0E0,0E0,0E0],"parents":[2147483647,0,0,2,2,3,3,4,4],"right_children":[2,-1,4,6,8,-1,-1,-1,-1],"split_conditions":[-7.8418493E-1,2.8655678E-2,4.1006684E-1,-2.0943522E-1,9.114492E-1,-1.7734657E-3,-3.280148E-2,2.2459313E-2,6.53872E-3],"split_indices":[4,0,4,4,4,0,0,0,0],"split_type":[0,0,0,0,0,0,0,0,0],"sum_hessian":[1.9259783E1,3.0337214E0,1.622606E1,9.050276E0,7.1757855E0,5.1405363E0,3.9097395E0,3.427947E0,3.7478385E0],"tree_param":{"num_deleted":"0","num_feature":"5","num_nodes":"9","size_leaf_vector":"1"}},{"base_weights":[5.1361486E-2,-3.8290877E-2,1.8163377E-2,1.1688641E-1,-2.6719445E-2,1.3465427E-2,1.7670758E-2,9.846703E-3,-1.45459175E-2],"categories":[],"categories_nodes":[],"categories_segments":[],"categories_sizes":[],"default_left":[0,0,0,0,0,0,0,0,0],"id":60,"left_children":[1,3,-1,5,-1,7,-1,-1,-1],"loss_changes":[5.7022613E-1,1.3217217E0,0E0,3.2011276E-1,0E0,6.313749E-1,0E0,0E0,0E0],"parents":[2147483647,0,0,1,1,3,3,5,5],"right_children":[2,4,-1,6,-1,8,-1,-1,-1],"split_conditions":[1.3980504E0,7.208788E-1,1.8163377E-2,2.447407E-1,-2.6719445E-2,-2.6754066E-1,1.7670758E-2,9.846703E-3,-1.45459175E-2],"split_indices":[4,4,0,4,0,4,0,0,0],"split_type":[0,0,0,0,0,0,0,0,0],"sum_hessian":[1.8894648E1,1.5357592E1,3.5370562E0,1.2280647E1,3.076944E0,9.279962E0,3.000686E0,6.010259E0,3.2697022E0],"tree_param":{"num_deleted":"0","num_feature":"5","num_nodes":"9","size_leaf_vector":"1"}},{"base_weights":[-4.209988E-2,3.9404923E-1,-2.9356393E-1,2.8020635E-2,7.835607E-3,-5.013385E-1,1.409484E-2,-3.9158892E-2,-1.2803204E-2],"categories":[],"categories_nodes":[],"categories_segments":[],"categories_sizes":[],"default_left":[0,0,0,0,0,0,0,0,0],"id":61,"left_children":[1,3,5,-1,-1,7,-1,-1,-1],"loss_changes":[2.266466E0,2.1220016E-1,1.6971003E0,0E0,0E0,4.852059E-1,0E0,0E0,0E0],"parents":[2147483647,0,0,1,1,2,2,5,5],"right_children":[2,4,6,-1,-1,8,-1,-1,-1],"split_conditions":[-2.630742E-1,-7.319804E-1,1.2001098E0,2.8020635E-2,7.835607E-3,2.447407E-1,1.409484E-2,-3.9158892E-2,-1.2803204E-2],"split_indices":[4,4,4,0,0,4,0,0,0],"split_type":[0,0,0,0,0,0,0,0,0],"sum_hessian":[1.8610403E1,6.598568E0,1.2011835E1,3.0790381E0,3.5195296E0,8.920003E0,3.0918317E0,3.1301503E0,5.7898526E0],"tree_param":{"num_deleted":"0","num_feature":"5","num_nodes":"9","size_leaf_vector":"1"}},{"base_weights":[6.0202323E-2,3.3844075E-1,-2.1727757E-1,4.495462E-3,2.4217902E-2,-2.8370114E-3,-1.7434474E-2],"categories":[],"categories_nodes":[],"categories_segments":[],"categories_sizes":[],"default_left":[0,0,0,0,0,0,0],"id":62,"left_children":[1,3,5,-1,-1,-1,-1],"loss_changes":[1.5497867E0,3.1687033E-1,1.9503239E-1,0E0,0E0,0E0,0E0],"parents":[2147483647,0,0,1,1,2,2],"right_children":[2,4,6,-1,-1,-1,-1],"split_conditions":[-7.052349E-2,-5.433104E-1,9.032037E-1,4.495462E-3,2.4217902E-2,-2.8370114E-3,-1.7434474E-2],"split_indices":[4,4,4,0,0,0,0],"split_type":[0,0,0,0,0,0,0],"sum_hessian":[1.8121044E1,8.938457E0,9.182587E0,3.9044406E0,5.034016E0,4.777725E0,4.4048615E0],"tree_param":{"num_deleted":"0","num_feature":"5","num_nodes":"7","size_leaf_vector":"1"}},{"base_weights":[1.367523E-1,3.2808653E-1,-1.7616011E-2,1.4073955E-1,3.7187267E-2,2.0594886E-2,-1.4360766E-2],"categories":[],"categories_nodes":[],"categories_segments":[],"categories_sizes":[],"default_left":[0,0,0,0,0,0,0],"id":63,"left_children":[1,3,-1,5,-1,-1,-1],"loss_changes":[1.864306E0,9.816719E-1,0E0,1.3773191E0,0E0,0E0,0E0],"parents":[2147483647,0,0,1,1,3,3],"right_children":[2,4,-1,6,-1,-1,-1],"split_conditions":[9.032037E-1,2.5065613E-1,-1.7616011E-2,-2.630742E-1,3.7187267E-2,2.0594886E-2,-1.4360766E-2],"split_indices":[4,4,0,4,0,0,0],"split_type":[0,0,0,0,0,0,0],"sum_hessian":[1.7687576E1,1.2950333E1,4.7372437E0,9.849522E0,3.1008117E0,6.052252E0,3.7972698E0],"tree_param":{"num_deleted":"0","num_feature":"5","num_nodes":"7","size_leaf_vector":"1"}},{"base_weights":[2.4837323E-2,2.9107925E-1,-2.0317574E-1,1.137629E-3,2.8967341E-2,-2.3331728E-2,1.2513759E-2],"categories":[],"categories_nodes":[],"categories_segments":[],"categories_sizes":[],"default_left":[0,0,0,0,0,0,0],"id":64,"left_children":[1,3,5,-1,-1,-1,-1],"loss_changes":[1.2604737E0,7.2476286E-1,1.4606341E0,0E0,0E0,0E0,0E0],"parents":[2147483647,0,0,1,1,2,2],"right_children":[2,4,6,-1,-1,-1,-1],"split_conditions":[-7.052349E-2,-3.6766493E-1,1.3980504E0,1.137629E-3,2.8967341E-2,-2.3331728E-2,1.2513759E-2],"split_indices":[4,4,4,0,0,0,0],"split_type":[0,0,0,0,0,0,0],"sum_hessian":[1.8789162E1,8.540345E0,1.0248817E1,4.9819503E0,3.558395E0,6.464066E0,3.7847512E0],"tree_param":{"num_deleted":"0","num_feature":"5","num_nodes":"7","size_leaf_vector":"1"}},{"base_weights":[1.298748E-1,3.329816E-1,-4.9804404E-2,5.298478E-3,2.8585855E-2,-2.663414E-1,1.7774513E-2,-7.668401E-4,-2.6210746E-2],"categories":[],"categories_nodes":[],"categories_segments":[],"categories_sizes":[],"default_left":[0,0,0,0,0,0,0,0,0],"id":65,"left_children":[1,3,5,-1,-1,7,-1,-1,-1],"loss_changes":[7.687746E-1,4.708073E-1,1.1308165E0,0E0,0E0,5.2704436E-1,0E0,0E0,0E0],"parents":[2147483647,0,0,1,1,2,2,5,5],"right_children":[2,4,6,-1,-1,8,-1,-1,-1],"split_conditions":[-7.052349E-2,-3.6766493E-1,1.3980504E0,5.298478E-3,2.8585855E-2,5.0193536E-1,1.7774513E-2,-7.668401E-4,-2.6210746E-2],"split_indices":[4,4,4,0,0,4,0,0,0],"split_type":[0,0,0,0,0,0,0,0,0],"sum_hessian":[1.9611317E1,8.805033E0,1.0806284E1,5.2534447E0,3.5515876E0,7.2667294E0,3.5395544E0,4.219296E0,3.0474331E0],"tree_param":{"num_deleted":"0","num_feature":"5","num_nodes":"9","size_leaf_vector":"1"}},{"base_weights":[1.9232167E-1,3.8438928E-1,1.1546886E-2,9.866665E-3,2.6913438E-2,-1.7583843E-2,2.0092644E-1,1.8949805E-4,1.7065583E-2],"categories":[],"categories_nodes":[],"categories_segments":[],"categories_sizes":[],"default_left":[0,0,0,0,0,0,0,0,0],"id":66,"left_children":[1,3,5,-1,-1,-1,7,-1,-1],"loss_changes":[6.6049933E-1,1.6016245E-1,8.201965E-1,0E0,0E0,0E0,2.1453255E-1,0E0,0E0],"parents":[2147483647,0,0,1,1,2,2,6,6],"right_children":[2,4,6,-1,-1,-1,8,-1,-1],"split_conditions":[-1.118288E-1,-4.237025E-1,4.4387352E-1,9.866665E-3,2.6913438E-2,-1.7583843E-2,1.3980504E0,1.8949805E-4,1.7065583E-2],"split_indices":[4,4,4,0,0,0,4,0,0],"split_type":[0,0,0,0,0,0,0,0,0],"sum_hessian":[1.8150896E1,8.254454E0,9.896443E0,4.7557497E0,3.498704E0,3.0978584E0,6.798585E0,3.2548895E0,3.5436954E0],"tree_param":{"num_deleted":"0","num_feature":"5","num_nodes":"9","size_leaf_vector":"1"}},{"base_weights":[-1.4448883E-1],"categories":[],"categories_nodes":[],"categories_segments":[],"categories_sizes":[],"default_left":[0],"id":67,"left_children":[-1],"loss_changes":[0E0],"parents":[2147483647],"right_children":[-1],"split_conditions":[-7.2244415E-3],"split_indices":[0],"split_type":[0],"sum_hessian":[1.8473E1],"tree_param":{"num_deleted":"0","num_feature":"5","num_nodes":"1","size_leaf_vector":"1"}},{"base_weights":[-7.3435702E-3],"categories":[],"categories_nodes":[],"categories_segments":[],"categories_sizes":[],"default_left":[0],"id":68,"left_children":[-1],"loss_changes":[0E0],"parents":[2147483647],"right_children":[-1],"split_conditions":[-3.6717852E-4],"split_indices":[0],"split_type":[0],"sum_hessian":[1.7787596E1],"tree_param":{"num_deleted":"0","num_feature":"5","num_nodes":"1","size_leaf_vector":"1"}},{"base_weights":[1.0578033E-1,3.705666E-3,2.31309E-2,1.8188567E-1,-1.0456285E-2,-5.4499297E-3,2.2196459E-2],"categories":[],"categories_nodes":[],"categories_segments":[],"categories_sizes":[],"default_left":[0,0,0,0,0,0,0],"id":69,"left_children":[1,3,-1,5,-1,-1,-1],"loss_changes":[7.031992E-1,6.469325E-1,0E0,7.553294E-1,0E0,0E0,0E0],"parents":[2147483647,0,0,1,1,3,3],"right_children":[2,4,-1,6,-1,-1,-1],"split_conditions":[1.3697374E0,-7.052349E-2,2.31309E-2,-5.4408985E-1,-1.0456285E-2,-5.4499297E-3,2.2196459E-2],"split_indices":[4,4,0,4,0,0,0],"split_type":[0,0,0,0,0,0,0],"sum_hessian":[1.8352951E1,1.5056399E1,3.2965512E0,8.274489E0,6.7819095E0,4.1982355E0,4.076254E0],"tree_param":{"num_deleted":"0","num_feature":"5","num_nodes":"7","size_leaf_vector":"1"}},{"base_weights":[-9.969069E-2,1.6134104E-2,-2.0041202E-1,-2.3995435E-2,8.3694175E-2,1.5025164E-2,-5.4880246E-3],"categories":[],"categories_nodes":[],"categories_segments":[],"categories_sizes":[],"default_left":[0,0,0,0,0,0,0],"id":70,"left_children":[1,-1,3,-1,5,-1,-1],"loss_changes":[8.699837E-1,0E0,1.3028774E0,0E0,3.9945328E-1,0E0,0E0],"parents":[2147483647,0,0,2,2,4,4],"right_children":[2,-1,4,-1,6,-1,-1],"split_conditions":[-6.6804385E-1,1.6134104E-2,4.1006684E-1,-2.3995435E-2,9.114492E-1,1.5025164E-2,-5.4880246E-3],"split_indices":[4,0,4,0,4,0,0],"split_type":[0,0,0,0,0,0,0],"sum_hessian":[1.792989E1,3.028062E0,1.4901827E1,7.1644397E0,7.7373867E0,3.38754E0,4.349847E0],"tree_param":{"num_deleted":"0","num_feature":"5","num_nodes":"7","size_leaf_vector":"1"}},{"base_weights":[-7.376901E-2,-4.7726554E-1,1.591942E-1,1.9905115E-3,-4.2993866E-2,3.7716287E-1,-2.0367257E-2,-8.590973E-4,2.9153937E-2],"categories":[],"categories_nodes":[],"categories_segments":[],"categories_sizes":[],"default_left":[0,0,0,0,0,0,0,0,0],"id":71,"left_children":[1,3,5,-1,-1,7,-1,-1,-1],"loss_changes":[1.8540055E0,1.4534634E0,1.7270632E0,0E0,0E0,7.993547E-1,0E0,0E0,0E0],"parents":[2147483647,0,0,1,1,2,2,5,5],"right_children":[2,4,6,-1,-1,8,-1,-1,-1],"split_conditions":[-1.1269214E-1,-6.560924E-1,1.5387704E0,1.9905115E-3,-4.2993866E-2,4.1006684E-1,-2.0367257E-2,-8.590973E-4,2.9153937E-2],"split_indices":[4,4,4,0,0,4,0,0,0],"split_type":[0,0,0,0,0,0,0,0,0],"sum_hessian":[1.7915218E1,6.173658E0,1.174156E1,3.0065057E0,3.167152E0,8.720666E0,3.0208943E0,3.3059928E0,5.4146733E0],"tree_param":{"num_deleted":"0","num_feature":"5","num_nodes":"9","size_leaf_vector":"1"}},{"base_weights":[-3.0409599E-2,1.2143617E-1,-1.9878246E-2,-1.0495643E-1,1.7493868E-2,3.121213E-3,-1.1282205E-2],"categories":[],"categories_nodes":[],"categories_segments":[],"categories_sizes":[],"default_left":[0,0,0,0,0,0,0],"id":72,"left_children":[1,3,-1,5,-1,-1,-1],"loss_changes":[1.0975331E0,7.649058E-1,0E0,1.724796E-1,0E0,0E0,0E0],"parents":[2147483647,0,0,1,1,3,3],"right_children":[2,4,-1,6,-1,-1,-1],"split_conditions":[9.032037E-1,-1.1269214E-1,-1.9878246E-2,-6.5229964E-1,1.7493868E-2,3.121213E-3,-1.1282205E-2],"split_indices":[4,4,0,4,0,0,0],"split_type":[0,0,0,0,0,0,0],"sum_hessian":[1.7820375E1,1.3080058E1,4.740317E0,6.8409796E0,6.239079E0,3.0683177E0,3.7726622E0],"tree_param":{"num_deleted":"0","num_feature":"5","num_nodes":"7","size_leaf_vector":"1"}},{"base_weights":[2.2671187E-1,3.222107E-1,-7.7728386E-4,6.1754015E-4,2.7031422E-2],"categories":[],"categories_nodes":[],"categories_segments":[],"categories_sizes":[],"default_left":[0,0,0,0,0],"id":73,"left_children":[1,3,-1,-1,-1],"loss_changes":[4.477014E-1,9.25305E-1,0E0,0E0,0E0],"parents":[2147483647,0,0,1,1],"right_children":[2,4,-1,-1,-1],"split_conditions":[4.474611E-1,-3.6766493E-1,-7.7728386E-4,6.1754015E-4,2.7031422E-2],"split_indices":[4,4,0,0,0],"split_type":[0,0,0,0,0],"sum_hessian":[1.8134918E1,1.2770648E1,5.36427E0,5.716889E0,7.0537586E0],"tree_param":{"num_deleted":"0","num_feature":"5","num_nodes":"5","size_leaf_vector":"1"}},{"base_weights":[1.88497E-1,4.4831574E-1,-5.057496E-2,2.2550249E-3,4.5492176E-2,-3.084207E-2,1.3563818E-2],"categories":[],"categories_nodes":[],"categories_segments":[],"categories_sizes":[],"default_left":[0,0,0,0,0,0,0],"id":74,"left_children":[1,3,5,-1,-1,-1,-1],"loss_changes":[1.1435726E0,1.5870879E0,2.0439196E0,0E0,0E0,0E0,0E0],"parents":[2147483647,0,0,1,1,2,2],"right_children":[2,4,6,-1,-1,-1,-1],"split_conditions":[-7.052349E-2,-3.6766493E-1,4.182071E-1,2.2550249E-3,4.5492176E-2,-3.084207E-2,1.3563818E-2],"split_indices":[4,4,4,0,0,0,0],"split_type":[0,0,0,0,0,0,0],"sum_hessian":[1.7045437E1,7.7488766E0,9.29656E0,4.721576E0,3.0273004E0,3.0368948E0,6.2596655E0],"tree_param":{"num_deleted":"0","num_feature":"5","num_nodes":"7","size_leaf_vector":"1"}},{"base_weights":[-5.2122907E-3,7.899355E-2,-1.9359369E-2,-7.272116E-2,1.951507E-2,1.2622386E-1,-2.6983041E-2,-5.570218E-3,1.6828027E-2],"categories":[],"categories_nodes":[],"categories_segments":[],"categories_sizes":[],"default_left":[0,0,0,0,0,0,0,0,0],"id":75,"left_children":[1,3,-1,5,-1,7,-1,-1,-1],"loss_changes":[7.155661E-1,8.9174724E-1,0E0,1.2881393E0,0E0,5.3830945E-1,0E0,0E0,0E0],"parents":[2147483647,0,0,1,1,3,3,5,5],"right_children":[2,4,-1,6,-1,8,-1,-1,-1],"split_conditions":[1.5387704E0,4.1006684E-1,-1.9359369E-2,-1.118288E-1,1.951507E-2,-5.433104E-1,-2.6983041E-2,-5.570218E-3,1.6828027E-2],"split_indices":[4,4,0,4,0,4,0,0,0],"split_type":[0,0,0,0,0,0,0,0,0],"sum_hessian":[2.0296154E1,1.728E1,3.0161538E0,1.2133288E1,5.1467123E0,9.019924E0,3.1133642E0,4.4560485E0,4.563876E0],"tree_param":{"num_deleted":"0","num_feature":"5","num_nodes":"9","size_leaf_vector":"1"}},{"base_weights":[-7.77128E-2],"categories":[],"categories_nodes":[],"categories_segments":[],"categories_sizes":[],"default_left":[0],"id":76,"left_children":[-1],"loss_changes":[0E0],"parents":[2147483647],"right_children":[-1],"split_conditions":[-3.8856398E-3],"split_indices":[0],"split_type":[0],"sum_hessian":[1.7410252E1],"tree_param":{"num_deleted":"0","num_feature":"5","num_nodes":"1","size_leaf_vector":"1"}},{"base_weights":[3.8090475E-2,2.0668435E-1,-2.7224472E-1,-2.4503744E-3,3.351715E-2,-4.3703567E-2,1.6992094E-2,1.7684612E-2,-1.9838625E-1,-1.8207243E-2,5.983115E-4],"categories":[],"categories_nodes":[],"categories_segments":[],"categories_sizes":[],"default_left":[0,0,0,0,0,0,0,0,0,0,0],"id":77,"left_children":[1,3,5,7,-1,-1,-1,-1,9,-1,-1],"loss_changes":[1.1379613E0,1.3557818E0,3.1369507E0,8.1126773E-1,0E0,0E0,0E0,0E0,2.655789E-1,0E0,0E0],"parents":[2147483647,0,0,1,1,2,2,3,3,8,8],"right_children":[2,4,6,8,-1,-1,-1,-1,10,-1,-1],"split_conditions":[7.208788E-1,2.447407E-1,1.3980504E0,-6.882648E-1,3.351715E-2,-4.3703567E-2,1.6992094E-2,1.7684612E-2,-2.172017E-1,-1.8207243E-2,5.983115E-4],"split_indices":[4,4,4,4,0,0,0,0,4,0,0],"split_type":[0,0,0,0,0,0,0,0,0,0,0],"sum_hessian":[1.9674309E1,1.296493E1,6.70938E0,9.620353E0,3.3445764E0,3.1672254E0,3.5421548E0,3.1285696E0,6.4917836E0,3.221842E0,3.2699413E0],"tree_param":{"num_deleted":"0","num_feature":"5","num_nodes":"11","size_leaf_vector":"1"}},{"base_weights":[-1.8693458E-2,1.08686194E-1,-1.5022528E-2,-7.0789917E-3,2.6588124E-1,2.5892932E-2,3.2283325E-4],"categories":[],"categories_nodes":[],"categories_segments":[],"categories_sizes":[],"default_left":[0,0,0,0,0,0,0],"id":78,"left_children":[1,3,-1,-1,5,-1,-1],"loss_changes":[7.1412104E-1,5.809517E-1,0E0,0E0,5.738605E-1,0E0,0E0],"parents":[2147483647,0,0,1,1,4,4],"right_children":[2,4,-1,-1,6,-1,-1],"split_conditions":[9.032037E-1,-4.237025E-1,-1.5022528E-2,-7.0789917E-3,-7.052349E-2,2.5892932E-2,3.2283325E-4],"split_indices":[4,4,0,0,4,0,0],"split_type":[0,0,0,0,0,0,0],"sum_hessian":[1.798757E1,1.2810378E1,5.1771917E0,4.980459E0,7.8299193E0,3.4666262E0,4.363293E0],"tree_param":{"num_deleted":"0","num_feature":"5","num_nodes":"7","size_leaf_vector":"1"}},{"base_weights":[-1.15190476E-1],"categories":[],"categories_nodes":[],"categories_segments":[],"categories_sizes":[],"default_left":[0],"id":79,"left_children":[-1],"loss_changes":[0E0],"parents":[2147483647],"right_children":[-1],"split_conditions":[-5.7595237E-3],"split_indices":[0],"split_type":[0],"sum_hessian":[1.8375456E1],"tree_param":{"num_deleted":"0","num_feature":"5","num_nodes":"1","size_leaf_vector":"1"}},{"base_weights":[1.00017965E-1,1.8914765E-1,-5.692715E-3,2.5879126E-2,1.9816875E-2,1.6554376E-2,-1.0243382E-2],"categories":[],"categories_nodes":[],"categories_segments":[],"categories_sizes":[],"default_left":[0,0,0,0,0,0,0],"id":80,"left_children":[1,3,-1,5,-1,-1,-1],"loss_changes":[3.7847883E-1,4.49552E-1,0E0,6.7856133E-1,0E0,0E0,0E0],"parents":[2147483647,0,0,1,1,3,3],"right_children":[2,4,-1,6,-1,-1,-1],"split_conditions":[7.208788E-1,-1.1269214E-1,-5.692715E-3,-7.212613E-1,1.9816875E-2,1.6554376E-2,-1.0243382E-2],"split_indices":[4,4,0,4,0,0,0],"split_type":[0,0,0,0,0,0,0],"sum_hessian":[1.7725039E1,1.259272E1,5.1323185E0,7.6719894E0,4.9207306E0,3.1158316E0,4.556158E0],"tree_param":{"num_deleted":"0","num_feature":"5","num_nodes":"7","size_leaf_vector":"1"}},{"base_weights":[1.2287549E-1,2.4748491E-1,-6.240965E-3,-2.6319332E-3,2.2408646E-2,-8.602887E-3,1.1667154E-2],"categories":[],"categories_nodes":[],"categories_segments":[],"categories_sizes":[],"default_left":[0,0,0,0,0,0,0],"id":81,"left_children":[1,3,5,-1,-1,-1,-1],"loss_changes":[3.1912434E-1,6.3007736E-1,4.6401557E-1,0E0,0E0,0E0,0E0],"parents":[2147483647,0,0,1,1,2,2],"right_children":[2,4,6,-1,-1,-1,-1],"split_conditions":[-7.052349E-2,-5.433104E-1,1.3980504E0,-2.6319332E-3,2.2408646E-2,-8.602887E-3,1.1667154E-2],"split_indices":[4,4,4,0,0,0,0],"split_type":[0,0,0,0,0,0,0],"sum_hessian":[1.8738787E1,9.069304E0,9.669481E0,3.9299207E0,5.139384E0,5.8810434E0,3.7884383E0],"tree_param":{"num_deleted":"0","num_feature":"5","num_nodes":"7","size_leaf_vector":"1"}},{"base_weights":[-6.836038E-2],"categories":[],"categories_nodes":[],"categories_segments":[],"categories_sizes":[],"default_left":[0],"id":82,"left_children":[-1],"loss_changes":[0E0],"parents":[2147483647],"right_children":[-1],"split_conditions":[-3.418019E-3],"split_indices":[0],"split_type":[0],"sum_hessian":[1.7774233E1],"tree_param":{"num_deleted":"0","num_feature":"5","num_nodes":"1","size_leaf_vector":"1"}},{"base_weights":[1.0724878E-1,3.2012647E-1,-1.6318979E-2,9.35412E-2,4.186245E-2,1.3699035E-2,-1.1063645E-2],"categories":[],"categories_nodes":[],"categories_segments":[],"categories_sizes":[],"default_left":[0,0,0,0,0,0,0],"id":83,"left_children":[1,3,-1,5,-1,-1,-1],"loss_changes":[1.9264288E0,1.5320005E0,0E0,6.674035E-1,0E0,0E0,0E0],"parents":[2147483647,0,0,1,1,3,3],"right_children":[2,4,-1,6,-1,-1,-1],"split_conditions":[7.208788E-1,2.447407E-1,-1.6318979E-2,-2.630742E-1,4.186245E-2,1.3699035E-2,-1.1063645E-2],"split_indices":[4,4,0,4,0,0,0],"split_type":[0,0,0,0,0,0,0],"sum_hessian":[1.8737299E1,1.2743154E1,5.9941454E0,9.6818075E0,3.0613465E0,6.2368097E0,3.444997E0],"tree_param":{"num_deleted":"0","num_feature":"5","num_nodes":"7","size_leaf_vector":"1"}},{"base_weights":[1.7167678E-2,1.5218107E-1,-2.3600245E-1,-5.6387E-2,2.3197776E-2,-3.182318E-3,-1.8311452E-2,1.9107843E-2,-1.6904006E-2],"categories":[],"categories_nodes":[],"categories_segments":[],"categories_sizes":[],"default_left":[0,0,0,0,0,0,0,0,0],"id":84,"left_children":[1,3,5,7,-1,-1,-1,-1,-1],"loss_changes":[7.253779E-1,9.211262E-1,1.429565E-1,1.2580755E0,0E0,0E0,0E0,0E0,0E0],"parents":[2147483647,0,0,1,1,2,2,3,3],"right_children":[2,4,6,8,-1,-1,-1,-1,-1],"split_conditions":[7.208788E-1,-1.1269214E-1,1.5288641E0,-7.3596144E-1,2.3197776E-2,-3.182318E-3,-1.8311452E-2,1.9107843E-2,-1.6904006E-2],"split_indices":[4,4,4,4,0,0,0,0,0],"split_type":[0,0,0,0,0,0,0,0,0],"sum_hessian":[1.9170725E1,1.2763148E1,6.4075766E0,8.138122E0,4.6250267E0,3.3984425E0,3.0091343E0,3.0434277E0,5.094694E0],"tree_param":{"num_deleted":"0","num_feature":"5","num_nodes":"9","size_leaf_vector":"1"}},{"base_weights":[1.0835041E-1],"categories":[],"categories_nodes":[],"categories_segments":[],"categories_sizes":[],"default_left":[0],"id":85,"left_children":[-1],"loss_changes":[0E0],"parents":[2147483647],"right_children":[-1],"split_conditions":[5.4175206E-3],"split_indices":[0],"split_type":[0],"sum_hessian":[1.781774E1],"tree_param":{"num_deleted":"0","num_feature":"5","num_nodes":"1","size_leaf_vector":"1"}},{"base_weights":[-1.6113974E-1],"categories":[],"categories_nodes":[],"categories_segments":[],"categories_sizes":[],"default_left":[0],"id":86,"left_children":[-1],"loss_changes":[0E0],"parents":[2147483647],"right_children":[-1],"split_conditions":[-8.056987E-3],"split_indices":[0],"split_type":[0],"sum_hessian":[1.8781239E1],"tree_param":{"num_deleted":"0","num_feature":"5","num_nodes":"1","size_leaf_vector":"1"}},{"base_weights":[-5.7069883E-2],"categories":[],"categories_nodes":[],"categories_segments":[],"categories_sizes":[],"default_left":[0],"id":87,"left_children":[-1],"loss_changes":[0E0],"parents":[2147483647],"right_children":[-1],"split_conditions":[-2.8534941E-3],"split_indices":[0],"split_type":[0],"sum_hessian":[1.87877E1],"tree_param":{"num_deleted":"0","num_feature":"5","num_nodes":"1","size_leaf_vector":"1"}},{"base_weights":[1.17276445E-1],"categories":[],"categories_nodes":[],"categories_segments":[],"categories_sizes":[],"default_left":[0],"id":88,"left_children":[-1],"loss_changes":[0E0],"parents":[2147483647],"right_children":[-1],"split_conditions":[5.8638225E-3],"split_indices":[0],"split_type":[0],"sum_hessian":[1.7786472E1],"tree_param":{"num_deleted":"0","num_feature":"5","num_nodes":"1","size_leaf_vector":"1"}},{"base_weights":[8.325624E-2,2.1571782E-1,-5.1865492E-2,-3.2800094E-3,2.7112553E-2,-1.2052398E-2,1.4713192E-2],"categories":[],"categories_nodes":[],"categories_segments":[],"categories_sizes":[],"default_left":[0,0,0,0,0,0,0],"id":89,"left_children":[1,3,5,-1,-1,-1,-1],"loss_changes":[3.5560533E-1,9.459844E-1,7.474842E-1,0E0,0E0,0E0,0E0],"parents":[2147483647,0,0,1,1,2,2],"right_children":[2,4,6,-1,-1,-1,-1],"split_conditions":[-7.052349E-2,-3.6766493E-1,1.3697374E0,-3.2800094E-3,2.7112553E-2,-1.2052398E-2,1.4713192E-2],"split_indices":[4,4,4,0,0,0,0],"split_type":[0,0,0,0,0,0,0],"sum_hessian":[1.8242853E1,8.910906E0,9.331947E0,5.216145E0,3.6947613E0,6.2302794E0,3.101668E0],"tree_param":{"num_deleted":"0","num_feature":"5","num_nodes":"7","size_leaf_vector":"1"}},{"base_weights":[-5.8020417E-2,6.8427897E-3,-1.709402E-1,-2.6884183E-2,2.1344379E-2,1.7881576E-2,-1.3318471E-2],"categories":[],"categories_nodes":[],"categories_segments":[],"categories_sizes":[],"default_left":[0,0,0,0,0,0,0],"id":90,"left_children":[1,-1,3,-1,5,-1,-1],"loss_changes":[4.185736E-1,0E0,8.4463537E-1,0E0,9.3825215E-1,0E0,0E0],"parents":[2147483647,0,0,2,2,4,4],"right_children":[2,-1,4,-1,6,-1,-1],"split_conditions":[-2.6754066E-1,6.8427897E-3,2.447407E-1,-2.6884183E-2,9.032037E-1,1.7881576E-2,-1.3318471E-2],"split_indices":[4,0,4,0,4,0,0],"split_type":[0,0,0,0,0,0,0],"sum_hessian":[1.695831E1,6.143656E0,1.0814653E1,3.1019769E0,7.712676E0,3.4441063E0,4.26857E0],"tree_param":{"num_deleted":"0","num_feature":"5","num_nodes":"7","size_leaf_vector":"1"}},{"base_weights":[5.779791E-2,-9.6253306E-2,2.488029E-1,9.762849E-3,-2.800701E-2,2.3886746E-2,2.226994E-3],"categories":[],"categories_nodes":[],"categories_segments":[],"categories_sizes":[],"default_left":[0,0,0,0,0,0,0],"id":91,"left_children":[1,3,5,-1,-1,-1,-1],"loss_changes":[5.875808E-1,1.6407387E0,3.9167207E-1,0E0,0E0,0E0,0E0],"parents":[2147483647,0,0,1,1,2,2],"right_children":[2,4,6,-1,-1,-1,-1],"split_conditions":[2.5065613E-1,-2.630742E-1,9.114492E-1,9.762849E-3,-2.800701E-2,2.3886746E-2,2.226994E-3],"split_indices":[4,4,4,0,0,0,0],"split_type":[0,0,0,0,0,0,0],"sum_hessian":[1.8155184E1,1.0324354E1,7.8308296E0,6.695766E0,3.6285884E0,3.061155E0,4.769675E0],"tree_param":{"num_deleted":"0","num_feature":"5","num_nodes":"7","size_leaf_vector":"1"}},{"base_weights":[1.6818509E-1,2.7759483E-1,-7.874098E-3,9.6116126E-2,3.3169143E-2,1.2133018E-2,-7.089484E-3],"categories":[],"categories_nodes":[],"categories_segments":[],"categories_sizes":[],"default_left":[0,0,0,0,0,0,0],"id":92,"left_children":[1,3,-1,5,-1,-1,-1],"loss_changes":[7.504953E-1,1.0011083E0,0E0,4.3580392E-1,0E0,0E0,0E0],"parents":[2147483647,0,0,1,1,3,3],"right_children":[2,4,-1,6,-1,-1,-1],"split_conditions":[9.032037E-1,2.447407E-1,-7.874098E-3,-2.630742E-1,3.3169143E-2,1.2133018E-2,-7.089484E-3],"split_indices":[4,4,0,4,0,0,0],"split_type":[0,0,0,0,0,0,0],"sum_hessian":[1.883599E1,1.4209753E1,4.6262383E0,1.051332E1,3.6964333E0,6.4934974E0,4.0198226E0],"tree_param":{"num_deleted":"0","num_feature":"5","num_nodes":"7","size_leaf_vector":"1"}},{"base_weights":[1.6231276E-2,-1.26192E-1,2.1516904E-1,6.553564E-3,-2.246832E-2,1.857872E-2,7.6550414E-4],"categories":[],"categories_nodes":[],"categories_segments":[],"categories_sizes":[],"default_left":[0,0,0,0,0,0,0],"id":93,"left_children":[1,3,5,-1,-1,-1,-1],"loss_changes":[5.0818354E-1,9.3391293E-1,2.2728685E-1,0E0,0E0,0E0,0E0],"parents":[2147483647,0,0,1,1,2,2],"right_children":[2,4,6,-1,-1,-1,-1],"split_conditions":[4.1006684E-1,-3.00572E-1,9.114492E-1,6.553564E-3,-2.246832E-2,1.857872E-2,7.6550414E-4],"split_indices":[4,4,4,0,0,0,0],"split_type":[0,0,0,0,0,0,0],"sum_hessian":[1.5977541E1,9.524467E0,6.4530735E0,5.6339674E0,3.8904996E0,3.1380894E0,3.3149843E0],"tree_param":{"num_deleted":"0","num_feature":"5","num_nodes":"7","size_leaf_vector":"1"}},{"base_weights":[-7.0816405E-2],"categories":[],"categories_nodes":[],"categories_segments":[],"categories_sizes":[],"default_left":[0],"id":94,"left_children":[-1],"loss_changes":[0E0],"parents":[2147483647],"right_children":[-1],"split_conditions":[-3.5408202E-3],"split_indices":[0],"split_type":[0],"sum_hessian":[1.9107977E1],"tree_param":{"num_deleted":"0","num_feature":"5","num_nodes":"1","size_leaf_vector":"1"}},{"base_weights":[-1.3863057E-1,9.1119766E-2,-3.4447482E-1,-2.0315635E-3,1.2973042E-2,-2.3225617E-2,-2.8161586E-3],"categories":[],"categories_nodes":[],"categories_segments":[],"categories_sizes":[],"default_left":[0,0,0,0,0,0,0],"id":95,"left_children":[1,3,5,-1,-1,-1,-1],"loss_changes":[9.150146E-1,2.2390951E-1,3.2194006E-1,0E0,0E0,0E0,0E0],"parents":[2147483647,0,0,1,1,2,2],"right_children":[2,4,6,-1,-1,-1,-1],"split_conditions":[-1.118288E-1,-3.6766493E-1,1.3980504E0,-2.0315635E-3,1.2973042E-2,-2.3225617E-2,-2.8161586E-3],"split_indices":[4,4,4,0,0,0,0],"split_type":[0,0,0,0,0,0,0],"sum_hessian":[1.7684164E1,8.62019E0,9.063974E0,5.261191E0,3.3589988E0,5.9664464E0,3.0975282E0],"tree_param":{"num_deleted":"0","num_feature":"5","num_nodes":"7","size_leaf_vector":"1"}},{"base_weights":[4.8802394E-2,1.9454913E-1,-8.653588E-2,-1.5096074E-3,1.7691882E-2,-1.27910795E-2,1.1220446E-2],"categories":[],"categories_nodes":[],"categories_segments":[],"categories_sizes":[],"default_left":[0,0,0,0,0,0,0],"id":96,"left_children":[1,3,5,-1,-1,-1,-1],"loss_changes":[3.853558E-1,3.437312E-1,6.037671E-1,0E0,0E0,0E0,0E0],"parents":[2147483647,0,0,1,1,2,2],"right_children":[2,4,6,-1,-1,-1,-1],"split_conditions":[-7.052349E-2,-5.433104E-1,1.3980504E0,-1.5096074E-3,1.7691882E-2,-1.27910795E-2,1.1220446E-2],"split_indices":[4,4,4,0,0,0,0],"split_type":[0,0,0,0,0,0,0],"sum_hessian":[1.76828E1,8.303355E0,9.379444E0,3.7802417E0,4.5231137E0,6.187888E0,3.1915565E0],"tree_param":{"num_deleted":"0","num_feature":"5","num_nodes":"7","size_leaf_vector":"1"}},{"base_weights":[1.5983601E-1,4.3126246E-1,-8.018229E-2,6.8319724E-3,3.6000688E-2,-2.2998817E-1,1.1284984E-2,-3.3279066E-3,-1.7922627E-2],"categories":[],"categories_nodes":[],"categories_segments":[],"categories_sizes":[],"default_left":[0,0,0,0,0,0,0,0,0],"id":97,"left_children":[1,3,5,-1,-1,7,-1,-1,-1],"loss_changes":[1.3078269E0,6.952388E-1,5.6583035E-1,0E0,0E0,1.445984E-1,0E0,0E0,0E0],"parents":[2147483647,0,0,1,1,2,2,5,5],"right_children":[2,4,6,-1,-1,8,-1,-1,-1],"split_conditions":[-7.052349E-2,-3.6766493E-1,1.3980504E0,6.8319724E-3,3.6000688E-2,5.0193536E-1,1.1284984E-2,-3.3279066E-3,-1.7922627E-2],"split_indices":[4,4,4,0,0,4,0,0,0],"split_type":[0,0,0,0,0,0,0,0,0],"sum_hessian":[1.8544127E1,8.328731E0,1.0215395E1,4.8516407E0,3.47709E0,7.023665E0,3.1917298E0,3.759281E0,3.264384E0],"tree_param":{"num_deleted":"0","num_feature":"5","num_nodes":"9","size_leaf_vector":"1"}},{"base_weights":[-1.02050535E-1,1.5042807E-2,-2.122523E-1,-3.9415774E-1,8.9525426E-4,-3.4213432E-3,-3.0875532E-2],"categories":[],"categories_nodes":[],"categories_segments":[],"categories_sizes":[],"default_left":[0,0,0,0,0,0,0],"id":98,"left_children":[1,-1,3,5,-1,-1,-1],"loss_changes":[8.309403E-1,0E0,5.9956217E-1,5.3599334E-1,0E0,0E0,0E0],"parents":[2147483647,0,0,2,2,3,3],"right_children":[2,-1,4,6,-1,-1,-1],"split_conditions":[-7.319804E-1,1.5042807E-2,4.1006684E-1,-2.630742E-1,8.9525426E-4,-3.4213432E-3,-3.0875532E-2],"split_indices":[4,0,4,4,0,0,0],"split_type":[0,0,0,0,0,0,0],"sum_hessian":[1.6276237E1,3.1241271E0,1.3152111E1,6.948104E0,6.204007E0,3.3577003E0,3.5904036E0],"tree_param":{"num_deleted":"0","num_feature":"5","num_nodes":"7","size_leaf_vector":"1"}},{"base_weights":[-1.603484E-2,1.3725459E-2,-8.95675E-2,-2.7348895E-2,8.405452E-2,1.5489796E-2,-6.4833327E-3],"categories":[],"categories_nodes":[],"categories_segments":[],"categories_sizes":[],"default_left":[0,0,0,0,0,0,0],"id":99,"left_children":[1,-1,3,-1,5,-1,-1],"loss_changes":[4.2440373E-1,0E0,1.291893E0,0E0,6.306344E-1,0E0,0E0],"parents":[2147483647,0,0,2,2,4,4],"right_children":[2,-1,4,-1,6,-1,-1],"split_conditions":[-6.720531E-1,1.3725459E-2,-1.1269214E-1,-2.7348895E-2,5.0193536E-1,1.5489796E-2,-6.4833327E-3],"split_indices":[4,0,4,0,4,0,0],"split_type":[0,0,0,0,0,0,0],"sum_hessian":[1.7714088E1,3.0257022E0,1.4688386E1,3.4496984E0,1.12386875E1,5.247024E0,5.9916635E0],"tree_param":{"num_deleted":"0","num_feature":"5","num_nodes":"7","size_leaf_vector":"1"}},{"base_weights":[1.3699867E-1],"categories":[],"categories_nodes":[],"categories_segments":[],"categories_sizes":[],"default_left":[0],"id":100,"left_children":[-1],"loss_changes":[0E0],"parents":[2147483647],"right_children":[-1],"split_conditions":[6.8499334E-3],"split_indices":[0],"split_type":[0],"sum_hessian":[1.700373E1],"tree_param":{"num_deleted":"0","num_feature":"5","num_nodes":"1","size_leaf_vector":"1"}},{"base_weights":[-6.1490264E-2,4.3502367E-1,-4.6955138E-1,9.094188E-3,3.296568E-2,-2.9406695E-2,-8.648774E-3],"categories":[],"categories_nodes":[],"categories_segments":[],"categories_sizes":[],"default_left":[0,0,0,0,0,0,0],"id":101,"left_children":[1,3,5,-1,-1,-1,-1],"loss_changes":[3.8185508E0,3.6644888E-1,2.5953746E-1,0E0,0E0,0E0,0E0],"parents":[2147483647,0,0,1,1,2,2],"right_children":[2,4,6,-1,-1,-1,-1],"split_conditions":[-7.052349E-2,-3.6766493E-1,1.3980504E0,9.094188E-3,3.296568E-2,-2.9406695E-2,-8.648774E-3],"split_indices":[4,4,4,0,0,0,0],"split_type":[0,0,0,0,0,0,0],"sum_hessian":[1.6838804E1,7.5663137E0,9.2724905E0,4.4052997E0,3.161014E0,5.9216905E0,3.3507996E0],"tree_param":{"num_deleted":"0","num_feature":"5","num_nodes":"7","size_leaf_vector":"1"}},{"base_weights":[-5.4106057E-2],"categories":[],"categories_nodes":[],"categories_segments":[],"categories_sizes":[],"default_left":[0],"id":102,"left_children":[-1],"loss_changes":[0E0],"parents":[2147483647],"right_children":[-1],"split_conditions":[-2.7053028E-3],"split_indices":[0],"split_type":[0],"sum_hessian":[1.859445E1],"tree_param":{"num_deleted":"0","num_feature":"5","num_nodes":"1","size_leaf_vector":"1"}},{"base_weights":[8.58528E-2,2.8244463E-1,-7.933246E-2,3.1485823E-3,2.3293888E-2,-1.4490979E-2,8.1426315E-3],"categories":[],"categories_nodes":[],"categories_segments":[],"categories_sizes":[],"default_left":[0,0,0,0,0,0,0],"id":103,"left_children":[1,3,5,-1,-1,-1,-1],"loss_changes":[5.9721893E-1,3.048615E-1,5.773237E-1,0E0,0E0,0E0,0E0],"parents":[2147483647,0,0,1,1,2,2],"right_children":[2,4,6,-1,-1,-1,-1],"split_conditions":[-7.052349E-2,-3.6766493E-1,8.613749E-1,3.1485823E-3,2.3293888E-2,-1.4490979E-2,8.1426315E-3],"split_indices":[4,4,4,0,0,0,0],"split_type":[0,0,0,0,0,0,0],"sum_hessian":[1.670064E1,7.301292E0,9.399348E0,3.9356647E0,3.3656273E0,4.923535E0,4.475813E0],"tree_param":{"num_deleted":"0","num_feature":"5","num_nodes":"7","size_leaf_vector":"1"}},{"base_weights":[-7.553849E-2,6.40419E-2,-1.3663477E-2,-1.6641948E-1,2.0284183E-2,5.1602735E-3,-1.9409515E-2],"categories":[],"categories_nodes":[],"categories_segments":[],"categories_sizes":[],"default_left":[0,0,0,0,0,0,0],"id":104,"left_children":[1,3,-1,5,-1,-1,-1],"loss_changes":[5.0265944E-1,9.4263005E-1,0E0,4.7934335E-1,0E0,0E0,0E0],"parents":[2147483647,0,0,1,1,3,3],"right_children":[2,4,-1,6,-1,-1,-1],"split_conditions":[7.208788E-1,-1.1269214E-1,-1.3663477E-2,-6.6804385E-1,2.0284183E-2,5.1602735E-3,-1.9409515E-2],"split_indices":[4,4,0,4,0,0,0],"split_type":[0,0,0,0,0,0,0],"sum_hessian":[1.6578611E1,1.0114675E1,6.463937E0,6.346439E0,3.7682357E0,3.1054814E0,3.2409573E0],"tree_param":{"num_deleted":"0","num_feature":"5","num_nodes":"7","size_leaf_vector":"1"}},{"base_weights":[-4.4639766E-2,1.0412337E-1,-2.2381088E-2,-7.1217045E-2,2.0013828E-2,4.0952624E-3,-1.4772395E-2],"categories":[],"categories_nodes":[],"categories_segments":[],"categories_sizes":[],"default_left":[0,0,0,0,0,0,0],"id":105,"left_children":[1,3,-1,5,-1,-1,-1],"loss_changes":[1.1295068E0,7.5573224E-1,0E0,3.5537395E-1,0E0,0E0,0E0],"parents":[2147483647,0,0,1,1,3,3],"right_children":[2,4,-1,6,-1,-1,-1],"split_conditions":[9.032037E-1,2.447407E-1,-2.2381088E-2,-2.630742E-1,2.0013828E-2,4.0952624E-3,-1.4772395E-2],"split_indices":[4,4,0,4,0,0,0],"split_type":[0,0,0,0,0,0,0],"sum_hessian":[1.7063711E1,1.3004603E1,4.059107E0,8.645485E0,4.3591185E0,5.51449E0,3.1309955E0],"tree_param":{"num_deleted":"0","num_feature":"5","num_nodes":"7","size_leaf_vector":"1"}},{"base_weights":[3.4659807E-2,-2.013087E-1,3.1135863E-1,1.8255573E-3,-1.526077E-2,2.398451E-2,6.0176067E-3],"categories":[],"categories_nodes":[],"categories_segments":[],"categories_sizes":[],"default_left":[0,0,0,0,0,0,0],"id":106,"left_children":[1,3,5,-1,-1,-1,-1],"loss_changes":[1.2672365E0,2.7220505E-1,2.2791606E-1,0E0,0E0,0E0,0E0],"parents":[2147483647,0,0,1,1,2,2],"right_children":[2,4,6,-1,-1,-1,-1],"split_conditions":[3.3925745E-1,-6.481335E-1,9.114492E-1,1.8255573E-3,-1.526077E-2,2.398451E-2,6.0176067E-3],"split_indices":[4,4,4,0,0,0,0],"split_type":[0,0,0,0,0,0,0],"sum_hessian":[1.7448717E1,9.564545E0,7.8841724E0,3.1054535E0,6.459091E0,3.3874629E0,4.4967093E0],"tree_param":{"num_deleted":"0","num_feature":"5","num_nodes":"7","size_leaf_vector":"1"}},{"base_weights":[-9.219181E-2,-1.9884324E-1,1.5677147E-2,5.446412E-3,-2.8789166E-1,-2.8860038E-2,-6.656851E-2,1.6398368E-2,-1.9490989E-2],"categories":[],"categories_nodes":[],"categories_segments":[],"categories_sizes":[],"default_left":[0,0,0,0,0,0,0,0,0],"id":107,"left_children":[1,3,-1,-1,5,-1,7,-1,-1],"loss_changes":[8.3112264E-1,4.3368924E-1,0E0,0E0,7.081933E-1,0E0,1.1145461E0,0E0,0E0],"parents":[2147483647,0,0,1,1,4,4,6,6],"right_children":[2,4,-1,-1,6,-1,8,-1,-1],"split_conditions":[1.3697374E0,-6.720531E-1,1.5677147E-2,5.446412E-3,-1.1269214E-1,-2.8860038E-2,3.3038926E-1,1.6398368E-2,-1.9490989E-2],"split_indices":[4,4,0,0,4,0,4,0,0],"split_type":[0,0,0,0,0,0,0,0,0],"sum_hessian":[1.6766068E1,1.3680049E1,3.0860195E0,3.0197754E0,1.0660274E1,3.9235432E0,6.73673E0,3.027277E0,3.709453E0],"tree_param":{"num_deleted":"0","num_feature":"5","num_nodes":"9","size_leaf_vector":"1"}},{"base_weights":[2.0322368E-1,9.161353E-2,2.4021557E-2,2.915163E-1,-1.2997423E-2,4.906479E-3,2.3868315E-2],"categories":[],"categories_nodes":[],"categories_segments":[],"categories_sizes":[],"default_left":[0,0,0,0,0,0,0],"id":108,"left_children":[1,3,-1,5,-1,-1,-1],"loss_changes":[4.8963124E-1,1.0268354E0,0E0,2.801674E-1,0E0,0E0,0E0],"parents":[2147483647,0,0,1,1,3,3],"right_children":[2,4,-1,6,-1,-1,-1],"split_conditions":[8.613749E-1,-7.052349E-2,2.4021557E-2,-3.6766493E-1,-1.2997423E-2,4.906479E-3,2.3868315E-2],"split_indices":[4,4,0,4,0,0,0],"split_type":[0,0,0,0,0,0,0],"sum_hessian":[1.624821E1,1.253273E1,3.7154806E0,8.098573E0,4.434158E0,4.717632E0,3.3809407E0],"tree_param":{"num_deleted":"0","num_feature":"5","num_nodes":"7","size_leaf_vector":"1"}},{"base_weights":[-4.2393543E-2,5.004803E-2,-1.4204288E-2,-1.328698E-1,1.3095825E-2,1.04216365E-2,-1.872397E-2],"categories":[],"categories_nodes":[],"categories_segments":[],"categories_sizes":[],"default_left":[0,0,0,0,0,0,0],"id":109,"left_children":[1,3,-1,5,-1,-1,-1],"loss_changes":[4.3216777E-1,5.921458E-1,0E0,7.692056E-1,0E0,0E0,0E0],"parents":[2147483647,0,0,1,1,3,3],"right_children":[2,4,-1,6,-1,-1,-1],"split_conditions":[9.032037E-1,-1.1269214E-1,-1.4204288E-2,-6.882648E-1,1.3095825E-2,1.04216365E-2,-1.872397E-2],"split_indices":[4,4,0,4,0,0,0],"split_type":[0,0,0,0,0,0,0],"sum_hessian":[1.7706572E1,1.338142E1,4.325152E0,7.3814607E0,5.9999595E0,3.1164367E0,4.265024E0],"tree_param":{"num_deleted":"0","num_feature":"5","num_nodes":"7","size_leaf_vector":"1"}},{"base_weights":[-5.400193E-4],"categories":[],"categories_nodes":[],"categories_segments":[],"categories_sizes":[],"default_left":[0],"id":110,"left_children":[-1],"loss_changes":[0E0],"parents":[2147483647],"right_children":[-1],"split_conditions":[-2.7000966E-5],"split_indices":[0],"split_type":[0],"sum_hessian":[1.7947832E1],"tree_param":{"num_deleted":"0","num_feature":"5","num_nodes":"1","size_leaf_vector":"1"}},{"base_weights":[1.3823257E-1,2.6083198E-1,-6.259446E-3,9.9933796E-2,3.0381827E-2,1.5918482E-2,-1.265031E-2],"categories":[],"categories_nodes":[],"categories_segments":[],"categories_sizes":[],"default_left":[0,0,0,0,0,0,0],"id":111,"left_children":[1,3,-1,5,-1,-1,-1],"loss_changes":[6.7208016E-1,7.112969E-1,0E0,9.014254E-1,0E0,0E0,0E0],"parents":[2147483647,0,0,1,1,3,3],"right_children":[2,4,-1,6,-1,-1,-1],"split_conditions":[7.208788E-1,2.447407E-1,-6.259446E-3,-2.630742E-1,3.0381827E-2,1.5918482E-2,-1.265031E-2],"split_indices":[4,4,0,4,0,0,0],"split_type":[0,0,0,0,0,0,0],"sum_hessian":[1.8799368E1,1.2835438E1,5.9639306E0,9.647627E0,3.1878111E0,6.019862E0,3.6277647E0],"tree_param":{"num_deleted":"0","num_feature":"5","num_nodes":"7","size_leaf_vector":"1"}},{"base_weights":[3.4040317E-2,-9.877625E-2,2.2829829E-1,5.077494E-3,-1.5403624E-2,1.7240137E-2,3.8863493E-3],"categories":[],"categories_nodes":[],"categories_segments":[],"categories_sizes":[],"default_left":[0,0,0,0,0,0,0],"id":112,"left_children":[1,3,5,-1,-1,-1,-1],"loss_changes":[5.205865E-1,5.412353E-1,1.1600265E-1,0E0,0E0,0E0,0E0],"parents":[2147483647,0,0,1,1,2,2],"right_children":[2,4,6,-1,-1,-1,-1],"split_conditions":[4.1006684E-1,-2.630742E-1,9.114492E-1,5.077494E-3,-1.5403624E-2,1.7240137E-2,3.8863493E-3],"split_indices":[4,4,4,0,0,0,0],"split_type":[0,0,0,0,0,0,0],"sum_hessian":[1.8303215E1,1.1162676E1,7.1405387E0,5.966599E0,5.196077E0,3.2984233E0,3.8421154E0],"tree_param":{"num_deleted":"0","num_feature":"5","num_nodes":"7","size_leaf_vector":"1"}},{"base_weights":[-3.8152277E-2,2.3957697E-1,-2.0330124E-1,-5.222536E-3,2.7372718E-2,-3.8239726E-1,1.1191859E-2,-4.756263E-3,-3.496406E-2],"categories":[],"categories_nodes":[],"categories_segments":[],"categories_sizes":[],"default_left":[0,0,0,0,0,0,0,0,0],"id":113,"left_children":[1,3,5,-1,-1,7,-1,-1,-1],"loss_changes":[8.909116E-1,8.3104587E-1,1.0078484E0,0E0,0E0,7.403374E-1,0E0,0E0,0E0],"parents":[2147483647,0,0,1,1,2,2,5,5],"right_children":[2,4,6,-1,-1,8,-1,-1,-1],"split_conditions":[-2.0943522E-1,-5.4475594E-1,1.3980504E0,-5.222536E-3,2.7372718E-2,4.474611E-1,1.1191859E-2,-4.756263E-3,-3.496406E-2],"split_indices":[4,4,4,0,0,4,0,0,0],"split_type":[0,0,0,0,0,0,0,0,0],"sum_hessian":[1.7362024E1,6.3062305E0,1.1055793E1,3.2903142E0,3.0159163E0,7.863451E0,3.1923418E0,4.806392E0,3.0570588E0],"tree_param":{"num_deleted":"0","num_feature":"5","num_nodes":"9","size_leaf_vector":"1"}},{"base_weights":[-6.6326275E-2,1.2685147E-2,-1.417154E-1,-3.5265604E-1,1.0263711E-1,-5.9703263E-3,-2.7779445E-2,2.1302583E-2,-1.776213E-2],"categories":[],"categories_nodes":[],"categories_segments":[],"categories_sizes":[],"default_left":[0,0,0,0,0,0,0,0,0],"id":114,"left_children":[1,-1,3,5,7,-1,-1,-1,-1],"loss_changes":[5.0494814E-1,0E0,8.801887E-1,3.602984E-1,1.3894732E0,0E0,0E0,0E0,0E0],"parents":[2147483647,0,0,2,2,3,3,4,4],"right_children":[2,-1,4,6,8,-1,-1,-1,-1],"split_conditions":[-7.319804E-1,1.2685147E-2,4.1006684E-1,-2.0943522E-1,1.5387704E0,-5.9703263E-3,-2.7779445E-2,2.1302583E-2,-1.776213E-2],"split_indices":[4,0,4,4,4,0,0,0,0],"split_type":[0,0,0,0,0,0,0,0,0],"sum_hessian":[1.8438797E1,3.064529E0,1.5374268E1,8.013381E0,7.3608866E0,4.467209E0,3.546172E0,4.354606E0,3.0062804E0],"tree_param":{"num_deleted":"0","num_feature":"5","num_nodes":"9","size_leaf_vector":"1"}},{"base_weights":[1.2587704E-2,9.695607E-2,-1.3505091E-2,-3.358898E-2,1.3144015E-2,1.2118009E-2,-1.05328495E-2],"categories":[],"categories_nodes":[],"categories_segments":[],"categories_sizes":[],"default_left":[0,0,0,0,0,0,0],"id":115,"left_children":[1,3,-1,5,-1,-1,-1],"loss_changes":[4.5959347E-1,3.2791394E-1,0E0,4.972223E-1,0E0,0E0,0E0],"parents":[2147483647,0,0,1,1,3,3],"right_children":[2,4,-1,6,-1,-1,-1],"split_conditions":[9.032037E-1,-1.1269214E-1,-1.3505091E-2,-7.319804E-1,1.3144015E-2,1.2118009E-2,-1.05328495E-2],"split_indices":[4,4,0,4,0,0,0],"split_type":[0,0,0,0,0,0,0],"sum_hessian":[1.7172098E1,1.37310915E1,3.4410055E0,8.131217E0,5.5998745E0,3.0340712E0,5.097146E0],"tree_param":{"num_deleted":"0","num_feature":"5","num_nodes":"7","size_leaf_vector":"1"}},{"base_weights":[4.248274E-2,2.5144628E-1,-1.457736E-1,-6.2910444E-3,3.5261154E-2,-1.687724E-2,1.16488645E-2],"categories":[],"categories_nodes":[],"categories_segments":[],"categories_sizes":[],"default_left":[0,0,0,0,0,0,0],"id":116,"left_children":[1,3,5,-1,-1,-1,-1],"loss_changes":[7.893722E-1,1.7040236E0,8.5573834E-1,0E0,0E0,0E0,0E0],"parents":[2147483647,0,0,1,1,2,2],"right_children":[2,4,6,-1,-1,-1,-1],"split_conditions":[-7.052349E-2,-4.237025E-1,1.3980504E0,-6.2910444E-3,3.5261154E-2,-1.687724E-2,1.16488645E-2],"split_indices":[4,4,4,0,0,0,0],"split_type":[0,0,0,0,0,0,0],"sum_hessian":[1.813428E1,8.435386E0,9.698893E0,5.0006237E0,3.434762E0,6.511002E0,3.1878905E0],"tree_param":{"num_deleted":"0","num_feature":"5","num_nodes":"7","size_leaf_vector":"1"}},{"base_weights":[-6.955342E-2],"categories":[],"categories_nodes":[],"categories_segments":[],"categories_sizes":[],"default_left":[0],"id":117,"left_children":[-1],"loss_changes":[0E0],"parents":[2147483647],"right_children":[-1],"split_conditions":[-3.477671E-3],"split_indices":[0],"split_type":[0],"sum_hessian":[1.7185032E1],"tree_param":{"num_deleted":"0","num_feature":"5","num_nodes":"1","size_leaf_vector":"1"}},{"base_weights":[-1.3286185E-2],"categories":[],"categories_nodes":[],"categories_segments":[],"categories_sizes":[],"default_left":[0],"id":118,"left_children":[-1],"loss_changes":[0E0],"parents":[2147483647],"right_children":[-1],"split_conditions":[-6.643093E-4],"split_indices":[0],"split_type":[0],"sum_hessian":[1.6249239E1],"tree_param":{"num_deleted":"0","num_feature":"5","num_nodes":"1","size_leaf_vector":"1"}},{"base_weights":[8.001648E-2,1.8340491E-1,-9.398895E-3,-1.6869428E-2,3.3641197E-2,8.745069E-3,-1.169213E-2],"categories":[],"categories_nodes":[],"categories_segments":[],"categories_sizes":[],"default_left":[0,0,0,0,0,0,0],"id":119,"left_children":[1,3,-1,5,-1,-1,-1],"loss_changes":[5.717577E-1,1.4325213E0,0E0,5.09599E-1,0E0,0E0,0E0],"parents":[2147483647,0,0,1,1,3,3],"right_children":[2,4,-1,6,-1,-1,-1],"split_conditions":[9.032037E-1,2.5065613E-1,-9.398895E-3,-2.630742E-1,3.3641197E-2,8.745069E-3,-1.169213E-2],"split_indices":[4,4,0,4,0,0,0],"split_type":[0,0,0,0,0,0,0],"sum_hessian":[1.8391186E1,1.3499074E1,4.892112E0,1.0264349E1,3.234725E0,5.551544E0,4.712805E0],"tree_param":{"num_deleted":"0","num_feature":"5","num_nodes":"7","size_leaf_vector":"1"}},{"base_weights":[7.978167E-2,1.948089E-1,-7.5632394E-3,6.23633E-2,2.389693E-2,1.2728981E-2,-1.4304005E-2],"categories":[],"categories_nodes":[],"categories_segments":[],"categories_sizes":[],"default_left":[0,0,0,0,0,0,0],"id":120,"left_children":[1,3,-1,5,-1,-1,-1],"loss_changes":[5.4564255E-1,4.7282457E-1,0E0,7.614806E-1,0E0,0E0,0E0],"parents":[2147483647,0,0,1,1,3,3],"right_children":[2,4,-1,6,-1,-1,-1],"split_conditions":[7.208788E-1,1.5747167E-1,-7.5632394E-3,-2.630742E-1,2.389693E-2,1.2728981E-2,-1.4304005E-2],"split_indices":[4,4,0,4,0,0,0],"split_type":[0,0,0,0,0,0,0],"sum_hessian":[1.842213E1,1.2403732E1,6.0183973E0,9.281972E0,3.1217606E0,6.155638E0,3.1263337E0],"tree_param":{"num_deleted":"0","num_feature":"5","num_nodes":"7","size_leaf_vector":"1"}},{"base_weights":[-1.3544548E-1,3.6972087E-2,-2.699625E-2,-6.8938336E-3,1.213076E-2],"categories":[],"categories_nodes":[],"categories_segments":[],"categories_sizes":[],"default_left":[0,0,0,0,0],"id":121,"left_children":[1,3,-1,-1,-1],"loss_changes":[1.2316818E0,5.0512826E-1,0E0,0E0,0E0],"parents":[2147483647,0,0,1,1],"right_children":[2,4,-1,-1,-1],"split_conditions":[9.032037E-1,-1.1269214E-1,-2.699625E-2,-6.8938336E-3,1.213076E-2],"split_indices":[4,4,0,0,0],"split_type":[0,0,0,0,0],"sum_hessian":[1.6374973E1,1.2118018E1,4.2569566E0,6.7274847E0,5.390533E0],"tree_param":{"num_deleted":"0","num_feature":"5","num_nodes":"5","size_leaf_vector":"1"}},{"base_weights":[-7.8382954E-2,2.7105726E-2,-1.3689023E-2,-2.0537014E-1,1.408597E-2,2.3595593E-3,-1.9284243E-2],"categories":[],"categories_nodes":[],"categories_segments":[],"categories_sizes":[],"default_left":[0,0,0,0,0,0,0],"id":122,"left_children":[1,3,-1,5,-1,-1,-1],"loss_changes":[4.088595E-1,8.603515E-1,0E0,3.672809E-1,0E0,0E0,0E0],"parents":[2147483647,0,0,1,1,3,3],"right_children":[2,4,-1,6,-1,-1,-1],"split_conditions":[7.208788E-1,-1.1269214E-1,-1.3689023E-2,-6.560924E-1,1.408597E-2,2.3595593E-3,-1.9284243E-2],"split_indices":[4,4,0,4,0,0,0],"split_type":[0,0,0,0,0,0,0],"sum_hessian":[1.8475746E1,1.2557594E1,5.918152E0,6.6652603E0,5.892334E0,3.0839498E0,3.5813105E0],"tree_param":{"num_deleted":"0","num_feature":"5","num_nodes":"7","size_leaf_vector":"1"}},{"base_weights":[-1.649837E-1,2.2301815E-2,-3.0222687E-1,-1.4088503E-2,2.0840053E-2,-3.0152598E-2,5.0830084E-4],"categories":[],"categories_nodes":[],"categories_segments":[],"categories_sizes":[],"default_left":[0,0,0,0,0,0,0],"id":123,