{"learner":{"attributes":{"scikit_learn":"{\"_estimator_type\": \"classifier\"}"},"feature_names":[],"feature_types":[],"gradient_booster":{"model":{"cats":{"enc":[],"feature_segments":[],"sorted_idx":[]},"gbtree_model_param":{"num_parallel_tree":"1","num_trees":"200"},"iteration_indptr":[0,1,2,3,4,5,6,7,8,9,10,11,12,13,14,15,16,17,18,19,20,21,22,23,24,25,26,27,28,29,30,31,32,33,34,35,36,37,38,39,40,41,42,43,44,45,46,47,48,49,50,51,52,53,54,55,56,57,58,59,60,61,62,63,64,65,66,67,68,69,70,71,72,73,74,75,76,77,78,79,80,81,82,83,84,85,86,87,88,89,90,91,92,93,94,95,96,97,98,99,100,101,102,103,104,105,106,107,108,109,110,111,112,113,114,115,116,117,118,119,120,121,122,123,124,125,126,127,128,129,130,131,132,133,134,135,136,137,138,139,140,141,142,143,144,145,146,147,148,149,150,151,152,153,154,155,156,157,158,159,160,161,162,163,164,165,166,167,168,169,170,171,172,173,174,175,176,177,178,179,180,181,182,183,184,185,186,187,188,189,190,191,192,193,194,195,196,197,198,199,200],"tree_info":[0,0,0,0,0,0,0,0,0,0,0,0,0,0,0,0,0,0,0,0,0,0,0,0,0,0,0,0,0,0,0,0,0,0,0,0,0,0,0,0,0,0,0,0,0,0,0,0,0,0,0,0,0,0,0,0,0,0,0,0,0,0,0,0,0,0,0,0,0,0,0,0,0,0,0,0,0,0,0,0,0,0,0,0,0,0,0,0,0,0,0,0,0,0,0,0,0,0,0,0,0,0,0,0,0,0,0,0,0,0,0,0,0,0,0,0,0,0,0,0,0,0,0,0,0,0,0,0,0,0,0,0,0,0,0,0,0,0,0,0,0,0,0,0,0,0,0,0,0,0,0,0,0,0,0,0,0,0,0,0,0,0,0,0,0,0,0,0,0,0,0,0,0,0,0,0,0,0,0,0,0,0,0,0,0,0,0,0,0,0,0,0,0,0,0,0,0,0,0,0],"trees":[{"base_weights":[7.3415083E-3,-1.0759572E-2,6.1205E-2],"categories":[],"categories_nodes":[],"categories_segments":[],"categories_sizes":[],"default_left":[0,0,0],"id":0,"left_children":[1,-1,-1],"loss_changes":[8.901349E0,0E0,0E0],"parents":[2147483647,0,0],"right_children":[2,-1,-1],"split_conditions":[1.8429465E0,-1.0759572E-2,6.1205E-2],"split_indices":[0,0,0],"split_type":[0,0,0],"sum_hessian":[3.09015E1,2.6819607E1,4.0818934E0],"tree_param":{"num_deleted":"0","num_feature":"5","num_nodes":"3","size_leaf_vector":"1"}},{"base_weights":[1.8667805E-1,8.696619E-2,-3.1719568E-1,-6.9688685E-2,2.1420315E-2,9.121067E-1,-8.3295435E-1,6.139038E-2,2.4539158E-2,-7.393102E-2,1.4932537E-2],"categories":[],"categories_nodes":[],"categories_segments":[],"categories_sizes":[],"default_left":[0,0,0,0,0,0,0,0,0,0,0],"id":1,"left_children":[1,-1,3,-1,5,7,9,-1,-1,-1,-1],"loss_changes":[2.4977003E1,0E0,8.931046E0,0E0,1.5644269E1,7.3467255E-1,8.117701E0,0E0,0E0,0E0,0E0],"parents":[2147483647,0,0,2,2,4,4,5,5,6,6],"right_children":[2,-1,4,-1,6,8,10,-1,-1,-1,-1],"split_conditions":[-9.0689266E-1,8.696619E-2,-4.7723356E-1,-6.9688685E-2,7.060221E-1,-1.5482192E-1,1.4060748E0,6.139038E-2,2.4539158E-2,-7.393102E-2,1.4932537E-2],"split_indices":[4,0,4,0,4,4,4,0,0,0,0],"split_type":[0,0,0,0,0,0,0,0,0,0,0],"sum_hessian":[3.0220926E1,6.803768E0,2.3417158E1,4.8574734E0,1.8559685E1,9.053662E0,9.506022E0,4.081325E0,4.9723372E0,5.8573217E0,3.6487012E0],"tree_param":{"num_deleted":"0","num_feature":"5","num_nodes":"11","size_leaf_vector":"1"}},{"base_weights":[1.214897E-2,8.1952244E-2,-4.7891223E-1,-6.8349116E-2,-1.5793839E-1,6.009271E-1,-8.6952025E-1,1.329267E-2,4.482418E-2,-7.091409E-2,1.3753382E-2],"categories":[],"categories_nodes":[],"categories_segments":[],"categories_sizes":[],"default_left":[0,0,0,0,0,0,0,0,0,0,0],"id":2,"left_children":[1,-1,3,-1,5,7,9,-1,-1,-1,-1],"loss_changes":[2.4379072E1,0E0,6.47117E0,0E0,1.0437999E1,7.0022297E-1,6.5989385E0,0E0,0E0,0E0,0E0],"parents":[2147483647,0,0,2,2,4,4,5,5,6,6],"right_children":[2,-1,4,-1,6,8,10,-1,-1,-1,-1],"split_conditions":[-1.1603267E0,8.1952244E-2,-4.1930252E-1,-6.8349116E-2,7.060221E-1,2.1379574E-1,1.3768051E0,1.329267E-2,4.482418E-2,-7.091409E-2,1.3753382E-2],"split_indices":[4,0,4,0,4,4,4,0,0,0,0],"split_type":[0,0,0,0,0,0,0,0,0,0,0],"sum_hessian":[2.8533047E1,6.073536E0,2.245951E1,5.097339E0,1.7362171E1,8.477189E0,8.884982E0,4.863228E0,3.6139617E0,5.8440084E0,3.0409734E0],"tree_param":{"num_deleted":"0","num_feature":"5","num_nodes":"11","size_leaf_vector":"1"}},{"base_weights":[-3.811018E-2,7.837882E-2,-4.3693978E-1,-6.677705E-2,-1.5234904E-1,6.479685E-1,-9.601935E-1,4.4366073E-2,1.3491347E-2,-6.993158E-2,-4.522355E-3],"categories":[],"categories_nodes":[],"categories_segments":[],"categories_sizes":[],"default_left":[0,0,0,0,0,0,0,0,0,0,0],"id":3,"left_children":[1,-1,3,-1,5,7,9,-1,-1,-1,-1],"loss_changes":[2.1508942E1,0E0,6.657762E0,0E0,1.4525909E1,7.923784E-1,4.108223E0,0E0,0E0,0E0,0E0],"parents":[2147483647,0,0,2,2,4,4,5,5,6,6],"right_children":[2,-1,4,-1,6,8,10,-1,-1,-1,-1],"split_conditions":[-1.1603267E0,7.837882E-2,-4.1930252E-1,-6.677705E-2,7.8837746E-1,-1.1212094E-1,1.4060748E0,4.4366073E-2,1.3491347E-2,-6.993158E-2,-4.522355E-3],"split_indices":[4,0,4,0,4,4,4,0,0,0,0],"split_type":[0,0,0,0,0,0,0,0,0,0,0],"sum_hessian":[3.1517427E1,5.6878247E0,2.5829603E1,5.324508E0,2.0505095E1,1.0399949E1,1.0105145E1,5.5441346E0,4.8558145E0,6.314116E0,3.7910292E0],"tree_param":{"num_deleted":"0","num_feature":"5","num_nodes":"11","size_leaf_vector":"1"}},{"base_weights":[3.4161903E-2,7.9101406E-2,-4.557146E-1,1.1006037E-2,-1.0542635E0,-6.0923856E-2,6.428405E-1,-6.872737E-2,-1.277704E-2,1.1687594E-2,5.095548E-2],"categories":[],"categories_nodes":[],"categories_segments":[],"categories_sizes":[],"default_left":[0,0,0,0,0,0,0,0,0,0,0],"id":4,"left_children":[1,-1,3,5,7,-1,9,-1,-1,-1,-1],"loss_changes":[2.543136E1,0E0,7.1436186E0,1.269559E1,2.512826E0,0E0,1.4216976E0,0E0,0E0,0E0,0E0],"parents":[2147483647,0,0,2,2,3,3,4,4,6,6],"right_children":[2,-1,4,6,8,-1,10,-1,-1,-1,-1],"split_conditions":[-9.0689266E-1,7.9101406E-2,7.8837746E-1,-4.1930252E-1,1.4060748E0,-6.0923856E-2,2.1379574E-1,-6.872737E-2,-1.277704E-2,1.1687594E-2,5.095548E-2],"split_indices":[4,0,4,4,4,0,4,0,0,0,0],"split_type":[0,0,0,0,0,0,0,0,0,0,0],"sum_hessian":[3.1588165E1,7.057883E0,2.4530281E1,1.4334509E1,1.0195773E1,4.5507517E0,9.783757E0,6.7629375E0,3.4328358E0,5.464193E0,4.319564E0],"tree_param":{"num_deleted":"0","num_feature":"5","num_nodes":"11","size_leaf_vector":"1"}},{"base_weights":[-1.9171625E-2,7.6217584E-2,-4.852118E-1,-4.748605E-2,-1.1153234E0,-6.399649E-2,7.2040474E-1,-6.6278085E-2,-2.2212189E-2,4.509872E-2,2.0936688E-2],"categories":[],"categories_nodes":[],"categories_segments":[],"categories_sizes":[],"default_left":[0,0,0,0,0,0,0,0,0,0,0],"id":5,"left_children":[1,-1,3,5,7,-1,9,-1,-1,-1,-1],"loss_changes":[2.4748886E1,0E0,7.227132E0,1.6650496E1,9.3136597E-1,0E0,2.1822786E-1,0E0,0E0,0E0,0E0],"parents":[2147483647,0,0,2,2,3,3,4,4,6,6],"right_children":[2,-1,4,6,8,-1,10,-1,-1,-1,-1],"split_conditions":[-9.0689266E-1,7.6217584E-2,7.8837746E-1,-4.1930252E-1,1.4060748E0,-6.399649E-2,-1.1212094E-1,-6.6278085E-2,-2.2212189E-2,4.509872E-2,2.0936688E-2],"split_indices":[4,0,4,4,4,0,4,0,0,0,0],"split_type":[0,0,0,0,0,0,0,0,0,0,0],"sum_hessian":[3.2376602E1,6.981858E0,2.5394745E1,1.5619534E1,9.775211E0,5.740069E0,9.879465E0,6.700719E0,3.0744922E0,4.9251747E0,4.9542904E0],"tree_param":{"num_deleted":"0","num_feature":"5","num_nodes":"11","size_leaf_vector":"1"}},{"base_weights":[6.597063E-2,7.3947184E-2,-3.8748664E-1,-6.093527E-2,-9.049568E-2,6.912845E-1,-9.7721684E-1,3.3201742E-1,6.0106613E-2,-6.860014E-2,-1.8739996E-2,2.7424011E-2,1.3504191E-3],"categories":[],"categories_nodes":[],"categories_segments":[],"categories_sizes":[],"default_left":[0,0,0,0,0,0,0,0,0,0,0,0,0],"id":6,"left_children":[1,-1,3,-1,5,7,9,11,-1,-1,-1,-1,-1],"loss_changes":[2.0866787E1,0E0,6.004649E0,0E0,1.4075527E1,1.5937572E0,1.7383289E0,4.9730796E-1,0E0,0E0,0E0,0E0,0E0],"parents":[2147483647,0,0,2,2,4,4,5,5,6,6,7,7],"right_children":[2,-1,4,-1,6,8,10,12,-1,-1,-1,-1,-1],"split_conditions":[-9.0689266E-1,7.3947184E-2,-4.1930252E-1,-6.093527E-2,7.8837746E-1,3.1150612E-1,9.8568624E-1,-1.5562668E-1,6.0106613E-2,-6.860014E-2,-1.8739996E-2,2.7424011E-2,1.3504191E-3],"split_indices":[4,0,4,0,4,4,4,4,0,0,0,0,0],"split_type":[0,0,0,0,0,0,0,0,0,0,0,0,0],"sum_hessian":[3.0673157E1,6.902738E0,2.377042E1,5.440376E0,1.8330044E1,9.858592E0,8.471452E0,6.7567E0,3.1018922E0,4.3459153E0,4.1255364E0,3.4851038E0,3.2715962E0],"tree_param":{"num_deleted":"0","num_feature":"5","num_nodes":"13","size_leaf_vector":"1"}},{"base_weights":[8.296278E-2,7.0373274E-2,-3.0084428E-1,-5.6769725E-2,-2.2557087E-2,8.001124E-1,-7.6449805E-1,4.910114E-2,2.0679472E-2,-6.001658E-2,3.017626E-3],"categories":[],"categories_nodes":[],"categories_segments":[],"categories_sizes":[],"default_left":[0,0,0,0,0,0,0,0,0,0,0],"id":7,"left_children":[1,-1,3,-1,5,7,9,-1,-1,-1,-1],"loss_changes":[1.53903E1,0E0,5.467214E0,0E0,1.2060368E1,2.5360012E-1,3.8017702E0,0E0,0E0,0E0,0E0],"parents":[2147483647,0,0,2,2,4,4,5,5,6,6],"right_children":[2,-1,4,-1,6,8,10,-1,-1,-1,-1],"split_conditions":[-9.0689266E-1,7.0373274E-2,-4.7723356E-1,-5.6769725E-2,7.8837746E-1,-1.1212094E-1,1.3768051E0,4.910114E-2,2.0679472E-2,-6.001658E-2,3.017626E-3],"split_indices":[4,0,4,0,4,4,4,0,0,0,0],"split_type":[0,0,0,0,0,0,0,0,0,0,0],"sum_hessian":[2.8441862E1,5.7908287E0,2.2651033E1,4.894143E0,1.775689E1,8.383167E0,9.373722E0,4.6527658E0,3.730402E0,5.835275E0,3.538447E0],"tree_param":{"num_deleted":"0","num_feature":"5","num_nodes":"11","size_leaf_vector":"1"}},{"base_weights":[-7.192584E-2,6.9061205E-2,-5.150738E-1,-6.681147E-2,-2.558764E-1,3.754497E-1,-8.6531824E-1,2.4005151E-3,3.8506936E-2,-5.8138337E-2,-1.0819377E-2],"categories":[],"categories_nodes":[],"categories_segments":[],"categories_sizes":[],"default_left":[0,0,0,0,0,0,0,0,0,0,0],"id":8,"left_children":[1,-1,3,-1,5,7,9,-1,-1,-1,-1],"loss_changes":[2.0210405E1,0E0,4.751819E0,0E0,7.7995987E0,1.2863635E0,1.7148151E0,0E0,0E0,0E0,0E0],"parents":[2147483647,0,0,2,2,4,4,5,5,6,6],"right_children":[2,-1,4,-1,6,8,10,-1,-1,-1,-1],"split_conditions":[-9.0689266E-1,6.9061205E-2,-4.1930252E-1,-6.681147E-2,7.8837746E-1,2.1379574E-1,1.3768051E0,2.4005151E-3,3.8506936E-2,-5.8138337E-2,-1.0819377E-2],"split_indices":[4,0,4,0,4,4,4,0,0,0,0],"split_type":[0,0,0,0,0,0,0,0,0,0,0],"sum_hessian":[2.9279772E1,6.347734E0,2.2932037E1,4.5049086E0,1.842713E1,9.239645E0,9.187484E0,5.6631007E0,3.5765448E0,5.7568936E0,3.4305902E0],"tree_param":{"num_deleted":"0","num_feature":"5","num_nodes":"11","size_leaf_vector":"1"}},{"base_weights":[-1.02391824E-1,-1.6915344E-2,4.953229E-2],"categories":[],"categories_nodes":[],"categories_segments":[],"categories_sizes":[],"default_left":[0,0,0],"id":9,"left_children":[1,-1,-1],"loss_changes":[8.377943E0,0E0,0E0],"parents":[2147483647,0,0],"right_children":[2,-1,-1],"split_conditions":[1.8429465E0,-1.6915344E-2,4.953229E-2],"split_indices":[0,0,0],"split_type":[0,0,0],"sum_hessian":[3.0190086E1,2.539867E1,4.7914157E0],"tree_param":{"num_deleted":"0","num_feature":"5","num_nodes":"3","size_leaf_vector":"1"}},{"base_weights":[7.2650095E-3,6.678753E-2,-3.5538068E-1,-3.6879755E-3,-8.6512864E-1,-5.347959E-2,5.428744E-1,-5.8861442E-2,-4.5876405E-3,2.0168343E-1,5.6338757E-2,2.7381524E-2,-1.4953548E-2],"categories":[],"categories_nodes":[],"categories_segments":[],"categories_sizes":[],"default_left":[0,0,0,0,0,0,0,0,0,0,0,0,0],"id":10,"left_children":[1,-1,3,5,7,-1,9,-1,-1,11,-1,-1,-1],"loss_changes":[1.615811E1,0E0,4.7229905E0,1.0253962E1,2.488803E0,0E0,2.0915565E0,0E0,0E0,1.647456E0,0E0,0E0,0E0],"parents":[2147483647,0,0,2,2,3,3,4,4,6,6,9,9],"right_children":[2,-1,4,6,8,-1,10,-1,-1,12,-1,-1,-1],"split_conditions":[-9.0689266E-1,6.678753E-2,7.8837746E-1,-4.7723356E-1,1.4060748E0,-5.347959E-2,3.8470808E-1,-5.8861442E-2,-4.5876405E-3,-1.5482192E-1,5.6338757E-2,2.7381524E-2,-1.4953548E-2],"split_indices":[4,0,4,4,4,0,4,0,0,4,0,0,0],"split_type":[0,0,0,0,0,0,0,0,0,0,0,0,0],"sum_hessian":[3.1553759E1,6.1909623E0,2.5362797E1,1.5604174E1,9.758623E0,4.964833E0,1.063934E1,6.580735E0,3.1778877E0,7.564551E0,3.07479E0,4.4184475E0,3.1461034E0],"tree_param":{"num_deleted":"0","num_feature":"5","num_nodes":"13","size_leaf_vector":"1"}},{"base_weights":[-5.6741815E-2,6.2763736E-2,-3.9088807E-1,-6.1366457E-2,-1.6580279E-1,3.7761742E-1,-6.2771106E-1,-6.1151816E-4,4.3812763E-2,-5.8662917E-2,2.3696551E-2],"categories":[],"categories_nodes":[],"categories_segments":[],"categories_sizes":[],"default_left":[0,0,0,0,0,0,0,0,0,0,0],"id":11,"left_children":[1,-1,3,-1,5,7,9,-1,-1,-1,-1],"loss_changes":[1.3132626E1,0E0,4.267073E0,0E0,5.223773E0,1.9064995E0,7.2357407E0,0E0,0E0,0E0,0E0],"parents":[2147483647,0,0,2,2,4,4,5,5,6,6],"right_children":[2,-1,4,-1,6,8,10,-1,-1,-1,-1],"split_conditions":[-1.1603267E0,6.2763736E-2,-6.008829E-1,-6.1366457E-2,7.060221E-1,2.1379574E-1,1.4060748E0,-6.1151816E-4,4.3812763E-2,-5.8662917E-2,2.3696551E-2],"split_indices":[4,0,4,0,4,4,4,0,0,0,0],"split_type":[0,0,0,0,0,0,0,0,0,0,0],"sum_hessian":[2.7836216E1,5.0907717E0,2.2745445E1,3.8787742E0,1.886667E1,8.752325E0,1.0114346E1,5.4594555E0,3.2928693E0,6.721008E0,3.3933375E0],"tree_param":{"num_deleted":"0","num_feature":"5","num_nodes":"11","size_leaf_vector":"1"}},{"base_weights":[1.7587219E-1,-5.0512195E-4,5.2665897E-2],"categories":[],"categories_nodes":[],"categories_segments":[],"categories_sizes":[],"default_left":[0,0,0],"id":12,"left_children":[1,-1,-1],"loss_changes":[4.981619E0,0E0,0E0],"parents":[2147483647,0,0],"right_children":[2,-1,-1],"split_conditions":[1.5590539E0,-5.0512195E-4,5.2665897E-2],"split_indices":[0,0,0],"split_type":[0,0,0],"sum_hessian":[2.9462664E1,2.5125748E1,4.3369164E0],"tree_param":{"num_deleted":"0","num_feature":"5","num_nodes":"3","size_leaf_vector":"1"}},{"base_weights":[-1.1418243E-1,6.212733E-2,-4.650896E-1,-5.4562945E-2,-2.071802E-1,3.481087E-1,-7.3858196E-1,6.10829E-3,3.0581398E-2,-5.2398264E-2,-4.158172E-3],"categories":[],"categories_nodes":[],"categories_segments":[],"categories_sizes":[],"default_left":[0,0,0,0,0,0,0,0,0,0,0],"id":13,"left_children":[1,-1,3,-1,5,7,9,-1,-1,-1,-1],"loss_changes":[1.4478332E1,0E0,3.6376991E0,0E0,5.6216507E0,4.9506807E-1,1.8615384E0,0E0,0E0,0E0,0E0],"parents":[2147483647,0,0,2,2,4,4,5,5,6,6],"right_children":[2,-1,4,-1,6,8,10,-1,-1,-1,-1],"split_conditions":[-9.0689266E-1,6.212733E-2,-4.1930252E-1,-5.4562945E-2,7.8837746E-1,2.1991105E-1,1.201194E0,6.10829E-3,3.0581398E-2,-5.2398264E-2,-4.158172E-3],"split_indices":[4,0,4,0,4,4,4,0,0,0,0],"split_type":[0,0,0,0,0,0,0,0,0,0,0],"sum_hessian":[2.8197329E1,5.2722034E0,2.2925125E1,5.745252E0,1.7179873E1,8.569787E0,8.6100855E0,5.4018245E0,3.1679623E0,5.442219E0,3.1678662E0],"tree_param":{"num_deleted":"0","num_feature":"5","num_nodes":"11","size_leaf_vector":"1"}},{"base_weights":[1.4923745E-2,6.22437E-2,-3.10697E-1,-5.304124E-2,-3.2550998E-2,3.4813944E-2,-7.831305E-1,-6.2180568E-2,-1.8136759E-3],"categories":[],"categories_nodes":[],"categories_segments":[],"categories_sizes":[],"default_left":[0,0,0,0,0,0,0,0,0],"id":14,"left_children":[1,-1,3,-1,5,-1,7,-1,-1],"loss_changes":[1.2485412E1,0E0,5.1160336E0,0E0,1.0960999E1,0E0,3.342669E0,0E0,0E0],"parents":[2147483647,0,0,2,2,4,4,6,6],"right_children":[2,-1,4,-1,6,-1,8,-1,-1],"split_conditions":[-9.0689266E-1,6.22437E-2,-4.1930252E-1,-5.304124E-2,7.8837746E-1,3.4813944E-2,1.4060748E0,-6.2180568E-2,-1.8136759E-3],"split_indices":[4,0,4,0,4,0,4,0,0],"split_type":[0,0,0,0,0,0,0,0,0],"sum_hessian":[2.920903E1,5.5232534E0,2.3685776E1,5.645797E0,1.803998E1,9.189302E0,8.8506775E0,5.063567E0,3.78711E0],"tree_param":{"num_deleted":"0","num_feature":"5","num_nodes":"9","size_leaf_vector":"1"}},{"base_weights":[5.8653254E-2,6.0941882E-2,-2.7614725E-1,-4.8283413E-2,-5.015902E-2,4.6893564E-1,-5.8493E-1,3.5325345E-2,7.262265E-3,-4.8992652E-2,3.4896508E-3],"categories":[],"categories_nodes":[],"categories_segments":[],"categories_sizes":[],"default_left":[0,0,0,0,0,0,0,0,0,0,0],"id":15,"left_children":[1,-1,3,-1,5,7,9,-1,-1,-1,-1],"loss_changes":[1.1549788E1,0E0,3.5695276E0,0E0,5.421439E0,6.635978E-1,2.5449162E0,0E0,0E0,0E0,0E0],"parents":[2147483647,0,0,2,2,4,4,5,5,6,6],"right_children":[2,-1,4,-1,6,8,10,-1,-1,-1,-1],"split_conditions":[-9.0689266E-1,6.0941882E-2,-4.1930252E-1,-4.8283413E-2,7.8837746E-1,-1.1212094E-1,1.4060748E0,3.5325345E-2,7.262265E-3,-4.8992652E-2,3.4896508E-3],"split_indices":[4,0,4,0,4,4,4,0,0,0,0],"split_type":[0,0,0,0,0,0,0,0,0,0,0],"sum_hessian":[2.7868008E1,5.6496797E0,2.2218328E1,4.6765237E0,1.7541805E1,8.9638405E0,8.577965E0,4.4875546E0,4.476286E0,5.0408044E0,3.53716E0],"tree_param":{"num_deleted":"0","num_feature":"5","num_nodes":"11","size_leaf_vector":"1"}},{"base_weights":[-1.7805055E-2,5.7400357E-2,-3.245119E-1,-5.5485804E-2,-1.133992E-1,3.7990552E-1,-6.507932E-1,-2.4660393E-3,4.461908E-2,-4.6794172E-2,-5.198712E-3],"categories":[],"categories_nodes":[],"categories_segments":[],"categories_sizes":[],"default_left":[0,0,0,0,0,0,0,0,0,0,0],"id":16,"left_children":[1,-1,3,-1,5,7,9,-1,-1,-1,-1],"loss_changes":[9.613685E0,0E0,3.3952563E0,0E0,4.98038E0,2.2305834E0,1.292295E0,0E0,0E0,0E0,0E0],"parents":[2147483647,0,0,2,2,4,4,5,5,6,6],"right_children":[2,-1,4,-1,6,8,10,-1,-1,-1,-1],"split_conditions":[-9.5706266E-1,5.7400357E-2,-6.008829E-1,-5.5485804E-2,7.8837746E-1,2.1379574E-1,1.4060748E0,-2.4660393E-3,4.461908E-2,-4.6794172E-2,-5.198712E-3],"split_indices":[4,0,4,0,4,4,4,0,0,0,0],"split_type":[0,0,0,0,0,0,0,0,0,0,0],"sum_hessian":[2.4844826E1,4.603524E0,2.02413E1,3.387067E0,1.6854235E1,8.940394E0,7.9138403E0,5.3572054E0,3.5831888E0,4.7341385E0,3.1797018E0],"tree_param":{"num_deleted":"0","num_feature":"5","num_nodes":"11","size_leaf_vector":"1"}},{"base_weights":[4.119202E-2,5.8863677E-2,-2.862597E-1,-4.8658203E-2,-2.3648916E-2,5.387849E-1,-3.527535E-2,3.848316E-2,1.3296917E-2],"categories":[],"categories_nodes":[],"categories_segments":[],"categories_sizes":[],"default_left":[0,0,0,0,0,0,0,0,0],"id":17,"left_children":[1,-1,3,-1,5,7,-1,-1,-1],"loss_changes":[1.0665846E1,0E0,4.0099506E0,0E0,6.975792E0,4.247346E-1,0E0,0E0,0E0],"parents":[2147483647,0,0,2,2,4,4,5,5],"right_children":[2,-1,4,-1,6,8,-1,-1,-1],"split_conditions":[-9.0689266E-1,5.8863677E-2,-4.1930252E-1,-4.8658203E-2,7.8837746E-1,-1.1212094E-1,-3.527535E-2,3.848316E-2,1.3296917E-2],"split_indices":[4,0,4,0,4,4,0,0,0],"split_type":[0,0,0,0,0,0,0,0,0],"sum_hessian":[2.6764816E1,5.40771E0,2.1357105E1,5.1584783E0,1.6198627E1,8.991651E0,7.2069764E0,3.8841136E0,5.1075373E0],"tree_param":{"num_deleted":"0","num_feature":"5","num_nodes":"9","size_leaf_vector":"1"}},{"base_weights":[2.0774406E-1,5.550535E-1,-4.5922655E-1,5.624483E-2,2.9903644E-1,-4.711266E-2,1.2280501E-2,-4.0606905E-2,3.8790885E-2],"categories":[],"categories_nodes":[],"categories_segments":[],"categories_sizes":[],"default_left":[0,0,0,0,0,0,0,0,0],"id":18,"left_children":[1,3,5,-1,7,-1,-1,-1,-1],"loss_changes":[6.6983805E0,2.39819E0,3.6605036E0,0E0,8.203666E0,0E0,0E0,0E0,0E0],"parents":[2147483647,0,0,1,1,2,2,4,4],"right_children":[2,4,6,-1,8,-1,-1,-1,-1],"split_conditions":[7.8837746E-1,-9.0689266E-1,1.4060748E0,5.624483E-2,-4.7723356E-1,-4.711266E-2,1.2280501E-2,-4.0606905E-2,3.8790885E-2],"split_indices":[4,4,4,0,4,0,0,0,0],"split_type":[0,0,0,0,0,0,0,0,0],"sum_hessian":[2.6816189E1,1.774414E1,9.072048E0,4.4486003E0,1.329554E1,5.1831684E0,3.8888798E0,3.7807775E0,9.514762E0],"tree_param":{"num_deleted":"0","num_feature":"5","num_nodes":"9","size_leaf_vector":"1"}},{"base_weights":[-9.167589E-2,5.5925786E-2,-4.2152297E-1,-5.3205915E-2,-2.386857E-1,2.931582E-1,-7.740789E-1,2.244934E-2,2.0906057E-3,-4.6742722E-2,-1.8213365E-2],"categories":[],"categories_nodes":[],"categories_segments":[],"categories_sizes":[],"default_left":[0,0,0,0,0,0,0,0,0,0,0],"id":19,"left_children":[1,-1,3,-1,5,7,9,-1,-1,-1,-1],"loss_changes":[1.0823536E1,0E0,2.2256758E0,0E0,5.272481E0,3.5779834E-1,2.593689E-1,0E0,0E0,0E0,0E0],"parents":[2147483647,0,0,2,2,4,4,5,5,6,6],"right_children":[2,-1,4,-1,6,8,10,-1,-1,-1,-1],"split_conditions":[-9.0689266E-1,5.5925786E-2,-6.008829E-1,-5.3205915E-2,4.7968078E-1,-1.1212094E-1,1.201194E0,2.244934E-2,2.0906057E-3,-4.6742722E-2,-1.8213365E-2],"split_indices":[4,0,4,0,4,4,4,0,0,0,0],"split_type":[0,0,0,0,0,0,0,0,0,0,0],"sum_hessian":[2.4933422E1,4.8281565E0,2.0105265E1,3.3857534E0,1.6719513E1,8.6145315E0,8.10498E0,4.832295E0,3.7822366E0,4.9010425E0,3.2039378E0],"tree_param":{"num_deleted":"0","num_feature":"5","num_nodes":"11","size_leaf_vector":"1"}},{"base_weights":[-9.95191E-3,5.4508984E-2,-2.6964644E-1,-4.2428266E-2,-9.297009E-2,3.90339E-1,-6.5092087E-1,3.3675462E-2,2.6604983E-3,-5.561916E-2,-4.5973244E-5],"categories":[],"categories_nodes":[],"categories_segments":[],"categories_sizes":[],"default_left":[0,0,0,0,0,0,0,0,0,0,0],"id":20,"left_children":[1,-1,3,-1,5,7,9,-1,-1,-1,-1],"loss_changes":[8.159156E0,0E0,2.2811375E0,0E0,5.324201E0,9.856255E-1,2.7290847E0,0E0,0E0,0E0,0E0],"parents":[2147483647,0,0,2,2,4,4,5,5,6,6],"right_children":[2,-1,4,-1,6,8,10,-1,-1,-1,-1],"split_conditions":[-9.0689266E-1,5.4508984E-2,-4.7723356E-1,-4.2428266E-2,7.8837746E-1,-1.1212094E-1,1.4060748E0,3.3675462E-2,2.6604983E-3,-5.561916E-2,-4.5973244E-5],"split_indices":[4,0,4,0,4,4,4,0,0,0,0],"split_type":[0,0,0,0,0,0,0,0,0,0,0],"sum_hessian":[2.652973E1,4.45582E0,2.207391E1,4.2721934E0,1.7801718E1,9.699878E0,8.101839E0,4.72954E0,4.970338E0,4.3220706E0,3.7797685E0],"tree_param":{"num_deleted":"0","num_feature":"5","num_nodes":"11","size_leaf_vector":"1"}},{"base_weights":[-5.0945375E-2,5.457927E-2,-3.763345E-1,-5.3697355E-2,-1.5712282E-1,3.167812E-1,-5.2605474E-1,2.164645E-2,5.7351007E-3,-4.4981536E-2,5.170488E-3],"categories":[],"categories_nodes":[],"categories_segments":[],"categories_sizes":[],"default_left":[0,0,0,0,0,0,0,0,0,0,0],"id":21,"left_children":[1,-1,3,-1,5,7,9,-1,-1,-1,-1],"loss_changes":[9.792653E0,0E0,2.948709E0,0E0,3.0834258E0,1.3638854E-1,2.3872063E0,0E0,0E0,0E0,0E0],"parents":[2147483647,0,0,2,2,4,4,5,5,6,6],"right_children":[2,-1,4,-1,6,8,10,-1,-1,-1,-1],"split_conditions":[-9.0689266E-1,5.457927E-2,-4.7723356E-1,-5.3697355E-2,7.8837746E-1,-1.1212094E-1,1.4060748E0,2.164645E-2,5.7351007E-3,-4.4981536E-2,5.170488E-3],"split_indices":[4,0,4,0,4,4,4,0,0,0,0],"split_type":[0,0,0,0,0,0,0,0,0,0,0],"sum_hessian":[2.4235832E1,4.850319E0,1.9385513E1,3.702776E0,1.5682737E1,6.92663E0,8.756107E0,3.6730952E0,3.2535348E0,5.225604E0,3.530503E0],"tree_param":{"num_deleted":"0","num_feature":"5","num_nodes":"11","size_leaf_vector":"1"}},{"base_weights":[9.512362E-2,5.2954115E-2,-1.421862E-1,-4.285052E-2,8.507853E-2,5.686479E-1,-4.5365497E-1,3.8756464E-2,1.29812015E-2,-4.1270755E-2,4.9679386E-3],"categories":[],"categories_nodes":[],"categories_segments":[],"categories_sizes":[],"default_left":[0,0,0,0,0,0,0,0,0,0,0],"id":22,"left_children":[1,-1,3,-1,5,7,9,-1,-1,-1,-1],"loss_changes":[6.3054276E0,0E0,3.7235956E0,0E0,4.9370036E0,4.3100905E-1,1.9430006E0,0E0,0E0,0E0,0E0],"parents":[2147483647,0,0,2,2,4,4,5,5,6,6],"right_children":[2,-1,4,-1,6,8,10,-1,-1,-1,-1],"split_conditions":[-9.0689266E-1,5.2954115E-2,-4.1930252E-1,-4.285052E-2,7.8837746E-1,-1.1212094E-1,1.3768051E0,3.8756464E-2,1.29812015E-2,-4.1270755E-2,4.9679386E-3],"split_indices":[4,0,4,0,4,4,4,0,0,0,0],"split_type":[0,0,0,0,0,0,0,0,0,0,0],"sum_hessian":[2.5905605E1,4.4335485E0,2.1472057E1,4.511353E0,1.6960705E1,8.908695E0,8.052009E0,4.4362197E0,4.4724755E0,4.5205326E0,3.531476E0],"tree_param":{"num_deleted":"0","num_feature":"5","num_nodes":"11","size_leaf_vector":"1"}},{"base_weights":[6.8046264E-2,5.3053003E-2,-1.9305679E-1,-5.2722897E-2,2.7696755E-2,3.316396E-2,-2.5000855E-1,2.4538618E-3,-4.244076E-1,-3.958679E-2,4.773392E-3],"categories":[],"categories_nodes":[],"categories_segments":[],"categories_sizes":[],"default_left":[0,0,0,0,0,0,0,0,0,0,0],"id":23,"left_children":[1,-1,3,-1,5,-1,7,-1,9,-1,-1],"loss_changes":[7.227767E0,0E0,4.2684073E0,0E0,3.4699671E0,0E0,7.382374E-1,0E0,1.7544689E0,0E0,0E0],"parents":[2147483647,0,0,2,2,4,4,6,6,8,8],"right_children":[2,-1,4,-1,6,-1,8,-1,10,-1,-1],"split_conditions":[-9.0689266E-1,5.3053003E-2,-4.1930252E-1,-5.2722897E-2,-1.1212094E-1,3.316396E-2,7.8837746E-1,2.4538618E-3,1.3768051E0,-3.958679E-2,4.773392E-3],"split_indices":[4,0,4,0,4,0,4,0,4,0,0],"split_type":[0,0,0,0,0,0,0,0,0,0,0],"sum_hessian":[2.6086357E1,4.79323E0,2.1293127E1,3.5732687E0,1.7719858E1,4.965932E0,1.2753926E1,4.9623437E0,7.791583E0,4.259217E0,3.5323663E0],"tree_param":{"num_deleted":"0","num_feature":"5","num_nodes":"11","size_leaf_vector":"1"}},{"base_weights":[7.405241E-2,5.231843E-2,-1.9638866E-1,-3.950083E-2,-1.4032215E-3,3.4717593E-1,-3.742621E-1,3.625775E-4,3.742361E-2,-3.9096378E-2,1.0414616E-2],"categories":[],"categories_nodes":[],"categories_segments":[],"categories_sizes":[],"default_left":[0,0,0,0,0,0,0,0,0,0,0],"id":24,"left_children":[1,-1,3,-1,5,7,9,-1,-1,-1,-1],"loss_changes":[6.8732805E0,0E0,2.3927045E0,0E0,2.2834814E0,1.2334955E0,2.1784568E0,0E0,0E0,0E0,0E0],"parents":[2147483647,0,0,2,2,4,4,5,5,6,6],"right_children":[2,-1,4,-1,6,8,10,-1,-1,-1,-1],"split_conditions":[-9.0689266E-1,5.231843E-2,-4.1930252E-1,-3.950083E-2,7.8837746E-1,2.1379574E-1,1.4060748E0,3.625775E-4,3.742361E-2,-3.9096378E-2,1.0414616E-2],"split_indices":[4,0,4,0,4,4,4,0,0,0,0],"split_type":[0,0,0,0,0,0,0,0,0,0,0],"sum_hessian":[2.435721E1,4.676104E0,1.9681105E1,4.1116447E0,1.5569461E1,8.082322E0,7.4871387E0,4.926945E0,3.155377E0,4.2034025E0,3.2837362E0],"tree_param":{"num_deleted":"0","num_feature":"5","num_nodes":"11","size_leaf_vector":"1"}},{"base_weights":[-7.849449E-2,4.9909342E-2,-3.2530087E-1,-3.9597534E-2,-1.5902293E-1,3.6396733E-1,-6.2590086E-1,7.6810055E-4,3.633948E-2,-5.2473005E-2,-1.0451729E-3],"categories":[],"categories_nodes":[],"categories_segments":[],"categories_sizes":[],"default_left":[0,0,0,0,0,0,0,0,0,0,0],"id":25,"left_children":[1,-1,3,-1,5,7,9,-1,-1,-1,-1],"loss_changes":[6.8803463E0,0E0,1.4898546E0,0E0,4.2821426E0,1.0593609E0,2.3203378E0,0E0,0E0,0E0,0E0],"parents":[2147483647,0,0,2,2,4,4,5,5,6,6],"right_children":[2,-1,4,-1,6,8,10,-1,-1,-1,-1],"split_conditions":[-9.0689266E-1,4.9909342E-2,-4.1930252E-1,-3.9597534E-2,7.8837746E-1,1.2486262E-1,1.3768051E0,7.6810055E-4,3.633948E-2,-5.2473005E-2,-1.0451729E-3],"split_indices":[4,0,4,0,4,4,4,0,0,0,0],"split_type":[0,0,0,0,0,0,0,0,0,0,0],"sum_hessian":[2.3670122E1,3.8463197E0,1.9823803E1,4.2194204E0,1.5604382E1,7.4638743E0,8.140507E0,4.3381E0,3.1257744E0,4.356127E0,3.7843804E0],"tree_param":{"num_deleted":"0","num_feature":"5","num_nodes":"11","size_leaf_vector":"1"}},{"base_weights":[-1.6968873E-3,4.8744053E-2,-2.3332751E-1,-3.8534772E-1,1.7321093E-2,-2.0340052E-1,-3.8347777E-2,-3.668495E-2,1.1726384E-1,2.2251418E-2,-1.287006E-2],"categories":[],"categories_nodes":[],"categories_segments":[],"categories_sizes":[],"default_left":[0,0,0,0,0,0,0,0,0,0,0],"id":26,"left_children":[1,-1,3,5,-1,7,-1,-1,9,-1,-1],"loss_changes":[5.546568E0,0E0,1.879711E0,9.667678E-1,0E0,2.1794546E0,0E0,0E0,1.1625365E0,0E0,0E0],"parents":[2147483647,0,0,2,2,3,3,5,5,8,8],"right_children":[2,-1,4,6,-1,8,-1,-1,10,-1,-1],"split_conditions":[-9.0689266E-1,4.8744053E-2,1.201194E0,7.060221E-1,1.7321093E-2,-4.1930252E-1,-3.8347777E-2,-3.668495E-2,-1.1212094E-1,2.2251418E-2,-1.287006E-2],"split_indices":[4,0,4,4,0,4,0,0,4,0,0],"split_type":[0,0,0,0,0,0,0,0,0,0,0],"sum_hessian":[2.2514479E1,3.7011757E0,1.8813303E1,1.5170625E1,3.6426778E0,1.1310763E1,3.8598616E0,3.776809E0,7.533954E0,3.918323E0,3.615631E0],"tree_param":{"num_deleted":"0","num_feature":"5","num_nodes":"11","size_leaf_vector":"1"}},{"base_weights":[4.6417736E-3,4.850059E-2,-2.0130584E-1,-3.580442E-2,-5.6470763E-2,2.1946955E-1,-4.451438E-1,-1.7829046E-3,2.6006782E-2,-3.4561377E-2,-2.9002586E-3],"categories":[],"categories_nodes":[],"categories_segments":[],"categories_sizes":[],"default_left":[0,0,0,0,0,0,0,0,0,0,0],"id":27,"left_children":[1,-1,3,-1,5,7,9,-1,-1,-1,-1],"loss_changes":[5.2560573E0,0E0,1.5854777E0,0E0,2.039417E0,8.820906E-1,7.0747995E-1,0E0,0E0,0E0,0E0],"parents":[2147483647,0,0,2,2,4,4,5,5,6,6],"right_children":[2,-1,4,-1,6,8,10,-1,-1,-1,-1],"split_conditions":[-9.0689266E-1,4.850059E-2,-4.1930252E-1,-3.580442E-2,7.8837746E-1,2.1379574E-1,1.3768051E0,-1.7829046E-3,2.6006782E-2,-3.4561377E-2,-2.9002586E-3],"split_indices":[4,0,4,0,4,4,4,0,0,0,0],"split_type":[0,0,0,0,0,0,0,0,0,0,0],"sum_hessian":[2.4454678E1,3.6474464E0,2.0807232E1,3.702696E0,1.7104536E1,1.0257506E1,6.8470297E0,6.025783E0,4.231723E0,3.7059035E0,3.1411264E0],"tree_param":{"num_deleted":"0","num_feature":"5","num_nodes":"11","size_leaf_vector":"1"}},{"base_weights":[-6.7292236E-2,4.8045456E-2,-2.9532826E-1,-3.92454E-2,-6.7878497E-1,-4.5193982E-1,3.4744576E-2,-5.1003437E-2,-4.9048783E-3,-3.416544E-2,-9.782533E-3],"categories":[],"categories_nodes":[],"categories_segments":[],"categories_sizes":[],"default_left":[0,0,0,0,0,0,0,0,0,0,0],"id":28,"left_children":[1,-1,3,5,7,9,-1,-1,-1,-1,-1],"loss_changes":[6.0467386E0,0E0,2.0239265E0,4.4290395E0,1.5448694E0,4.177959E-1,0E0,0E0,0E0,0E0,0E0],"parents":[2147483647,0,0,2,2,3,3,4,4,5,5],"right_children":[2,-1,4,6,8,10,-1,-1,-1,-1,-1],"split_conditions":[-9.0689266E-1,4.8045456E-2,7.8837746E-1,2.1379574E-1,1.4060748E0,-4.1930252E-1,3.4744576E-2,-5.1003437E-2,-4.9048783E-3,-3.416544E-2,-9.782533E-3],"split_indices":[4,0,4,4,4,4,0,0,0,0,0],"split_type":[0,0,0,0,0,0,0,0,0,0,0],"sum_hessian":[2.3578964E1,3.6967378E0,1.9882225E1,1.2581981E1,7.300245E0,8.3003435E0,4.2816377E0,4.1213636E0,3.178881E0,3.4865994E0,4.813744E0],"tree_param":{"num_deleted":"0","num_feature":"5","num_nodes":"11","size_leaf_vector":"1"}},{"base_weights":[4.3556422E-2,4.6033286E-2,-1.2787206E-1,-3.434329E-2,1.5721004E-2,3.516321E-1,-4.1280025E-1,2.6272957E-3,3.362122E-2,-3.5242334E-2,-1.379868E-3],"categories":[],"categories_nodes":[],"categories_segments":[],"categories_sizes":[],"default_left":[0,0,0,0,0,0,0,0,0,0,0],"id":29,"left_children":[1,-1,3,-1,5,7,9,-1,-1,-1,-1],"loss_changes":[3.9674437E0,0E0,1.800381E0,0E0,2.839255E0,1.0231103E0,9.5751345E-1,0E0,0E0,0E0,0E0],"parents":[2147483647,0,0,2,2,4,4,5,5,6,6],"right_children":[2,-1,4,-1,6,8,10,-1,-1,-1,-1],"split_conditions":[-9.5706266E-1,4.6033286E-2,-4.1930252E-1,-3.434329E-2,7.8837746E-1,2.1379574E-1,1.4060748E0,2.6272957E-3,3.362122E-2,-3.5242334E-2,-1.379868E-3],"split_indices":[4,0,4,0,4,4,4,0,0,0,0],"split_type":[0,0,0,0,0,0,0,0,0,0,0],"sum_hessian":[2.4603071E1,3.3078732E0,2.1295198E1,3.5790167E0,1.771618E1,1.0031822E1,7.684359E0,5.793829E0,4.2379932E0,3.898702E0,3.785657E0],"tree_param":{"num_deleted":"0","num_feature":"5","num_nodes":"11","size_leaf_vector":"1"}},{"base_weights":[1.3842979E-1,4.7585987E-2,-6.3673444E-2,-3.6955815E-2,1.6253163E-1,2.8556978E-2,-2.0043796E-1,-2.8408451E-2,1.121769E-2],"categories":[],"categories_nodes":[],"categories_segments":[],"categories_sizes":[],"default_left":[0,0,0,0,0,0,0,0,0],"id":30,"left_children":[1,-1,3,-1,5,-1,7,-1,-1],"loss_changes":[3.916999E0,0E0,3.134551E0,0E0,2.4280608E0,0E0,1.5335515E0,0E0,0E0],"parents":[2147483647,0,0,2,2,4,4,6,6],"right_children":[2,-1,4,-1,6,-1,8,-1,-1],"split_conditions":[-9.0689266E-1,4.7585987E-2,-4.1930252E-1,-3.6955815E-2,4.233659E-1,2.8556978E-2,1.4060748E0,-2.8408451E-2,1.121769E-2],"split_indices":[4,0,4,0,4,0,4,0,0],"split_type":[0,0,0,0,0,0,0,0,0],"sum_hessian":[2.246191E1,3.7325525E0,1.8729359E1,4.129954E0,1.4599404E1,6.5981317E0,8.001273E0,4.1077657E0,3.8935075E0],"tree_param":{"num_deleted":"0","num_feature":"5","num_nodes":"9","size_leaf_vector":"1"}},{"base_weights":[8.102409E-2,4.715314E-2,-1.22749895E-1,-3.9775085E-1,1.916282E-1,-3.9017245E-3,-3.3001553E-2,4.2022016E-2,-9.705771E-3],"categories":[],"categories_nodes":[],"categories_segments":[],"categories_sizes":[],"default_left":[0,0,0,0,0,0,0,0,0],"id":31,"left_children":[1,-1,3,5,7,-1,-1,-1,-1],"loss_changes":[4.381585E0,0E0,1.8508041E0,8.938762E-1,2.7290397E0,0E0,0E0,0E0,0E0],"parents":[2147483647,0,0,2,2,3,3,4,4],"right_children":[2,-1,4,6,8,-1,-1,-1,-1],"split_conditions":[-9.0689266E-1,4.715314E-2,3.8470808E-1,-3.1117773E-1,8.081769E-1,-3.9017245E-3,-3.3001553E-2,4.2022016E-2,-9.705771E-3],"split_indices":[4,0,4,4,4,0,0,0,0],"split_type":[0,0,0,0,0,0,0,0,0],"sum_hessian":[2.3284403E1,3.7581336E0,1.9526268E1,1.0273963E1,9.252306E0,5.214759E0,5.0592036E0,3.0102983E0,6.2420077E0],"tree_param":{"num_deleted":"0","num_feature":"5","num_nodes":"9","size_leaf_vector":"1"}},{"base_weights":[-5.0237156E-2,4.6095088E-2,-2.6517853E-1,-4.2025492E-1,1.6937396E-2,-2.4027911E-1,-3.841572E-2,-3.3505507E-2,1.4332781E-2,1.0399038E-2,-9.022999E-3],"categories":[],"categories_nodes":[],"categories_segments":[],"categories_sizes":[],"default_left":[0,0,0,0,0,0,0,0,0,0,0],"id":32,"left_children":[1,-1,3,5,-1,7,-1,-1,9,-1,-1],"loss_changes":[5.1544538E0,0E0,2.0173223E0,8.4121037E-1,0E0,1.3501732E0,0E0,0E0,3.646378E-1,0E0,0E0],"parents":[2147483647,0,0,2,2,3,3,5,5,8,8],"right_children":[2,-1,4,6,-1,8,-1,-1,10,-1,-1],"split_conditions":[-9.0689266E-1,4.6095088E-2,1.4060748E0,7.060221E-1,1.6937396E-2,-4.1930252E-1,-3.841572E-2,-3.3505507E-2,-1.5482192E-1,1.0399038E-2,-9.022999E-3],"split_indices":[4,0,4,4,0,4,0,0,4,0,0],"split_type":[0,0,0,0,0,0,0,0,0,0,0],"sum_hessian":[2.249805E1,3.4781148E0,1.9019936E1,1.537585E1,3.6440854E0,1.124934E1,4.126509E0,3.57768E0,7.6716604E0,3.8131835E0,3.8584766E0],"tree_param":{"num_deleted":"0","num_feature":"5","num_nodes":"11","size_leaf_vector":"1"}},{"base_weights":[-1.318907E-1,4.6324976E-2,-3.9556912E-1,-7.645292E-2,-2.9800788E-2,-3.1544343E-2,2.153471E-2],"categories":[],"categories_nodes":[],"categories_segments":[],"categories_sizes":[],"default_left":[0,0,0,0,0,0,0],"id":33,"left_children":[1,-1,3,5,-1,-1,-1],"loss_changes":[6.527887E0,0E0,1.1298313E0,2.5876157E0,0E0,0E0,0E0],"parents":[2147483647,0,0,2,2,3,3],"right_children":[2,-1,4,6,-1,-1,-1],"split_conditions":[-9.0689266E-1,4.6324976E-2,-1.1212094E-1,-4.1930252E-1,-2.9800788E-2,-3.1544343E-2,2.153471E-2],"split_indices":[4,0,4,4,0,0,0],"split_type":[0,0,0,0,0,0,0],"sum_hessian":[2.1077936E1,3.7025127E0,1.7375423E1,7.2363615E0,1.0139061E1,3.3404515E0,3.8959098E0],"tree_param":{"num_deleted":"0","num_feature":"5","num_nodes":"7","size_leaf_vector":"1"}},{"base_weights":[-7.725457E-2,3.57185E-2,-2.3685414E-1,-4.695826E-2,-5.3382162E-2,1.7382838E-2,-2.2361544E-1,-3.2558333E-2,-6.110404E-3,-7.7470215E-3,1.01765245E-2],"categories":[],"categories_nodes":[],"categories_segments":[],"categories_sizes":[],"default_left":[0,0,0,0,0,0,0,0,0,0,0],"id":34,"left_children":[1,-1,3,-1,5,-1,7,-1,9,-1,-1],"loss_changes":[3.0891383E0,0E0,2.5249596E0,0E0,1.2318761E0,0E0,1.1562519E0,0E0,3.2104596E-1,0E0,0E0],"parents":[2147483647,0,0,2,2,4,4,6,6,8,8],"right_children":[2,-1,4,-1,6,-1,8,-1,10,-1,-1],"split_conditions":[-8.498964E-1,3.57185E-2,-4.1930252E-1,-4.695826E-2,-1.1212094E-1,1.7382838E-2,3.9312342E-1,-3.2558333E-2,1.2014459E0,-7.7470215E-3,1.01765245E-2],"split_indices":[4,0,4,0,4,0,4,0,4,0,0],"split_type":[0,0,0,0,0,0,0,0,0,0,0],"sum_hessian":[2.2111202E1,3.126674E0,1.8984528E1,3.079124E0,1.5905404E1,4.429072E0,1.1476333E1,3.1973937E0,8.278939E0,4.9942813E0,3.2846577E0],"tree_param":{"num_deleted":"0","num_feature":"5","num_nodes":"11","size_leaf_vector":"1"}},{"base_weights":[-6.444135E-2],"categories":[],"categories_nodes":[],"categories_segments":[],"categories_sizes":[],"default_left":[0],"id":35,"left_children":[-1],"loss_changes":[0E0],"parents":[2147483647],"right_children":[-1],"split_conditions":[-3.2220676E-3],"split_indices":[0],"split_type":[0],"sum_hessian":[2.1551752E1],"tree_param":{"num_deleted":"0","num_feature":"5","num_nodes":"1","size_leaf_vector":"1"}},{"base_weights":[-7.615427E-2,2.1410143E-1,-6.1712396E-1,3.5536718E-2,2.1397198E-2,-4.78908E-2,-4.5000697E-3,-2.8373593E-1,3.3590823E-2,-1.0443887E-3,-2.612915E-2],"categories":[],"categories_nodes":[],"categories_segments":[],"categories_sizes":[],"default_left":[0,0,0,0,0,0,0,0,0,0,0],"id":36,"left_children":[1,3,5,-1,7,-1,-1,9,-1,-1,-1],"loss_changes":[3.537126E0,1.4064994E0,1.3199272E0,0E0,2.5193188E0,0E0,0E0,5.346351E-1,0E0,0E0,0E0],"parents":[2147483647,0,0,1,1,2,2,4,4,7,7],"right_children":[2,4,6,-1,8,-1,-1,10,-1,-1,-1],"split_conditions":[7.8837746E-1,-8.498964E-1,1.4060748E0,3.5536718E-2,2.1379574E-1,-4.78908E-2,-4.5000697E-3,-3.1117773E-1,3.3590823E-2,-1.0443887E-3,-2.612915E-2],"split_indices":[4,4,4,0,4,0,0,4,0,0,0],"split_type":[0,0,0,0,0,0,0,0,0,0,0],"sum_hessian":[2.0685194E1,1.3855365E1,6.829829E0,3.1217778E0,1.0733587E1,3.6522357E0,3.1775935E0,7.689809E0,3.0437782E0,4.1786785E0,3.5111299E0],"tree_param":{"num_deleted":"0","num_feature":"5","num_nodes":"11","size_leaf_vector":"1"}},{"base_weights":[-2.73064E-2,3.0128822E-2,-1.637745E-1,-2.978366E-2,-3.2785404E-2,2.8655306E-2,-2.758375E-1,-2.0335414E-3,-2.3091532E-2],"categories":[],"categories_nodes":[],"categories_segments":[],"categories_sizes":[],"default_left":[0,0,0,0,0,0,0,0,0],"id":37,"left_children":[1,-1,3,-1,5,-1,7,-1,-1],"loss_changes":[1.9265372E0,0E0,1.0137327E0,0E0,2.3776305E0,0E0,4.8124367E-1,0E0,0E0],"parents":[2147483647,0,0,2,2,4,4,6,6],"right_children":[2,-1,4,-1,6,-1,8,-1,-1],"split_conditions":[-8.0453134E-1,3.0128822E-2,-4.1930252E-1,-2.978366E-2,-1.1212094E-1,2.8655306E-2,8.945076E-1,-2.0335414E-3,-2.3091532E-2],"split_indices":[4,0,4,0,4,0,4,0,0],"split_type":[0,0,0,0,0,0,0,0,0],"sum_hessian":[2.0264236E1,3.0003402E0,1.7263895E1,3.1919293E0,1.4071966E1,3.6400142E0,1.04319515E1,5.145162E0,5.28679E0],"tree_param":{"num_deleted":"0","num_feature":"5","num_nodes":"9","size_leaf_vector":"1"}},{"base_weights":[-1.8681709E-3,2.4965179E-1,-4.7628763E-1,6.3086554E-2,3.5876792E-2,-3.2832135E-2,-8.605547E-3,3.511552E-2,-2.2897415E-1,-1.6793868E-2,-3.6476292E-3],"categories":[],"categories_nodes":[],"categories_segments":[],"categories_sizes":[],"default_left":[0,0,0,0,0,0,0,0,0,0,0],"id":38,"left_children":[1,3,5,7,-1,-1,-1,-1,9,-1,-1],"loss_changes":[2.8386426E0,1.312243E0,3.3908033E-1,2.4411886E0,0E0,0E0,0E0,0E0,1.2791371E-1,0E0,0E0],"parents":[2147483647,0,0,1,1,2,2,3,3,8,8],"right_children":[2,4,6,8,-1,-1,-1,-1,10,-1,-1],"split_conditions":[7.8837746E-1,2.1379574E-1,1.4060748E0,-7.959278E-1,3.5876792E-2,-3.2832135E-2,-8.605547E-3,3.511552E-2,-2.6375526E-1,-1.6793868E-2,-3.6476292E-3],"split_indices":[4,4,4,4,0,0,0,0,4,0,0],"split_type":[0,0,0,0,0,0,0,0,0,0,0],"sum_hessian":[2.1792496E1,1.455156E1,7.240935E0,1.1214641E1,3.3369195E0,3.8182383E0,3.4226966E0,3.0765102E0,8.138131E0,4.145171E0,3.9929597E0],"tree_param":{"num_deleted":"0","num_feature":"5","num_nodes":"11","size_leaf_vector":"1"}},{"base_weights":[-7.636833E-2,1.1758525E-1,-3.991664E-1,-9.3921795E-2,3.3118624E-2,-3.5746537E-2,2.7918507E-4,2.4322772E-1,-2.6419256E-2,1.7731393E-2,3.6740357E-3],"categories":[],"categories_nodes":[],"categories_segments":[],"categories_sizes":[],"default_left":[0,0,0,0,0,0,0,0,0,0,0],"id":39,"left_children":[1,3,5,7,-1,-1,-1,9,-1,-1,-1],"loss_changes":[1.4499183E0,1.7641804E0,1.1080265E0,1.8153238E0,0E0,0E0,0E0,1.095022E-1,0E0,0E0,0E0],"parents":[2147483647,0,0,1,1,2,2,3,3,7,7],"right_children":[2,4,6,8,-1,-1,-1,10,-1,-1,-1],"split_conditions":[7.060221E-1,2.1379574E-1,1.4060748E0,-3.1117773E-1,3.3118624E-2,-3.5746537E-2,2.7918507E-4,-7.848466E-1,-2.6419256E-2,1.7731393E-2,3.6740357E-3],"split_indices":[4,4,4,4,0,0,0,4,0,0,0],"split_type":[0,0,0,0,0,0,0,0,0,0,0],"sum_hessian":[2.140905E1,1.3770663E1,7.6383867E0,1.0515677E1,3.254985E0,3.8603768E0,3.77801E0,6.168782E0,4.346895E0,3.066905E0,3.1018775E0],"tree_param":{"num_deleted":"0","num_feature":"5","num_nodes":"11","size_leaf_vector":"1"}},{"base_weights":[4.9612643E-3,2.9635012E-2,-1.2347813E-1,-2.1924395E-2,1.0296159E-2,1.8557018E-2,-3.053562E-1,-3.5419736E-2,1.129878E-2],"categories":[],"categories_nodes":[],"categories_segments":[],"categories_sizes":[],"default_left":[0,0,0,0,0,0,0,0,0],"id":40,"left_children":[1,-1,3,-1,5,-1,7,-1,-1],"loss_changes":[1.7400637E0,0E0,8.0301607E-1,0E0,1.739554E0,0E0,1.9084313E0,0E0,0E0],"parents":[2147483647,0,0,2,2,4,4,6,6],"right_children":[2,-1,4,-1,6,-1,8,-1,-1],"split_conditions":[-8.0453134E-1,2.9635012E-2,-1.5571442E-1,-2.1924395E-2,7.060221E-1,1.8557018E-2,1.4060748E0,-3.5419736E-2,1.129878E-2],"split_indices":[4,0,4,0,4,0,4,0,0],"split_type":[0,0,0,0,0,0,0,0,0],"sum_hessian":[2.108112E1,3.1324391E0,1.7948679E1,4.671196E0,1.3277484E1,6.113233E0,7.1642504E0,3.8844676E0,3.279783E0],"tree_param":{"num_deleted":"0","num_feature":"5","num_nodes":"9","size_leaf_vector":"1"}},{"base_weights":[3.7200067E-2,2.447565E-1,-3.4220213E-1,1.08972855E-1,2.3814477E-2,-3.0840972E-2,-1.7861882E-4,1.719628E-2,-1.6206337E-2],"categories":[],"categories_nodes":[],"categories_segments":[],"categories_sizes":[],"default_left":[0,0,0,0,0,0,0,0,0],"id":41,"left_children":[1,3,5,7,-1,-1,-1,-1,-1],"loss_changes":[1.8680005E0,4.268641E-1,7.81649E-1,1.220219E0,0E0,0E0,0E0,0E0,0E0],"parents":[2147483647,0,0,1,1,2,2,3,3],"right_children":[2,4,6,8,-1,-1,-1,-1,-1],"split_conditions":[7.8837746E-1,2.1379574E-1,1.3768051E0,-3.1117773E-1,2.3814477E-2,-3.0840972E-2,-1.7861882E-4,1.719628E-2,-1.6206337E-2],"split_indices":[4,4,4,4,0,0,0,0,0],"split_type":[0,0,0,0,0,0,0,0,0],"sum_hessian":[2.1657825E1,1.4228724E1,7.429102E0,9.89589E0,4.332834E0,3.6486523E0,3.7804496E0,6.5490074E0,3.3468828E0],"tree_param":{"num_deleted":"0","num_feature":"5","num_nodes":"9","size_leaf_vector":"1"}},{"base_weights":[6.5232194E-3],"categories":[],"categories_nodes":[],"categories_segments":[],"categories_sizes":[],"default_left":[0],"id":42,"left_children":[-1],"loss_changes":[0E0],"parents":[2147483647],"right_children":[-1],"split_conditions":[3.2616098E-4],"split_indices":[0],"split_type":[0],"sum_hessian":[2.0005913E1],"tree_param":{"num_deleted":"0","num_feature":"5","num_nodes":"1","size_leaf_vector":"1"}},{"base_weights":[-5.0619643E-2],"categories":[],"categories_nodes":[],"categories_segments":[],"categories_sizes":[],"default_left":[0],"id":43,"left_children":[-1],"loss_changes":[0E0],"parents":[2147483647],"right_children":[-1],"split_conditions":[-2.5309823E-3],"split_indices":[0],"split_type":[0],"sum_hessian":[2.0064533E1],"tree_param":{"num_deleted":"0","num_feature":"5","num_nodes":"1","size_leaf_vector":"1"}},{"base_weights":[1.906065E-2,3.3683233E-2,-1.415933E-1,1.3039273E-2,-2.444889E-2,-2.3044476E-1,2.7657533E-2,-2.1125006E-3,-1.6732236E-2],"categories":[],"categories_nodes":[],"categories_segments":[],"categories_sizes":[],"default_left":[0,0,0,0,0,0,0,0,0],"id":44,"left_children":[1,-1,3,5,-1,7,-1,-1,-1],"loss_changes":[2.2074575E0,0E0,9.16994E-1,1.7982247E0,0E0,1.7142582E-1,0E0,0E0,0E0],"parents":[2147483647,0,0,2,2,3,3,5,5],"right_children":[2,-1,4,6,-1,8,-1,-1,-1],"split_conditions":[-8.498964E-1,3.3683233E-2,8.945076E-1,3.8470808E-1,-2.444889E-2,-3.4994256E-1,2.7657533E-2,-2.1125006E-3,-1.6732236E-2],"split_indices":[4,0,4,4,0,4,0,0,0],"split_type":[0,0,0,0,0,0,0,0,0],"sum_hessian":[1.9083458E1,3.1313064E0,1.5952152E1,1.1704534E1,4.247619E0,8.462809E0,3.2417245E0,3.5167336E0,4.9460754E0],"tree_param":{"num_deleted":"0","num_feature":"5","num_nodes":"9","size_leaf_vector":"1"}},{"base_weights":[7.884693E-2,2.7074996E-1,-2.6483223E-1,-5.889942E-4,3.0978715E-2,-3.3678662E-2,1.1902525E-2,2.4665875E-2,-1.7975932E-2],"categories":[],"categories_nodes":[],"categories_segments":[],"categories_sizes":[],"default_left":[0,0,0,0,0,0,0,0,0],"id":45,"left_children":[1,3,5,7,-1,-1,-1,-1,-1],"loss_changes":[1.4310046E0,1.2989433E0,1.7821832E0,1.7225226E0,0E0,0E0,0E0,0E0,0E0],"parents":[2147483647,0,0,1,1,2,2,3,3],"right_children":[2,4,6,8,-1,-1,-1,-1,-1],"split_conditions":[7.060221E-1,-1.5571442E-1,1.4060748E0,-8.000434E-1,3.0978715E-2,-3.3678662E-2,1.1902525E-2,2.4665875E-2,-1.7975932E-2],"split_indices":[4,4,4,4,0,0,0,0,0],"split_type":[0,0,0,0,0,0,0,0,0],"sum_hessian":[1.9610132E1,1.2719846E1,6.8902855E0,7.716077E0,5.0037694E0,3.6136785E0,3.276607E0,3.0898561E0,4.6262207E0],"tree_param":{"num_deleted":"0","num_feature":"5","num_nodes":"9","size_leaf_vector":"1"}},{"base_weights":[-4.6690293E-2,3.2158995E-1,-4.0776062E-1,3.1936367E-3,2.8274322E-2,-9.63689E-3,-2.8706029E-2],"categories":[],"categories_nodes":[],"categories_segments":[],"categories_sizes":[],"default_left":[0,0,0,0,0,0,0],"id":46,"left_children":[1,3,5,-1,-1,-1,-1],"loss_changes":[2.9529896E0,6.593647E-1,2.88419E-1,0E0,0E0,0E0,0E0],"parents":[2147483647,0,0,1,1,2,2],"right_children":[2,4,6,-1,-1,-1,-1],"split_conditions":[-1.5482192E-1,-4.7723356E-1,8.945076E-1,3.1936367E-3,2.8274322E-2,-9.63689E-3,-2.8706029E-2],"split_indices":[4,4,4,0,0,0,0],"split_type":[0,0,0,0,0,0,0],"sum_hessian":[2.0220955E1,1.0064662E1,1.0156292E1,5.507236E0,4.5574265E0,5.371763E0,4.7845287E0],"tree_param":{"num_deleted":"0","num_feature":"5","num_nodes":"7","size_leaf_vector":"1"}},{"base_weights":[2.4242483E-2,2.3860993E-2,-7.46405E-2,-1.3169742E-2,5.9807852E-2,2.413624E-2,-1.7136553E-1,-2.7750595E-2,8.949451E-3],"categories":[],"categories_nodes":[],"categories_segments":[],"categories_sizes":[],"default_left":[0,0,0,0,0,0,0,0,0],"id":47,"left_children":[1,-1,3,-1,5,-1,7,-1,-1],"loss_changes":[1.0138893E0,0E0,4.926447E-1,0E0,1.2353547E0,0E0,1.2231379E0,0E0,0E0],"parents":[2147483647,0,0,2,2,4,4,6,6],"right_children":[2,-1,4,-1,6,-1,8,-1,-1],"split_conditions":[-8.000434E-1,2.3860993E-2,2.1379574E-1,-1.3169742E-2,7.8837746E-1,2.413624E-2,1.4060748E0,-2.7750595E-2,8.949451E-3],"split_indices":[4,0,4,0,4,0,4,0,0],"split_type":[0,0,0,0,0,0,0,0,0],"sum_hessian":[2.0840391E1,3.048639E0,1.7791752E1,7.0021853E0,1.0789566E1,3.4287453E0,7.3608212E0,3.234655E0,4.1261663E0],"tree_param":{"num_deleted":"0","num_feature":"5","num_nodes":"9","size_leaf_vector":"1"}},{"base_weights":[1.2384064E-2,1.9440811E-2,-1.8611701E-1,-2.631633E-2,5.49831E-2,1.4786313E-2,-6.9112587E-3],"categories":[],"categories_nodes":[],"categories_segments":[],"categories_sizes":[],"default_left":[0,0,0,0,0,0,0],"id":48,"left_children":[1,-1,3,-1,5,-1,-1],"loss_changes":[1.5837785E0,0E0,1.1707035E0,0E0,4.6191415E-1,0E0,0E0],"parents":[2147483647,0,0,2,2,4,4],"right_children":[2,-1,4,-1,6,-1,-1],"split_conditions":[-3.1117773E-1,1.9440811E-2,3.8470808E-1,-2.631633E-2,9.030317E-1,1.4786313E-2,-6.9112587E-3],"split_indices":[4,0,4,0,4,0,0],"split_type":[0,0,0,0,0,0,0],"sum_hessian":[1.9227102E1,6.307316E0,1.2919787E1,4.8678627E0,8.051925E0,3.3487167E0,4.7032075E0],"tree_param":{"num_deleted":"0","num_feature":"5","num_nodes":"7","size_leaf_vector":"1"}},{"base_weights":[1.4940564E-2,2.5710374E-1,-4.393211E-1,-3.2031254E-4,4.3997324E-1,-4.7538515E-2,6.669748E-3,3.792844E-2,3.8942564E-3],"categories":[],"categories_nodes":[],"categories_segments":[],"categories_sizes":[],"default_left":[0,0,0,0,0,0,0,0,0],"id":49,"left_children":[1,3,5,-1,7,-1,-1,-1,-1],"loss_changes":[2.4404922E0,6.9826525E-1,2.3900228E0,0E0,9.2539036E-1,0E0,0E0,0E0,0E0],"parents":[2147483647,0,0,1,1,2,2,4,4],"right_children":[2,4,6,-1,8,-1,-1,-1,-1],"split_conditions":[7.060221E-1,-4.1930252E-1,1.3768051E0,-3.2031254E-4,-1.1212094E-1,-4.7538515E-2,6.669748E-3,3.792844E-2,3.8942564E-3],"split_indices":[4,4,4,0,4,0,0,0,0],"split_type":[0,0,0,0,0,0,0,0,0],"sum_hessian":[2.0158417E1,1.3431965E1,6.7264514E0,5.8980308E0,7.533934E0,3.2045784E0,3.521873E0,3.4251847E0,4.1087494E0],"tree_param":{"num_deleted":"0","num_feature":"5","num_nodes":"9","size_leaf_vector":"1"}},{"base_weights":[-1.1034312E-1,3.6431077E-1,-3.8442788E-1,2.5358194E-2,8.703067E-3,-2.2903462E-1,-2.7926056E-2,-2.6995046E-2,5.4077585E-3],"categories":[],"categories_nodes":[],"categories_segments":[],"categories_sizes":[],"default_left":[0,0,0,0,0,0,0,0,0],"id":50,"left_children":[1,3,5,-1,-1,7,-1,-1,-1],"loss_changes":[2.8528728E0,1.3313293E-1,2.4286127E-1,0E0,0E0,9.9517345E-1,0E0,0E0,0E0],"parents":[2147483647,0,0,1,1,2,2,5,5],"right_children":[2,4,6,-1,-1,8,-1,-1,-1],"split_conditions":[-3.1117773E-1,-7.848466E-1,8.945076E-1,2.5358194E-2,8.703067E-3,2.1379574E-1,-2.7926056E-2,-2.6995046E-2,5.4077585E-3],"split_indices":[4,4,4,0,0,4,0,0,0],"split_type":[0,0,0,0,0,0,0,0,0],"sum_hessian":[1.9852558E1,7.146763E0,1.2705795E1,3.1304266E0,4.016336E0,7.9369583E0,4.7688365E0,3.816877E0,4.120082E0],"tree_param":{"num_deleted":"0","num_feature":"5","num_nodes":"9","size_leaf_vector":"1"}},{"base_weights":[7.051625E-2,2.6863946E-2,-3.000697E-2,-2.2501642E-2,1.5835704E-1,2.9000005E-2,-2.0526263E-1,-2.1121912E-2,2.309588E-3],"categories":[],"categories_nodes":[],"categories_segments":[],"categories_sizes":[],"default_left":[0,0,0,0,0,0,0,0,0],"id":51,"left_children":[1,-1,3,-1,5,-1,7,-1,-1],"loss_changes":[1.0696126E0,0E0,1.6078244E0,0E0,2.288172E0,0E0,4.7469863E-1,0E0,0E0],"parents":[2147483647,0,0,2,2,4,4,6,6],"right_children":[2,-1,4,-1,6,-1,8,-1,-1],"split_conditions":[-8.0453134E-1,2.6863946E-2,-1.5571442E-1,-2.2501642E-2,7.060221E-1,2.9000005E-2,1.4060748E0,-2.1121912E-2,2.309588E-3],"split_indices":[4,0,4,0,4,0,4,0,0],"split_type":[0,0,0,0,0,0,0,0,0],"sum_hessian":[2.1452679E1,3.031517E0,1.8421162E1,5.273288E0,1.3147874E1,5.812634E0,7.33524E0,3.5710356E0,3.764204E0],"tree_param":{"num_deleted":"0","num_feature":"5","num_nodes":"9","size_leaf_vector":"1"}},{"base_weights":[3.311174E-2,2.775486E-1,-2.2414213E-1,-2.1598492E-2,3.235472E-2,-2.1442773E-2,7.4156034E-3,2.6488874E-2,-2.8168304E-2],"categories":[],"categories_nodes":[],"categories_segments":[],"categories_sizes":[],"default_left":[0,0,0,0,0,0,0,0,0],"id":52,"left_children":[1,3,5,7,-1,-1,-1,-1,-1],"loss_changes":[1.3639401E0,1.2368339E0,8.748134E-1,2.4136307E0,0E0,0E0,0E0,0E0,0E0],"parents":[2147483647,0,0,1,1,2,2,3,3],"right_children":[2,4,6,8,-1,-1,-1,-1,-1],"split_conditions":[-1.1212094E-1,-4.1930252E-1,1.4060748E0,-8.0453134E-1,3.235472E-2,-2.1442773E-2,7.4156034E-3,2.6488874E-2,-2.8168304E-2],"split_indices":[4,4,4,4,0,0,0,0,0],"split_type":[0,0,0,0,0,0,0,0,0],"sum_hessian":[1.9701042E1,1.0061726E1,9.639317E0,6.080841E0,3.9808843E0,6.122664E0,3.5166526E0,3.0246649E0,3.0561764E0],"tree_param":{"num_deleted":"0","num_feature":"5","num_nodes":"9","size_leaf_vector":"1"}},{"base_weights":[1.5521759E-1,3.027811E-1,-1.4303525E-2,-4.1382783E-3,4.9938005E-1,3.6407E-2,1.01167075E-2],"categories":[],"categories_nodes":[],"categories_segments":[],"categories_sizes":[],"default_left":[0,0,0,0,0,0,0],"id":53,"left_children":[1,3,-1,-1,5,-1,-1],"loss_changes":[1.412541E0,1.2347784E0,0E0,0E0,5.709214E-1,0E0,0E0],"parents":[2147483647,0,0,1,1,4,4],"right_children":[2,4,-1,-1,6,-1,-1],"split_conditions":[8.945076E-1,-4.1930252E-1,-1.4303525E-2,-4.1382783E-3,-1.1212094E-1,3.6407E-2,1.01167075E-2],"split_indices":[4,4,0,0,4,0,0],"split_type":[0,0,0,0,0,0,0],"sum_hessian":[1.9361862E1,1.4745084E1,4.616779E0,5.175168E0,9.569916E0,4.586503E0,4.9834127E0],"tree_param":{"num_deleted":"0","num_feature":"5","num_nodes":"7","size_leaf_vector":"1"}},{"base_weights":[3.4159344E-2],"categories":[],"categories_nodes":[],"categories_segments":[],"categories_sizes":[],"default_left":[0],"id":54,"left_children":[-1],"loss_changes":[0E0],"parents":[2147483647],"right_children":[-1],"split_conditions":[1.7079673E-3],"split_indices":[0],"split_type":[0],"sum_hessian":[2.0363491E1],"tree_param":{"num_deleted":"0","num_feature":"5","num_nodes":"1","size_leaf_vector":"1"}},{"base_weights":[-5.379457E-2,2.4613304E-1,-3.427976E-1,8.369335E-4,2.7077917E-2,-5.012575E-1,2.068376E-3,-1.2855671E-2,-3.310872E-2],"categories":[],"categories_nodes":[],"categories_segments":[],"categories_sizes":[],"default_left":[0,0,0,0,0,0,0,0,0],"id":55,"left_children":[1,3,5,-1,-1,7,-1,-1,-1],"loss_changes":[1.84749E0,7.0682317E-1,6.767738E-1,0E0,0E0,1.3249028E-1,0E0,0E0,0E0],"parents":[2147483647,0,0,1,1,2,2,5,5],"right_children":[2,4,6,-1,-1,8,-1,-1,-1],"split_conditions":[-1.1212094E-1,-4.1930252E-1,1.2014459E0,8.369335E-4,2.7077917E-2,7.060221E-1,2.068376E-3,-1.2855671E-2,-3.310872E-2],"split_indices":[4,4,4,0,0,4,0,0,0],"split_type":[0,0,0,0,0,0,0,0,0],"sum_hessian":[1.934052E1,9.563671E0,9.77685E0,5.978271E0,3.5854003E0,6.70598E0,3.07087E0,3.6960752E0,3.0099046E0],"tree_param":{"num_deleted":"0","num_feature":"5","num_nodes":"9","size_leaf_vector":"1"}},{"base_weights":[-2.0918194E-2,-1.9403446E-1,1.9444029E-1,3.5000425E-3,-2.41369E-2,2.5919342E-2,-6.599085E-3],"categories":[],"categories_nodes":[],"categories_segments":[],"categories_sizes":[],"default_left":[0,0,0,0,0,0,0],"id":56,"left_children":[1,3,5,-1,-1,-1,-1],"loss_changes":[6.932541E-1,8.149708E-1,9.497825E-1,0E0,0E0,0E0,0E0],"parents":[2147483647,0,0,1,1,2,2],"right_children":[2,4,6,-1,-1,-1,-1],"split_conditions":[3.8470808E-1,-3.1117773E-1,9.030317E-1,3.5000425E-3,-2.41369E-2,2.5919342E-2,-6.599085E-3],"split_indices":[4,4,4,0,0,0,0],"split_type":[0,0,0,0,0,0,0],"sum_hessian":[1.658288E1,9.247932E0,7.3349485E0,5.2260003E0,4.0219316E0,3.3862705E0,3.948678E0],"tree_param":{"num_deleted":"0","num_feature":"5","num_nodes":"7","size_leaf_vector":"1"}},{"base_weights":[-5.6710135E-2,1.443361E-2,-1.2781562E-1,-2.5168693E-2,3.1033337E-2,1.5851283E-1,-1.6178373E-2,-6.2286365E-3,1.6516758E-2],"categories":[],"categories_nodes":[],"categories_segments":[],"categories_sizes":[],"default_left":[0,0,0,0,0,0,0,0,0],"id":57,"left_children":[1,-1,3,-1,5,7,-1,-1,-1],"loss_changes":[5.6983227E-1,0E0,1.1305416E0,0E0,6.8756896E-1,5.773972E-1,0E0,0E0,0E0],"parents":[2147483647,0,0,2,2,4,4,5,5],"right_children":[2,-1,4,-1,6,8,-1,-1,-1],"split_conditions":[-7.5073516E-1,1.443361E-2,-2.263945E-1,-2.5168693E-2,1.5515496E0,3.8470808E-1,-1.6178373E-2,-6.2286365E-3,1.6516758E-2],"split_indices":[4,0,4,0,4,4,0,0,0],"split_type":[0,0,0,0,0,0,0,0,0],"sum_hessian":[2.070058E1,3.0117524E0,1.768883E1,4.6131997E0,1.3075629E1,1.0024713E1,3.0509164E0,3.8902795E0,6.1344333E0],"tree_param":{"num_deleted":"0","num_feature":"5","num_nodes":"9","size_leaf_vector":"1"}},{"base_weights":[-2.1737856E-3,1.78294E-2,-1.6844024E-1,-3.825052E-1,1.5524789E-2,-8.330585E-3,-3.1188687E-2],"categories":[],"categories_nodes":[],"categories_segments":[],"categories_sizes":[],"default_left":[0,0,0,0,0,0,0],"id":58,"left_children":[1,-1,3,5,-1,-1,-1],"loss_changes":[1.2200747E0,0E0,1.550777E0,4.2222345E-1,0E0,0E0,0E0],"parents":[2147483647,0,0,2,2,3,3],"right_children":[2,-1,4,6,-1,-1,-1],"split_conditions":[-3.4994256E-1,1.78294E-2,1.4060748E0,4.7968078E-1,1.5524789E-2,-8.330585E-3,-3.1188687E-2],"split_indices":[4,0,4,4,0,0,0],"split_type":[0,0,0,0,0,0,0],"sum_hessian":[1.844694E1,5.479297E0,1.2967643E1,9.101144E0,3.866499E0,5.6953545E0,3.4057896E0],"tree_param":{"num_deleted":"0","num_feature":"5","num_nodes":"7","size_leaf_vector":"1"}},{"base_weights":[1.1102775E-1,2.1389401E-1,-9.139958E-3,3.8332775E-2,1.963636E-2,2.3138074E-2,-1.2148892E-2],"categories":[],"categories_nodes":[],"categories_segments":[],"categories_sizes":[],"default_left":[0,0,0,0,0,0,0],"id":59,"left_children":[1,3,-1,5,-1,-1,-1],"loss_changes":[6.8607175E-1,4.9718994E-1,0E0,1.2277491E0,0E0,0E0,0E0],"parents":[2147483647,0,0,1,1,3,3],"right_children":[2,4,-1,6,-1,-1,-1],"split_conditions":[8.945076E-1,-1.5571442E-1,-9.139958E-3,-7.848466E-1,1.963636E-2,2.3138074E-2,-1.2148892E-2],"split_indices":[4,4,0,4,0,0,0],"split_type":[0,0,0,0,0,0,0],"sum_hessian":[2.0405285E1,1.5315501E1,5.0897837E0,8.341231E0,6.97427E0,3.0677419E0,5.2734895E0],"tree_param":{"num_deleted":"0","num_feature":"5","num_nodes":"7","size_leaf_vector":"1"}},{"base_weights":[-5.3925004E-2,1.709561E-2,-1.4376153E-1,-2.7227739E-2,2.1988694E-3,2.1299288E-1,-1.171297E-2,1.4407625E-3,1.8751202E-2],"categories":[],"categories_nodes":[],"categories_segments":[],"categories_sizes":[],"default_left":[0,0,0,0,0,0,0,0,0],"id":60,"left_children":[1,-1,3,-1,5,7,-1,-1,-1],"loss_changes":[7.725767E-1,0E0,1.0123327E0,0E0,7.3107105E-1,2.2044155E-1,0E0,0E0,0E0],"parents":[2147483647,0,0,2,2,4,4,5,5],"right_children":[2,-1,4,-1,6,8,-1,-1,-1],"split_conditions":[-7.959278E-1,1.709561E-2,-2.6375526E-1,-2.7227739E-2,7.8837746E-1,2.1991105E-1,-1.171297E-2,1.4407625E-3,1.8751202E-2],"split_indices":[4,0,4,0,4,4,0,0,0],"split_type":[0,0,0,0,0,0,0,0,0],"sum_hessian":[1.9343359E1,3.0589764E0,1.6284382E1,3.6182306E0,1.2666152E1,6.7489467E0,5.9172053E0,3.7098594E0,3.0390873E0],"tree_param":{"num_deleted":"0","num_feature":"5","num_nodes":"9","size_leaf_vector":"1"}},{"base_weights":[-1.19020725E-2,2.0704683E-2,-1.0889E-1,-3.4131902E-1,1.3243686E-1,-3.8892832E-3,-2.4912843E-2,3.1716757E-2,-1.5223353E-2],"categories":[],"categories_nodes":[],"categories_segments":[],"categories_sizes":[],"default_left":[0,0,0,0,0,0,0,0,0],"id":61,"left_children":[1,-1,3,5,7,-1,-1,-1,-1],"loss_changes":[8.9116263E-1,0E0,1.0252316E0,3.4089696E-1,2.2307792E0,0E0,0E0,0E0,0E0],"parents":[2147483647,0,0,2,2,3,3,4,4],"right_children":[2,-1,4,6,8,-1,-1,-1,-1],"split_conditions":[-7.959278E-1,2.0704683E-2,3.8470808E-1,-3.1117773E-1,8.945076E-1,-3.8892832E-3,-2.4912843E-2,3.1716757E-2,-1.5223353E-2],"split_indices":[4,0,4,4,4,0,0,0,0],"split_type":[0,0,0,0,0,0,0,0,0],"sum_hessian":[1.9477852E1,3.0058508E0,1.6472002E1,8.179623E0,8.292379E0,3.611224E0,4.5683985E0,3.6488433E0,4.643536E0],"tree_param":{"num_deleted":"0","num_feature":"5","num_nodes":"9","size_leaf_vector":"1"}},{"base_weights":[7.105894E-2,2.925116E-1,-1.5071006E-1,-3.7134786E-3,2.6180768E-2,-1.6434973E-2,8.98905E-3],"categories":[],"categories_nodes":[],"categories_segments":[],"categories_sizes":[],"default_left":[0,0,0,0,0,0,0],"id":62,"left_children":[1,3,5,-1,-1,-1,-1],"loss_changes":[1.062297E0,9.4703877E-1,7.0727086E-1,0E0,0E0,0E0,0E0],"parents":[2147483647,0,0,1,1,2,2],"right_children":[2,4,6,-1,-1,-1,-1],"split_conditions":[-1.1212094E-1,-6.023773E-1,1.4060748E0,-3.7134786E-3,2.6180768E-2,-1.6434973E-2,8.98905E-3],"split_indices":[4,4,4,0,0,0,0],"split_type":[0,0,0,0,0,0,0],"sum_hessian":[1.973274E1,9.713801E0,1.0018938E1,4.017044E0,5.6967573E0,6.515415E0,3.5035233E0],"tree_param":{"num_deleted":"0","num_feature":"5","num_nodes":"7","size_leaf_vector":"1"}},{"base_weights":[9.6832335E-2,-3.5949554E-2,2.809591E-2,2.5497058E-1,-2.5833834E-2,-1.0736466E-3,2.6073882E-2],"categories":[],"categories_nodes":[],"categories_segments":[],"categories_sizes":[],"default_left":[0,0,0,0,0,0,0],"id":63,"left_children":[1,3,-1,5,-1,-1,-1],"loss_changes":[1.2178924E0,2.3731377E0,0E0,7.9612845E-1,0E0,0E0,0E0],"parents":[2147483647,0,0,1,1,3,3],"right_children":[2,4,-1,6,-1,-1,-1],"split_conditions":[1.4060748E0,-1.1212094E-1,2.809591E-2,-4.1930252E-1,-2.5833834E-2,-1.0736466E-3,2.6073882E-2],"split_indices":[4,4,0,4,0,0,0],"split_type":[0,0,0,0,0,0,0],"sum_hessian":[1.8394253E1,1.5026807E1,3.367446E0,9.654087E0,5.3727193E0,5.190006E0,4.464082E0],"tree_param":{"num_deleted":"0","num_feature":"5","num_nodes":"7","size_leaf_vector":"1"}},{"base_weights":[3.560679E-2,3.3051795E-1,-2.3716888E-1,-1.3787313E-3,3.7877373E-2,-4.3787673E-1,7.523606E-3,-6.293177E-3,-3.347745E-2],"categories":[],"categories_nodes":[],"categories_segments":[],"categories_sizes":[],"default_left":[0,0,0,0,0,0,0,0,0],"id":64,"left_children":[1,3,5,-1,-1,7,-1,-1,-1],"loss_changes":[1.7001907E0,1.5661016E0,9.260359E-1,0E0,0E0,4.6074235E-1,0E0,0E0,0E0],"parents":[2147483647,0,0,1,1,2,2,5,5],"right_children":[2,4,6,-1,-1,8,-1,-1,-1],"split_conditions":[-1.1212094E-1,-4.1930252E-1,1.4060748E0,-1.3787313E-3,3.7877373E-2,4.233659E-1,7.523606E-3,-6.293177E-3,-3.347745E-2],"split_indices":[4,4,4,0,0,4,0,0,0],"split_type":[0,0,0,0,0,0,0,0,0],"sum_hessian":[1.9160486E1,9.104971E0,1.0055515E1,5.460993E0,3.6439786E0,6.539818E0,3.5156977E0,3.444326E0,3.0954916E0],"tree_param":{"num_deleted":"0","num_feature":"5","num_nodes":"9","size_leaf_vector":"1"}},{"base_weights":[9.650836E-2,-1.2013342E-2,2.3461345E-1,4.73519E-2,-7.914311E-2,-2.4771295E-1,1.2872313E-2,2.2283613E-3,-2.624976E-2],"categories":[],"categories_nodes":[],"categories_segments":[],"categories_sizes":[],"default_left":[0,0,0,0,0,0,0,0,0],"id":65,"left_children":[1,-1,3,-1,5,7,-1,-1,-1],"loss_changes":[1.0061382E0,0E0,3.4251413E0,0E0,7.065174E-1,6.76419E-1,0E0,0E0,0E0],"parents":[2147483647,0,0,2,2,4,4,5,5],"right_children":[2,-1,4,-1,6,8,-1,-1,-1],"split_conditions":[-4.1930252E-1,-1.2013342E-2,-1.1212094E-1,4.73519E-2,1.4060748E0,7.8837746E-1,1.2872313E-2,2.2283613E-3,-2.624976E-2],"split_indices":[4,0,4,0,4,4,0,0,0],"split_type":[0,0,0,0,0,0,0,0,0],"sum_hessian":[1.942057E1,5.4327755E0,1.3987795E1,3.6596668E0,1.0328128E1,7.0576057E0,3.2705226E0,3.8444667E0,3.213139E0],"tree_param":{"num_deleted":"0","num_feature":"5","num_nodes":"9","size_leaf_vector":"1"}},{"base_weights":[5.9251763E-2,1.7217629E-2,-1.17755815E-1,-2.108246E-2,8.819982E-2,-3.1189031E-3,1.2369978E-2],"categories":[],"categories_nodes":[],"categories_segments":[],"categories_sizes":[],"default_left":[0,0,0,0,0,0,0],"id":66,"left_children":[1,-1,3,-1,5,-1,-1],"loss_changes":[1.0158144E0,0E0,8.3007455E-1,0E0,2.1626566E-1,0E0,0E0],"parents":[2147483647,0,0,2,2,4,4],"right_children":[2,-1,4,-1,6,-1,-1],"split_conditions":[-3.1117773E-1,1.7217629E-2,3.8470808E-1,-2.108246E-2,1.4060748E0,-3.1189031E-3,1.2369978E-2],"split_indices":[4,0,4,0,4,0,0],"split_type":[0,0,0,0,0,0,0],"sum_hessian":[1.8325567E1,6.657354E0,1.1668213E1,4.290369E0,7.377844E0,4.104146E0,3.2736976E0],"tree_param":{"num_deleted":"0","num_feature":"5","num_nodes":"7","size_leaf_vector":"1"}},{"base_weights":[1.4087798E-1],"categories":[],"categories_nodes":[],"categories_segments":[],"categories_sizes":[],"default_left":[0],"id":67,"left_children":[-1],"loss_changes":[0E0],"parents":[2147483647],"right_children":[-1],"split_conditions":[7.043899E-3],"split_indices":[0],"split_type":[0],"sum_hessian":[1.9653563E1],"tree_param":{"num_deleted":"0","num_feature":"5","num_nodes":"1","size_leaf_vector":"1"}},{"base_weights":[-4.416408E-2],"categories":[],"categories_nodes":[],"categories_segments":[],"categories_sizes":[],"default_left":[0],"id":68,"left_children":[-1],"loss_changes":[0E0],"parents":[2147483647],"right_children":[-1],"split_conditions":[-2.208204E-3],"split_indices":[0],"split_type":[0],"sum_hessian":[1.854303E1],"tree_param":{"num_deleted":"0","num_feature":"5","num_nodes":"1","size_leaf_vector":"1"}},{"base_weights":[3.7404113E-2,1.9105902E-1,-1.1287692E-1,2.7696346E-4,1.949376E-2,-1.740758E-2,8.500854E-3],"categories":[],"categories_nodes":[],"categories_segments":[],"categories_sizes":[],"default_left":[0,0,0,0,0,0,0],"id":69,"left_children":[1,3,5,-1,-1,-1,-1],"loss_changes":[4.8991236E-1,3.814353E-1,7.834948E-1,0E0,0E0,0E0,0E0],"parents":[2147483647,0,0,1,1,2,2],"right_children":[2,4,6,-1,-1,-1,-1],"split_conditions":[-1.1212094E-1,-4.1930252E-1,8.512655E-1,2.7696346E-4,1.949376E-2,-1.740758E-2,8.500854E-3],"split_indices":[4,4,4,0,0,0,0],"split_type":[0,0,0,0,0,0,0],"sum_hessian":[1.9282263E1,9.399942E0,9.88232E0,5.394281E0,4.005661E0,5.2693105E0,4.61301E0],"tree_param":{"num_deleted":"0","num_feature":"5","num_nodes":"7","size_leaf_vector":"1"}},{"base_weights":[4.475711E-2,1.80935E-1,-1.39307445E-2,3.7462812E-2,2.7830204E-2,2.4932791E-1,-1.1898396E-2,1.7460323E-3,2.0474723E-2],"categories":[],"categories_nodes":[],"categories_segments":[],"categories_sizes":[],"default_left":[0,0,0,0,0,0,0,0,0],"id":70,"left_children":[1,3,-1,5,-1,7,-1,-1,-1],"loss_changes":[9.42466E-1,7.8011584E-1,0E0,7.494259E-1,0E0,2.3201516E-1,0E0,0E0,0E0],"parents":[2147483647,0,0,1,1,3,3,5,5],"right_children":[2,4,-1,6,-1,8,-1,-1,-1],"split_conditions":[8.945076E-1,3.1150612E-1,-1.39307445E-2,-3.1117773E-1,2.7830204E-2,-7.051424E-1,-1.1898396E-2,1.7460323E-3,2.0474723E-2],"split_indices":[4,4,0,4,0,4,0,0,0],"split_type":[0,0,0,0,0,0,0,0,0],"sum_hessian":[1.9257347E1,1.3860789E1,5.396559E0,1.0825958E1,3.0348303E0,6.1726456E0,4.6533127E0,3.1602278E0,3.0124178E0],"tree_param":{"num_deleted":"0","num_feature":"5","num_nodes":"9","size_leaf_vector":"1"}},{"base_weights":[3.413547E-2,1.3125839E-2,-9.217161E-2,-2.1467974E-2,1.0176968E-2],"categories":[],"categories_nodes":[],"categories_segments":[],"categories_sizes":[],"default_left":[0,0,0,0,0],"id":71,"left_children":[1,-1,3,-1,-1],"loss_changes":[5.983479E-1,0E0,1.4390732E0,0E0,0E0],"parents":[2147483647,0,0,2,2],"right_children":[2,-1,4,-1,-1],"split_conditions":[-3.1117773E-1,1.3125839E-2,3.8470808E-1,-2.1467974E-2,1.0176968E-2],"split_indices":[4,0,4,0,0],"split_type":[0,0,0,0,0],"sum_hessian":[1.8903896E1,6.3477864E0,1.2556109E1,5.6554546E0,6.900655E0],"tree_param":{"num_deleted":"0","num_feature":"5","num_nodes":"5","size_leaf_vector":"1"}},{"base_weights":[-7.679355E-2,-2.5383604E-1,4.820707E-2,1.0398648E-2,-2.8256044E-2,1.7362736E-2,-1.0242577E-2],"categories":[],"categories_nodes":[],"categories_segments":[],"categories_sizes":[],"default_left":[0,0,0,0,0,0,0],"id":72,"left_children":[1,3,5,-1,-1,-1,-1],"loss_changes":[4.491803E-1,1.3150988E0,1.0105358E0,0E0,0E0,0E0,0E0],"parents":[2147483647,0,0,1,1,2,2],"right_children":[2,4,6,-1,-1,-1,-1],"split_conditions":[-1.5571442E-1,-7.29831E-1,7.060221E-1,1.0398648E-2,-2.8256044E-2,1.7362736E-2,-1.0242577E-2],"split_indices":[4,4,4,0,0,0,0],"split_type":[0,0,0,0,0,0,0],"sum_hessian":[1.8744028E1,7.3306746E0,1.1413354E1,3.0853171E0,4.2453575E0,5.0607133E0,6.3526406E0],"tree_param":{"num_deleted":"0","num_feature":"5","num_nodes":"7","size_leaf_vector":"1"}},{"base_weights":[4.4506375E-2,1.3441488E-1,-1.736849E-2,-6.917472E-2,2.5888953E-2,4.076808E-3,-1.119621E-2],"categories":[],"categories_nodes":[],"categories_segments":[],"categories_sizes":[],"default_left":[0,0,0,0,0,0,0],"id":73,"left_children":[1,3,-1,5,-1,-1,-1],"loss_changes":[7.6032364E-1,1.3779335E0,0E0,3.007733E-1,0E0,0E0,0E0],"parents":[2147483647,0,0,1,1,3,3],"right_children":[2,4,-1,6,-1,-1,-1],"split_conditions":[1.5515496E0,3.8470808E-1,-1.736849E-2,-3.1117773E-1,2.5888953E-2,4.076808E-3,-1.119621E-2],"split_indices":[4,4,0,4,0,0,0],"split_type":[0,0,0,0,0,0,0],"sum_hessian":[1.9254648E1,1.6195824E1,3.0588257E0,1.11134615E1,5.0823617E0,5.86988E0,5.2435813E0],"tree_param":{"num_deleted":"0","num_feature":"5","num_nodes":"7","size_leaf_vector":"1"}},{"base_weights":[2.1417406E-1,3.324174E-1,-1.6731085E-2,1.15801245E-1,3.5372324E-2,2.1566493E-2,-1.2253145E-2],"categories":[],"categories_nodes":[],"categories_segments":[],"categories_sizes":[],"default_left":[0,0,0,0,0,0,0],"id":74,"left_children":[1,3,-1,5,-1,-1,-1],"loss_changes":[1.4131343E0,1.2997581E0,0E0,1.4693992E0,0E0,0E0,0E0],"parents":[2147483647,0,0,1,1,3,3],"right_children":[2,4,-1,6,-1,-1,-1],"split_conditions":[1.5515496E0,3.8470808E-1,-1.6731085E-2,-3.1117773E-1,3.5372324E-2,2.1566493E-2,-1.2253145E-2],"split_indices":[4,4,0,4,0,0,0],"split_type":[0,0,0,0,0,0,0],"sum_hessian":[1.9062746E1,1.6007957E1,3.05479E0,1.09766445E1,5.031312E0,5.752001E0,5.224644E0],"tree_param":{"num_deleted":"0","num_feature":"5","num_nodes":"7","size_leaf_vector":"1"}},{"base_weights":[1.1074245E-2,1.6210282E-2,-6.0137346E-2,-2.061113E-2,1.08766995E-1,3.28626E-1,-9.7862445E-3,1.8070079E-3,2.8404895E-2],"categories":[],"categories_nodes":[],"categories_segments":[],"categories_sizes":[],"default_left":[0,0,0,0,0,0,0,0,0],"id":75,"left_children":[1,-1,3,-1,5,7,-1,-1,-1],"loss_changes":[4.9723482E-1,0E0,1.1330272E0,0E0,9.4514626E-1,5.4077286E-1,0E0,0E0,0E0],"parents":[2147483647,0,0,2,2,4,4,5,5],"right_children":[2,-1,4,-1,6,8,-1,-1,-1],"split_conditions":[-7.848466E-1,1.6210282E-2,-1.5571442E-1,-2.061113E-2,8.945076E-1,3.8470808E-1,-9.7862445E-3,1.8070079E-3,2.8404895E-2],"split_indices":[4,0,4,0,4,4,0,0,0],"split_type":[0,0,0,0,0,0,0,0,0],"sum_hessian":[2.0424585E1,3.1260443E0,1.7298542E1,5.14114E0,1.2157401E1,7.0138063E0,5.1435947E0,3.6755202E0,3.3382864E0],"tree_param":{"num_deleted":"0","num_feature":"5","num_nodes":"9","size_leaf_vector":"1"}},{"base_weights":[6.958037E-2],"categories":[],"categories_nodes":[],"categories_segments":[],"categories_sizes":[],"default_left":[0],"id":76,"left_children":[-1],"loss_changes":[0E0],"parents":[2147483647],"right_children":[-1],"split_conditions":[3.4790186E-3],"split_indices":[0],"split_type":[0],"sum_hessian":[1.888172E1],"tree_param":{"num_deleted":"0","num_feature":"5","num_nodes":"1","size_leaf_vector":"1"}},{"base_weights":[-3.3480983E-2,2.051569E-2,-1.2979963E-1,-2.610017E-1,1.4124147E-2,-6.36334E-2,-3.7513923E-2,-1.631998E-2,1.2561676E-2],"categories":[],"categories_nodes":[],"categories_segments":[],"categories_sizes":[],"default_left":[0,0,0,0,0,0,0,0,0],"id":77,"left_children":[1,-1,3,5,-1,7,-1,-1,-1],"loss_changes":[9.607178E-1,0E0,1.0583769E0,1.3359257E0,0E0,1.0171382E0,0E0,0E0,0E0],"parents":[2147483647,0,0,2,2,3,3,5,5],"right_children":[2,-1,4,6,-1,8,-1,-1,-1],"split_conditions":[-7.959278E-1,2.051569E-2,1.4060748E0,4.7968078E-1,1.4124147E-2,-1.5571442E-1,-3.7513923E-2,-1.631998E-2,1.2561676E-2],"split_indices":[4,0,4,4,0,4,0,0,0],"split_type":[0,0,0,0,0,0,0,0,0],"sum_hessian":[2.0229246E1,3.0261397E0,1.7203108E1,1.3328476E1,3.8746312E0,1.0302591E1,3.0258846E0,5.5959606E0,4.7066307E0],"tree_param":{"num_deleted":"0","num_feature":"5","num_nodes":"9","size_leaf_vector":"1"}},{"base_weights":[-1.16990924E-1,1.4726393E-1,-3.4989685E-1,-9.904424E-3,2.7628226E-2,-2.5186349E-2,1.15784E-3],"categories":[],"categories_nodes":[],"categories_segments":[],"categories_sizes":[],"default_left":[0,0,0,0,0,0,0],"id":78,"left_children":[1,3,5,-1,-1,-1,-1],"loss_changes":[1.2492179E0,1.484008E0,6.222441E-1,0E0,0E0,0E0,0E0],"parents":[2147483647,0,0,1,1,2,2],"right_children":[2,4,6,-1,-1,-1,-1],"split_conditions":[-1.1212094E-1,-4.1930252E-1,1.3768051E0,-9.904424E-3,2.7628226E-2,-2.5186349E-2,1.15784E-3],"split_indices":[4,4,4,0,0,0,0],"split_type":[0,0,0,0,0,0,0],"sum_hessian":[1.8459925E1,8.820221E0,9.639704E0,5.03835E0,3.7818704E0,6.577264E0,3.0624404E0],"tree_param":{"num_deleted":"0","num_feature":"5","num_nodes":"7","size_leaf_vector":"1"}},{"base_weights":[4.7142405E-2],"categories":[],"categories_nodes":[],"categories_segments":[],"categories_sizes":[],"default_left":[0],"id":79,"left_children":[-1],"loss_changes":[0E0],"parents":[2147483647],"right_children":[-1],"split_conditions":[2.3571204E-3],"split_indices":[0],"split_type":[0],"sum_hessian":[1.9051495E1],"tree_param":{"num_deleted":"0","num_feature":"5","num_nodes":"1","size_leaf_vector":"1"}},{"base_weights":[-6.641488E-2,-2.3008664E-1,1.6404314E-1,5.4259645E-3,-2.978119E-2,1.3928031E-2,-1.8217135E-3],"categories":[],"categories_nodes":[],"categories_segments":[],"categories_sizes":[],"default_left":[0,0,0,0,0,0,0],"id":80,"left_children":[1,3,5,-1,-1,-1,-1],"loss_changes":[8.0392325E-1,1.586241E0,2.1721016E-1,0E0,0E0,0E0,0E0],"parents":[2147483647,0,0,1,1,2,2],"right_children":[2,4,6,-1,-1,-1,-1],"split_conditions":[3.8470808E-1,-3.1117773E-1,1.5413085E0,5.4259645E-3,-2.978119E-2,1.3928031E-2,-1.8217135E-3],"split_indices":[4,4,4,0,0,0,0],"split_type":[0,0,0,0,0,0,0],"sum_hessian":[1.9312563E1,1.1293505E1,8.019058E0,6.2277303E0,5.065774E0,4.8558154E0,3.1632433E0],"tree_param":{"num_deleted":"0","num_feature":"5","num_nodes":"7","size_leaf_vector":"1"}},{"base_weights":[-1.122054E-2,2.1878624E-1,-2.38951E-1,-3.5871638E-3,2.8278295E-2,-2.0021562E-2,-4.556822E-3],"categories":[],"categories_nodes":[],"categories_segments":[],"categories_sizes":[],"default_left":[0,0,0,0,0,0,0],"id":81,"left_children":[1,3,5,-1,-1,-1,-1],"loss_changes":[1.0816247E0,1.0781965E0,2.1061546E-1,0E0,0E0,0E0,0E0],"parents":[2147483647,0,0,1,1,2,2],"right_children":[2,4,6,-1,-1,-1,-1],"split_conditions":[-1.1212094E-1,-4.1930252E-1,7.779838E-1,-3.5871638E-3,2.8278295E-2,-2.0021562E-2,-4.556822E-3],"split_indices":[4,4,4,0,0,0,0],"split_type":[0,0,0,0,0,0,0],"sum_hessian":[1.865167E1,9.298998E0,9.352673E0,5.491431E0,3.8075666E0,3.6529696E0,5.6997027E0],"tree_param":{"num_deleted":"0","num_feature":"5","num_nodes":"7","size_leaf_vector":"1"}},{"base_weights":[-4.6372656E-3],"categories":[],"categories_nodes":[],"categories_segments":[],"categories_sizes":[],"default_left":[0],"id":82,"left_children":[-1],"loss_changes":[0E0],"parents":[2147483647],"right_children":[-1],"split_conditions":[-2.3186328E-4],"split_indices":[0],"split_type":[0],"sum_hessian":[1.963012E1],"tree_param":{"num_deleted":"0","num_feature":"5","num_nodes":"1","size_leaf_vector":"1"}},{"base_weights":[1.8345267E-1,2.9557326E-1,-3.983044E-3,7.3787745E-4,2.3518628E-2],"categories":[],"categories_nodes":[],"categories_segments":[],"categories_sizes":[],"default_left":[0,0,0,0,0],"id":83,"left_children":[1,3,-1,-1,-1],"loss_changes":[6.268744E-1,7.0740604E-1,0E0,0E0,0E0],"parents":[2147483647,0,0,1,1],"right_children":[2,4,-1,-1,-1],"split_conditions":[7.8837746E-1,-4.1930252E-1,-3.983044E-3,7.3787745E-4,2.3518628E-2],"split_indices":[4,4,0,0,0],"split_type":[0,0,0,0,0],"sum_hessian":[1.9451515E1,1.3552864E1,5.8986506E0,5.615679E0,7.937185E0],"tree_param":{"num_deleted":"0","num_feature":"5","num_nodes":"5","size_leaf_vector":"1"}},{"base_weights":[-2.1156993E-2,2.0059295E-2,-1.1490835E-1,-2.7770678E-2,1.106623E-1,2.4574202E-2,-2.1119304E-1,-2.6483682E-3,-1.6699038E-2],"categories":[],"categories_nodes":[],"categories_segments":[],"categories_sizes":[],"default_left":[0,0,0,0,0,0,0,0,0],"id":84,"left_children":[1,-1,3,-1,5,-1,7,-1,-1],"loss_changes":[8.700291E-1,0E0,1.8307699E0,0E0,1.6493789E0,0E0,1.2867108E-1,0E0,0E0],"parents":[2147483647,0,0,2,2,4,4,6,6],"right_children":[2,-1,4,-1,6,-1,8,-1,-1],"split_conditions":[-7.959278E-1,2.0059295E-2,-1.5571442E-1,-2.7770678E-2,7.8837746E-1,2.4574202E-2,1.5413085E0,-2.6483682E-3,-1.6699038E-2],"split_indices":[4,0,4,0,4,0,4,0,0],"split_type":[0,0,0,0,0,0,0,0,0],"sum_hessian":[1.9808811E1,3.0026853E0,1.6806128E1,5.1962943E0,1.1609833E1,5.076383E0,6.5334496E0,3.4801989E0,3.0532508E0],"tree_param":{"num_deleted":"0","num_feature":"5","num_nodes":"9","size_leaf_vector":"1"}},{"base_weights":[1.105577E-1],"categories":[],"categories_nodes":[],"categories_segments":[],"categories_sizes":[],"default_left":[0],"id":85,"left_children":[-1],"loss_changes":[0E0],"parents":[2147483647],"right_children":[-1],"split_conditions":[5.527885E-3],"split_indices":[0],"split_type":[0],"sum_hessian":[1.8165611E1],"tree_param":{"num_deleted":"0","num_feature":"5","num_nodes":"1","size_leaf_vector":"1"}},{"base_weights":[-1.4326845E-1],"categories":[],"categories_nodes":[],"categories_segments":[],"categories_sizes":[],"default_left":[0],"id":86,"left_children":[-1],"loss_changes":[0E0],"parents":[2147483647],"right_children":[-1],"split_conditions":[-7.1634226E-3],"split_indices":[0],"split_type":[0],"sum_hessian":[1.963057E1],"tree_param":{"num_deleted":"0","num_feature":"5","num_nodes":"1","size_leaf_vector":"1"}},{"base_weights":[-1.3914543E-1],"categories":[],"categories_nodes":[],"categories_segments":[],"categories_sizes":[],"default_left":[0],"id":87,"left_children":[-1],"loss_changes":[0E0],"parents":[2147483647],"right_children":[-1],"split_conditions":[-6.9572716E-3],"split_indices":[0],"split_type":[0],"sum_hessian":[2.0126217E1],"tree_param":{"num_deleted":"0","num_feature":"5","num_nodes":"1","size_leaf_vector":"1"}},{"base_weights":[-2.3748943E-1],"categories":[],"categories_nodes":[],"categories_segments":[],"categories_sizes":[],"default_left":[0],"id":88,"left_children":[-1],"loss_changes":[0E0],"parents":[2147483647],"right_children":[-1],"split_conditions":[-1.1874472E-2],"split_indices":[0],"split_type":[0],"sum_hessian":[1.8184841E1],"tree_param":{"num_deleted":"0","num_feature":"5","num_nodes":"1","size_leaf_vector":"1"}},{"base_weights":[-3.0834088E-2,-2.4394333E-1,2.5121233E-1,4.8606033E-3,-4.2562574E-1,3.27543E-2,-4.8505645E-3,-2.8663173E-2,-9.473476E-3],"categories":[],"categories_nodes":[],"categories_segments":[],"categories_sizes":[],"default_left":[0,0,0,0,0,0,0,0,0],"id":89,"left_children":[1,3,5,-1,7,-1,-1,-1,-1],"loss_changes":[1.2802478E0,7.8882134E-1,1.3603702E0,0E0,1.7221141E-1,0E0,0E0,0E0,0E0],"parents":[2147483647,0,0,1,1,2,2,4,4],"right_children":[2,4,6,-1,8,-1,-1,-1,-1],"split_conditions":[3.8470808E-1,-5.958351E-1,8.945076E-1,4.8606033E-3,-1.5571442E-1,3.27543E-2,-4.8505645E-3,-2.8663173E-2,-9.473476E-3],"split_indices":[4,4,4,0,4,0,0,0,0],"split_type":[0,0,0,0,0,0,0,0,0],"sum_hessian":[1.9280039E1,1.1059085E1,8.220953E0,4.0045147E0,7.0545707E0,3.3983207E0,4.8226323E0,3.4624662E0,3.5921044E0],"tree_param":{"num_deleted":"0","num_feature":"5","num_nodes":"9","size_leaf_vector":"1"}},{"base_weights":[3.276129E-2,-1.2594564E-1,2.6076558E-1,8.984753E-3,-2.1560878E-2,2.5373137E-2,6.567391E-4],"categories":[],"categories_nodes":[],"categories_segments":[],"categories_sizes":[],"default_left":[0,0,0,0,0,0,0],"id":90,"left_children":[1,3,5,-1,-1,-1,-1],"loss_changes":[7.4429536E-1,1.221991E0,5.0616056E-1,0E0,0E0,0E0,0E0],"parents":[2147483647,0,0,1,1,2,2],"right_children":[2,4,6,-1,-1,-1,-1],"split_conditions":[3.8470808E-1,-3.1117773E-1,9.030317E-1,8.984753E-3,-2.1560878E-2,2.5373137E-2,6.567391E-4],"split_indices":[4,4,4,0,0,0,0],"split_type":[0,0,0,0,0,0,0],"sum_hessian":[1.8661077E1,1.1266454E1,7.394623E0,5.8353825E0,5.4310713E0,3.178668E0,4.2159553E0],"tree_param":{"num_deleted":"0","num_feature":"5","num_nodes":"7","size_leaf_vector":"1"}},{"base_weights":[-1.07387304E-1,3.0651841E-2,-2.2158924E-1,-1.4983584E-2,2.0646762E-2,-3.0425957E-1,-5.2912714E-4,-6.085663E-3,-2.0693833E-2],"categories":[],"categories_nodes":[],"categories_segments":[],"categories_sizes":[],"default_left":[0,0,0,0,0,0,0,0,0],"id":91,"left_children":[1,3,5,-1,-1,7,-1,-1,-1],"loss_changes":[3.222161E-1,1.3786129E0,1.8990779E-1,0E0,0E0,1.0808021E-1,0E0,0E0,0E0],"parents":[2147483647,0,0,1,1,2,2,5,5],"right_children":[2,4,6,-1,-1,8,-1,-1,-1],"split_conditions":[-1.1212094E-1,-4.1930252E-1,1.4060748E0,-1.4983584E-2,2.0646762E-2,7.060221E-1,-5.2912714E-4,-6.085663E-3,-2.0693833E-2],"split_indices":[4,4,4,0,0,4,0,0,0],"split_type":[0,0,0,0,0,0,0,0,0],"sum_hessian":[1.9008707E1,8.937407E0,1.00713E1,4.9104686E0,4.0269384E0,6.918685E0,3.152615E0,3.3876128E0,3.5310721E0],"tree_param":{"num_deleted":"0","num_feature":"5","num_nodes":"9","size_leaf_vector":"1"}},{"base_weights":[6.829417E-2,2.3864833E-1,-9.1172285E-2,-2.3252384E-3,2.4178525E-2,-1.7132867E-2,1.5320845E-2],"categories":[],"categories_nodes":[],"categories_segments":[],"categories_sizes":[],"default_left":[0,0,0,0,0,0,0],"id":92,"left_children":[1,3,5,-1,-1,-1,-1],"loss_changes":[5.723499E-1,7.261871E-1,1.2240611E0,0E0,0E0,0E0,0E0],"parents":[2147483647,0,0,1,1,2,2],"right_children":[2,4,6,-1,-1,-1,-1],"split_conditions":[-1.1212094E-1,-6.008829E-1,1.4060748E0,-2.3252384E-3,2.4178525E-2,-1.7132867E-2,1.5320845E-2],"split_indices":[4,4,4,0,0,0,0],"split_type":[0,0,0,0,0,0,0],"sum_hessian":[1.9267849E1,9.075824E0,1.0192025E1,4.567819E0,4.5080047E0,6.327737E0,3.8642886E0],"tree_param":{"num_deleted":"0","num_feature":"5","num_nodes":"7","size_leaf_vector":"1"}},{"base_weights":[-1.312909E-1,8.24203E-3,-2.8700563E-1,-3.6705917E-1,-1.7655947E-3,-4.141394E-3,-2.4416897E-2],"categories":[],"categories_nodes":[],"categories_segments":[],"categories_sizes":[],"default_left":[0,0,0,0,0,0,0],"id":93,"left_children":[1,-1,3,5,-1,-1,-1],"loss_changes":[9.120539E-1,0E0,2.420286E-1,2.868557E-1,0E0,0E0,0E0],"parents":[2147483647,0,0,2,2,3,3],"right_children":[2,-1,4,6,-1,-1,-1],"split_conditions":[-3.1117773E-1,8.24203E-3,1.4060748E0,-1.5482192E-1,-1.7655947E-3,-4.141394E-3,-2.4416897E-2],"split_indices":[4,0,4,4,0,0,0],"split_type":[0,0,0,0,0,0,0],"sum_hessian":[1.7753101E1,6.097857E0,1.1655245E1,8.494981E0,3.160264E0,3.0439878E0,5.450993E0],"tree_param":{"num_deleted":"0","num_feature":"5","num_nodes":"7","size_leaf_vector":"1"}},{"base_weights":[7.06726E-2],"categories":[],"categories_nodes":[],"categories_segments":[],"categories_sizes":[],"default_left":[0],"id":94,"left_children":[-1],"loss_changes":[0E0],"parents":[2147483647],"right_children":[-1],"split_conditions":[3.5336302E-3],"split_indices":[0],"split_type":[0],"sum_hessian":[1.9442434E1],"tree_param":{"num_deleted":"0","num_feature":"5","num_nodes":"1","size_leaf_vector":"1"}},{"base_weights":[-1.1861081E-3,1.9080536E-1,-2.1493105E-2,-5.9059504E-3,3.251621E-2,1.8186279E-1,-1.7506346E-2,-4.7275104E-4,1.8126352E-2],"categories":[],"categories_nodes":[],"categories_segments":[],"categories_sizes":[],"default_left":[0,0,0,0,0,0,0,0,0],"id":95,"left_children":[1,3,-1,5,-1,7,-1,-1,-1],"loss_changes":[1.7122471E0,1.3030753E0,0E0,7.782502E-1,0E0,2.7343327E-1,0E0,0E0,0E0],"parents":[2147483647,0,0,1,1,3,3,5,5],"right_children":[2,4,-1,6,-1,8,-1,-1,-1],"split_conditions":[7.060221E-1,2.1379574E-1,-2.1493105E-2,-3.1117773E-1,3.251621E-2,-7.092479E-1,-1.7506346E-2,-4.7275104E-4,1.8126352E-2],"split_indices":[4,4,0,4,0,4,0,0,0],"split_type":[0,0,0,0,0,0,0,0,0],"sum_hessian":[1.8807837E1,1.3373246E1,5.4345903E0,1.0055727E1,3.3175182E0,6.8116927E0,3.2440348E0,3.7685647E0,3.043128E0],"tree_param":{"num_deleted":"0","num_feature":"5","num_nodes":"9","size_leaf_vector":"1"}},{"base_weights":[3.652321E-3,-1.4271261E-1,2.0564558E-1,7.002397E-3,-2.0882316E-2,1.5771141E-2,3.3549746E-4],"categories":[],"categories_nodes":[],"categories_segments":[],"categories_sizes":[],"default_left":[0,0,0,0,0,0,0],"id":96,"left_children":[1,3,5,-1,-1,-1,-1],"loss_changes":[6.1897564E-1,1.0033864E0,1.8982533E-1,0E0,0E0,0E0,0E0],"parents":[2147483647,0,0,1,1,2,2],"right_children":[2,4,6,-1,-1,-1,-1],"split_conditions":[3.8470808E-1,-3.1579515E-1,1.5413085E0,7.002397E-3,-2.0882316E-2,1.5771141E-2,3.3549746E-4],"split_indices":[4,4,4,0,0,0,0],"split_type":[0,0,0,0,0,0,0],"sum_hessian":[1.894361E1,1.1154502E1,7.7891073E0,5.7408414E0,5.41366E0,4.6419964E0,3.1471112E0],"tree_param":{"num_deleted":"0","num_feature":"5","num_nodes":"7","size_leaf_vector":"1"}},{"base_weights":[4.4037372E-2,2.7165008E-1,-1.5623517E-1,9.940839E-4,2.710937E-2,-2.64983E-1,2.6777843E-3,-4.8802276E-3,-1.8571947E-2],"categories":[],"categories_nodes":[],"categories_segments":[],"categories_sizes":[],"default_left":[0,0,0,0,0,0,0,0,0],"id":97,"left_children":[1,3,5,-1,-1,7,-1,-1,-1],"loss_changes":[9.7311234E-1,6.649705E-1,2.7644867E-1,0E0,0E0,1.0164243E-1,0E0,0E0,0E0],"parents":[2147483647,0,0,1,1,2,2,5,5],"right_children":[2,4,6,-1,-1,8,-1,-1,-1],"split_conditions":[-1.5482192E-1,-4.1930252E-1,1.4060748E0,9.940839E-4,2.710937E-2,4.7968078E-1,2.6777843E-3,-4.8802276E-3,-1.8571947E-2],"split_indices":[4,4,4,0,0,4,0,0,0],"split_type":[0,0,0,0,0,0,0,0,0],"sum_hessian":[1.9416357E1,8.92105E0,1.0495307E1,5.1768456E0,3.7442045E0,6.738985E0,3.756322E0,3.3650467E0,3.3739386E0],"tree_param":{"num_deleted":"0","num_feature":"5","num_nodes":"9","size_leaf_vector":"1"}},{"base_weights":[-2.1522641E-2,-1.6120914E-2,1.0447351E-1,2.9416239E-2,-1.5258104E-1,-1.4197128E-2,3.277484E-3],"categories":[],"categories_nodes":[],"categories_segments":[],"categories_sizes":[],"default_left":[0,0,0,0,0,0,0],"id":98,"left_children":[1,-1,3,-1,5,-1,-1],"loss_changes":[7.406035E-1,0E0,1.8183818E0,0E0,3.0143818E-1,0E0,0E0],"parents":[2147483647,0,0,2,2,4,4],"right_children":[2,-1,4,-1,6,-1,-1],"split_conditions":[-4.1930252E-1,-1.6120914E-2,-1.1212094E-1,2.9416239E-2,8.3465874E-1,-1.4197128E-2,3.277484E-3],"split_indices":[4,0,4,0,4,0,0],"split_type":[0,0,0,0,0,0,0],"sum_hessian":[1.7646473E1,4.7481956E0,1.2898277E1,4.0278945E0,8.870383E0,5.348019E0,3.5223641E0],"tree_param":{"num_deleted":"0","num_feature":"5","num_nodes":"7","size_leaf_vector":"1"}},{"base_weights":[-7.4853E-2,1.2847155E-1,-2.4455816E-1,-1.5434677E-3,1.5234433E-2,-1.6672192E-2,-8.418555E-4],"categories":[],"categories_nodes":[],"categories_segments":[],"categories_sizes":[],"default_left":[0,0,0,0,0,0,0],"id":99,"left_children":[1,3,5,-1,-1,-1,-1],"loss_changes":[7.0874935E-1,2.7856493E-1,2.1792632E-1,0E0,0E0,0E0,0E0],"parents":[2147483647,0,0,1,1,2,2],"right_children":[2,4,6,-1,-1,-1,-1],"split_conditions":[-1.1212094E-1,-4.1930252E-1,1.4060748E0,-1.5434677E-3,1.5234433E-2,-1.6672192E-2,-8.418555E-4],"split_indices":[4,4,4,0,0,0,0],"split_type":[0,0,0,0,0,0,0],"sum_hessian":[1.8629799E1,8.585928E0,1.004387E1,4.9420223E0,3.643906E0,6.8901815E0,3.1536882E0],"tree_param":{"num_deleted":"0","num_feature":"5","num_nodes":"7","size_leaf_vector":"1"}},{"base_weights":[1.6652012E-1],"categories":[],"categories_nodes":[],"categories_segments":[],"categories_sizes":[],"default_left":[0],"id":100,"left_children":[-1],"loss_changes":[0E0],"parents":[2147483647],"right_children":[-1],"split_conditions":[8.326006E-3],"split_indices":[0],"split_type":[0],"sum_hessian":[1.9067146E1],"tree_param":{"num_deleted":"0","num_feature":"5","num_nodes":"1","size_leaf_vector":"1"}},{"base_weights":[-7.349552E-2,-1.8802206E-1,1.9255271E-2,8.024112E-3,-4.2780036E-1,-3.0637125E-2,-5.275292E-3],"categories":[],"categories_nodes":[],"categories_segments":[],"categories_sizes":[],"default_left":[0,0,0,0,0,0,0],"id":101,"left_children":[1,3,-1,-1,5,-1,-1],"loss_changes":[1.0424688E0,1.3597825E0,0E0,0E0,4.9719715E-1,0E0,0E0],"parents":[2147483647,0,0,1,1,4,4],"right_children":[2,4,-1,-1,6,-1,-1],"split_conditions":[1.4060748E0,-3.1117773E-1,1.9255271E-2,8.024112E-3,3.8470808E-1,-3.0637125E-2,-5.275292E-3],"split_indices":[4,4,0,0,4,0,0],"split_type":[0,0,0,0,0,0,0],"sum_hessian":[1.7469608E1,1.4450812E1,3.018796E0,6.024804E0,8.426008E0,4.781217E0,3.6447916E0],"tree_param":{"num_deleted":"0","num_feature":"5","num_nodes":"7","size_leaf_vector":"1"}},{"base_weights":[-4.692031E-2],"categories":[],"categories_nodes":[],"categories_segments":[],"categories_sizes":[],"default_left":[0],"id":102,"left_children":[-1],"loss_changes":[0E0],"parents":[2147483647],"right_children":[-1],"split_conditions":[-2.3460155E-3],"split_indices":[0],"split_type":[0],"sum_hessian":[1.9704103E1],"tree_param":{"num_deleted":"0","num_feature":"5","num_nodes":"1","size_leaf_vector":"1"}},{"base_weights":[-5.8704693E-2,1.0352417E-1,-1.7025437E-2,-5.339888E-3,2.0334607E-1,2.1743769E-2,4.193553E-4],"categories":[],"categories_nodes":[],"categories_segments":[],"categories_sizes":[],"default_left":[0,0,0,0,0,0,0],"id":103,"left_children":[1,3,-1,-1,5,-1,-1],"loss_changes":[8.8036686E-1,2.8412753E-1,0E0,0E0,3.9449325E-1,0E0,0E0],"parents":[2147483647,0,0,1,1,4,4],"right_children":[2,4,-1,-1,6,-1,-1],"split_conditions":[7.060221E-1,-6.008829E-1,-1.7025437E-2,-5.339888E-3,-2.5572637E-1,2.1743769E-2,4.193553E-4],"split_indices":[4,4,0,0,4,0,0],"split_type":[0,0,0,0,0,0,0],"sum_hessian":[1.7485914E1,1.149888E1,5.987034E0,3.6785007E0,7.8203797E0,3.0123615E0,4.808018E0],"tree_param":{"num_deleted":"0","num_feature":"5","num_nodes":"7","size_leaf_vector":"1"}},{"base_weights":[1.6605662E-1,-6.3172415E-2,4.7686276E-1,1.2550674E-2,-2.154789E-2,1.1188852E-2,3.377563E-2],"categories":[],"categories_nodes":[],"categories_segments":[],"categories_sizes":[],"default_left":[0,0,0,0,0,0,0],"id":104,"left_children":[1,3,5,-1,-1,-1,-1],"loss_changes":[1.3949497E0,1.4842032E0,2.635268E-1,0E0,0E0,0E0,0E0],"parents":[2147483647,0,0,1,1,2,2],"right_children":[2,4,6,-1,-1,-1,-1],"split_conditions":[3.8470808E-1,-3.1117773E-1,1.4060748E0,1.2550674E-2,-2.154789E-2,1.1188852E-2,3.377563E-2],"split_indices":[4,4,4,0,0,0,0],"split_type":[0,0,0,0,0,0,0],"sum_hessian":[1.815657E1,1.0908193E1,7.2483783E0,6.053987E0,4.8542056E0,4.12258E0,3.1257982E0],"tree_param":{"num_deleted":"0","num_feature":"5","num_nodes":"7","size_leaf_vector":"1"}},{"base_weights":[-1.3042363E-2,1.904961E-1,-1.8927127E-1,-4.5005563E-3,2.5309695E-2,-2.4947984E-2,-2.6160034E-3,-6.3884715E-3,5.9004813E-3],"categories":[],"categories_nodes":[],"categories_segments":[],"categories_sizes":[],"default_left":[0,0,0,0,0,0,0,0,0],"id":105,"left_children":[1,3,5,-1,-1,-1,7,-1,-1],"loss_changes":[7.376667E-1,8.9349794E-1,6.3368237E-1,0E0,0E0,0E0,1.3372682E-1,0E0,0E0],"parents":[2147483647,0,0,1,1,2,2,6,6],"right_children":[2,4,6,-1,-1,-1,8,-1,-1],"split_conditions":[-1.5482192E-1,-4.1930252E-1,3.9312342E-1,-4.5005563E-3,2.5309695E-2,-2.4947984E-2,1.4060748E0,-6.3884715E-3,5.9004813E-3],"split_indices":[4,4,4,0,0,0,4,0,0],"split_type":[0,0,0,0,0,0,0,0,0],"sum_hessian":[1.8560183E1,8.57518E0,9.985003E0,4.9192E0,3.6559796E0,3.1257558E0,6.8592477E0,3.3373768E0,3.5218706E0],"tree_param":{"num_deleted":"0","num_feature":"5","num_nodes":"9","size_leaf_vector":"1"}},{"base_weights":[1.2443469E-2,-1.7819433E-1,2.426903E-1,3.589432E-3,-1.9460527E-2,2.9923383E-2,-1.8152975E-3],"categories":[],"categories_nodes":[],"categories_segments":[],"categories_sizes":[],"default_left":[0,0,0,0,0,0,0],"id":106,"left_children":[1,3,5,-1,-1,-1,-1],"loss_changes":[9.1929626E-1,6.343056E-1,9.610762E-1,0E0,0E0,0E0,0E0],"parents":[2147483647,0,0,1,1,2,2],"right_children":[2,4,6,-1,-1,-1,-1],"split_conditions":[3.8470808E-1,-3.5528824E-1,8.945076E-1,3.589432E-3,-1.9460527E-2,2.9923383E-2,-1.8152975E-3],"split_indices":[4,4,4,0,0,0,0],"split_type":[0,0,0,0,0,0,0],"sum_hessian":[1.8958427E1,1.0494967E1,8.46346E0,5.105943E0,5.389024E0,3.2165833E0,5.2468767E0],"tree_param":{"num_deleted":"0","num_feature":"5","num_nodes":"7","size_leaf_vector":"1"}},{"base_weights":[4.059102E-2,1.8510994E-1,-2.0056162E-2,-1.7448268E-3,3.05129E-2,1.5914341E-2,-2.0270063E-2],"categories":[],"categories_nodes":[],"categories_segments":[],"categories_sizes":[],"default_left":[0,0,0,0,0,0,0],"id":107,"left_children":[1,3,-1,5,-1,-1,-1],"loss_changes":[1.2476906E0,1.1557176E0,0E0,1.562212E0,0E0,0E0,0E0],"parents":[2147483647,0,0,1,1,3,3],"right_children":[2,4,-1,6,-1,-1,-1],"split_conditions":[8.945076E-1,3.8470808E-1,-2.0056162E-2,-3.1117773E-1,3.05129E-2,1.5914341E-2,-2.0270063E-2],"split_indices":[4,4,0,4,0,0,0],"split_type":[0,0,0,0,0,0,0],"sum_hessian":[1.7382065E1,1.3534734E1,3.847331E0,1.0094183E1,3.4405503E0,5.748266E0,4.345917E0],"tree_param":{"num_deleted":"0","num_feature":"5","num_nodes":"7","size_leaf_vector":"1"}},{"base_weights":[-7.168177E-2,-2.704689E-1,2.2511555E-1,4.6966688E-4,-2.5667062E-2,1.961569E-2,2.1636267E-3],"categories":[],"categories_nodes":[],"categories_segments":[],"categories_sizes":[],"default_left":[0,0,0,0,0,0,0],"id":108,"left_children":[1,3,5,-1,-1,-1,-1],"loss_changes":[1.1856111E0,8.116986E-1,2.3210275E-1,0E0,0E0,0E0,0E0],"parents":[2147483647,0,0,1,1,2,2],"right_children":[2,4,6,-1,-1,-1,-1],"split_conditions":[3.8470808E-1,-3.1117773E-1,9.030317E-1,4.6966688E-4,-2.5667062E-2,1.961569E-2,2.1636267E-3],"split_indices":[4,4,4,0,0,0,0],"split_type":[0,0,0,0,0,0,0],"sum_hessian":[1.8063292E1,1.0870932E1,7.1923594E0,5.497489E0,5.3734426E0,3.1440682E0,4.048291E0],"tree_param":{"num_deleted":"0","num_feature":"5","num_nodes":"7","size_leaf_vector":"1"}},{"base_weights":[-4.063456E-2,-2.2612819E-1,1.5090351E-1,4.576361E-3,-3.2645132E-2,3.3127453E-2,-1.7272845E-1,-1.7268075E-2,2.613974E-3],"categories":[],"categories_nodes":[],"categories_segments":[],"categories_sizes":[],"default_left":[0,0,0,0,0,0,0,0,0],"id":109,"left_children":[1,3,5,-1,-1,-1,7,-1,-1],"loss_changes":[7.4910533E-1,1.4999526E0,1.8531432E0,0E0,0E0,0E0,2.9870814E-1,0E0,0E0],"parents":[2147483647,0,0,1,1,2,2,6,6],"right_children":[2,4,6,-1,-1,-1,8,-1,-1],"split_conditions":[2.1379574E-1,-3.4994256E-1,7.060221E-1,4.576361E-3,-3.2645132E-2,3.3127453E-2,1.2014459E0,-1.7268075E-2,2.613974E-3],"split_indices":[4,4,4,0,0,0,4,0,0],"split_type":[0,0,0,0,0,0,0,0,0],"sum_hessian":[1.912384E1,9.62347E0,9.50037E0,5.967383E0,3.656087E0,3.2752066E0,6.2251635E0,3.2198837E0,3.00528E0],"tree_param":{"num_deleted":"0","num_feature":"5","num_nodes":"9","size_leaf_vector":"1"}},{"base_weights":[5.9402853E-2],"categories":[],"categories_nodes":[],"categories_segments":[],"categories_sizes":[],"default_left":[0],"id":110,"left_children":[-1],"loss_changes":[0E0],"parents":[2147483647],"right_children":[-1],"split_conditions":[2.9701428E-3],"split_indices":[0],"split_type":[0],"sum_hessian":[1.8909231E1],"tree_param":{"num_deleted":"0","num_feature":"5","num_nodes":"1","size_leaf_vector":"1"}},{"base_weights":[1.3268346E-1,2.2412094E-1,-1.5886463E-2,-2.4232133E-3,1.88116E-2,1.7105041E-2,-1.3140107E-2],"categories":[],"categories_nodes":[],"categories_segments":[],"categories_sizes":[],"default_left":[0,0,0,0,0,0,0],"id":111,"left_children":[1,3,-1,5,-1,-1,-1],"loss_changes":[9.583808E-1,6.38164E-1,0E0,8.454453E-1,0E0,0E0,0E0],"parents":[2147483647,0,0,1,1,3,3],"right_children":[2,4,-1,6,-1,-1,-1],"split_conditions":[1.5515496E0,-2.6375526E-1,-1.5886463E-2,-7.5073516E-1,1.88116E-2,1.7105041E-2,-1.3140107E-2],"split_indices":[4,4,0,4,0,0,0],"split_type":[0,0,0,0,0,0,0],"sum_hessian":[2.0541323E1,1.7492592E1,3.0487304E0,7.4223323E0,1.0070261E1,3.0598245E0,4.3625073E0],"tree_param":{"num_deleted":"0","num_feature":"5","num_nodes":"7","size_leaf_vector":"1"}},{"base_weights":[-1.605602E-1,-3.9122698E-1,-1.1715611E-2,4.9617183E-3,-3.5671633E-2,1.6459921E-2,-1.7604752E-2],"categories":[],"categories_nodes":[],"categories_segments":[],"categories_sizes":[],"default_left":[0,0,0,0,0,0,0],"id":112,"left_children":[1,3,5,-1,-1,-1,-1],"loss_changes":[6.9559747E-1,1.329893E0,1.6738678E0,0E0,0E0,0E0,0E0],"parents":[2147483647,0,0,1,1,2,2],"right_children":[2,4,6,-1,-1,-1,-1],"split_conditions":[-1.5571442E-1,-7.1355474E-1,7.8837746E-1,4.9617183E-3,-3.5671633E-2,1.6459921E-2,-1.7604752E-2],"split_indices":[4,4,4,0,0,0,0],"split_type":[0,0,0,0,0,0,0],"sum_hessian":[1.9393517E1,6.9674797E0,1.2426037E1,3.0368314E0,3.9306483E0,6.224554E0,6.2014823E0],"tree_param":{"num_deleted":"0","num_feature":"5","num_nodes":"7","size_leaf_vector":"1"}},{"base_weights":[3.7835903E-2,1.5134852E-1,-1.4202473E-2,-1.2976584E-1,2.2932073E-2,4.3804753E-3,-1.5920406E-2],"categories":[],"categories_nodes":[],"categories_segments":[],"categories_sizes":[],"default_left":[0,0,0,0,0,0,0],"id":113,"left_children":[1,3,-1,5,-1,-1,-1],"loss_changes":[7.643883E-1,1.3767705E0,0E0,3.8641465E-1,0E0,0E0,0E0],"parents":[2147483647,0,0,1,1,3,3],"right_children":[2,4,-1,6,-1,-1,-1],"split_conditions":[8.945076E-1,-1.5571442E-1,-1.4202473E-2,-5.958351E-1,2.2932073E-2,4.3804753E-3,-1.5920406E-2],"split_indices":[4,4,0,4,0,0,0],"split_type":[0,0,0,0,0,0,0],"sum_hessian":[1.8743746E1,1.4248744E1,4.4950023E0,7.743047E0,6.505697E0,3.8463821E0,3.896665E0],"tree_param":{"num_deleted":"0","num_feature":"5","num_nodes":"7","size_leaf_vector":"1"}},{"base_weights":[-8.2540296E-2,9.744602E-3,-2.3007144E-1,-3.0620156E-2,6.6664346E-2,2.2644263E-2,-1.2417901E-2],"categories":[],"categories_nodes":[],"categories_segments":[],"categories_sizes":[],"default_left":[0,0,0,0,0,0,0],"id":114,"left_children":[1,-1,3,-1,5,-1,-1],"loss_changes":[8.724798E-1,0E0,1.5905273E0,0E0,1.1579143E0,0E0,0E0],"parents":[2147483647,0,0,2,2,4,4],"right_children":[2,-1,4,-1,6,-1,-1],"split_conditions":[-3.1117773E-1,9.744602E-3,3.8470808E-1,-3.0620156E-2,8.945076E-1,2.2644263E-2,-1.2417901E-2],"split_indices":[4,0,4,0,4,0,0],"split_type":[0,0,0,0,0,0,0],"sum_hessian":[1.9220926E1,6.5613275E0,1.2659599E1,5.06708E0,7.5925198E0,3.2142208E0,4.3782988E0],"tree_param":{"num_deleted":"0","num_feature":"5","num_nodes":"7","size_leaf_vector":"1"}},{"base_weights":[-3.6461945E-3,5.8575008E-2,-1.3696037E-2,-9.646265E-2,1.711981E-2,3.304037E-3,-1.1578447E-2],"categories":[],"categories_nodes":[],"categories_segments":[],"categories_sizes":[],"default_left":[0,0,0,0,0,0,0],"id":115,"left_children":[1,3,-1,5,-1,-1,-1],"loss_changes":[3.6230257E-1,8.057526E-1,0E0,2.8184208E-1,0E0,0E0,0E0],"parents":[2147483647,0,0,1,1,3,3],"right_children":[2,4,-1,6,-1,-1,-1],"split_conditions":[1.5413085E0,3.8470808E-1,-1.3696037E-2,-3.1117773E-1,1.711981E-2,3.304037E-3,-1.1578447E-2],"split_indices":[4,4,0,4,0,0,0],"split_type":[0,0,0,0,0,0,0],"sum_hessian":[1.9589975E1,1.6560726E1,3.0292485E0,1.1137166E1,5.423561E0,5.2871776E0,5.8499885E0],"tree_param":{"num_deleted":"0","num_feature":"5","num_nodes":"7","size_leaf_vector":"1"}},{"base_weights":[5.2166354E-2,1.7868143E-1,-7.3773354E-2,-1.0885372E-3,1.8116748E-2,-1.2984549E-2,1.4084244E-2],"categories":[],"categories_nodes":[],"categories_segments":[],"categories_sizes":[],"default_left":[0,0,0,0,0,0,0],"id":116,"left_children":[1,3,5,-1,-1,-1,-1],"loss_changes":[3.4008554E-1,3.9543998E-1,7.994141E-1,0E0,0E0,0E0,0E0],"parents":[2147483647,0,0,1,1,2,2],"right_children":[2,4,6,-1,-1,-1,-1],"split_conditions":[-1.1212094E-1,-4.1930252E-1,1.4060748E0,-1.0885372E-3,1.8116748E-2,-1.2984549E-2,1.4084244E-2],"split_indices":[4,4,4,0,0,0,0],"split_type":[0,0,0,0,0,0,0],"sum_hessian":[1.951704E1,9.527364E0,9.989676E0,4.9767985E0,4.5505652E0,6.7359486E0,3.2537274E0],"tree_param":{"num_deleted":"0","num_feature":"5","num_nodes":"7","size_leaf_vector":"1"}},{"base_weights":[-7.671727E-2],"categories":[],"categories_nodes":[],"categories_segments":[],"categories_sizes":[],"default_left":[0],"id":117,"left_children":[-1],"loss_changes":[0E0],"parents":[2147483647],"right_children":[-1],"split_conditions":[-3.8358637E-3],"split_indices":[0],"split_type":[0],"sum_hessian":[1.8359566E1],"tree_param":{"num_deleted":"0","num_feature":"5","num_nodes":"1","size_leaf_vector":"1"}},{"base_weights":[7.805485E-2],"categories":[],"categories_nodes":[],"categories_segments":[],"categories_sizes":[],"default_left":[0],"id":118,"left_children":[-1],"loss_changes":[0E0],"parents":[2147483647],"right_children":[-1],"split_conditions":[3.9027426E-3],"split_indices":[0],"split_type":[0],"sum_hessian":[1.7121714E1],"tree_param":{"num_deleted":"0","num_feature":"5","num_nodes":"1","size_leaf_vector":"1"}},{"base_weights":[-9.3149714E-2,1.0270429E-1,-2.568463E-2,-7.140563E-3,2.7529705E-1,3.024883E-2,-5.197375E-3],"categories":[],"categories_nodes":[],"categories_segments":[],"categories_sizes":[],"default_left":[0,0,0,0,0,0,0],"id":119,"left_children":[1,3,-1,-1,5,-1,-1],"loss_changes":[1.7520334E0,6.7107713E-1,0E0,0E0,1.2001853E0,0E0,0E0],"parents":[2147483647,0,0,1,1,4,4],"right_children":[2,4,-1,-1,6,-1,-1],"split_conditions":[4.7968078E-1,-4.1930252E-1,-2.568463E-2,-7.140563E-3,-1.1212094E-1,3.024883E-2,-5.197375E-3],"split_indices":[4,4,0,0,4,0,0],"split_type":[0,0,0,0,0,0,0],"sum_hessian":[1.963103E1,1.3909104E1,5.721925E0,5.8128295E0,8.096274E0,4.0127516E0,4.0835233E0],"tree_param":{"num_deleted":"0","num_feature":"5","num_nodes":"7","size_leaf_vector":"1"}},{"base_weights":[-6.5110135E-3,1.1874207E-1,-1.3380065E-2,-1.2169102E-1,2.051655E-2,1.2548286E-2,-1.8121853E-2],"categories":[],"categories_nodes":[],"categories_segments":[],"categories_sizes":[],"default_left":[0,0,0,0,0,0,0],"id":120,"left_children":[1,3,-1,5,-1,-1,-1],"loss_changes":[6.993845E-1,1.0657146E0,0E0,8.725875E-1,0E0,0E0,0E0],"parents":[2147483647,0,0,1,1,3,3],"right_children":[2,4,-1,6,-1,-1,-1],"split_conditions":[7.8837746E-1,-1.5571442E-1,-1.3380065E-2,-7.959278E-1,2.051655E-2,1.2548286E-2,-1.8121853E-2],"split_indices":[4,4,0,4,0,0,0],"split_type":[0,0,0,0,0,0,0],"sum_hessian":[1.9414703E1,1.3488878E1,5.9258256E0,7.712285E0,5.7765927E0,3.0102286E0,4.7020564E0],"tree_param":{"num_deleted":"0","num_feature":"5","num_nodes":"7","size_leaf_vector":"1"}},{"base_weights":[3.3222914E-2,1.676907E-1,-1.2052429E-2,-6.329852E-2,2.5152985E-2,4.7412007E-3,-9.948798E-3],"categories":[],"categories_nodes":[],"categories_segments":[],"categories_sizes":[],"default_left":[0,0,0,0,0,0,0],"id":121,"left_children":[1,3,-1,5,-1,-1,-1],"loss_changes":[7.3146105E-1,1.051514E0,0E0,2.051399E-1,0E0,0E0,0E0],"parents":[2147483647,0,0,1,1,3,3],"right_children":[2,4,-1,6,-1,-1,-1],"split_conditions":[4.7968078E-1,-1.5571442E-1,-1.2052429E-2,-5.958351E-1,2.5152985E-2,4.7412007E-3,-9.948798E-3],"split_indices":[4,4,0,4,0,0,0],"split_type":[0,0,0,0,0,0,0],"sum_hessian":[1.7737165E1,1.2162716E1,5.5744495E0,7.6825376E0,4.4801784E0,3.6868637E0,3.9956737E0],"tree_param":{"num_deleted":"0","num_feature":"5","num_nodes":"7","size_leaf_vector":"1"}},{"base_weights":[8.614837E-4,2.761257E-1,-2.543589E-1,6.9375697E-4,2.5049264E-2,-4.334333E-3,-2.1669624E-2],"categories":[],"categories_nodes":[],"categories_segments":[],"categories_sizes":[],"default_left":[0,0,0,0,0,0,0],"id":122,"left_children":[1,3,5,-1,-1,-1,-1],"loss_changes":[1.5038415E0,6.002659E-1,2.9591727E-1,0E0,0E0,0E0,0E0],"parents":[2147483647,0,0,1,1,2,2],"right_children":[2,4,6,-1,-1,-1,-1],"split_conditions":[-1.1212094E-1,-4.1930252E-1,8.945076E-1,6.9375697E-4,2.5049264E-2,-4.334333E-3,-2.1669624E-2],"split_indices":[4,4,4,0,0,0,0],"split_type":[0,0,0,0,0,0,0],"sum_hessian":[1.9406328E1,9.297132E0,1.0109197E1,4.7818418E0,4.51529E0,5.9866486E0,4.122548E0],"tree_param":{"num_deleted":"0","num_feature":"5","num_nodes":"7","size_leaf_vector":"1"}},{"base_weights":[1.3347425E-1,-1.3168323E-1,2.7933782E-1,1.14046205E-2,-2.4317943E-2,2.5001435E-2,1.4509389E-1,-3.7972033E-3,1.8603107E-2],"categories":[],"categories_nodes":[],"categories_segments":[],"categories_sizes":[],"default_left":[0,0,0,0,0,0,0,0,0],"id":123,