{"learner":{"attributes":{"scikit_learn":"{\"_estimator_type\": \"classifier\"}"},"feature_names":[],"feature_types":[],"gradient_booster":{"model":{"cats":{"enc":[],"feature_segments":[],"sorted_idx":[]},"gbtree_model_param":{"num_parallel_tree":"1","num_trees":"200"},"iteration_indptr":[0,1,2,3,4,5,6,7,8,9,10,11,12,13,14,15,16,17,18,19,20,21,22,23,24,25,26,27,28,29,30,31,32,33,34,35,36,37,38,39,40,41,42,43,44,45,46,47,48,49,50,51,52,53,54,55,56,57,58,59,60,61,62,63,64,65,66,67,68,69,70,71,72,73,74,75,76,77,78,79,80,81,82,83,84,85,86,87,88,89,90,91,92,93,94,95,96,97,98,99,100,101,102,103,104,105,106,107,108,109,110,111,112,113,114,115,116,117,118,119,120,121,122,123,124,125,126,127,128,129,130,131,132,133,134,135,136,137,138,139,140,141,142,143,144,145,146,147,148,149,150,151,152,153,154,155,156,157,158,159,160,161,162,163,164,165,166,167,168,169,170,171,172,173,174,175,176,177,178,179,180,181,182,183,184,185,186,187,188,189,190,191,192,193,194,195,196,197,198,199,200],"tree_info":[0,0,0,0,0,0,0,0,0,0,0,0,0,0,0,0,0,0,0,0,0,0,0,0,0,0,0,0,0,0,0,0,0,0,0,0,0,0,0,0,0,0,0,0,0,0,0,0,0,0,0,0,0,0,0,0,0,0,0,0,0,0,0,0,0,0,0,0,0,0,0,0,0,0,0,0,0,0,0,0,0,0,0,0,0,0,0,0,0,0,0,0,0,0,0,0,0,0,0,0,0,0,0,0,0,0,0,0,0,0,0,0,0,0,0,0,0,0,0,0,0,0,0,0,0,0,0,0,0,0,0,0,0,0,0,0,0,0,0,0,0,0,0,0,0,0,0,0,0,0,0,0,0,0,0,0,0,0,0,0,0,0,0,0,0,0,0,0,0,0,0,0,0,0,0,0,0,0,0,0,0,0,0,0,0,0,0,0,0,0,0,0,0,0,0,0,0,0,0,0],"trees":[{"base_weights":[2.509482E-2,-9.1735435E-1,7.7406466E-1,-1.7189643E0,-8.676701E-2,9.259307E-1,5.108276E-3,-1.1731756E-1,-2.2212321E-2,3.713766E-2,-7.2680634E-1,6.008E-1,6.792713E-2,4.5721998E-4,-6.9779575E-2,4.2557944E-2,-2.5553992E-3],"categories":[],"categories_nodes":[],"categories_segments":[],"categories_sizes":[],"default_left":[0,0,0,0,0,0,0,0,0,0,0,0,0,0,0,0,0],"id":0,"left_children":[1,3,5,7,9,11,-1,-1,-1,-1,13,15,-1,-1,-1,-1,-1],"loss_changes":[6.090395E1,2.5297062E1,4.8091736E0,1.4468952E1,1.1064482E1,4.6797867E0,0E0,0E0,0E0,0E0,5.7689567E0,3.9770794E0,0E0,0E0,0E0,0E0,0E0],"parents":[2147483647,0,0,1,1,2,2,3,3,4,4,5,5,10,10,11,11],"right_children":[2,4,6,8,10,12,-1,-1,-1,-1,14,16,-1,-1,-1,-1,-1],"split_conditions":[5.6759365E3,2.7275E0,3.728E-1,1.3348557E3,7.729857E0,2.4786429E-1,5.108276E-3,-1.1731756E-1,-2.2212321E-2,3.713766E-2,-1.8431669E-3,8.3191E-2,6.792713E-2,4.5721998E-4,-6.9779575E-2,4.2557944E-2,-2.5553992E-3],"split_indices":[4,2,2,4,2,2,0,0,0,0,1,2,0,0,0,0,0],"split_type":[0,0,0,0,0,0,0,0,0,0,0,0,0,0,0,0,0],"sum_hessian":[8.42766E1,3.72186E1,4.7058E1,1.83954E1,1.88232E1,3.80742E1,8.9838E0,1.17645E1,6.6309E0,8.1282E0,1.0695E1,2.31012E1,1.4973E1,5.5614E0,5.1336E0,1.64703E1,6.6309E0],"tree_param":{"num_deleted":"0","num_feature":"7","num_nodes":"17","size_leaf_vector":"1"}},{"base_weights":[-2.0983588E-2,-9.522109E-1,7.5923896E-1,-1.5613447E0,-3.2610282E-1,-1.3637841E-2,8.925334E-1,-1.0956883E-1,-2.3742681E-2,-5.991618E-2,1.8361346E-1,1.052363E0,1.2350598E-2,2.7982546E-2,-1.7165354E-2,5.8987778E-2,2.6039204E-2],"categories":[],"categories_nodes":[],"categories_segments":[],"categories_sizes":[],"default_left":[0,0,0,0,0,0,0,0,0,0,0,0,0,0,0,0,0],"id":1,"left_children":[1,3,5,7,9,-1,11,-1,-1,-1,13,15,-1,-1,-1,-1,-1],"loss_changes":[6.217408E1,1.4365269E1,6.650467E0,1.2310768E1,9.33253E0,0E0,4.0199738E0,0E0,0E0,0E0,2.9272332E0,1.616497E0,0E0,0E0,0E0,0E0,0E0],"parents":[2147483647,0,0,1,1,2,2,3,3,4,4,6,6,10,10,11,11],"right_children":[2,4,6,8,10,-1,12,-1,-1,-1,14,16,-1,-1,-1,-1,-1],"split_conditions":[5.6759365E3,2.7275E0,4.335E1,5.08047E1,5.684345E1,-1.3637841E-2,3.728E-1,-1.0956883E-1,-2.3742681E-2,-5.991618E-2,5.573539E-1,5.886187E-1,1.2350598E-2,2.7982546E-2,-1.7165354E-2,5.8987778E-2,2.6039204E-2],"split_indices":[4,2,0,0,4,0,2,0,0,0,5,5,0,0,0,0,0],"split_type":[0,0,0,0,0,0,0,0,0,0,0,0,0,0,0,0,0],"sum_hessian":[8.357765E1,3.8001217E1,4.5576435E1,1.850458E1,1.949664E1,5.0936866E0,4.0482746E1,1.1068991E1,7.435589E0,6.692886E0,1.2803753E1,3.1943386E1,8.53936E0,7.435374E0,5.3683786E0,2.4784462E1,7.1589246E0],"tree_param":{"num_deleted":"0","num_feature":"7","num_nodes":"17","size_leaf_vector":"1"}},{"base_weights":[-2.6996082E-2,-8.0507696E-1,6.58933E-1,-1.0429945E-1,-4.981357E-1,8.439112E-1,-2.2578414E-3,2.7205324E-1,-1.1541886E0,2.2306824E-3,1.0197581E0,3.065559E-2,-1.1232247E-2,-1.0202324E-1,-1.2243216E-2,5.796951E-2,2.6213596E-2],"categories":[],"categories_nodes":[],"categories_segments":[],"categories_sizes":[],"default_left":[0,0,0,0,0,0,0,0,0,0,0,0,0,0,0,0,0],"id":2,"left_children":[1,3,5,-1,7,9,-1,11,13,-1,15,-1,-1,-1,-1,-1,-1],"loss_changes":[4.5448048E1,1.46410675E1,5.935341E0,0E0,1.7234097E1,5.001707E0,0E0,2.8841817E0,1.4227407E1,0E0,1.4254036E0,0E0,0E0,0E0,0E0,0E0,0E0],"parents":[2147483647,0,0,1,1,2,2,4,4,5,5,7,7,8,8,10,10],"right_children":[2,4,6,-1,8,10,-1,12,14,-1,16,-1,-1,-1,-1,-1,-1],"split_conditions":[5.6759365E3,4.3573524E1,3.719728E-1,-1.0429945E-1,-4.6806537E-5,4.7E1,-2.2578414E-3,5.20103E1,1.8523E0,2.2306824E-3,5.886187E-1,3.065559E-2,-1.1232247E-2,-1.0202324E-1,-1.2243216E-2,5.796951E-2,2.6213596E-2],"split_indices":[4,0,3,0,1,0,0,0,3,0,5,0,0,0,0,0,0],"split_type":[0,0,0,0,0,0,0,0,0,0,0,0,0,0,0,0,0],"sum_hessian":[8.316125E1,3.8881954E1,4.4279293E1,6.395697E0,3.248626E1,3.490934E1,9.369951E0,1.5212501E1,1.7273758E1,6.521249E0,2.8388092E1,8.880391E0,6.3321095E0,8.117791E0,9.155966E0,2.1101582E1,7.286509E0],"tree_param":{"num_deleted":"0","num_feature":"7","num_nodes":"17","size_leaf_vector":"1"}},{"base_weights":[-1.1831383E-1,-7.6053727E-1,7.700315E-1,1.3519903E-2,-1.0043461E0,8.997176E-1,1.4440092E-2,-2.0982394E-2,-1.4827764E0,5.3785827E-2,2.0366905E-2,-3.731827E-2,4.1445684E-2,-1.0726867E-1,-2.4643509E-2],"categories":[],"categories_nodes":[],"categories_segments":[],"categories_sizes":[],"default_left":[0,0,0,0,0,0,0,0,0,0,0,0,0,0,0],"id":3,"left_children":[1,3,5,-1,7,9,-1,11,13,-1,-1,-1,-1,-1,-1],"loss_changes":[4.982719E1,1.2989416E1,2.0313492E0,0E0,1.9320591E1,2.0269413E0,0E0,9.543523E0,1.7082401E1,0E0,0E0,0E0,0E0,0E0,0E0],"parents":[2147483647,0,0,1,1,2,2,4,4,5,5,7,7,8,8],"right_children":[2,4,6,-1,8,10,-1,12,14,-1,-1,-1,-1,-1,-1],"split_conditions":[1.0390612E4,-1.636374E-3,5.886187E-1,1.3519903E-2,8.232286E-1,8.5452855E-1,1.4440092E-2,2.3878571E-1,2.7275E0,5.3785827E-2,2.0366905E-2,-3.731827E-2,4.1445684E-2,-1.0726867E-1,-2.4643509E-2],"split_indices":[4,1,5,0,2,2,0,2,2,0,0,0,0,0,0],"split_type":[0,0,0,0,0,0,0,0,0,0,0,0,0,0,0],"sum_hessian":[8.531052E1,4.9597904E1,3.571261E1,9.465287E0,4.0132618E1,2.7446466E1,8.266142E0,1.3476641E1,2.6655977E1,1.934644E1,8.100026E0,7.336652E0,6.1399884E0,1.5268626E1,1.1387351E1],"tree_param":{"num_deleted":"0","num_feature":"7","num_nodes":"15","size_leaf_vector":"1"}},{"base_weights":[-8.5333956E-4,-6.4973605E-1,6.0723186E-1,-7.7856205E-2,-3.74311E-1,-1.9522203E-2,7.453868E-1,2.523124E-2,-6.0457486E-1,9.260695E-1,6.7159147E-3,-7.1136884E-2,-1.4464477E-2,5.454282E-2,4.76809E-3],"categories":[],"categories_nodes":[],"categories_segments":[],"categories_sizes":[],"default_left":[0,0,0,0,0,0,0,0,0,0,0,0,0,0,0],"id":4,"left_children":[1,3,5,-1,7,-1,9,-1,11,13,-1,-1,-1,-1,-1],"loss_changes":[3.526199E1,1.0221695E1,6.6499176E0,0E0,7.2837973E0,0E0,4.387684E0,0E0,6.754054E0,4.190342E0,0E0,0E0,0E0,0E0,0E0],"parents":[2147483647,0,0,1,1,2,2,4,4,6,6,8,8,9,9],"right_children":[2,4,6,-1,8,-1,10,-1,12,14,-1,-1,-1,-1,-1],"split_conditions":[5.6759365E3,4.4701824E1,4.148593E1,-7.7856205E-2,4.8399612E1,-1.9522203E-2,5.886187E-1,2.523124E-2,5.0444977E1,1.21318E0,6.7159147E-3,-7.1136884E-2,-1.4464477E-2,5.454282E-2,4.76809E-3],"split_indices":[4,0,0,0,0,0,5,0,0,2,0,0,0,0,0],"split_type":[0,0,0,0,0,0,0,0,0,0,0,0,0,0,0],"sum_hessian":[8.73669E1,4.2232475E1,4.5134422E1,8.750481E0,3.3481995E1,5.2677326E0,3.9866688E1,6.703331E0,2.6778664E1,3.0371E1,9.4956875E0,6.471816E0,2.0306849E1,2.508228E1,5.288722E0],"tree_param":{"num_deleted":"0","num_feature":"7","num_nodes":"15","size_leaf_vector":"1"}},{"base_weights":[-1.662829E-2,-6.4507294E-1,8.2241404E-1,2.9161122E-1,-9.211748E-1,9.9501324E-1,9.086873E-3,-2.221431E-2,5.1837254E-2,-1.5721366E0,-3.3728564E-1,5.5649962E-2,2.916621E-2,-9.681632E-2,-2.5209436E-2,2.762702E-2,-4.570674E-2],"categories":[],"categories_nodes":[],"categories_segments":[],"categories_sizes":[],"default_left":[0,0,0,0,0,0,0,0,0,0,0,0,0,0,0,0,0],"id":5,"left_children":[1,3,5,7,9,11,-1,-1,-1,13,15,-1,-1,-1,-1,-1,-1],"loss_changes":[4.7174248E1,1.3493765E1,4.056801E0,7.2608385E0,1.4572937E1,8.0628395E-1,0E0,0E0,0E0,6.2251205E0,1.1910639E1,0E0,0E0,0E0,0E0,0E0,0E0],"parents":[2147483647,0,0,1,1,2,2,3,3,4,4,5,5,9,9,10,10],"right_children":[2,4,6,8,10,12,-1,-1,-1,14,16,-1,-1,-1,-1,-1,-1],"split_conditions":[9.644565E3,3.728E-1,6.25E1,2.20107E-1,2.7275E0,8.5452855E-1,9.086873E-3,-2.221431E-2,5.1837254E-2,5.1852753E1,7.729857E0,5.5649962E-2,2.916621E-2,-9.681632E-2,-2.5209436E-2,2.762702E-2,-4.570674E-2],"split_indices":[4,2,6,2,2,2,0,0,0,0,2,0,0,0,0,0,0],"split_type":[0,0,0,0,0,0,0,0,0,0,0,0,0,0,0,0,0],"sum_hessian":[8.7459076E1,5.0137302E1,3.7321777E1,1.1401431E1,3.8735874E1,2.8965391E1,8.356385E0,5.9394016E0,5.462029E0,1.7515644E1,2.122023E1,2.1189266E1,7.7761254E0,1.2455098E1,5.060545E0,8.362575E0,1.2857655E1],"tree_param":{"num_deleted":"0","num_feature":"7","num_nodes":"17","size_leaf_vector":"1"}},{"base_weights":[-2.8164044E-2,5.553062E-1,-5.335893E-1,1.3977596E-1,6.021833E-2,-1.1575882E0,-1.6192999E-2,6.8123543E-1,-3.6849644E-2,-8.989534E-2,1.3024394E-3,3.1826887E-2,-4.23664E-1,5.1790874E-2,2.625236E-3,-4.4919476E-2,-4.519263E-3],"categories":[],"categories_nodes":[],"categories_segments":[],"categories_sizes":[],"default_left":[0,0,0,0,0,0,0,0,0,0,0,0,0,0,0,0,0],"id":6,"left_children":[1,3,5,7,-1,9,11,13,-1,-1,-1,-1,15,-1,-1,-1,-1],"loss_changes":[2.547581E1,1.0652646E1,1.4916945E1,1.2651817E1,0E0,1.5929598E1,7.2660375E0,3.5887198E0,0E0,0E0,0E0,0E0,2.576133E0,0E0,0E0,0E0,0E0],"parents":[2147483647,0,0,1,1,2,2,3,3,5,5,6,6,7,7,12,12],"right_children":[2,4,6,8,-1,10,12,14,-1,-1,-1,-1,16,-1,-1,-1,-1],"split_conditions":[3.728E-1,2.4786429E-1,1.8457571E0,8.3191E-2,6.021833E-2,5.122E1,7.729857E0,6.25E1,-3.6849644E-2,-8.989534E-2,1.3024394E-3,3.1826887E-2,4.6768623E1,5.1790874E-2,2.625236E-3,-4.4919476E-2,-4.519263E-3],"split_indices":[2,2,2,2,0,0,2,6,0,0,0,0,0,0,0,0,0],"split_type":[0,0,0,0,0,0,0,0,0,0,0,0,0,0,0,0,0],"sum_hessian":[8.438302E1,3.9121685E1,4.5261333E1,2.4592714E1,1.4528972E1,1.995615E1,2.5305183E1,1.5341436E1,9.251278E0,1.2613557E1,7.3425927E0,9.509569E0,1.5795614E1,9.395328E0,5.9461093E0,5.8158503E0,9.979764E0],"tree_param":{"num_deleted":"0","num_feature":"7","num_nodes":"17","size_leaf_vector":"1"}},{"base_weights":[-7.4663907E-3,-6.6780686E-1,5.5524844E-1,-1.1958401E0,-1.4354217E-1,7.489737E-1,-1.16419554E-1,-8.02662E-2,-1.1099092E-2,-6.143933E-2,4.110369E-1,9.5746535E-1,6.2011667E-3,-1.4385574E-2,3.5537195E-3,3.3934306E-2,-4.3770806E-3,1.7681625E-2,5.403259E-2],"categories":[],"categories_nodes":[],"categories_segments":[],"categories_sizes":[],"default_left":[0,0,0,0,0,0,0,0,0,0,0,0,0,0,0,0,0,0,0],"id":7,"left_children":[1,3,5,7,9,11,13,-1,-1,-1,15,17,-1,-1,-1,-1,-1,-1,-1],"loss_changes":[3.214593E1,1.0845463E1,6.165744E0,7.4960423E0,1.3208064E1,4.623045E0,3.841027E-1,0E0,0E0,0E0,2.0234036E0,1.6366043E0,0E0,0E0,0E0,0E0,0E0,0E0,0E0],"parents":[2147483647,0,0,1,1,2,2,3,3,4,4,5,5,6,6,10,10,11,11],"right_children":[2,4,6,8,10,12,14,-1,-1,-1,16,18,-1,-1,-1,-1,-1,-1,-1],"split_conditions":[5.1330103E3,2.727124E0,5.314412E-1,5.1852753E1,5.684345E1,8.54016E-1,7.608845E-1,-8.02662E-2,-1.1099092E-2,-6.143933E-2,2.0011284E2,4.4467213E1,6.2011667E-3,-1.4385574E-2,3.5537195E-3,3.3934306E-2,-4.3770806E-3,1.7681625E-2,5.403259E-2],"split_indices":[4,3,5,0,4,3,5,0,0,0,4,0,0,0,0,0,0,0,0],"split_type":[0,0,0,0,0,0,0,0,0,0,0,0,0,0,0,0,0,0,0],"sum_hessian":[8.4512794E1,3.879752E1,4.571528E1,1.8691088E1,2.0106432E1,3.5392212E1,1.0323065E1,1.2701852E1,5.9892364E0,6.3887353E0,1.3717696E1,2.6139624E1,9.252588E0,5.1152925E0,5.2077723E0,8.690943E0,5.0267534E0,5.0849633E0,2.105466E1],"tree_param":{"num_deleted":"0","num_feature":"7","num_nodes":"19","size_leaf_vector":"1"}},{"base_weights":[4.6822853E-2,-5.221027E-1,8.019685E-1,-7.0712574E-2,-2.8989187E-1,9.076503E-1,1.9984303E-2,2.8806347E-2,-5.1730424E-1,2.3544481E-2,4.9229547E-2,-6.833053E-2,3.6667027E-3],"categories":[],"categories_nodes":[],"categories_segments":[],"categories_sizes":[],"default_left":[0,0,0,0,0,0,0,0,0,0,0,0,0],"id":8,"left_children":[1,3,5,-1,7,9,-1,-1,11,-1,-1,-1,-1],"loss_changes":[3.6930965E1,9.756837E0,1.2064743E0,0E0,8.214754E0,4.9225616E-1,0E0,0E0,1.6335293E1,0E0,0E0,0E0,0E0],"parents":[2147483647,0,0,1,1,2,2,4,4,5,5,8,8],"right_children":[2,4,6,-1,8,10,-1,-1,12,-1,-1,-1,-1],"split_conditions":[9.644565E3,4.374187E1,5.538454E-1,-7.0712574E-2,3.5013285E-1,1.3738187E-1,1.9984303E-2,2.8806347E-2,1.8457571E0,2.3544481E-2,4.9229547E-2,-6.833053E-2,3.6667027E-3],"split_indices":[4,0,5,0,2,5,0,0,2,0,0,0,0],"split_type":[0,0,0,0,0,0,0,0,0,0,0,0,0],"sum_hessian":[8.3987E1,4.8075558E1,3.591144E1,8.877609E0,3.919795E1,2.7445189E1,8.466254E0,7.833492E0,3.1364456E1,5.1770954E0,2.2268093E1,1.2326222E1,1.9038235E1],"tree_param":{"num_deleted":"0","num_feature":"7","num_nodes":"13","size_leaf_vector":"1"}},{"base_weights":[-7.939068E-3,-6.285119E-1,6.333584E-1,-1.038525E0,-1.13618895E-1,2.9539354E-3,7.565457E-1,-7.3423535E-2,-7.3343837E-3,4.4126492E-2,-5.259446E-1,8.296772E-3,8.572849E-1,1.6069807E-2,-4.9979467E-2,5.0026394E-2,1.6518733E-2],"categories":[],"categories_nodes":[],"categories_segments":[],"categories_sizes":[],"default_left":[0,0,0,0,0,0,0,0,0,0,0,0,0,0,0,0,0],"id":9,"left_children":[1,3,5,7,9,-1,11,-1,-1,-1,13,-1,15,-1,-1,-1,-1],"loss_changes":[3.4252007E1,9.114719E0,2.9500809E0,9.072901E0,8.888405E0,0E0,1.9265423E0,0E0,0E0,0E0,6.394471E0,0E0,1.8933125E0,0E0,0E0,0E0,0E0],"parents":[2147483647,0,0,1,1,2,2,3,3,4,4,6,6,10,10,12,12],"right_children":[2,4,6,8,10,-1,12,-1,-1,-1,14,-1,16,-1,-1,-1,-1],"split_conditions":[5.6759365E3,7.629943E0,1.0390612E4,1.3348557E3,7.7767572E0,2.9539354E-3,6.9585713E-3,-7.3423535E-2,-7.3343837E-3,4.4126492E-2,4.2129275E-1,8.296772E-3,1.177024E0,1.6069807E-2,-4.9979467E-2,5.0026394E-2,1.6518733E-2],"split_indices":[4,2,4,4,2,0,2,0,0,0,5,0,3,0,0,0,0],"split_type":[0,0,0,0,0,0,0,0,0,0,0,0,0,0,0,0,0],"sum_hessian":[8.406616E1,4.273355E1,4.1332607E1,2.322352E1,1.9510033E1,7.561531E0,3.3771076E1,1.5233189E1,7.9903326E0,5.3776503E0,1.4132381E1,5.306643E0,2.8464432E1,5.182477E0,8.949904E0,2.1673529E1,6.7909036E0],"tree_param":{"num_deleted":"0","num_feature":"7","num_nodes":"17","size_leaf_vector":"1"}},{"base_weights":[5.640541E-3,6.841603E-1,-5.1273036E-1,3.444859E-1,5.805074E-2,-1.0038874E0,-7.884396E-3,-1.53623475E-2,6.744091E-1,-1.46568E0,-2.851571E-1,-3.5709016E-2,3.4826967E-1,4.5005783E-2,7.954305E-3,-4.822701E-2,-8.633379E-2,-1.9575482E-2,-6.695218E-3,3.1062325E-2,-1.3025989E-3],"categories":[],"categories_nodes":[],"categories_segments":[],"categories_sizes":[],"default_left":[0,0,0,0,0,0,0,0,0,0,0,0,0,0,0,0,0,0,0,0,0],"id":10,"left_children":[1,3,5,7,-1,9,11,-1,13,15,17,-1,19,-1,-1,-1,-1,-1,-1,-1,-1],"loss_changes":[3.0907587E1,5.763954E0,1.2345972E1,5.291588E0,0E0,7.9611855E0,6.6825557E0,0E0,1.7191601E0,3.133011E-1,1.2640512E-1,0E0,1.8222466E0,0E0,0E0,0E0,0E0,0E0,0E0,0E0,0E0],"parents":[2147483647,0,0,1,1,2,2,3,3,5,5,6,6,8,8,9,9,10,10,12,12],"right_children":[2,4,6,8,-1,10,12,-1,14,16,18,-1,20,-1,-1,-1,-1,-1,-1,-1,-1],"split_conditions":[3.728E-1,2.4786429E-1,2.7275E0,1.2820939E4,5.805074E-2,1.211908E3,5.684345E1,-1.53623475E-2,6E1,1.6450857E0,8.750299E3,-3.5709016E-2,3.6060974E2,4.5005783E-2,7.954305E-3,-4.822701E-2,-8.633379E-2,-1.9575482E-2,-6.695218E-3,3.1062325E-2,-1.3025989E-3],"split_indices":[2,2,2,4,0,4,4,0,6,2,4,0,4,0,0,0,0,0,0,0,0],"split_type":[0,0,0,0,0,0,0,0,0,0,0,0,0,0,0,0,0,0,0,0,0],"sum_hessian":[8.587698E1,3.7054626E1,4.8822353E1,2.264587E1,1.4408758E1,2.4245634E1,2.457672E1,7.6341133E0,1.5011756E1,1.412859E1,1.0117044E1,7.901617E0,1.6675102E1,9.920131E0,5.091625E0,6.4464097E0,7.68218E0,5.0075607E0,5.1094837E0,9.261457E0,7.4136457E0],"tree_param":{"num_deleted":"0","num_feature":"7","num_nodes":"21","size_leaf_vector":"1"}},{"base_weights":[3.6304306E-2,5.297021E-1,-3.6752206E-1,1.7425679E-1,5.613158E-2,-8.9387995E-1,1.22439E-1,-4.219965E-2,5.0970864E-1,-7.019542E-2,4.2207073E-3,4.0240246E-1,-3.4585487E-2,4.0488895E-2,4.662598E-3,-1.1616747E-2,3.9459065E-2],"categories":[],"categories_nodes":[],"categories_segments":[],"categories_sizes":[],"default_left":[0,0,0,0,0,0,0,0,0,0,0,0,0,0,0,0,0],"id":11,"left_children":[1,3,5,7,-1,9,11,-1,13,-1,-1,15,-1,-1,-1,-1,-1],"loss_changes":[1.5957297E1,7.394931E0,1.1481251E1,8.525925E0,0E0,1.0785366E1,5.6840844E0,0E0,2.2302923E0,0E0,0E0,4.671164E0,0E0,0E0,0E0,0E0,0E0],"parents":[2147483647,0,0,1,1,2,2,3,3,5,5,6,6,8,8,11,11],"right_children":[2,4,6,8,-1,10,12,-1,14,-1,-1,16,-1,-1,-1,-1,-1],"split_conditions":[3.719728E-1,2.482688E-1,2.727124E0,4.7E1,5.613158E-2,5.1852753E1,4.4287913E-3,-4.219965E-2,7.4022E-2,-7.019542E-2,4.2207073E-3,-3.2134205E-3,-3.4585487E-2,4.0488895E-2,4.662598E-3,-1.1616747E-2,3.9459065E-2],"split_indices":[3,3,3,0,0,0,1,0,3,0,0,1,0,0,0,0,0],"split_type":[0,0,0,0,0,0,0,0,0,0,0,0,0,0,0,0,0],"sum_hessian":[7.811092E1,3.5016193E1,4.3094734E1,2.2701275E1,1.2314918E1,2.037827E1,2.2716463E1,5.249786E0,1.7451488E1,1.3108937E1,7.269332E0,1.7280062E1,5.436402E0,9.594165E0,7.857324E0,6.693977E0,1.0586084E1],"tree_param":{"num_deleted":"0","num_feature":"7","num_nodes":"17","size_leaf_vector":"1"}},{"base_weights":[-2.4987154E-2,-4.260688E-1,6.204008E-1,-6.037254E-2,-6.779717E-1,8.6106414E-1,-1.3191836E-2,2.8967885E-2,-3.7067702E-1,-8.933294E-1,2.6082695E-3,5.1298417E-2,2.0245595E-2,-6.422357E-2,1.0072233E-2,-1.4231443E-2,-5.669264E-2],"categories":[],"categories_nodes":[],"categories_segments":[],"categories_sizes":[],"default_left":[0,0,0,0,0,0,0,0,0,0,0,0,0,0,0,0,0],"id":12,"left_children":[1,3,5,7,9,11,-1,-1,13,15,-1,-1,-1,-1,-1,-1,-1],"loss_changes":[2.1556774E1,4.68694E0,7.022808E0,4.588171E0,4.809716E0,1.4904118E0,0E0,0E0,8.333433E0,3.1101322E0,0E0,0E0,0E0,0E0,0E0,0E0,0E0],"parents":[2147483647,0,0,1,1,2,2,3,3,4,4,5,5,8,8,9,9],"right_children":[2,4,6,8,10,12,-1,-1,14,16,-1,-1,-1,-1,-1,-1,-1],"split_conditions":[1.0196408E4,-1.2374096E-4,6.25E1,1.6450857E0,9.1441444E1,3.4071714E-1,-1.3191836E-2,2.8967885E-2,7.6351857E0,3.769968E1,2.6082695E-3,5.1298417E-2,2.0245595E-2,-6.422357E-2,1.0072233E-2,-1.4231443E-2,-5.669264E-2],"split_indices":[4,1,6,2,6,2,0,0,2,6,0,0,0,0,0,0,0],"split_type":[0,0,0,0,0,0,0,0,0,0,0,0,0,0,0,0,0],"sum_hessian":[8.125679E1,5.0322983E1,3.0933807E1,2.1031086E1,2.9291897E1,2.4336372E1,6.597435E0,6.5860624E0,1.44450245E1,2.244741E1,6.844486E0,1.6957033E1,7.379339E0,5.082361E0,9.362663E0,6.9761105E0,1.54713E1],"tree_param":{"num_deleted":"0","num_feature":"7","num_nodes":"17","size_leaf_vector":"1"}},{"base_weights":[-1.1856173E-2,5.705234E-1,-4.802431E-1,-2.0963058E-2,7.6785094E-1,-7.232565E-2,-2.8626445E-1,5.1117796E-2,9.109958E-3,-7.982826E-1,1.5383324E-1,-6.660419E-2,-3.443593E-3,5.343022E-2,-1.5627867E-2],"categories":[],"categories_nodes":[],"categories_segments":[],"categories_sizes":[],"default_left":[0,0,0,0,0,0,0,0,0,0,0,0,0,0,0],"id":13,"left_children":[1,3,5,-1,7,-1,9,-1,-1,11,13,-1,-1,-1,-1],"loss_changes":[2.1750902E1,7.2658873E0,7.866928E0,0E0,4.28475E0,0E0,8.694856E0,0E0,0E0,6.8175516E0,9.419576E0,0E0,0E0,0E0,0E0],"parents":[2147483647,0,0,1,1,2,2,4,4,6,6,9,9,10,10],"right_children":[2,4,6,-1,8,-1,10,-1,-1,12,14,-1,-1,-1,-1],"split_conditions":[3.728E-1,4.284069E1,4.234961E1,-2.0963058E-2,5.093633E1,-7.232565E-2,2.7275E0,5.1117796E-2,9.109958E-3,5.1058277E1,7.6993856E0,-6.660419E-2,-3.443593E-3,5.343022E-2,-1.5627867E-2],"split_indices":[2,0,0,0,6,0,2,0,0,0,2,0,0,0,0],"split_type":[0,0,0,0,0,0,0,0,0,0,0,0,0,0,0],"sum_hessian":[7.773376E1,3.4553192E1,4.318056E1,5.556647E0,2.8996546E1,6.1396956E0,3.7040867E1,1.9692963E1,9.303585E0,1.6745247E1,2.029562E1,9.192037E0,7.5532103E0,6.4174037E0,1.3878216E1],"tree_param":{"num_deleted":"0","num_feature":"7","num_nodes":"15","size_leaf_vector":"1"}},{"base_weights":[-5.700102E-3,-4.592948E-1,6.922701E-1,-6.0011696E-2,-2.660238E-1,8.135939E-1,5.3871903E-3,2.0763285E-1,-7.107218E-1,1.3232117E-2,5.0205644E-2,3.8856305E-2,-8.867826E-3,-5.2217763E-2,-1.1845478E-2],"categories":[],"categories_nodes":[],"categories_segments":[],"categories_sizes":[],"default_left":[0,0,0,0,0,0,0,0,0,0,0,0,0,0,0],"id":14,"left_children":[1,3,5,-1,7,9,-1,11,13,-1,-1,-1,-1,-1,-1],"loss_changes":[2.4935694E1,6.5158205E0,2.112691E0,0E0,8.391944E0,2.4055386E0,0E0,4.4629836E0,2.9795513E0,0E0,0E0,0E0,0E0,0E0,0E0],"parents":[2147483647,0,0,1,1,2,2,4,4,5,5,7,7,8,8],"right_children":[2,4,6,-1,8,10,-1,12,14,-1,-1,-1,-1,-1,-1],"split_conditions":[1.0196408E4,4.374187E1,1.21318E0,-6.0011696E-2,-4.6806537E-5,4.951031E1,5.3871903E-3,1.6450857E0,1.8457571E0,1.3232117E-2,5.0205644E-2,3.8856305E-2,-8.867826E-3,-5.2217763E-2,-1.1845478E-2],"split_indices":[4,0,2,0,1,0,0,2,2,0,0,0,0,0,0],"split_type":[0,0,0,0,0,0,0,0,0,0,0,0,0,0,0],"sum_hessian":[7.675768E1,4.6730545E1,3.0027143E1,8.589818E0,3.8140724E1,2.4541452E1,5.4856906E0,1.8727154E1,1.941357E1,6.9384413E0,1.7603012E1,7.1427374E0,1.1584416E1,1.0685356E1,8.728214E0],"tree_param":{"num_deleted":"0","num_feature":"7","num_nodes":"15","size_leaf_vector":"1"}},{"base_weights":[-8.648324E-2,-5.2271104E-1,6.264249E-1,-1.1459512E-1,-8.080566E-1,7.343144E-1,1.2817457E-2,2.9517043E-2,-3.6433032E-1,-1.0033846E0,6.2923552E-3,8.695887E-1,1.8470524E-2,-5.4479666E-2,7.7161337E-3,-2.696811E-2,-5.695005E-2,2.7242023E-2,5.5152994E-2],"categories":[],"categories_nodes":[],"categories_segments":[],"categories_sizes":[],"default_left":[0,0,0,0,0,0,0,0,0,0,0,0,0,0,0,0,0,0,0],"id":15,"left_children":[1,3,5,7,9,11,-1,-1,13,15,-1,17,-1,-1,-1,-1,-1,-1,-1],"loss_changes":[2.5484903E1,5.81524E0,1.0560379E0,4.095176E0,5.542429E0,8.433571E-1,0E0,0E0,6.522587E0,9.379177E-1,0E0,6.480198E-1,0E0,0E0,0E0,0E0,0E0,0E0,0E0],"parents":[2147483647,0,0,1,1,2,2,3,3,4,4,5,5,8,8,9,9,11,11],"right_children":[2,4,6,8,10,12,-1,-1,14,16,-1,18,-1,-1,-1,-1,-1,-1,-1],"split_conditions":[1.0390612E4,-1.2374096E-4,5.538454E-1,1.1900957E0,8.6413056E-1,1.21318E0,1.2817457E-2,2.9517043E-2,7.629943E0,3.5013285E-1,6.2923552E-3,2.4786429E-1,1.8470524E-2,-5.4479666E-2,7.7161337E-3,-2.696811E-2,-5.695005E-2,2.7242023E-2,5.5152994E-2],"split_indices":[4,1,5,2,5,2,0,0,2,2,0,2,0,0,0,0,0,0,0],"split_type":[0,0,0,0,0,0,0,0,0,0,0,0,0,0,0,0,0,0,0],"sum_hessian":[7.9894684E1,4.9731075E1,3.0163607E1,2.104008E1,2.8690998E1,2.2592817E1,7.5707893E0,5.1471577E0,1.5892921E1,2.3666666E1,5.0243325E0,1.5473528E1,7.1192884E0,6.167596E0,9.725325E0,6.4781785E0,1.7188488E1,7.865965E0,7.607563E0],"tree_param":{"num_deleted":"0","num_feature":"7","num_nodes":"19","size_leaf_vector":"1"}},{"base_weights":[4.8468895E-2,-8.747317E-1,2.4177499E-1,-6.456913E-2,-2.035938E-2,7.588663E-1,-1.2473845E-1,5.0833046E-2,8.5732965E-3,-6.0590804E-1,2.6920572E-1,-5.9100997E-2,7.567113E-3,4.4041794E-2,-7.283078E-3],"categories":[],"categories_nodes":[],"categories_segments":[],"categories_sizes":[],"default_left":[0,0,0,0,0,0,0,0,0,0,0,0,0,0,0],"id":16,"left_children":[1,3,5,-1,-1,7,9,-1,-1,11,13,-1,-1,-1,-1],"loss_changes":[1.3719039E1,2.0691328E0,1.2104292E1,0E0,0E0,3.8273249E0,7.35525E0,0E0,0E0,7.764557E0,5.59766E0,0E0,0E0,0E0,0E0],"parents":[2147483647,0,0,1,1,2,2,5,5,6,6,9,9,10,10],"right_children":[2,4,6,-1,-1,8,10,-1,-1,12,14,-1,-1,-1,-1],"split_conditions":[4.313941E1,3.2507086E-1,3.5013285E-1,-6.456913E-2,-2.035938E-2,5.886187E-1,2.7275E0,5.0833046E-2,8.5732965E-3,5.122E1,7.7767572E0,-5.9100997E-2,7.567113E-3,4.4041794E-2,-7.283078E-3],"split_indices":[0,5,2,0,0,5,2,0,0,0,2,0,0,0,0],"split_type":[0,0,0,0,0,0,0,0,0,0,0,0,0,0,0],"sum_hessian":[7.4689384E1,1.2321008E1,6.2368378E1,5.5833564E0,6.7376513E0,2.5425957E1,3.694242E1,1.7162851E1,8.263105E0,1.638791E1,2.0554508E1,8.988541E0,7.39937E0,7.8533316E0,1.2701178E1],"tree_param":{"num_deleted":"0","num_feature":"7","num_nodes":"15","size_leaf_vector":"1"}},{"base_weights":[5.5842012E-2,-3.3315435E-1,7.242293E-1,-5.7987448E-2,-1.4056213E-1,8.8323146E-1,1.2801911E-2,-4.7704077E-1,2.721988E-1,5.016702E-2,2.6397241E-2,-5.577677E-2,4.5933938E-3,4.663051E-2,-8.429734E-3],"categories":[],"categories_nodes":[],"categories_segments":[],"categories_sizes":[],"default_left":[0,0,0,0,0,0,0,0,0,0,0,0,0,0,0],"id":17,"left_children":[1,3,5,-1,7,9,-1,11,13,-1,-1,-1,-1,-1,-1],"loss_changes":[2.0191551E1,7.6675243E0,1.8987398E0,0E0,5.8284707E0,3.621235E-1,0E0,8.44536E0,5.7067213E0,0E0,0E0,0E0,0E0,0E0,0E0],"parents":[2147483647,0,0,1,1,2,2,4,4,5,5,7,7,8,8],"right_children":[2,4,6,-1,8,10,-1,12,14,-1,-1,-1,-1,-1,-1],"split_conditions":[1.0390612E4,4.3573524E1,6.25E1,-5.7987448E-2,2.6036713E0,1.1614715E0,1.2801911E-2,1.1884825E3,7.729857E0,5.016702E-2,2.6397241E-2,-5.577677E-2,4.5933938E-3,4.663051E-2,-8.429734E-3],"split_indices":[4,0,6,0,2,2,0,4,2,0,0,0,0,0,0],"split_type":[0,0,0,0,0,0,0,0,0,0,0,0,0,0,0],"sum_hessian":[7.573174E1,4.8188156E1,2.754359E1,8.1570015E0,4.0031155E1,1.9899164E1,7.6444263E0,2.1967628E1,1.8063526E1,1.3508444E1,6.3907204E0,9.898058E0,1.2069571E1,6.7839036E0,1.1279623E1],"tree_param":{"num_deleted":"0","num_feature":"7","num_nodes":"15","size_leaf_vector":"1"}},{"base_weights":[-6.9863135E-3,-3.396009E-1,5.523519E-1,5.3814057E-2,-5.9446084E-1,-3.6622297E-3,7.402843E-1,-3.5128888E-2,4.0690047E-1,-7.530623E-1,6.9716773E-3,4.542464E-2,4.9747926E-1,3.9489217E-2,-9.262819E-3,-2.2516071E-3,-5.17334E-2,4.7057953E-2,-2.070083E-3],"categories":[],"categories_nodes":[],"categories_segments":[],"categories_sizes":[],"default_left":[0,0,0,0,0,0,0,0,0,0,0,0,0,0,0,0,0,0,0],"id":18,"left_children":[1,3,5,7,9,-1,11,-1,13,15,-1,-1,17,-1,-1,-1,-1,-1,-1],"loss_changes":[1.503363E1,5.1114984E0,3.5975542E0,5.849896E0,3.6931696E0,0E0,4.98271E-1,0E0,3.5101588E0,5.0387573E0,0E0,0E0,2.843986E0,0E0,0E0,0E0,0E0,0E0,0E0],"parents":[2147483647,0,0,1,1,2,2,3,3,4,4,6,6,8,8,9,9,12,12],"right_children":[2,4,6,8,10,-1,12,-1,14,16,-1,-1,18,-1,-1,-1,-1,-1,-1],"split_conditions":[1.1299228E4,-1.6190847E-4,4.7E1,4.5173897E1,8.6413056E-1,-3.6622297E-3,5.0798453E4,-3.5128888E-2,5.31888E1,3.769968E1,6.9716773E-3,4.542464E-2,5.287109E1,3.9489217E-2,-9.262819E-3,-2.2516071E-3,-5.17334E-2,4.7057953E-2,-2.070083E-3],"split_indices":[4,1,0,0,5,0,4,0,0,6,0,0,0,0,0,0,0,0,0],"split_type":[0,0,0,0,0,0,0,0,0,0,0,0,0,0,0,0,0,0,0],"sum_hessian":[7.8798584E1,4.966047E1,2.9138113E1,1.9833422E1,2.9827047E1,6.8721385E0,2.2265974E1,5.996891E0,1.3836531E1,2.4505138E1,5.32191E0,1.1533933E1,1.073204E1,8.200446E0,5.636084E0,7.3031135E0,1.7202024E1,5.47652E0,5.255521E0],"tree_param":{"num_deleted":"0","num_feature":"7","num_nodes":"19","size_leaf_vector":"1"}},{"base_weights":[-1.408324E-2,-4.0208507E-1,3.8394952E-1,5.3644493E-2,-6.7348605E-1,-1.19304415E-2,5.0275016E-1,-3.6488354E-2,2.5527308E-2,-1.028235E0,-1.8027583E-3,6.738864E-1,-8.22785E-4,-2.2749795E-2,-6.894749E-2,4.5719713E-2,7.1074115E-4],"categories":[],"categories_nodes":[],"categories_segments":[],"categories_sizes":[],"default_left":[0,0,0,0,0,0,0,0,0,0,0,0,0,0,0,0,0],"id":19,"left_children":[1,3,5,7,9,-1,11,-1,-1,13,-1,15,-1,-1,-1,-1,-1],"loss_changes":[1.1857468E1,4.842718E0,2.9243455E0,5.89606E0,5.487276E0,0E0,2.8689432E0,0E0,0E0,2.52071E0,0E0,3.8286543E0,0E0,0E0,0E0,0E0,0E0],"parents":[2147483647,0,0,1,1,2,2,3,3,4,4,6,6,9,9,11,11],"right_children":[2,4,6,8,10,-1,12,-1,-1,14,-1,16,-1,-1,-1,-1,-1],"split_conditions":[5.6759365E3,-3.8661427E-4,4.284069E1,4.5662193E1,5.2060566E1,-1.19304415E-2,5.753778E-1,-3.6488354E-2,2.5527308E-2,3.141352E2,-1.8027583E-3,8.5452855E-1,-8.22785E-4,-2.2749795E-2,-6.894749E-2,4.5719713E-2,7.1074115E-4],"split_indices":[4,1,0,0,0,0,5,0,0,4,0,2,0,0,0,0,0],"split_type":[0,0,0,0,0,0,0,0,0,0,0,0,0,0,0,0,0],"sum_hessian":[7.4778824E1,3.7861397E1,3.6917423E1,1.4431215E1,2.3430183E1,5.754305E0,3.116312E1,5.096116E0,9.335098E0,1.4658954E1,8.77123E0,2.3213697E1,7.949422E0,6.4362745E0,8.222679E0,1.6728548E1,6.4851494E0],"tree_param":{"num_deleted":"0","num_feature":"7","num_nodes":"17","size_leaf_vector":"1"}},{"base_weights":[-2.28092E-2,-8.522149E-1,1.6900073E-1,-5.9607722E-2,-1.0119056E-2,-1.0640509E-1,6.117524E-1,3.2770228E-1,-4.8912248E-1,4.4905495E-2,3.9208338E-1,3.5533708E-2,2.3404104E-3,-3.9425503E-2,1.4324267E-2,2.0855095E-3,3.4227993E-2],"categories":[],"categories_nodes":[],"categories_segments":[],"categories_sizes":[],"default_left":[0,0,0,0,0,0,0,0,0,0,0,0,0,0,0,0,0],"id":20,"left_children":[1,3,5,-1,-1,7,9,11,13,-1,15,-1,-1,-1,-1,-1,-1],"loss_changes":[1.2606096E1,3.0454836E0,7.9245863E0,0E0,0E0,6.9038353E0,1.2120495E0,2.0769925E0,5.328129E0,0E0,1.595331E0,0E0,0E0,0E0,0E0,0E0,0E0],"parents":[2147483647,0,0,1,1,2,2,5,5,6,6,7,7,8,8,10,10],"right_children":[2,4,6,-1,-1,8,10,12,14,-1,16,-1,-1,-1,-1,-1,-1],"split_conditions":[4.323E1,7.799905E3,1.0390612E4,-5.9607722E-2,-1.0119056E-2,-4.6806537E-5,3.3084996E4,-1.8431669E-3,8.362381E-1,4.4905495E-2,3.6660134E5,3.5533708E-2,2.3404104E-3,-3.9425503E-2,1.4324267E-2,2.0855095E-3,3.4227993E-2],"split_indices":[0,4,4,0,0,1,4,1,5,0,4,0,0,0,0,0,0],"split_type":[0,0,0,0,0,0,0,0,0,0,0,0,0,0,0,0,0],"sum_hessian":[7.733433E1,1.3878643E1,6.3455685E1,8.564073E0,5.3145704E0,3.9589447E1,2.386624E1,1.8616705E1,2.0972742E1,9.019751E0,1.4846489E1,7.229685E0,1.1387019E1,1.5119805E1,5.8529377E0,7.2745404E0,7.5719485E0],"tree_param":{"num_deleted":"0","num_feature":"7","num_nodes":"17","size_leaf_vector":"1"}},{"base_weights":[1.1628974E-3,4.6848136E-1,-3.0377248E-1,1.6738208E-1,5.1044382E-2,-6.6730094E-1,1.4539345E-1,5.791743E-1,-2.084141E-2,-1.0215595E0,7.0662363E-3,4.875363E-2,-1.7783983E-1,3.6416303E-2,1.4556216E-2,-7.3833205E-2,-3.21938E-2,3.6338163E-3,-3.0588618E-2],"categories":[],"categories_nodes":[],"categories_segments":[],"categories_sizes":[],"default_left":[0,0,0,0,0,0,0,0,0,0,0,0,0,0,0,0,0,0,0],"id":21,"left_children":[1,3,5,7,-1,9,11,13,-1,15,-1,-1,17,-1,-1,-1,-1,-1,-1],"loss_changes":[1.1272561E1,5.024346E0,7.9136767E0,5.3925195E0,0E0,7.7748156E0,6.136269E0,3.4552908E-1,0E0,2.2538013E0,0E0,0E0,1.8758035E0,0E0,0E0,0E0,0E0,0E0,0E0],"parents":[2147483647,0,0,1,1,2,2,3,3,5,5,6,6,7,7,9,9,12,12],"right_children":[2,4,6,8,-1,10,12,14,-1,16,-1,-1,18,-1,-1,-1,-1,-1,-1],"split_conditions":[3.728E-1,2.4786429E-1,7.629943E0,8.3191E-2,5.1044382E-2,1.4930556E-4,7.7767572E0,5.0396824E1,-2.084141E-2,1.1614715E0,7.0662363E-3,4.875363E-2,5.0037163E-1,3.6416303E-2,1.4556216E-2,-7.3833205E-2,-3.21938E-2,3.6338163E-3,-3.0588618E-2],"split_indices":[2,2,2,2,0,1,2,6,0,2,0,0,5,0,0,0,0,0,0],"split_type":[0,0,0,0,0,0,0,0,0,0,0,0,0,0,0,0,0,0,0],"sum_hessian":[7.710596E1,3.0234602E1,4.6871357E1,2.0411785E1,9.822817E0,2.5636797E1,2.1234558E1,1.1977692E1,8.434093E0,1.764375E1,7.993048E0,5.3879867E0,1.5846572E1,6.8844595E0,5.093232E0,6.6821003E0,1.0961649E1,1.0574348E1,5.272223E0],"tree_param":{"num_deleted":"0","num_feature":"7","num_nodes":"19","size_leaf_vector":"1"}},{"base_weights":[-1.51247615E-2,-3.3316824E-1,4.5083082E-1,-5.881877E-1,9.3353815E-2,6.2570333E-1,-7.176081E-3,3.0943055E-3,-9.203221E-1,-2.8546512E-2,3.5080127E-2,4.107089E-2,4.36627E-1,-5.935313E-2,-8.034113E-3,-1.546686E-3,3.568049E-2],"categories":[],"categories_nodes":[],"categories_segments":[],"categories_sizes":[],"default_left":[0,0,0,0,0,0,0,0,0,0,0,0,0,0,0,0,0],"id":22,"left_children":[1,3,5,7,9,11,-1,-1,13,-1,-1,-1,15,-1,-1,-1,-1],"loss_changes":[1.1168855E1,4.9240932E0,3.2689452E0,6.1352987E0,7.517225E0,5.228224E-1,0E0,0E0,3.5974426E0,0E0,0E0,0E0,1.8675921E0,0E0,0E0,0E0,0E0],"parents":[2147483647,0,0,1,1,2,2,3,3,4,4,5,5,8,8,12,12],"right_children":[2,4,6,8,10,12,-1,-1,14,-1,-1,-1,16,-1,-1,-1,-1],"split_conditions":[8.906466E3,7.489857E0,6.25E1,3.728E-1,5.684345E1,2.881431E4,-7.176081E-3,3.0943055E-3,5.1852753E1,-2.8546512E-2,3.5080127E-2,4.107089E-2,3.2946266E5,-5.935313E-2,-8.034113E-3,-1.546686E-3,3.568049E-2],"split_indices":[4,2,6,2,4,4,0,0,0,0,0,0,4,0,0,0,0],"split_type":[0,0,0,0,0,0,0,0,0,0,0,0,0,0,0,0,0],"sum_hessian":[7.335282E1,4.3765285E1,2.9587534E1,2.715197E1,1.6613317E1,2.2820465E1,6.7670684E0,9.456603E0,1.7695368E1,7.970205E0,8.643112E0,9.570055E0,1.325041E1,1.2680177E1,5.0151906E0,5.2598467E0,7.9905634E0],"tree_param":{"num_deleted":"0","num_feature":"7","num_nodes":"17","size_leaf_vector":"1"}},{"base_weights":[-6.0006283E-2,-3.9501077E-1,5.8843285E-1,4.4651214E-2,-5.277727E-1,7.4104434E-1,6.1266203E-3,-3.1937543E-2,4.583994E-2,-6.213687E-2,-3.5820597E-1,1.7343234E-2,4.252344E-2,2.1886842E-2,-2.5842005E-2],"categories":[],"categories_nodes":[],"categories_segments":[],"categories_sizes":[],"default_left":[0,0,0,0,0,0,0,0,0,0,0,0,0,0,0],"id":23,"left_children":[1,3,5,7,9,11,-1,-1,-1,-1,13,-1,-1,-1,-1],"loss_changes":[1.7053825E1,3.0387516E0,1.8132849E0,8.2758875E0,4.3743334E0,5.665388E-1,0E0,0E0,0E0,0E0,4.4608274E0,0E0,0E0,0E0,0E0],"parents":[2147483647,0,0,1,1,2,2,3,3,4,4,5,5,10,10],"right_children":[2,4,6,8,10,12,-1,-1,-1,-1,14,-1,-1,-1,-1],"split_conditions":[1.1299228E4,3.728E-1,6.25E1,2.3878571E-1,8.63232E-1,2.140513E-1,6.1266203E-3,-3.1937543E-2,4.583994E-2,-6.213687E-2,1.7918714E0,1.7343234E-2,4.252344E-2,2.1886842E-2,-2.5842005E-2],"split_indices":[4,2,6,2,3,5,0,0,0,0,2,0,0,0,0],"split_type":[0,0,0,0,0,0,0,0,0,0,0,0,0,0,0],"sum_hessian":[7.643583E1,5.0656094E1,2.5779737E1,1.1902563E1,3.875353E1,1.8974003E1,6.8057356E0,6.823433E0,5.07913E0,6.2158785E0,3.253765E1,5.028768E0,1.3945234E1,5.114809E0,2.7422842E1],"tree_param":{"num_deleted":"0","num_feature":"7","num_nodes":"15","size_leaf_vector":"1"}},{"base_weights":[-8.089788E-3,-3.0841413E-1,4.782178E-1,8.040955E-2,-5.775398E-1,6.72524E-1,-1.5202232E-3,3.8055476E-2,-2.4774003E-1,-2.1081902E-3,-7.143507E-1,5.2599397E-2,3.8043836E-1,1.0125153E-2,-4.5973796E-2,-6.1443746E-2,-1.2288197E-2,-4.213612E-3,3.317349E-2],"categories":[],"categories_nodes":[],"categories_segments":[],"categories_sizes":[],"default_left":[0,0,0,0,0,0,0,0,0,0,0,0,0,0,0,0,0,0,0],"id":24,"left_children":[1,3,5,7,9,11,-1,-1,13,-1,15,-1,17,-1,-1,-1,-1,-1,-1],"loss_changes":[1.1301227E1,5.050499E0,2.940702E0,4.7538605E0,2.0487576E0,1.9743347E0,0E0,0E0,4.585148E0,0E0,5.1330814E0,0E0,1.8541987E0,0E0,0E0,0E0,0E0,0E0,0E0],"parents":[2147483647,0,0,1,1,2,2,3,3,4,4,5,5,8,8,10,10,12,12],"right_children":[2,4,6,8,10,12,-1,-1,14,-1,16,-1,18,-1,-1,-1,-1,-1,-1],"split_conditions":[9.644565E3,-1.2374096E-4,6.25E1,1.642292E0,3.769968E1,2.881431E4,-1.5202232E-3,3.8055476E-2,1.830361E2,-2.1081902E-3,1.6231004E-4,5.2599397E-2,3.68099E5,1.0125153E-2,-4.5973796E-2,-6.1443746E-2,-1.2288197E-2,-4.213612E-3,3.317349E-2],"split_indices":[4,1,6,3,6,4,0,0,4,0,1,0,4,0,0,0,0,0,0],"split_type":[0,0,0,0,0,0,0,0,0,0,0,0,0,0,0,0,0,0,0],"sum_hessian":[7.53693E1,4.6820568E1,2.8548729E1,1.9438171E1,2.7382399E1,2.0424011E1,8.124718E0,5.8935127E0,1.3544659E1,5.839426E0,2.1542973E1,7.7517095E0,1.2672301E1,8.527492E0,5.017167E0,9.494821E0,1.2048151E1,5.062466E0,7.6098356E0],"tree_param":{"num_deleted":"0","num_feature":"7","num_nodes":"19","size_leaf_vector":"1"}},{"base_weights":[-1.0116791E-2,-6.5538067E-1,1.3179146E-1,-1.2668508E-2,-4.3286867E-2,3.9967072E-1,-3.103616E-1,8.368121E-1,8.7841935E-2,-5.8493954E-1,1.1604245E-2,4.97503E-2,2.5099898E-2,-2.1147665E-2,2.476937E-2,-1.7796423E-3,-4.175686E-2],"categories":[],"categories_nodes":[],"categories_segments":[],"categories_sizes":[],"default_left":[0,0,0,0,0,0,0,0,0,0,0,0,0,0,0,0,0],"id":25,"left_children":[1,3,5,-1,-1,7,9,11,13,15,-1,-1,-1,-1,-1,-1,-1],"loss_changes":[7.114227E0,9.648695E-1,7.6743846E0,0E0,0E0,5.3972006E0,3.8017015E0,3.7931252E-1,5.3183603E0,2.2553444E0,0E0,0E0,0E0,0E0,0E0,0E0,0E0],"parents":[2147483647,0,0,1,1,2,2,5,5,6,6,7,7,8,8,9,9],"right_children":[2,4,6,-1,-1,8,10,12,14,16,-1,-1,-1,-1,-1,-1,-1],"split_conditions":[4.323E1,3.3215427E-1,5.133157E-1,-1.2668508E-2,-4.3286867E-2,3.728E-1,8.6413056E-1,3.77907E1,1.8379714E0,6.5585196E-1,1.1604245E-2,4.97503E-2,2.5099898E-2,-2.1147665E-2,2.476937E-2,-1.7796423E-3,-4.175686E-2],"split_indices":[0,2,5,0,0,2,5,6,2,5,0,0,0,0,0,0,0],"split_type":[0,0,0,0,0,0,0,0,0,0,0,0,0,0,0,0,0],"sum_hessian":[7.574988E1,1.3003586E1,6.2746292E1,5.224182E0,7.7794037E0,3.9133354E1,2.3612936E1,1.5591974E1,2.354138E1,1.5625312E1,7.987625E0,9.249792E0,6.342182E0,1.0430524E1,1.3110856E1,5.246997E0,1.0378315E1],"tree_param":{"num_deleted":"0","num_feature":"7","num_nodes":"17","size_leaf_vector":"1"}},{"base_weights":[2.2052074E-2,4.2818463E-1,-2.4333295E-1,4.3826446E-2,5.4293342E-2,-7.186733E-1,1.1497856E-1,3.0546933E-2,-2.295594E-2,-5.5408884E-2,-3.1763949E-3,-2.7825609E-2,3.029815E-1,4.4436436E-2,-1.0675854E-3],"categories":[],"categories_nodes":[],"categories_segments":[],"categories_sizes":[],"default_left":[0,0,0,0,0,0,0,0,0,0,0,0,0,0,0],"id":26,"left_children":[1,3,5,7,-1,9,11,-1,-1,-1,-1,-1,13,-1,-1],"loss_changes":[7.9084344E0,7.277665E0,7.649923E0,5.7943673E0,0E0,4.837846E0,3.4755988E0,0E0,0E0,0E0,0E0,0E0,4.0299883E0,0E0,0E0],"parents":[2147483647,0,0,1,1,2,2,3,3,5,5,6,6,12,12],"right_children":[2,4,6,8,-1,10,12,-1,-1,-1,-1,-1,14,-1,-1],"split_conditions":[3.73646E-1,2.4786429E-1,2.645E0,7.438714E-2,5.4293342E-2,5.122E1,4.4032124E1,3.0546933E-2,-2.295594E-2,-5.5408884E-2,-3.1763949E-3,-2.7825609E-2,7.729857E0,4.4436436E-2,-1.0675854E-3],"split_indices":[3,2,2,2,0,0,0,0,0,0,0,0,2,0,0],"split_type":[0,0,0,0,0,0,0,0,0,0,0,0,0,0,0],"sum_hessian":[7.1408005E1,2.7978146E1,4.3429863E1,1.833157E1,9.646575E0,1.8234299E1,2.5195562E1,8.515227E0,9.816342E0,1.1001855E1,7.232444E0,5.0824466E0,2.0113115E1,6.5477242E0,1.3565392E1],"tree_param":{"num_deleted":"0","num_feature":"7","num_nodes":"15","size_leaf_vector":"1"}},{"base_weights":[-1.1159853E-2,-3.6806997E-2,1.05153E-1,-1.0719064E-1,5.229248E-1,3.2111365E-2,-2.859583E-1,6.882232E-1,-1.240949E-3,7.1393973E-3,-2.5329867E-2,1.40525205E-2,5.350827E-2],"categories":[],"categories_nodes":[],"categories_segments":[],"categories_sizes":[],"default_left":[0,0,0,0,0,0,0,0,0,0,0,0,0],"id":27,"left_children":[1,-1,3,5,7,-1,9,11,-1,-1,-1,-1,-1],"loss_changes":[6.412248E0,0E0,5.8766804E0,6.122884E0,2.034449E0,0E0,3.5238085E0,2.366456E0,0E0,0E0,0E0,0E0,0E0],"parents":[2147483647,0,0,2,2,3,3,4,4,6,6,7,7],"right_children":[2,-1,4,6,8,-1,10,12,-1,-1,-1,-1,-1],"split_conditions":[4.1274864E1,-3.6806997E-2,1.3026642E4,-1.636374E-3,1.21318E0,3.2111365E-2,3.5013285E-1,8.3717E-2,-1.240949E-3,7.1393973E-3,-2.5329867E-2,1.40525205E-2,5.350827E-2],"split_indices":[0,0,4,1,2,0,2,2,0,0,0,0,0],"split_type":[0,0,0,0,0,0,0,0,0,0,0,0,0],"sum_hessian":[7.412456E1,9.511328E0,6.4613235E1,4.333201E1,2.1281225E1,7.846386E0,3.5485622E1,1.6150768E1,5.1304574E0,1.2176692E1,2.330893E1,8.65736E0,7.4934077E0],"tree_param":{"num_deleted":"0","num_feature":"7","num_nodes":"13","size_leaf_vector":"1"}},{"base_weights":[2.8776232E-2,-6.592962E-1,1.6963604E-1,-4.892611E-2,-1.0702919E-2,4.1455844E-1,-2.9611993E-1,7.70233E-1,1.4794837E-1,-6.8451685E-1,3.941528E-2,4.8495077E-2,2.176462E-2,-2.2955412E-2,3.080351E-2,-4.145425E-2,-1.9490497E-2],"categories":[],"categories_nodes":[],"categories_segments":[],"categories_sizes":[],"default_left":[0,0,0,0,0,0,0,0,0,0,0,0,0,0,0,0,0],"id":28,"left_children":[1,3,5,-1,-1,7,9,11,13,15,-1,-1,-1,-1,-1,-1,-1],"loss_changes":[7.0013304E0,1.5364437E0,6.944308E0,0E0,0E0,3.6418557E0,9.465444E0,6.967621E-1,7.067769E0,3.6440945E-1,0E0,0E0,0E0,0E0,0E0,0E0,0E0],"parents":[2147483647,0,0,1,1,2,2,5,5,6,6,7,7,8,8,9,9],"right_children":[2,4,6,-1,-1,8,10,12,14,16,-1,-1,-1,-1,-1,-1,-1],"split_conditions":[4.323E1,3.2507086E-1,5.753778E-1,-4.892611E-2,-1.0702919E-2,8.5452855E-1,9.344006E-1,3.77907E1,2.7275E0,8.224299E1,3.941528E-2,4.8495077E-2,2.176462E-2,-2.2955412E-2,3.080351E-2,-4.145425E-2,-1.9490497E-2],"split_indices":[0,5,5,0,0,2,5,6,2,6,0,0,0,0,0,0,0],"split_type":[0,0,0,0,0,0,0,0,0,0,0,0,0,0,0,0,0],"sum_hessian":[7.0083015E1,1.1283725E1,5.879929E1,5.8742566E0,5.409468E0,3.860722E1,2.0192068E1,1.5731469E1,2.2875751E1,1.5138759E1,5.05331E0,8.668289E0,7.06318E0,9.968254E0,1.2907497E1,8.939998E0,6.1987605E0],"tree_param":{"num_deleted":"0","num_feature":"7","num_nodes":"17","size_leaf_vector":"1"}},{"base_weights":[4.197504E-2,-1.7967334E-1,4.5955798E-1,-4.414202E-2,-9.054579E-3,6.34964E-1,-1.473969E-3,3.3965997E-2,-2.1465896E-1,7.540509E-1,1.2798691E-2,1.7954126E-2,-2.3435427E-2,2.2704795E-2,4.9692374E-2],"categories":[],"categories_nodes":[],"categories_segments":[],"categories_sizes":[],"default_left":[0,0,0,0,0,0,0,0,0,0,0,0,0,0,0],"id":29,"left_children":[1,3,5,-1,7,9,-1,-1,11,13,-1,-1,-1,-1,-1],"loss_changes":[6.8148875E0,5.778945E0,2.2062964E0,0E0,5.7826395E0,6.5612125E-1,0E0,0E0,4.7490807E0,5.414467E-1,0E0,0E0,0E0,0E0,0E0],"parents":[2147483647,0,0,1,1,2,2,4,4,5,5,8,8,9,9],"right_children":[2,4,6,-1,8,10,-1,-1,12,14,-1,-1,-1,-1,-1],"split_conditions":[1.0390612E4,4.323E1,6.25E1,-4.414202E-2,-1.636374E-3,3.5542413E-5,-1.473969E-3,3.3965997E-2,8.232286E-1,5.2168022E1,1.2798691E-2,1.7954126E-2,-2.3435427E-2,2.2704795E-2,4.9692374E-2],"split_indices":[4,0,6,0,1,1,0,0,2,0,0,0,0,0,0],"split_type":[0,0,0,0,0,0,0,0,0,0,0,0,0,0,0],"sum_hessian":[7.173731E1,4.723515E1,2.4502163E1,8.408219E0,3.882693E1,1.7814228E1,6.687934E0,8.399832E0,3.0427101E1,1.2801948E1,5.0122805E0,9.211211E0,2.1215889E1,6.9731245E0,5.8288236E0],"tree_param":{"num_deleted":"0","num_feature":"7","num_nodes":"15","size_leaf_vector":"1"}},{"base_weights":[-3.8248007E-4,3.5388538E-1,-2.193544E-1,-4.9370457E-3,5.3783167E-2,-5.0061047E-2,-5.096896E-2,-3.411178E-2,3.4129092E-1,3.148401E-2,-2.3267935E-1,3.637711E-2,-1.0495208E-2,-6.1097473E-2,2.7503807E-3],"categories":[],"categories_nodes":[],"categories_segments":[],"categories_sizes":[],"default_left":[0,0,0,0,0,0,0,0,0,0,0,0,0,0,0],"id":30,"left_children":[1,3,5,7,-1,-1,9,-1,11,-1,13,-1,-1,-1,-1],"loss_changes":[5.757473E0,7.3479695E0,5.9875402E0,4.9069643E0,0E0,0E0,4.944431E0,0E0,3.1027336E0,0E0,8.989069E0,0E0,0E0,0E0,0E0],"parents":[2147483647,0,0,1,1,2,2,3,3,6,6,8,8,10,10],"right_children":[2,4,6,8,-1,-1,10,-1,12,-1,14,-1,-1,-1,-1],"split_conditions":[3.728E-1,2.4786429E-1,1.1186143E0,4.7E1,5.3783167E-2,-5.0061047E-2,1.794124E0,-3.411178E-2,7.438714E-2,3.148401E-2,2.7275E0,3.637711E-2,-1.0495208E-2,-6.1097473E-2,2.7503807E-3],"split_indices":[2,2,2,0,0,0,3,0,2,0,2,0,0,0,0],"split_type":[0,0,0,0,0,0,0,0,0,0,0,0,0,0,0],"sum_hessian":[7.221776E1,2.7351118E1,4.4866642E1,1.8932323E1,8.418796E0,7.0739703E0,3.779267E1,6.075947E0,1.2856376E1,7.4439383E0,3.0348734E1,7.3711147E0,5.4852614E0,6.1056657E0,2.4243069E1],"tree_param":{"num_deleted":"0","num_feature":"7","num_nodes":"15","size_leaf_vector":"1"}},{"base_weights":[1.960202E-2,-2.354427E-1,5.716751E-1,-3.6431205E-2,-9.710558E-2,3.3496323E-1,5.3111203E-2,-3.7760457E-1,2.654096E-1,-4.262392E-3,4.1033898E-2,-4.1747425E-2,1.7860777E-3,4.2133946E-2,-1.6670978E-2,1.0261439E-2,-1.0842215E-2],"categories":[],"categories_nodes":[],"categories_segments":[],"categories_sizes":[],"default_left":[0,0,0,0,0,0,0,0,0,0,0,0,0,0,0,0,0],"id":31,"left_children":[1,3,5,-1,7,9,-1,11,13,15,-1,-1,-1,-1,-1,-1,-1],"loss_changes":[1.043114E1,3.3901558E0,2.361312E0,0E0,4.2458506E0,2.8447206E0,0E0,4.4526978E0,6.6318455E0,5.4096043E-1,0E0,0E0,0E0,0E0,0E0,0E0,0E0],"parents":[2147483647,0,0,1,1,2,2,4,4,5,5,7,7,8,8,9,9],"right_children":[2,4,6,-1,8,10,-1,12,14,16,-1,-1,-1,-1,-1,-1,-1],"split_conditions":[1.3026642E4,4.374187E1,5.6524445E1,-3.6431205E-2,2.6036713E0,4.44835E5,5.3111203E-2,1.7104985E3,8.489243E0,4.0544137E4,4.1033898E-2,-4.1747425E-2,1.7860777E-3,4.2133946E-2,-1.6670978E-2,1.0261439E-2,-1.0842215E-2],"split_indices":[4,0,0,0,2,4,0,4,2,4,0,0,0,0,0,0,0],"split_type":[0,0,0,0,0,0,0,0,0,0,0,0,0,0,0,0,0],"sum_hessian":[7.212713E1,4.9727657E1,2.2399473E1,9.958369E0,3.976929E1,1.6243896E1,6.1555767E0,2.2397457E1,1.7371834E1,1.0147827E1,6.0960693E0,1.0148313E1,1.2249144E1,8.637806E0,8.734028E0,5.12849E0,5.0193367E0],"tree_param":{"num_deleted":"0","num_feature":"7","num_nodes":"17","size_leaf_vector":"1"}},{"base_weights":[-5.619747E-2,-2.9595244E-1,4.3647206E-1,1.2600764E-2,-5.673726E-1,-6.6621886E-3,6.337391E-1,-2.9378135E-2,3.26292E-1,-5.0263476E-2,-1.3540064E-1,4.6886873E-2,1.5743352E-2,3.3914577E-2,-3.4014643E-3,1.8679379E-2,-3.140403E-2],"categories":[],"categories_nodes":[],"categories_segments":[],"categories_sizes":[],"default_left":[0,0,0,0,0,0,0,0,0,0,0,0,0,0,0,0,0],"id":32,"left_children":[1,3,5,7,9,-1,11,-1,13,-1,15,-1,-1,-1,-1,-1,-1],"loss_changes":[8.47183E0,4.0358005E0,2.7282095E0,4.61421E0,4.7090178E0,0E0,1.4154105E0,0E0,2.276698E0,0E0,3.757914E0,0E0,0E0,0E0,0E0,0E0,0E0],"parents":[2147483647,0,0,1,1,2,2,3,3,4,4,6,6,8,8,10,10],"right_children":[2,4,6,8,10,-1,12,-1,14,-1,16,-1,-1,-1,-1,-1,-1],"split_conditions":[1.3026642E4,-4.6806537E-5,4.7E1,4.5173897E1,1.6231004E-4,-6.6621886E-3,5.0798453E4,-2.9378135E-2,5.212373E1,-5.0263476E-2,7.66724E0,4.6886873E-2,1.5743352E-2,3.3914577E-2,-3.4014643E-3,1.8679379E-2,-3.140403E-2],"split_indices":[4,1,0,0,1,0,4,0,0,0,3,0,0,0,0,0,0],"split_type":[0,0,0,0,0,0,0,0,0,0,0,0,0,0,0,0,0],"sum_hessian":[6.962866E1,4.71047E1,2.252396E1,2.2490664E1,2.4614037E1,5.8766093E0,1.664735E1,7.4204926E0,1.5070169E1,1.1564129E1,1.3049907E1,7.528869E0,9.118482E0,7.581885E0,7.488285E0,6.537614E0,6.5122933E0],"tree_param":{"num_deleted":"0","num_feature":"7","num_nodes":"17","size_leaf_vector":"1"}},{"base_weights":[3.767405E-2,-1.8733102E-1,4.5137674E-1,1.8913133E-2,-3.1573194E-1,-2.4366658E-3,6.456058E-1,-4.235767E-1,1.2945863E-2,4.7827777E-2,4.3736807E-1,-9.704775E-3,-5.6765556E-2,9.738468E-3,2.844573E-2],"categories":[],"categories_nodes":[],"categories_segments":[],"categories_sizes":[],"default_left":[0,0,0,0,0,0,0,0,0,0,0,0,0,0,0],"id":33,"left_children":[1,3,5,-1,7,-1,9,11,-1,-1,13,-1,-1,-1,-1],"loss_changes":[6.6674743E0,3.4973216E0,2.47991E0,0E0,2.4926684E0,0E0,7.617636E-1,5.1295953E0,0E0,0E0,2.9633856E-1,0E0,0E0,0E0,0E0],"parents":[2147483647,0,0,1,1,2,2,4,4,6,6,7,7,10,10],"right_children":[2,4,6,-1,8,-1,10,12,-1,-1,14,-1,-1,-1,-1],"split_conditions":[1.0390612E4,1.4594531E-1,4.7E1,1.8913133E-2,8.318019E-1,-2.4366658E-3,4.4497287E-1,6.5585196E-1,1.2945863E-2,4.7827777E-2,1.423184E-1,-9.704775E-3,-5.6765556E-2,9.738468E-3,2.844573E-2],"split_indices":[4,5,0,0,5,0,5,5,0,0,3,0,0,0,0],"split_type":[0,0,0,0,0,0,0,0,0,0,0,0,0,0,0],"sum_hessian":[6.971927E1,4.5512867E1,2.4206404E1,8.060628E0,3.745224E1,6.980859E0,1.7225544E1,3.175555E1,5.696688E0,5.4675655E0,1.1757979E1,2.4975517E1,6.780032E0,5.0061774E0,6.751802E0],"tree_param":{"num_deleted":"0","num_feature":"7","num_nodes":"15","size_leaf_vector":"1"}},{"base_weights":[-1.50064295E-2,-2.5658542E-1,4.3488646E-1,-3.7345625E-2,-1.6491918E-1,6.3531035E-1,-5.2878032E-3,2.915057E-1,-3.8025507E-1,4.0718343E-2,1.1077358E-2,1.7930004E-4,2.5711542E-2,-7.445621E-3,-4.4919338E-2],"categories":[],"categories_nodes":[],"categories_segments":[],"categories_sizes":[],"default_left":[0,0,0,0,0,0,0,0,0,0,0,0,0,0,0],"id":34,"left_children":[1,3,5,-1,7,9,-1,11,13,-1,-1,-1,-1,-1,-1],"loss_changes":[7.3593473E0,1.855226E0,2.6319232E0,0E0,3.881784E0,1.1094675E0,0E0,8.2314515E-1,3.0429757E0,0E0,0E0,0E0,0E0,0E0,0E0],"parents":[2147483647,0,0,1,1,2,2,4,4,5,5,7,7,8,8],"right_children":[2,4,6,-1,8,10,-1,12,14,-1,-1,-1,-1,-1,-1],"split_conditions":[9.363609E3,2.9589195E1,6.25E1,-3.7345625E-2,3.4836932E2,8.54016E-1,-5.2878032E-3,1.0964106E2,1.794124E0,4.0718343E-2,1.1077358E-2,1.7930004E-4,2.5711542E-2,-7.445621E-3,-4.4919338E-2],"split_indices":[4,4,6,0,4,3,0,4,3,0,0,0,0,0,0],"split_type":[0,0,0,0,0,0,0,0,0,0,0,0,0,0,0],"sum_hessian":[6.568615E1,4.301699E1,2.2669159E1,5.649479E0,3.736751E1,1.6410463E1,6.258695E0,1.1864933E1,2.5502579E1,1.0778053E1,5.6324105E0,5.61825E0,6.2466826E0,1.8520632E1,6.981947E0],"tree_param":{"num_deleted":"0","num_feature":"7","num_nodes":"15","size_leaf_vector":"1"}},{"base_weights":[1.5838452E-2,-2.5910577E-1,2.4540856E-1,-6.9945073E-1,6.7470158E-3,-2.0084172E-2,5.095148E-1,-1.3424384E-2,-5.555157E-2,-3.1489313E-2,3.9214504E-1,3.0826247E-1,-2.3538975E-2,5.1718015E-2,9.872501E-2,3.0308986E-2,5.008157E-3,-1.275284E-2,3.7022885E-2,-1.744601E-2,2.986571E-2],"categories":[],"categories_nodes":[],"categories_segments":[],"categories_sizes":[],"default_left":[0,0,0,0,0,0,0,0,0,0,0,0,0,0,0,0,0,0,0,0,0],"id":35,"left_children":[1,3,5,7,9,11,13,-1,-1,-1,15,17,-1,-1,19,-1,-1,-1,-1,-1,-1],"loss_changes":[4.5603943E0,3.8567386E0,2.7686107E0,1.900569E0,5.523228E0,3.190647E0,4.157922E0,0E0,0E0,0E0,8.1500816E-1,3.2346845E0,0E0,0E0,2.9289534E0,0E0,0E0,0E0,0E0,0E0,0E0],"parents":[2147483647,0,0,1,1,2,2,3,3,4,4,5,5,6,6,10,10,11,11,14,14],"right_children":[2,4,6,8,10,12,14,-1,-1,-1,16,18,-1,-1,20,-1,-1,-1,-1,-1,-1],"split_conditions":[1.3348557E3,2.727124E0,2.482688E-1,1.642292E0,5.684345E1,8.23324E-2,3.719728E-1,-1.3424384E-2,-5.555157E-2,-3.1489313E-2,5.980069E-1,2.332272E-2,-2.3538975E-2,5.1718015E-2,1.23095734E5,3.0308986E-2,5.008157E-3,-1.275284E-2,3.7022885E-2,-1.744601E-2,2.986571E-2],"split_indices":[4,3,3,3,4,3,3,0,0,0,5,3,0,0,4,0,0,0,0,0,0],"split_type":[0,0,0,0,0,0,0,0,0,0,0,0,0,0,0,0,0,0,0,0,0],"sum_hessian":[7.0243355E1,3.1904423E1,3.833893E1,1.1396641E1,2.0507782E1,1.9580046E1,1.8758884E1,6.3743944E0,5.0222464E0,7.494898E0,1.3012884E1,1.1510378E1,8.069667E0,7.569602E0,1.1189281E1,6.887776E0,6.1251082E0,5.175082E0,6.335296E0,6.0540223E0,5.135259E0],"tree_param":{"num_deleted":"0","num_feature":"7","num_nodes":"21","size_leaf_vector":"1"}},{"base_weights":[3.8119298E-3,-3.352459E-2,1.0671499E-1,-3.3081766E-2,2.1739651E-1,5.2220114E-2,9.6112326E-2,-6.2251543E-3,2.3874806E-2],"categories":[],"categories_nodes":[],"categories_segments":[],"categories_sizes":[],"default_left":[0,0,0,0,0,0,0,0,0],"id":36,"left_children":[1,-1,3,-1,5,-1,7,-1,-1],"loss_changes":[4.874351E0,0E0,5.3241796E0,0E0,5.3157334E0,0E0,4.114355E0,0E0,0E0],"parents":[2147483647,0,0,2,2,4,4,6,6],"right_children":[2,-1,4,-1,6,-1,8,-1,-1],"split_conditions":[4.1274864E1,-3.352459E-2,5.3234993E1,-3.3081766E-2,-1.636374E-3,5.2220114E-2,1.3026642E4,-6.2251543E-3,2.3874806E-2],"split_indices":[0,0,4,0,1,0,4,0,0],"split_type":[0,0,0,0,0,0,0,0,0],"sum_hessian":[6.821665E1,8.301669E0,5.991498E1,6.917301E0,5.299768E1,5.804831E0,4.7192852E1,3.032474E1,1.686811E1],"tree_param":{"num_deleted":"0","num_feature":"7","num_nodes":"9","size_leaf_vector":"1"}},{"base_weights":[1.5849674E-2,-1.6821921E-1,4.342737E-1,8.618034E-3,-2.507228E-1,9.426993E-2,4.1008033E-2,1.15174234E-1,-4.1739744E-1,2.9090185E-2,-1.7042276E-2,-1.7922832E-2,3.568875E-2,-3.9635073E-2,-1.1296825E-3],"categories":[],"categories_nodes":[],"categories_segments":[],"categories_sizes":[],"default_left":[0,0,0,0,0,0,0,0,0,0,0,0,0,0,0],"id":37,"left_children":[1,3,5,-1,7,9,-1,11,13,-1,-1,-1,-1,-1,-1],"loss_changes":[5.370529E0,1.4057033E0,2.7163634E0,0E0,2.4533865E0,2.8392022E0,0E0,3.9776073E0,4.0291624E0,0E0,0E0,0E0,0E0,0E0,0E0],"parents":[2147483647,0,0,1,1,2,2,4,4,5,5,7,7,8,8],"right_children":[2,4,6,-1,8,10,-1,12,14,-1,-1,-1,-1,-1,-1],"split_conditions":[1.3026642E4,-1.8431669E-3,8.113555E-8,8.618034E-3,3.728E-1,-8.774935E-5,4.1008033E-2,2.3529285E-1,1.8457571E0,2.9090185E-2,-1.7042276E-2,-1.7922832E-2,3.568875E-2,-3.9635073E-2,-1.1296825E-3],"split_indices":[4,1,1,0,2,1,0,2,2,0,0,0,0,0,0],"split_type":[0,0,0,0,0,0,0,0,0,0,0,0,0,0,0],"sum_hessian":[6.7781555E1,4.748875E1,2.0292805E1,9.04818E0,3.844057E1,1.1449224E1,8.84358E0,1.2127134E1,2.6313437E1,5.2403946E0,6.2088294E0,6.99425E0,5.132885E0,1.2973179E1,1.3340258E1],"tree_param":{"num_deleted":"0","num_feature":"7","num_nodes":"15","size_leaf_vector":"1"}},{"base_weights":[-3.9459024E-2,-3.8129073E-1,2.8185922E-1,-7.972799E-1,-1.4032844E-1,-2.1361722E-2,4.2352882E-1,-2.4326524E-2,-4.9639706E-2,1.3434984E-1,-4.3143462E-2,3.715642E-2,2.4956821E-1,2.7155716E-2,-1.0143696E-2,3.0846202E-3,3.49361E-2],"categories":[],"categories_nodes":[],"categories_segments":[],"categories_sizes":[],"default_left":[0,0,0,0,0,0,0,0,0,0,0,0,0,0,0,0,0],"id":38,"left_children":[1,3,5,7,9,-1,11,-1,-1,13,-1,-1,15,-1,-1,-1,-1],"loss_changes":[7.4971123E0,3.1983337E0,3.722532E0,2.3991632E-1,4.506905E0,0E0,1.4761486E0,0E0,0E0,2.4391809E0,0E0,0E0,1.7170148E0,0E0,0E0,0E0,0E0],"parents":[2147483647,0,0,1,1,2,2,3,3,4,4,6,6,9,9,12,12],"right_children":[2,4,6,8,10,-1,12,-1,-1,14,-1,-1,16,-1,-1,-1,-1],"split_conditions":[1.3348557E3,1.8457571E0,4.284069E1,1.6059858E0,4.0950547E-3,-2.1361722E-2,3.77907E1,-2.4326524E-2,-4.9639706E-2,7.6993856E0,-4.3143462E-2,3.715642E-2,8.224299E1,2.7155716E-2,-1.0143696E-2,3.0846202E-3,3.49361E-2],"split_indices":[4,2,0,2,1,0,6,0,0,2,0,0,6,0,0,0,0],"split_type":[0,0,0,0,0,0,0,0,0,0,0,0,0,0,0,0,0],"sum_hessian":[6.62784E1,3.2023655E1,3.425474E1,1.0899096E1,2.1124561E1,5.3684626E0,2.888628E1,5.5563397E0,5.342756E0,1.5895754E1,5.228808E0,9.028091E0,1.9858189E1,6.9096737E0,8.98608E0,1.4803435E1,5.0547523E0],"tree_param":{"num_deleted":"0","num_feature":"7","num_nodes":"17","size_leaf_vector":"1"}},{"base_weights":[1.7288871E-2,1.0614847E-1,-2.6877835E-2,-2.615155E-2,5.5643934E-1,2.7852595E-1,-4.3177125E-1,1.0768915E-2,4.075077E-2,1.6463656E-3,3.6706496E-2,-4.248811E-2,-1.1469571E-2],"categories":[],"categories_nodes":[],"categories_segments":[],"categories_sizes":[],"default_left":[0,0,0,0,0,0,0,0,0,0,0,0,0],"id":39,"left_children":[1,3,-1,5,7,9,11,-1,-1,-1,-1,-1,-1],"loss_changes":[3.3026338E0,3.4445846E0,0E0,5.7379336E0,9.8150826E-1,2.9484665E0,1.4876635E0,0E0,0E0,0E0,0E0,0E0,0E0],"parents":[2147483647,0,0,1,1,3,3,4,4,5,5,6,6],"right_children":[2,4,-1,6,8,10,12,-1,-1,-1,-1,-1,-1],"split_conditions":[2.0031743E-3,7.629943E0,-2.6877835E-2,8.5452855E-1,-3.2134205E-3,2.4786429E-1,1.174789E0,1.0768915E-2,4.075077E-2,1.6463656E-3,3.6706496E-2,-4.248811E-2,-1.1469571E-2],"split_indices":[1,2,0,2,1,2,3,0,0,0,0,0,0],"split_type":[0,0,0,0,0,0,0,0,0,0,0,0,0],"sum_hessian":[6.482864E1,5.6576496E1,8.252147E0,4.4456615E1,1.2119881E1,2.556616E1,1.8890453E1,6.0167484E0,6.1031322E0,1.730823E1,8.257932E0,5.1189795E0,1.3771474E1],"tree_param":{"num_deleted":"0","num_feature":"7","num_nodes":"13","size_leaf_vector":"1"}},{"base_weights":[1.0102378E-1,-1.072217E-1,5.2373236E-1,1.9426249E-2,-2.5679663E-1,6.804021E-1,3.2897852E-3,1.9477257E-1,-4.533782E-1,8.779725E-3,4.4668596E-2,-1.7770197E-3,1.9725136E-2,-3.896002E-2,-4.8489417E-3],"categories":[],"categories_nodes":[],"categories_segments":[],"categories_sizes":[],"default_left":[0,0,0,0,0,0,0,0,0,0,0,0,0,0,0],"id":40,"left_children":[1,3,5,-1,7,9,-1,11,13,-1,-1,-1,-1,-1,-1],"loss_changes":[5.812141E0,3.4096885E0,1.5157828E0,0E0,3.1857824E0,1.5739856E0,0E0,5.330194E-1,2.7823033E0,0E0,0E0,0E0,0E0,0E0,0E0],"parents":[2147483647,0,0,1,1,2,2,4,4,5,5,7,7,8,8],"right_children":[2,4,6,-1,8,10,-1,12,14,-1,-1,-1,-1,-1,-1],"split_conditions":[1.1299228E4,-1.636374E-3,1.1816128E0,1.9426249E-2,8.232286E-1,2.480152E-2,3.2897852E-3,2.20107E-1,1.8457571E0,8.779725E-3,4.4668596E-2,-1.7770197E-3,1.9725136E-2,-3.896002E-2,-4.8489417E-3],"split_indices":[4,1,3,0,2,3,0,2,2,0,0,0,0,0,0],"split_type":[0,0,0,0,0,0,0,0,0,0,0,0,0,0,0],"sum_hessian":[6.438875E1,4.3637352E1,2.0751398E1,9.74414E0,3.389321E1,1.5099682E1,5.651717E0,1.0282469E1,2.3610744E1,5.021529E0,1.0078153E1,5.1574106E0,5.125058E0,1.1714747E1,1.1895996E1],"tree_param":{"num_deleted":"0","num_feature":"7","num_nodes":"15","size_leaf_vector":"1"}},{"base_weights":[3.747693E-2,-5.210933E-1,1.7087658E-1,-4.0148836E-2,-3.3188348E-3,-2.4257481E-2,2.822216E-1,3.8436756E-2,1.5514158E-1,1.7915862E-2,-2.666382E-2],"categories":[],"categories_nodes":[],"categories_segments":[],"categories_sizes":[],"default_left":[0,0,0,0,0,0,0,0,0,0,0],"id":41,"left_children":[1,3,5,-1,-1,-1,7,-1,9,-1,-1],"loss_changes":[5.1572604E0,1.6590939E0,4.20249E0,0E0,0E0,0E0,2.861654E0,0E0,5.7133837E0,0E0,0E0],"parents":[2147483647,0,0,1,1,2,2,6,6,8,8],"right_children":[2,4,6,-1,-1,-1,8,-1,10,-1,-1],"split_conditions":[4.323E1,8.198149E3,5.684345E1,-4.0148836E-2,-3.3188348E-3,-2.4257481E-2,2.727093E2,3.8436756E-2,1.794124E0,1.7915862E-2,-2.666382E-2],"split_indices":[0,4,4,0,0,0,4,0,3,0,0],"split_type":[0,0,0,0,0,0,0,0,0,0,0],"sum_hessian":[6.701784E1,1.2359588E1,5.465825E1,7.157005E0,5.2025824E0,7.44375E0,4.72145E1,8.7327585E0,3.8481743E1,3.008279E1,8.398952E0],"tree_param":{"num_deleted":"0","num_feature":"7","num_nodes":"11","size_leaf_vector":"1"}},{"base_weights":[-4.48035E-2,-3.396155E-1,2.102154E-1,-4.4789165E-2,-1.9490111E-1,7.288E-2,4.100607E-2,2.1949677E-2,-4.0988377E-1,-3.3432722E-1,3.620987E-1,-4.284535E-2,-2.4843651E-3,-2.8887874E-2,-2.3922043E-4,3.1180074E-2,-9.885544E-3],"categories":[],"categories_nodes":[],"categories_segments":[],"categories_sizes":[],"default_left":[0,0,0,0,0,0,0,0,0,0,0,0,0,0,0,0,0],"id":42,"left_children":[1,3,5,-1,7,9,-1,-1,11,13,15,-1,-1,-1,-1,-1,-1],"loss_changes":[5.132936E0,2.3693779E0,3.0155845E0,0E0,3.772134E0,3.7796593E0,0E0,0E0,3.2101233E0,1.0738755E0,2.8526433E0,0E0,0E0,0E0,0E0,0E0,0E0],"parents":[2147483647,0,0,1,1,2,2,4,4,5,5,8,8,9,9,10,10],"right_children":[2,4,6,-1,8,10,-1,-1,12,14,16,-1,-1,-1,-1,-1,-1],"split_conditions":[1.3348557E3,4.374187E1,1.5943313E-4,-4.4789165E-2,-1.8431669E-3,4.951031E1,4.100607E-2,2.1949677E-2,2.601972E0,2.482688E-1,5.753778E-1,-4.284535E-2,-2.4843651E-3,-2.8887874E-2,-2.3922043E-4,3.1180074E-2,-9.885544E-3],"split_indices":[4,0,1,0,1,0,0,0,3,3,5,0,0,0,0,0,0],"split_type":[0,0,0,0,0,0,0,0,0,0,0,0,0,0,0,0,0],"sum_hessian":[6.632332E1,3.060778E1,3.5715538E1,5.248124E0,2.5359655E1,3.0065125E1,5.650412E0,6.1585755E0,1.920108E1,1.2420974E1,1.7644152E1,7.952545E0,1.1248535E1,6.7106605E0,5.710313E0,1.1948648E1,5.6955028E0],"tree_param":{"num_deleted":"0","num_feature":"7","num_nodes":"17","size_leaf_vector":"1"}},{"base_weights":[1.9993817E-2,-2.2721055E-1,3.2513714E-1,-5.024424E-1,5.4493626E-3,6.565651E-2,4.0222127E-2,-3.1388474E-3,-4.148936E-2,3.1556197E-2,-3.6392954E-1,2.851057E-1,-2.3593403E-2,-3.151623E-2,1.2919963E-3,-5.389912E-4,2.7258236E-2],"categories":[],"categories_nodes":[],"categories_segments":[],"categories_sizes":[],"default_left":[0,0,0,0,0,0,0,0,0,0,0,0,0,0,0,0,0],"id":43,"left_children":[1,3,5,7,9,11,-1,-1,-1,-1,13,15,-1,-1,-1,-1,-1],"loss_changes":[5.007082E0,2.3539934E0,3.6385856E0,2.370245E0,5.0569367E0,2.5344086E0,0E0,0E0,0E0,0E0,1.4458343E0,1.1654973E0,0E0,0E0,0E0,0E0,0E0],"parents":[2147483647,0,0,1,1,2,2,3,3,4,4,5,5,10,10,11,11],"right_children":[2,4,6,8,10,12,-1,-1,-1,-1,14,16,-1,-1,-1,-1,-1],"split_conditions":[5.6759365E3,1.8457571E0,1.9323037E-5,-4.6806537E-5,7.729857E0,-2.1394605E-6,4.0222127E-2,-3.1388474E-3,-4.148936E-2,3.1556197E-2,7.444714E1,5.1065674E1,-2.3593403E-2,-3.151623E-2,1.2919963E-3,-5.389912E-4,2.7258236E-2],"split_indices":[4,2,1,1,2,1,0,0,0,0,2,0,0,0,0,0,0],"split_type":[0,0,0,0,0,0,0,0,0,0,0,0,0,0,0,0,0],"sum_hessian":[6.439874E1,3.5718044E1,2.8680698E1,1.5830881E1,1.9887161E1,1.9344946E1,9.3357525E0,7.264932E0,8.565949E0,7.119369E0,1.2767793E1,1.4070239E1,5.274706E0,7.2176113E0,5.5501814E0,7.0301466E0,7.040093E0],"tree_param":{"num_deleted":"0","num_feature":"7","num_nodes":"17","size_leaf_vector":"1"}},{"base_weights":[-5.651351E-2,2.3659904E-1,-2.4943826E-1,-8.25405E-2,4.338944E-2,-5.828549E-1,6.2782266E-3,2.6402947E-1,-3.365456E-2,-2.2892159E-1,-5.6857623E-2,2.8040168E-1,-2.2972278E-2,1.0090292E-3,2.2219278E-2,-4.3544944E-2,2.099513E-2,3.0315537E-2,-1.4219216E-2],"categories":[],"categories_nodes":[],"categories_segments":[],"categories_sizes":[],"default_left":[0,0,0,0,0,0,0,0,0,0,0,0,0,0,0,0,0,0,0],"id":44,"left_children":[1,3,5,7,-1,9,11,13,-1,15,-1,17,-1,-1,-1,-1,-1,-1,-1],"loss_changes":[3.5835226E0,5.15851E0,3.2498581E0,3.7973795E0,0E0,2.983964E0,3.0060523E0,5.1277566E-1,0E0,5.0910654E0,0E0,2.898085E0,0E0,0E0,0E0,0E0,0E0,0E0,0E0],"parents":[2147483647,0,0,1,1,2,2,3,3,5,5,6,6,7,7,9,9,11,11],"right_children":[2,4,6,8,-1,10,12,14,-1,16,-1,18,-1,-1,-1,-1,-1,-1,-1],"split_conditions":[8.232286E-1,2.4786429E-1,2.7275E0,1.0504571E-1,4.338944E-2,1.6469942E0,5.149254E1,5.968843E-2,-3.365456E-2,1.177969E0,-5.6857623E-2,1.624E-3,-2.2972278E-2,1.0090292E-3,2.2219278E-2,-4.3544944E-2,2.099513E-2,3.0315537E-2,-1.4219216E-2],"split_indices":[2,2,2,2,0,2,0,2,0,2,0,1,0,0,0,0,0,0,0],"split_type":[0,0,0,0,0,0,0,0,0,0,0,0,0,0,0,0,0,0,0],"sum_hessian":[6.1326946E1,2.4252895E1,3.7074055E1,1.6685616E1,7.5672803E0,1.5536909E1,2.1537144E1,1.0863299E1,5.822315E0,1.0344605E1,5.192304E0,1.3807826E1,7.729317E0,5.091404E0,5.7718954E0,5.0276947E0,5.316911E0,8.708864E0,5.0989614E0],"tree_param":{"num_deleted":"0","num_feature":"7","num_nodes":"19","size_leaf_vector":"1"}},{"base_weights":[5.4577515E-2,3.1951475E-1,-1.06274076E-1,4.6717767E-2,4.4293728E-2,-5.7279545E-1,2.1827336E-1,-2.472615E-2,3.2016614E-1,-4.470264E-2,8.55414E-4,3.170551E-2,-2.590626E-2,3.0766139E-2,-4.22938E-3,1.6538978E-2,-1.566775E-2],"categories":[],"categories_nodes":[],"categories_segments":[],"categories_sizes":[],"default_left":[0,0,0,0,0,0,0,0,0,0,0,0,0,0,0,0,0],"id":45,"left_children":[1,3,5,7,-1,9,11,-1,13,-1,-1,-1,15,-1,-1,-1,-1],"loss_changes":[2.750334E0,3.7175357E0,6.243744E0,2.7447953E0,0E0,3.2096057E0,2.5098662E0,0E0,1.5115861E0,0E0,0E0,0E0,1.7884393E0,0E0,0E0,0E0,0E0],"parents":[2147483647,0,0,1,1,2,2,3,3,5,5,6,6,8,8,12,12],"right_children":[2,4,6,8,-1,10,12,-1,14,-1,-1,-1,16,-1,-1,-1,-1],"split_conditions":[3.728E-1,2.3878571E-1,2.7275E0,4.7E1,4.4293728E-2,5.160932E1,7.729857E0,-2.472615E-2,7.6707E-2,-4.470264E-2,8.55414E-4,3.170551E-2,-9.985251E-4,3.0766139E-2,-4.22938E-3,1.6538978E-2,-1.566775E-2],"split_indices":[2,2,2,0,0,0,2,0,2,0,0,0,1,0,0,0,0],"split_type":[0,0,0,0,0,0,0,0,0,0,0,0,0,0,0,0,0],"sum_hessian":[6.2741432E1,2.3329395E1,3.9412037E1,1.6475954E1,6.853441E0,1.5855545E1,2.3556492E1,5.258752E0,1.1217201E1,9.93139E0,5.924155E0,8.124167E0,1.5432323E1,6.185985E0,5.031216E0,6.8194933E0,8.61283E0],"tree_param":{"num_deleted":"0","num_feature":"7","num_nodes":"17","size_leaf_vector":"1"}},{"base_weights":[1.6910503E-2,-5.1137334E-1,1.3779537E-1,-1.1248436E-2,-3.5145808E-2,4.239679E-2,3.8032543E-2,-1.0180993E-1,3.2883137E-1,4.8149694E-3,-4.3898214E-2,3.9129663E-2,-2.26605E-3],"categories":[],"categories_nodes":[],"categories_segments":[],"categories_sizes":[],"default_left":[0,0,0,0,0,0,0,0,0,0,0,0,0],"id":46,"left_children":[1,3,5,-1,-1,7,-1,9,11,-1,-1,-1,-1],"loss_changes":[4.27221E0,5.2563643E-1,3.1960392E0,0E0,0E0,2.0233138E0,0E0,5.128804E0,2.8143559E0,0E0,0E0,0E0,0E0],"parents":[2147483647,0,0,1,1,2,2,5,5,7,7,8,8],"right_children":[2,4,6,-1,-1,8,-1,10,12,-1,-1,-1,-1],"split_conditions":[4.323E1,3.719728E-1,3.6660134E5,-1.1248436E-2,-3.5145808E-2,4.642232E0,3.8032543E-2,1.794124E0,8.513416E0,4.8149694E-3,-4.3898214E-2,3.9129663E-2,-2.26605E-3],"split_indices":[0,3,4,0,0,3,0,3,3,0,0,0,0],"split_type":[0,0,0,0,0,0,0,0,0,0,0,0,0],"sum_hessian":[6.479463E1,1.1464203E1,5.3330425E1,5.465867E0,5.998336E0,4.717328E1,6.1571455E0,3.1805319E1,1.5367962E1,2.6035755E1,5.7695622E0,6.451778E0,8.916184E0],"tree_param":{"num_deleted":"0","num_feature":"7","num_nodes":"13","size_leaf_vector":"1"}},{"base_weights":[4.744134E-3,-3.092809E-2,1.2560375E-1,3.0037254E-1,-1.9474985E-1,1.773405E-1,3.3724003E-2,-5.4740983E-1,2.014011E-2,-6.1630533E-4,2.4616351E-2,-4.3633994E-2,-7.160935E-3],"categories":[],"categories_nodes":[],"categories_segments":[],"categories_sizes":[],"default_left":[0,0,0,0,0,0,0,0,0,0,0,0,0],"id":47,"left_children":[1,-1,3,5,7,9,-1,11,-1,-1,-1,-1,-1],"loss_changes":[5.0046177E0,0E0,3.1720698E0,1.554632E0,4.48499E0,1.7224511E0,0E0,1.6038458E0,0E0,0E0,0E0,0E0,0E0],"parents":[2147483647,0,0,2,2,3,3,4,4,5,5,7,7],"right_children":[2,-1,4,6,8,10,-1,12,-1,-1,-1,-1,-1],"split_conditions":[4.234961E1,-3.092809E-2,5.753778E-1,5.483871E1,8.6413056E-1,2.8741715E0,3.3724003E-2,9.609025E-5,2.014011E-2,-6.1630533E-4,2.4616351E-2,-4.3633994E-2,-7.160935E-3],"split_indices":[0,0,5,0,5,2,0,1,0,0,0,0,0],"split_type":[0,0,0,0,0,0,0,0,0,0,0,0,0],"sum_hessian":[6.440235E1,9.790753E0,5.46116E1,3.53751E1,1.9236502E1,2.7729713E1,7.645385E0,1.2149871E1,7.086632E0,1.790764E1,9.822074E0,6.0899496E0,6.0599213E0],"tree_param":{"num_deleted":"0","num_feature":"7","num_nodes":"13","size_leaf_vector":"1"}},{"base_weights":[-7.603624E-2,-3.6844325E-1,7.054018E-2,-3.5256382E-2,-6.405387E-2,2.5544596E-1,-2.1970719E-1,-8.360199E-3,1.6352482E-3,4.4001453E-2,2.9910067E-2,-5.098355E-1,1.7490996E-2,1.9020759E-2,-2.0942034E-2,-3.4170076E-3,-4.1898694E-2],"categories":[],"categories_nodes":[],"categories_segments":[],"categories_sizes":[],"default_left":[0,0,0,0,0,0,0,0,0,0,0,0,0,0,0,0,0],"id":48,"left_children":[1,3,5,-1,7,9,11,-1,-1,13,-1,15,-1,-1,-1,-1,-1],"loss_changes":[2.6878562E0,2.096516E0,2.3213708E0,0E0,1.2598759E-1,1.8757721E0,2.9812353E0,0E0,0E0,2.8548121E0,0E0,1.6297584E0,0E0,0E0,0E0,0E0,0E0],"parents":[2147483647,0,0,1,1,2,2,4,4,5,5,6,6,9,9,11,11],"right_children":[2,4,6,-1,8,10,12,-1,-1,14,-1,16,-1,-1,-1,-1,-1],"split_conditions":[4.7E1,4.7244095E1,5.753778E-1,-3.5256382E-2,4.1274864E1,4.718434E-1,8.6413056E-1,-8.360199E-3,1.6352482E-3,2.7508143E-1,2.9910067E-2,5.4285114E1,1.7490996E-2,1.9020759E-2,-2.0942034E-2,-3.4170076E-3,-4.1898694E-2],"split_indices":[0,6,5,0,0,5,5,0,0,5,0,0,0,0,0,0,0],"split_type":[0,0,0,0,0,0,0,0,0,0,0,0,0,0,0,0,0],"sum_hessian":[6.1106102E1,1.9897896E1,4.1208206E1,8.822651E0,1.1075245E1,2.5245281E1,1.5962925E1,5.008194E0,6.0670514E0,1.6311285E1,8.933995E0,1.0644975E1,5.31795E0,9.548854E0,6.762432E0,5.053707E0,5.591268E0],"tree_param":{"num_deleted":"0","num_feature":"7","num_nodes":"17","size_leaf_vector":"1"}},{"base_weights":[2.4190255E-2,-2.0027898E-1,2.581267E-1,8.423171E-2,-3.888825E-1,-1.2326727E-2,3.6420316E-1,3.537749E-2,-1.7370792E-2,3.5386138E-2,-4.089454E-2,6.02693E-1,-4.22385E-3,1.6009357E-2,-1.3255226E-2,1.7493447E-2,4.7841277E-2],"categories":[],"categories_nodes":[],"categories_segments":[],"categories_sizes":[],"default_left":[0,0,0,0,0,0,0,0,0,0,0,0,0,0,0,0,0],"id":49,"left_children":[1,3,5,7,9,-1,11,-1,-1,13,-1,15,-1,-1,-1,-1,-1],"loss_changes":[3.4603922E0,1.8405536E0,1.8147836E0,4.0804343E0,3.7489202E0,0E0,2.9432952E0,0E0,0E0,1.046305E0,0E0,1.2564197E0,0E0,0E0,0E0,0E0,0E0],"parents":[2147483647,0,0,1,1,2,2,3,3,4,4,6,6,9,9,11,11],"right_children":[2,4,6,8,10,-1,12,-1,-1,14,-1,16,-1,-1,-1,-1,-1],"split_conditions":[5.1330103E3,4.2904946E-1,3.8726572E-2,-1.636374E-3,7.729857E0,-1.2326727E-2,3.728E-1,3.537749E-2,-1.7370792E-2,4.1699472E2,-4.089454E-2,2.4786429E-1,-4.22385E-3,1.6009357E-2,-1.3255226E-2,1.7493447E-2,4.7841277E-2],"split_indices":[4,5,2,1,2,0,2,0,0,4,0,2,0,0,0,0,0],"split_type":[0,0,0,0,0,0,0,0,0,0,0,0,0,0,0,0,0],"sum_hessian":[6.391325E1,3.269003E1,3.1223217E1,1.3252247E1,1.9437784E1,5.1930475E0,2.603017E1,5.160734E0,8.091513E0,1.0234183E1,9.203601E0,1.6771988E1,9.258182E0,5.220611E0,5.013572E0,1.0945606E1,5.8263826E0],"tree_param":{"num_deleted":"0","num_feature":"7","num_nodes":"17","size_leaf_vector":"1"}},{"base_weights":[-9.275081E-2,-1.781838E-1,2.8673163E-2,-2.800947E-1,2.0857153E-2,1.1885657E-2,-4.388835E-1,-2.2888182E-2,3.9690107E-2,-4.4390693E-2,-1.5086231E-2],"categories":[],"categories_nodes":[],"categories_segments":[],"categories_sizes":[],"default_left":[0,0,0,0,0,0,0,0,0,0,0],"id":50,"left_children":[1,3,-1,5,-1,7,9,-1,-1,-1,-1],"loss_changes":[3.743982E0,3.6038756E0,0E0,2.3081996E0,0E0,7.146568E0,1.71491E0,0E0,0E0,0E0,0E0],"parents":[2147483647,0,0,1,1,3,3,5,5,6,6],"right_children":[2,4,-1,6,-1,8,10,-1,-1,-1,-1],"split_conditions":[8.6413056E-1,2.5883478E5,2.8673163E-2,4.92296E-1,2.0857153E-2,2.482688E-1,4.4467213E1,-2.2888182E-2,3.9690107E-2,-4.4390693E-2,-1.5086231E-2],"split_indices":[5,4,0,3,0,3,0,0,0,0,0],"split_type":[0,0,0,0,0,0,0,0,0,0,0],"sum_hessian":[6.29848E1,5.6475163E1,6.5096364E0,4.8672653E1,7.802509E0,1.7471416E1,3.1201239E1,1.1174275E1,6.2971406E0,6.0210505E0,2.518019E1],"tree_param":{"num_deleted":"0","num_feature":"7","num_nodes":"11","size_leaf_vector":"1"}},{"base_weights":[1.1337136E-2,-3.253601E-2,1.1020499E-1,3.3465482E-2,2.8437853E-2,-1.6460769E-1,3.669529E-1,-1.5296084E-2,1.4267394E-2,2.6181975E-2,-1.5097769E-3],"categories":[],"categories_nodes":[],"categories_segments":[],"categories_sizes":[],"default_left":[0,0,0,0,0,0,0,0,0,0,0],"id":51,"left_children":[1,-1,3,-1,5,7,9,-1,-1,-1,-1],"loss_changes":[4.318634E0,0E0,2.6008296E0,0E0,3.3957827E0,2.1979363E0,1.1885324E0,0E0,0E0,0E0,0E0],"parents":[2147483647,0,0,2,2,4,4,5,5,6,6],"right_children":[2,-1,4,-1,6,8,10,-1,-1,-1,-1],"split_conditions":[5.684345E1,-3.253601E-2,1.5320609E2,3.3465482E-2,1.3026642E4,1.6231004E-4,1.1939286E0,-1.5296084E-2,1.4267394E-2,2.6181975E-2,-1.5097769E-3],"split_indices":[4,0,4,0,4,1,2,0,0,0,0],"split_type":[0,0,0,0,0,0,0,0,0,0,0],"sum_hessian":[6.388189E1,7.5750046E0,5.630688E1,6.2672596E0,5.0039623E1,3.219402E1,1.7845602E1,2.474322E1,7.4508004E0,1.2568476E1,5.277127E0],"tree_param":{"num_deleted":"0","num_feature":"7","num_nodes":"11","size_leaf_vector":"1"}},{"base_weights":[-3.9310202E-2,-4.7315472E-1,6.2088907E-2,-4.348587E-2,-2.891611E-3,3.588394E-1,-1.0437522E-1,6.146276E-2,4.036219E-2,-2.3077404E-1,2.5629643E-2,2.3378912E-2,-1.9240689E-2,-2.1253256E-2,1.2918941E-2],"categories":[],"categories_nodes":[],"categories_segments":[],"categories_sizes":[],"default_left":[0,0,0,0,0,0,0,0,0,0,0,0,0,0,0],"id":52,"left_children":[1,3,5,-1,-1,7,9,11,-1,13,-1,-1,-1,-1,-1],"loss_changes":[2.776879E0,1.9175289E0,2.5818381E0,0E0,0E0,2.4486623E0,2.751976E0,2.4177325E0,0E0,2.839242E0,0E0,0E0,0E0,0E0,0E0],"parents":[2147483647,0,0,1,1,2,2,5,5,6,6,7,7,9,9],"right_children":[2,4,6,-1,-1,8,10,12,-1,14,-1,-1,-1,-1,-1],"split_conditions":[4.323E1,2.8877422E-1,4.2904946E-1,-4.348587E-2,-2.891611E-3,5.2759087E1,2.5883478E5,4.8724712E1,4.036219E-2,9.1441444E1,2.5629643E-2,2.3378912E-2,-1.9240689E-2,-2.1253256E-2,1.2918941E-2],"split_indices":[0,5,5,0,0,0,4,0,0,6,0,0,0,0,0],"split_type":[0,0,0,0,0,0,0,0,0,0,0,0,0,0,0],"sum_hessian":[6.1455357E1,1.0947843E1,5.0507515E1,5.0407257E0,5.9071164E0,1.773544E1,3.2772076E1,1.1347186E1,6.388252E0,2.7719177E1,5.0528994E0,5.915918E0,5.431268E0,1.9932875E1,7.786303E0],"tree_param":{"num_deleted":"0","num_feature":"7","num_nodes":"15","size_leaf_vector":"1"}},{"base_weights":[5.883381E-2,3.3692893E-1,-7.21244E-2,1.4648598E-1,3.5446934E-2,-3.0282032E-1,2.3560275E-1,2.623165E-2,-1.5300686E-2,1.2932998E-2,-5.637271E-1,-3.0582393E-2,5.9805167E-1,-3.8033777E-3,-4.2065676E-2,5.1511325E-2,1.1870939E-2],"categories":[],"categories_nodes":[],"categories_segments":[],"categories_sizes":[],"default_left":[0,0,0,0,0,0,0,0,0,0,0,0,0,0,0,0,0],"id":53,"left_children":[1,3,5,7,-1,9,11,-1,-1,-1,13,-1,15,-1,-1,-1,-1],"loss_changes":[2.3297818E0,1.3444867E0,3.1851249E0,2.68987E0,0E0,3.8822668E0,6.309588E0,0E0,0E0,0E0,2.3358684E0,0E0,1.9470372E0,0E0,0E0,0E0,0E0],"parents":[2147483647,0,0,1,1,2,2,3,3,5,5,6,6,10,10,12,12],"right_children":[2,4,6,8,-1,10,12,-1,-1,-1,14,-1,16,-1,-1,-1,-1],"split_conditions":[-1.6190847E-4,7.900043E0,9.609025E-5,1.6450857E0,3.5446934E-2,3.71875E1,1.0964106E2,2.623165E-2,-1.5300686E-2,1.2932998E-2,8.131E-2,-3.0582393E-2,1.7918714E0,-3.8033777E-3,-4.2065676E-2,5.1511325E-2,1.1870939E-2],"split_indices":[1,2,1,2,0,6,4,0,0,0,2,0,2,0,0,0,0],"split_type":[0,0,0,0,0,0,0,0,0,0,0,0,0,0,0,0,0],"sum_hessian":[6.2304626E1,1.9443264E1,4.2861362E1,1.3781744E1,5.661519E0,2.4505844E1,1.835552E1,7.420846E0,6.360898E0,7.777344E0,1.67285E1,5.293661E0,1.3061859E1,6.530264E0,1.0198236E1,5.0970016E0,7.964857E0],"tree_param":{"num_deleted":"0","num_feature":"7","num_nodes":"17","size_leaf_vector":"1"}},{"base_weights":[9.846837E-3,-1.9890152E-2,9.6017465E-2,3.5878384E-1,-6.572607E-2,1.1619552E-1,3.679647E-2,-3.5035294E-1,2.2065847E-1,2.6024917E-2,-1.0674704E-2,-5.80389E-3,-2.6687363E-2,-8.079842E-3,2.4780145E-2],"categories":[],"categories_nodes":[],"categories_segments":[],"categories_sizes":[],"default_left":[0,0,0,0,0,0,0,0,0,0,0,0,0,0,0],"id":54,"left_children":[1,-1,3,5,7,9,-1,11,13,-1,-1,-1,-1,-1,-1],"loss_changes":[2.2263525E0,0E0,2.243298E0,1.7492712E0,2.7813683E0,1.8961623E0,0E0,6.694846E-1,1.8824549E0,0E0,0E0,0E0,0E0,0E0,0E0],"parents":[2147483647,0,0,2,2,3,3,4,4,5,5,7,7,8,8],"right_children":[2,-1,4,6,8,10,-1,12,14,-1,-1,-1,-1,-1,-1],"split_conditions":[4.323E1,-1.9890152E-2,4.3845424E-1,5.2759087E1,1.3348557E3,4.8399612E1,3.679647E-2,7.729857E0,2.20107E-1,2.6024917E-2,-1.0674704E-2,-5.80389E-3,-2.6687363E-2,-8.079842E-3,2.4780145E-2],"split_indices":[0,0,5,0,4,0,0,2,2,0,0,0,0,0,0],"split_type":[0,0,0,0,0,0,0,0,0,0,0,0,0,0,0],"sum_hessian":[6.1291935E1,1.0064248E1,5.1227688E1,1.9054224E1,3.2173466E1,1.2391701E1,6.6625233E0,1.6024223E1,1.614924E1,5.306058E0,7.085643E0,7.753077E0,8.271147E0,6.9286256E0,9.220615E0],"tree_param":{"num_deleted":"0","num_feature":"7","num_nodes":"15","size_leaf_vector":"1"}},{"base_weights":[-1.0136609E-2,-9.86322E-2,2.67065E-2,2.2337181E-2,-1.9183023E-1,-4.704181E-2,-7.387622E-2,3.6723476E-2,-1.1509444E-2],"categories":[],"categories_nodes":[],"categories_segments":[],"categories_sizes":[],"default_left":[0,0,0,0,0,0,0,0,0],"id":55,"left_children":[1,3,-1,-1,5,-1,7,-1,-1],"loss_changes":[3.0889301E0,2.884594E0,0E0,0E0,4.1472616E0,0E0,5.5164447E0,0E0,0E0],"parents":[2147483647,0,0,1,1,4,4,6,6],"right_children":[2,4,-1,-1,6,-1,8,-1,-1],"split_conditions":[1.9962198E5,8.3191E-2,2.67065E-2,2.2337181E-2,2.3930429E-1,-4.704181E-2,3.728E-1,3.6723476E-2,-1.1509444E-2],"split_indices":[4,2,0,0,2,0,2,0,0],"split_type":[0,0,0,0,0,0,0,0,0],"sum_hessian":[6.2038208E1,5.406606E1,7.972148E0,7.337138E0,4.672892E1,5.408533E0,4.132039E1,6.0961924E0,3.5224197E1],"tree_param":{"num_deleted":"0","num_feature":"7","num_nodes":"9","size_leaf_vector":"1"}},{"base_weights":[-9.2942285E-4,2.1439964E-1,-1.2720616E-1,-2.0906337E-2,4.0305063E-2,-4.465055E-1,9.777201E-2,1.4277306E-2,-1.6997373E-2,-3.951835E-2,-2.860955E-3,2.8515428E-2,-1.4963675E-1,1.6962653E-2,-2.2785883E-2],"categories":[],"categories_nodes":[],"categories_segments":[],"categories_sizes":[],"default_left":[0,0,0,0,0,0,0,0,0,0,0,0,0,0,0],"id":56,"left_children":[1,3,5,7,-1,9,11,-1,-1,-1,-1,-1,13,-1,-1],"loss_changes":[1.6606528E0,3.1603827E0,2.8087916E0,1.7717437E0,0E0,2.108682E0,2.8212614E0,0E0,0E0,0E0,0E0,0E0,2.5715988E0,0E0,0E0],"parents":[2147483647,0,0,1,1,2,2,3,3,5,5,6,6,12,12],"right_children":[2,4,6,8,-1,10,12,-1,-1,-1,-1,-1,14,-1,-1],"split_conditions":[3.728E-1,2.3930429E-1,2.7275E0,8.3191E-2,4.0305063E-2,5.075E1,7.729857E0,1.4277306E-2,-1.6997373E-2,-3.951835E-2,-2.860955E-3,2.8515428E-2,-4.2776316E-3,1.6962653E-2,-2.2785883E-2],"split_indices":[2,2,2,2,0,0,2,0,0,0,0,0,1,0,0],"split_type":[0,0,0,0,0,0,0,0,0,0,0,0,0,0,0],"sum_hessian":[5.9070496E1,2.1577814E1,3.749268E1,1.6128536E1,5.4492764E0,1.5090661E1,2.240202E1,8.280119E0,7.848418E0,7.4657636E0,7.624898E0,7.249934E0,1.5152085E1,5.792153E0,9.359932E0],"tree_param":{"num_deleted":"0","num_feature":"7","num_nodes":"15","size_leaf_vector":"1"}},{"base_weights":[1.9244827E-2,-3.650689E-1,1.0406575E-1,-2.7520375E-3,-3.0934218E-2,2.4222253E-2,1.3470027E-2,-8.572332E-2,1.7944213E-2,-3.4335665E-2,7.6047773E-3],"categories":[],"categories_nodes":[],"categories_segments":[],"categories_sizes":[],"default_left":[0,0,0,0,0,0,0,0,0,0,0],"id":57,"left_children":[1,3,5,-1,-1,-1,7,9,-1,-1,-1],"loss_changes":[2.0839863E0,8.7566245E-1,1.7921479E0,0E0,0E0,0E0,1.5103477E0,5.0148683E0,0E0,0E0,0E0],"parents":[2147483647,0,0,1,1,2,2,6,6,7,7],"right_children":[2,4,6,-1,-1,-1,8,10,-1,-1,-1],"split_conditions":[4.234961E1,3.728E-1,1.0504571E-1,-2.7520375E-3,-3.0934218E-2,2.4222253E-2,1.0390612E4,8.63232E-1,1.7944213E-2,-3.4335665E-2,7.6047773E-3],"split_indices":[0,2,2,0,0,0,4,3,0,0,0],"split_type":[0,0,0,0,0,0,0,0,0,0,0],"sum_hessian":[6.1764736E1,1.0569875E1,5.1194862E1,5.303599E0,5.2662754E0,9.01149E0,4.2183372E1,3.335622E1,8.827153E0,8.92199E0,2.443423E1],"tree_param":{"num_deleted":"0","num_feature":"7","num_nodes":"11","size_leaf_vector":"1"}},{"base_weights":[5.0480545E-2,3.651248E-1,-1.3704796E-1,6.299777E-1,-9.076203E-3,-2.896654E-2,-2.6154093E-2,1.3952801E-2,4.4502873E-2,-2.6745874E-1,4.2896858E-1,-2.4379252E-2,1.6275255E-2,4.2087022E-2,-3.5417508E-3],"categories":[],"categories_nodes":[],"categories_segments":[],"categories_sizes":[],"default_left":[0,0,0,0,0,0,0,0,0,0,0,0,0,0,0],"id":58,"left_children":[1,3,5,7,-1,-1,9,-1,-1,11,13,-1,-1,-1,-1],"loss_changes":[3.5982604E0,3.4051225E0,1.8684916E0,1.169436E0,0E0,0E0,3.6020095E0,0E0,0E0,2.9477127E0,2.4086769E0,0E0,0E0,0E0,0E0],"parents":[2147483647,0,0,1,1,2,2,3,3,6,6,9,9,10,10],"right_children":[2,4,6,8,-1,-1,10,-1,-1,12,14,-1,-1,-1,-1],"split_conditions":[3.73646E-1,6.25E1,5.684345E1,9.644565E3,-9.076203E-3,-2.896654E-2,7.629943E0,1.3952801E-2,4.4502873E-2,5.476E1,4.8399612E1,-2.4379252E-2,1.6275255E-2,4.2087022E-2,-3.5417508E-3],"split_indices":[3,6,4,4,0,0,2,0,0,0,0,0,0,0,0],"split_type":[0,0,0,0,0,0,0,0,0,0,0,0,0,0,0],"sum_hessian":[5.913447E1,2.1729181E1,3.740529E1,1.4534661E1,7.1945205E0,6.651727E0,3.0753563E1,7.069224E0,7.465437E0,2.0367249E1,1.0386315E1,1.4982866E1,5.384382E0,5.3137317E0,5.0725837E0],"tree_param":{"num_deleted":"0","num_feature":"7","num_nodes":"15","size_leaf_vector":"1"}},{"base_weights":[2.0944458E-2,2.474498E-1,-2.776667E-1,7.8699075E-2,4.7656458E-2,-4.0368393E-2,-1.1366954E-1,2.8599656E-1,-2.700052E-2,1.3146724E-2,-3.8796547E-1,6.3959474E-4,2.9131655E-2,-8.345721E-3,-2.8115435E-2],"categories":[],"categories_nodes":[],"categories_segments":[],"categories_sizes":[],"default_left":[0,0,0,0,0,0,0,0,0,0,0,0,0,0,0],"id":59,"left_children":[1,3,5,7,-1,-1,9,11,-1,-1,13,-1,-1,-1,-1],"loss_changes":[4.1798472E0,4.1040115E0,2.226711E0,3.9265666E0,0E0,0E0,2.3274765E0,1.8308699E0,0E0,0E0,4.0209103E-1,0E0,0E0,0E0,0E0],"parents":[2147483647,0,0,1,1,2,2,3,3,6,6,7,7,10,10],"right_children":[2,4,6,8,-1,-1,10,12,-1,-1,14,-1,-1,-1,-1],"split_conditions":[1.794124E0,9.609025E-5,3.301076E0,5.753778E-1,4.7656458E-2,-4.0368393E-2,8.513416E0,5.1065674E1,-2.700052E-2,1.3146724E-2,2.0031743E-3,6.3959474E-4,2.9131655E-2,-8.345721E-3,-2.8115435E-2],"split_indices":[3,1,3,5,0,0,3,0,0,0,1,0,0,0,0],"split_type":[0,0,0,0,0,0,0,0,0,0,0,0,0,0,0],"sum_hessian":[5.978237E1,3.409309E1,2.5689281E1,2.8410698E1,5.682393E0,5.14575E0,2.0543531E1,2.1683449E1,6.727247E0,8.67471E0,1.1868821E1,1.1830544E1,9.852905E0,6.096461E0,5.77236E0],"tree_param":{"num_deleted":"0","num_feature":"7","num_nodes":"15","size_leaf_vector":"1"}},{"base_weights":[1.8838508E-2,-7.200576E-2,2.3860458E-2,1.3248779E-2,-2.5179615E-2,-1.3717777E-1,3.87694E-1,2.3856328E-3,-2.1260127E-2,4.3017555E-2,-1.442143E-2],"categories":[],"categories_nodes":[],"categories_segments":[],"categories_sizes":[],"default_left":[0,0,0,0,0,0,0,0,0,0,0],"id":60,"left_children":[1,3,-1,5,-1,7,9,-1,-1,-1,-1],"loss_changes":[2.5570323E0,1.8990414E0,0E0,2.527112E0,0E0,1.7282286E0,4.3543687E0,0E0,0E0,0E0,0E0],"parents":[2147483647,0,0,1,1,3,3,5,5,6,6],"right_children":[2,4,-1,6,-1,8,10,-1,-1,-1,-1],"split_conditions":[5.8397034E1,7.67318E-1,2.3860458E-2,1.9323037E-5,-2.5179615E-2,-8.774935E-5,1.624E-3,2.3856328E-3,-2.1260127E-2,4.3017555E-2,-1.442143E-2],"split_indices":[0,5,0,1,0,1,1,0,0,0,0],"split_type":[0,0,0,0,0,0,0,0,0,0,0],"sum_hessian":[5.958236E1,5.0430473E1,9.151883E0,4.2921227E1,7.50925E0,3.107219E1,1.1849035E1,1.943239E1,1.16398E1,6.813467E0,5.0355687E0],"tree_param":{"num_deleted":"0","num_feature":"7","num_nodes":"11","size_leaf_vector":"1"}},{"base_weights":[-1.4407076E-2,2.3076357E-1,-1.5995865E-1,-3.074111E-3,4.1035075E-2,-3.906005E-2,-4.1996725E-2,-2.2790511E-1,1.941563E-2,2.5558878E-2,-1.8890344E-1,-1.6254522E-3,-1.974078E-2,-4.241568E-2,9.314809E-4],"categories":[],"categories_nodes":[],"categories_segments":[],"categories_sizes":[],"default_left":[0,0,0,0,0,0,0,0,0,0,0,0,0,0,0],"id":61,"left_children":[1,3,5,7,-1,-1,9,11,-1,-1,13,-1,-1,-1,-1],"loss_changes":[2.2192545E0,3.2017283E0,2.8226378E0,1.6376057E0,0E0,0E0,2.8436067E0,3.723787E-1,0E0,0E0,3.7709885E0,0E0,0E0,0E0,0E0],"parents":[2147483647,0,0,1,1,2,2,3,3,6,6,7,7,10,10],"right_children":[2,4,6,8,-1,-1,10,12,-1,-1,14,-1,-1,-1,-1],"split_conditions":[3.728E-1,2.4786429E-1,1.1614715E0,3.88405E-6,4.1035075E-2,-3.906005E-2,1.794124E0,1.7648896E4,1.941563E-2,2.5558878E-2,2.8741715E0,-1.6254522E-3,-1.974078E-2,-4.241568E-2,9.314809E-4],"split_indices":[2,2,2,1,0,0,3,4,0,0,2,0,0,0,0],"split_type":[0,0,0,0,0,0,0,0,0,0,0,0,0,0,0],"sum_hessian":[6.015577E1,2.2191097E1,3.7964672E1,1.660432E1,5.586777E0,5.161154E0,3.2803516E1,1.0811425E1,5.792895E0,6.3632436E0,2.6440273E1,5.531117E0,5.2803082E0,5.590275E0,2.085E1],"tree_param":{"num_deleted":"0","num_feature":"7","num_nodes":"15","size_leaf_vector":"1"}},{"base_weights":[5.2579436E-2,2.9142705E-1,-9.191277E-2,6.1630704E-2,4.2217113E-2,-4.625896E-1,1.4000648E-1,2.2160593E-1,-1.3346371E-2,-1.0342545E-2,-3.975698E-2,2.486184E-2,-5.9306078E-2,2.1801782E-3,1.8836219E-2,1.070287E-2,-1.970887E-2],"categories":[],"categories_nodes":[],"categories_segments":[],"categories_sizes":[],"default_left":[0,0,0,0,0,0,0,0,0,0,0,0,0,0,0,0,0],"id":62,"left_children":[1,3,5,7,-1,9,11,13,-1,-1,-1,-1,15,-1,-1,-1,-1],"loss_changes":[2.072238E0,2.8169086E0,3.3047507E0,9.5423543E-1,0E0,1.0888851E0,1.7348268E0,3.148917E-1,0E0,0E0,0E0,0E0,1.5734923E0,0E0,0E0,0E0,0E0],"parents":[2147483647,0,0,1,1,2,2,3,3,5,5,6,6,7,7,12,12],"right_children":[2,4,6,8,-1,10,12,14,-1,-1,-1,-1,16,-1,-1,-1,-1],"split_conditions":[4.947E-1,2.4786429E-1,1.8457571E0,1.16934285E-1,4.2217113E-2,1.43566E0,7.729857E0,5.2168022E1,-1.3346371E-2,-1.0342545E-2,-3.975698E-2,2.486184E-2,5.122E1,2.1801782E-3,1.8836219E-2,1.070287E-2,-1.970887E-2],"split_indices":[2,2,2,2,0,3,2,0,0,0,0,0,0,0,0,0,0],"split_type":[0,0,0,0,0,0,0,0,0,0,0,0,0,0,0,0,0],"sum_hessian":[5.8268497E1,2.1579832E1,3.6688663E1,1.6029356E1,5.550475E0,1.3737456E1,2.2951208E1,1.0999306E1,5.030051E0,8.682458E0,5.0549984E0,7.684116E0,1.5267093E1,5.718397E0,5.280908E0,8.60412E0,6.662972E0],"tree_param":{"num_deleted":"0","num_feature":"7","num_nodes":"17","size_leaf_vector":"1"}},{"base_weights":[1.036351E-1,-2.2246113E-2,1.8845986E-1,4.8074096E-2,5.5584747E-1,-2.1310441E-2,1.6475768E-1,1.082475E-2,4.195658E-2,-2.7618578E-3,2.7377436E-2],"categories":[],"categories_nodes":[],"categories_segments":[],"categories_sizes":[],"default_left":[0,0,0,0,0,0,0,0,0,0,0],"id":63,"left_children":[1,-1,3,5,7,-1,9,-1,-1,-1,-1],"loss_changes":[2.806717E0,0E0,2.623387E0,2.1881983E0,1.1748905E0,0E0,2.677541E0,0E0,0E0,0E0,0E0],"parents":[2147483647,0,0,2,2,3,3,4,4,6,6],"right_children":[2,-1,4,6,8,-1,10,-1,-1,-1,-1],"split_conditions":[5.684345E1,-2.2246113E-2,1.6231004E-4,4.148593E1,6.0476263E2,-2.1310441E-2,1.3026642E4,1.082475E-2,4.195658E-2,-2.7618578E-3,2.7377436E-2],"split_indices":[4,0,1,0,4,0,4,0,0,0,0],"split_type":[0,0,0,0,0,0,0,0,0,0,0],"sum_hessian":[5.7516956E1,7.1343417E0,5.0382614E1,3.727137E1,1.3111243E1,6.835297E0,3.0436073E1,6.7679715E0,6.343272E0,1.9871418E1,1.0564656E1],"tree_param":{"num_deleted":"0","num_feature":"7","num_nodes":"11","size_leaf_vector":"1"}},{"base_weights":[5.213253E-2,-1.3656323E-1,2.3431003E-1,-3.3401018E-1,1.3535234E-2,3.5125256E-1,-1.4378588E-2,-5.642522E-2,-2.9849267E-2,5.234352E-1,1.2928228E-1,9.246663E-3,-1.4793764E-2,1.4270954E-2,3.9701153E-2,2.2157593E-2,-1.0069746E-2],"categories":[],"categories_nodes":[],"categories_segments":[],"categories_sizes":[],"default_left":[0,0,0,0,0,0,0,0,0,0,0,0,0,0,0,0,0],"id":64,"left_children":[1,3,5,7,-1,9,-1,11,-1,13,15,-1,-1,-1,-1,-1,-1],"loss_changes":[2.1102085E0,2.529212E0,2.0006976E0,1.4900172E0,0E0,9.2141294E-1,0E0,7.0540726E-1,0E0,6.9087505E-1,1.4004296E0,0E0,0E0,0E0,0E0,0E0,0E0],"parents":[2147483647,0,0,1,1,2,2,3,3,5,5,7,7,9,9,10,10],"right_children":[2,4,6,8,-1,10,-1,12,-1,14,16,-1,-1,-1,-1,-1,-1],"split_conditions":[5.0444977E1,7.629943E0,4.6860906E4,3.728E-1,1.3535234E-2,5.5257835E1,-1.4378588E-2,-1.2370542E-5,-2.9849267E-2,1.7104985E3,2.909874E-5,9.246663E-3,-1.4793764E-2,1.4270954E-2,3.9701153E-2,2.2157593E-2,-1.0069746E-2],"split_indices":[0,2,4,2,0,0,0,1,0,4,1,0,0,0,0,0,0],"split_type":[0,0,0,0,0,0,0,0,0,0,0,0,0,0,0,0,0],"sum_hessian":[5.945506E1,2.9328047E1,3.012701E1,1.9873217E1,9.45483E0,2.487909E1,5.247921E0,1.0258919E1,9.614298E0,1.3246011E1,1.1633079E1,5.2224855E0,5.036433E0,8.140355E0,5.105656E0,5.793713E0,5.8393655E0],"tree_param":{"num_deleted":"0","num_feature":"7","num_nodes":"17","size_leaf_vector":"1"}},{"base_weights":[-3.0329176E-3,1.3955179E-1,-2.9525104E-1,4.8824053E-2,2.889478E-2,-5.451349E-1,1.7268969E-2,1.6683537E-1,-2.2093445E-2,-4.0254537E-2,-1.0404528E-2,-1.1356692E-2,2.6161334E-2],"categories":[],"categories_nodes":[],"categories_segments":[],"categories_sizes":[],"default_left":[0,0,0,0,0,0,0,0,0,0,0,0,0],"id":65,"left_children":[1,3,5,7,-1,9,-1,11,-1,-1,-1,-1,-1],"loss_changes":[2.5396113E0,1.6014934E0,3.387476E0,2.1029952E0,0E0,1.1260962E0,0E0,4.1872025E0,0E0,0E0,0E0,0E0,0E0],"parents":[2147483647,0,0,1,1,2,2,3,3,5,5,7,7],"right_children":[2,4,6,8,-1,10,-1,12,-1,-1,-1,-1,-1],"split_conditions":[5.886187E-1,5.483871E1,9.344006E-1,5.212373E1,2.889478E-2,1.235043E0,1.7268969E-2,3.3163443E-1,-2.2093445E-2,-4.0254537E-2,-1.0404528E-2,-1.1356692E-2,2.6161334E-2],"split_indices":[5,0,5,0,0,2,0,5,0,0,0,0,0],"split_type":[0,0,0,0,0,0,0,0,0,0,0,0,0],"sum_hessian":[5.8962997E1,3.99784E1,1.8984594E1,3.404351E1,5.9348917E0,1.3764634E1,5.2199593E0,2.7975437E1,6.0680733E0,6.9870105E0,6.777624E0,1.3459477E1,1.451596E1],"tree_param":{"num_deleted":"0","num_feature":"7","num_nodes":"13","size_leaf_vector":"1"}},{"base_weights":[-2.0283971E-2,-1.297266E-1,2.7095157E-1,1.4762735E-2,-5.2556014E-1,3.7888046E-2,-8.107118E-3,2.4380272E-2,-9.50853E-2,-4.134703E-2,-5.126746E-3,-1.3735758E-2,1.3266856E-2],"categories":[],"categories_nodes":[],"categories_segments":[],"categories_sizes":[],"default_left":[0,0,0,0,0,0,0,0,0,0,0,0,0],"id":66,"left_children":[1,3,5,7,9,-1,-1,-1,11,-1,-1,-1,-1],"loss_changes":[1.9634476E0,2.5614483E0,3.6751018E0,1.7958643E0,1.4409342E0,0E0,0E0,0E0,1.8966651E0,0E0,0E0,0E0,0E0],"parents":[2147483647,0,0,1,1,2,2,3,3,4,4,8,8],"right_children":[2,4,6,8,10,-1,-1,-1,12,-1,-1,-1,-1],"split_conditions":[1.6231004E-4,6E1,2.0031743E-3,1.1464429E-1,9.1441444E1,3.7888046E-2,-8.107118E-3,2.4380272E-2,7.629943E0,-4.134703E-2,-5.126746E-3,-1.3735758E-2,1.3266856E-2],"split_indices":[1,6,1,2,6,0,0,0,2,0,0,0,0],"split_type":[0,0,0,0,0,0,0,0,0,0,0,0,0],"sum_hessian":[5.9498302E1,4.364982E1,1.5848486E1,3.2682556E1,1.0967262E1,7.108591E0,8.739895E0,5.512971E0,2.7169584E1,5.8468804E0,5.1203823E0,1.8291256E1,8.878328E0],"tree_param":{"num_deleted":"0","num_feature":"7","num_nodes":"13","size_leaf_vector":"1"}},{"base_weights":[-5.781271E-2,-2.6661893E-2,4.0992465E-2,2.3930332E-2,-4.8208572E-2,2.4920348E-2,-1.5517725E-1,-1.8045982E-2,7.815993E-3],"categories":[],"categories_nodes":[],"categories_segments":[],"categories_sizes":[],"default_left":[0,0,0,0,0,0,0,0,0],"id":67,"left_children":[1,-1,3,-1,5,-1,7,-1,-1],"loss_changes":[2.888279E0,0E0,2.031451E0,0E0,2.6294014E0,0E0,2.4447236E0,0E0,0E0],"parents":[2147483647,0,0,2,2,4,4,6,6],"right_children":[2,-1,4,-1,6,-1,8,-1,-1],"split_conditions":[4.234961E1,-2.6661893E-2,-1.636374E-3,2.3930332E-2,7.438714E-2,2.4920348E-2,1.6231004E-4,-1.8045982E-2,7.815993E-3],"split_indices":[0,0,1,0,2,0,1,0,0],"split_type":[0,0,0,0,0,0,0,0,0],"sum_hessian":[6.0020817E1,9.570958E0,5.044986E1,7.803067E0,4.264679E1,6.380865E0,3.6265926E1,2.1744875E1,1.4521051E1],"tree_param":{"num_deleted":"0","num_feature":"7","num_nodes":"9","size_leaf_vector":"1"}},{"base_weights":[-2.4863176E-2,-3.7920848E-1,6.934001E-2,-7.299128E-4,-3.141169E-2,1.7128009E-1,-2.3900328E-2,9.339051E-3,3.0278746E-2,-1.8131753E-2,1.16603E-2],"categories":[],"categories_nodes":[],"categories_segments":[],"categories_sizes":[],"default_left":[0,0,0,0,0,0,0,0,0,0,0],"id":68,"left_children":[1,3,5,-1,-1,7,-1,9,-1,-1,-1],"loss_changes":[1.9704223E0,1.1154734E0,2.6962295E0,0E0,0E0,2.8240747E0,0E0,2.6096115E0,0E0,0E0,0E0],"parents":[2147483647,0,0,1,1,2,2,5,5,7,7],"right_children":[2,4,6,-1,-1,8,-1,10,-1,-1,-1],"split_conditions":[4.323E1,3.728E-1,4.6755142E1,-7.299128E-4,-3.141169E-2,2.7275E0,-2.3900328E-2,5.1065674E1,3.0278746E-2,-1.8131753E-2,1.16603E-2],"split_indices":[0,2,2,0,0,2,0,0,0,0,0],"split_type":[0,0,0,0,0,0,0,0,0,0,0],"sum_hessian":[5.7241497E1,1.1386342E1,4.5855156E1,5.050409E0,6.3359327E0,3.923495E1,6.6202064E0,2.9322573E1,9.912377E0,1.0784062E1,1.8538511E1],"tree_param":{"num_deleted":"0","num_feature":"7","num_nodes":"11","size_leaf_vector":"1"}},{"base_weights":[2.8663255E-2,-2.1745473E-2,9.964457E-2,2.6761088E-1,-2.0383835E-1,1.7482694E-2,5.5827546E-1,-4.6447837E-1,1.12608215E-2,1.7245825E-2,-2.037781E-2,3.9106783E-2,1.7020686E-2,-6.691488E-3,-3.7910637E-2],"categories":[],"categories_nodes":[],"categories_segments":[],"categories_sizes":[],"default_left":[0,0,0,0,0,0,0,0,0,0,0,0,0,0,0],"id":69,"left_children":[1,-1,3,5,7,9,11,13,-1,-1,-1,-1,-1,-1,-1],"loss_changes":[1.9623336E0,0E0,2.674094E0,2.4267213E0,2.2155228E0,2.791056E0,4.88132E-1,1.0707407E0,0E0,0E0,0E0,0E0,0E0,0E0,0E0],"parents":[2147483647,0,0,2,2,3,3,4,4,5,5,6,6,7,7],"right_children":[2,-1,4,6,8,10,12,14,-1,-1,-1,-1,-1,-1,-1],"split_conditions":[1.3953488E1,-2.1745473E-2,6.5585196E-1,4.924308E-1,8.6413056E-1,2.7240583E-1,4.779874E1,5.4285114E1,1.12608215E-2,1.7245825E-2,-2.037781E-2,3.9106783E-2,1.7020686E-2,-6.691488E-3,-3.7910637E-2],"split_indices":[6,0,5,5,5,5,0,0,0,0,0,0,0,0,0],"split_type":[0,0,0,0,0,0,0,0,0,0,0,0,0,0,0],"sum_hessian":[5.7319317E1,6.9303985E0,5.0388916E1,3.251262E1,1.78763E1,1.8044647E1,1.4467971E1,1.1069372E1,6.806928E0,1.0299109E1,7.7455363E0,5.8583107E0,8.60966E0,5.8922477E0,5.177124E0],"tree_param":{"num_deleted":"0","num_feature":"7","num_nodes":"15","size_leaf_vector":"1"}},{"base_weights":[-4.0800717E-2,1.6309358E-2,-1.7882047E-2,-8.994296E-2,2.8494803E-2,2.0583509E-2,-2.1733828E-2,-6.9601657E-3,1.9181555E-2],"categories":[],"categories_nodes":[],"categories_segments":[],"categories_sizes":[],"default_left":[0,0,0,0,0,0,0,0,0],"id":70,"left_children":[1,3,-1,5,-1,7,-1,-1,-1],"loss_changes":[1.0747241E0,3.0514665E0,0E0,1.6723708E0,0E0,2.0264943E0,0E0,0E0,0E0],"parents":[2147483647,0,0,1,1,3,3,5,5],"right_children":[2,4,-1,6,-1,8,-1,-1,-1],"split_conditions":[2.189E-3,1.6231004E-4,-1.7882047E-2,6.25E1,2.8494803E-2,1.2820939E4,-2.1733828E-2,-6.9601657E-3,1.9181555E-2],"split_indices":[1,1,0,6,0,4,0,0,0],"split_type":[0,0,0,0,0,0,0,0,0],"sum_hessian":[5.8071835E1,5.000671E1,8.065125E0,4.265691E1,7.349801E0,3.301282E1,9.644087E0,2.3351696E1,9.661127E0],"tree_param":{"num_deleted":"0","num_feature":"7","num_nodes":"9","size_leaf_vector":"1"}},{"base_weights":[-1.248877E-2,-6.590343E-2,2.2850381E-2,6.796006E-2,-4.546035E-1,-1.2436989E-1,3.132404E-1,-3.2436386E-2,-5.495158E-3,6.2513063E-3,-2.5797619E-2,2.7128667E-2,-1.1579527E-2],"categories":[],"categories_nodes":[],"categories_segments":[],"categories_sizes":[],"default_left":[0,0,0,0,0,0,0,0,0,0,0,0,0],"id":71,"left_children":[1,3,-1,5,7,9,11,-1,-1,-1,-1,-1,-1],"loss_changes":[1.4952117E0,2.8056855E0,0E0,1.9512767E0,8.515141E-1,2.353316E0,2.3872323E0,0E0,0E0,0E0,0E0,0E0,0E0],"parents":[2147483647,0,0,1,1,3,3,4,4,5,5,6,6],"right_children":[2,4,-1,6,8,10,12,-1,-1,-1,-1,-1,-1],"split_conditions":[9.436672E-1,6.5585196E-1,2.2850381E-2,4.924308E-1,5.6779957E1,2.7508143E-1,5.255102E1,-3.2436386E-2,-5.495158E-3,6.2513063E-3,-2.5797619E-2,2.7128667E-2,-1.1579527E-2],"split_indices":[5,5,0,5,0,5,0,0,0,0,0,0,0],"split_type":[0,0,0,0,0,0,0,0,0,0,0,0,0],"sum_hessian":[5.7421486E1,5.2327778E1,5.093708E0,3.9536915E1,1.2790863E1,2.2436716E1,1.7100197E1,7.6184115E0,5.1724515E0,1.4122753E1,8.313963E0,1.203747E1,5.0627275E0],"tree_param":{"num_deleted":"0","num_feature":"7","num_nodes":"13","size_leaf_vector":"1"}},{"base_weights":[4.3350775E-3,3.9960572E-1,-2.3743472E-1,2.1811831E-1,4.041493E-2,-3.983078E-1,1.137369E-2,3.531774E-2,-1.5463866E-2,-6.490597E-1,-7.739032E-2,-1.4166558E-2,-4.971403E-2,2.9264024E-2,-3.0396288E-2],"categories":[],"categories_nodes":[],"categories_segments":[],"categories_sizes":[],"default_left":[0,0,0,0,0,0,0,0,0,0,0,0,0,0,0],"id":72,"left_children":[1,3,5,7,-1,9,-1,-1,-1,11,13,-1,-1,-1,-1],"loss_changes":[5.6323156E0,1.4824784E0,2.8265185E0,4.5588427E0,0E0,2.165946E0,0E0,0E0,0E0,1.6531572E0,5.001933E0,0E0,0E0,0E0,0E0],"parents":[2147483647,0,0,1,1,2,2,3,3,5,5,9,9,10,10],"right_children":[2,4,6,8,-1,10,-1,-1,-1,12,14,-1,-1,-1,-1],"split_conditions":[3.728E-1,2.4786429E-1,5.483871E1,8.3191E-2,4.041493E-2,7.629943E0,1.137369E-2,3.531774E-2,-1.5463866E-2,1.7918714E0,1.1504429E1,-1.4166558E-2,-4.971403E-2,2.9264024E-2,-3.0396288E-2],"split_indices":[2,2,0,2,0,2,0,0,0,2,2,0,0,0,0],"split_type":[0,0,0,0,0,0,0,0,0,0,0,0,0,0,0],"sum_hessian":[5.6944485E1,2.1363823E1,3.558066E1,1.5856262E1,5.507562E0,2.6540174E1,9.040486E0,8.057607E0,7.7986555E0,1.4324823E1,1.2215351E1,7.8399105E0,6.484913E0,5.3854327E0,6.8299184E0],"tree_param":{"num_deleted":"0","num_feature":"7","num_nodes":"15","size_leaf_vector":"1"}},{"base_weights":[9.3727455E-2,2.2425245E-1,-3.111153E-1,3.1012705E-1,-1.8832928E-2,-3.876029E-2,1.2750643E-3,1.5463136E-1,5.0026167E-2,2.3914382E-2,-9.290928E-4],"categories":[],"categories_nodes":[],"categories_segments":[],"categories_sizes":[],"default_left":[0,0,0,0,0,0,0,0,0,0,0],"id":73,"left_children":[1,3,5,7,-1,-1,-1,9,-1,-1,-1],"loss_changes":[3.1400123E0,2.414063E0,2.2981606E0,4.0857344E0,0E0,0E0,0E0,1.8825519E0,0E0,0E0,0E0],"parents":[2147483647,0,0,1,1,2,2,3,3,7,7],"right_children":[2,4,6,8,-1,-1,-1,10,-1,-1,-1],"split_conditions":[7.943107E1,1.3249466E-3,9.1979164E1,1.9323037E-5,-1.8832928E-2,-3.876029E-2,1.2750643E-3,2.8679245E1,5.0026167E-2,2.3914382E-2,-9.290928E-4],"split_indices":[6,1,6,1,0,0,0,6,0,0,0],"split_type":[0,0,0,0,0,0,0,0,0,0,0],"sum_hessian":[5.710224E1,4.3517788E1,1.35844555E1,3.849979E1,5.0179977E0,5.1631413E0,8.421314E0,3.2421562E1,6.0782266E0,1.0688458E1,2.1733103E1],"tree_param":{"num_deleted":"0","num_feature":"7","num_nodes":"11","size_leaf_vector":"1"}},{"base_weights":[-3.8903642E-2,-2.9782547E-2,5.0305817E-2,-4.867849E-2,2.0743506E-2,9.4924055E-2,-3.4092303E-2,-6.6319347E-4,2.739971E-2],"categories":[],"categories_nodes":[],"categories_segments":[],"categories_sizes":[],"default_left":[0,0,0,0,0,0,0,0,0],"id":74,"left_children":[1,-1,3,5,-1,7,-1,-1,-1],"loss_changes":[2.8113167E0,0E0,1.7952062E0,3.663487E0,0E0,1.6316994E0,0E0,0E0,0E0],"parents":[2147483647,0,0,2,2,3,3,5,5],"right_children":[2,-1,4,6,-1,8,-1,-1,-1],"split_conditions":[5.684345E1,-2.9782547E-2,7.629943E0,1.7918714E0,2.0743506E-2,5.5E-5,-3.4092303E-2,-6.6319347E-4,2.739971E-2],"split_indices":[4,0,2,2,0,1,0,0,0],"split_type":[0,0,0,0,0,0,0,0,0],"sum_hessian":[5.499986E1,6.811704E0,4.8188156E1,3.85797E1,9.608454E0,3.2140343E1,6.439357E0,2.672859E1,5.411754E0],"tree_param":{"num_deleted":"0","num_feature":"7","num_nodes":"9","size_leaf_vector":"1"}},{"base_weights":[-3.169183E-2,-3.8086247E-1,5.5507913E-2,-4.0382355E-2,2.446538E-3,2.594381E-2,-3.0520529E-2,-1.1536174E-1,1.9940574E-2,4.542088E-3,-2.2301884E-2],"categories":[],"categories_nodes":[],"categories_segments":[],"categories_sizes":[],"default_left":[0,0,0,0,0,0,0,0,0,0,0],"id":75,"left_children":[1,3,5,-1,-1,-1,7,9,-1,-1,-1],"loss_changes":[1.8581054E0,2.2742963E0,1.9750433E0,0E0,0E0,0E0,1.5903236E0,2.5073018E0,0E0,0E0,0E0],"parents":[2147483647,0,0,1,1,2,2,6,6,7,7],"right_children":[2,4,6,-1,-1,-1,8,10,-1,-1,-1],"split_conditions":[4.323E1,3.2507086E-1,-1.8431669E-3,-4.0382355E-2,2.446538E-3,2.594381E-2,8.6413056E-1,5.753778E-1,1.9940574E-2,4.542088E-3,-2.2301884E-2],"split_indices":[0,5,1,0,0,0,5,5,0,0,0],"split_type":[0,0,0,0,0,0,0,0,0,0,0],"sum_hessian":[5.9332016E1,1.118333E1,4.8148685E1,5.1701846E0,6.013145E0,6.751603E0,4.1397083E1,3.5176983E1,6.2200994E0,2.2113003E1,1.3063982E1],"tree_param":{"num_deleted":"0","num_feature":"7","num_nodes":"11","size_leaf_vector":"1"}},{"base_weights":[5.8385275E-2,3.042454E-1,-8.505299E-2,6.6553513E-3,4.7201347E-2,1.6531037E-1,-3.3044028E-1,8.703317E-3,-7.551531E-3,2.4012377E-2,-2.9207775E-2,-3.9264556E-2,-6.6837244E-2,1.2678397E-2,-1.6421394E-2,1.0577766E-2,-1.8043267E-2],"categories":[],"categories_nodes":[],"categories_segments":[],"categories_sizes":[],"default_left":[0,0,0,0,0,0,0,0,0,0,0,0,0,0,0,0,0],"id":76,"left_children":[1,3,5,7,-1,9,11,-1,-1,-1,13,-1,15,-1,-1,-1,-1],"loss_changes":[1.9801693E0,3.9227996E0,2.252769E0,4.2469963E-1,0E0,1.139801E0,2.1540017E0,0E0,0E0,0E0,1.1242492E0,0E0,1.1194845E0,0E0,0E0,0E0,0E0],"parents":[2147483647,0,0,1,1,2,2,3,3,5,5,6,6,10,10,12,12],"right_children":[2,4,6,8,-1,10,12,-1,-1,-1,14,-1,16,-1,-1,-1,-1],"split_conditions":[3.73646E-1,2.3930429E-1,3.4836932E2,7.438714E-2,4.7201347E-2,4.0354544E-1,3.6960062E-1,8.703317E-3,-7.551531E-3,2.4012377E-2,5.20103E1,-3.9264556E-2,1.8117286E0,1.2678397E-2,-1.6421394E-2,1.0577766E-2,-1.8043267E-2],"split_indices":[3,2,4,2,0,5,5,0,0,0,0,0,2,0,0,0,0],"split_type":[0,0,0,0,0,0,0,0,0,0,0,0,0,0,0,0,0],"sum_hessian":[5.4416153E1,1.963674E1,3.477941E1,1.4092235E1,5.5445056E0,1.7376684E1,1.7402727E1,6.7849526E0,7.3072824E0,6.073842E0,1.1302843E1,5.658991E0,1.1743737E1,5.8895445E0,5.4132986E0,6.1763344E0,5.567403E0],"tree_param":{"num_deleted":"0","num_feature":"7","num_nodes":"17","size_leaf_vector":"1"}},{"base_weights":[-5.6884885E-2,1.0105327E-1,-3.5825026E-1,3.5050732E-1,-6.069181E-2,-3.75652E-2,3.5807285E-3,2.63298E-2,2.6819084E-3,-3.413916E-1,2.4466959E-1,-3.2454334E-2,6.1065233E-3,3.1524915E-2,-5.2191857E-3],"categories":[],"categories_nodes":[],"categories_segments":[],"categories_sizes":[],"default_left":[0,0,0,0,0,0,0,0,0,0,0,0,0,0,0],"id":77,"left_children":[1,3,5,7,9,-1,-1,-1,-1,11,13,-1,-1,-1,-1],"loss_changes":[2.8158355E0,1.5987892E0,3.4839337E0,7.8341746E-1,2.1896358E0,0E0,0E0,0E0,0E0,1.9647558E0,1.7291931E0,0E0,0E0,0E0,0E0],"parents":[2147483647,0,0,1,1,2,2,3,3,4,4,9,9,10,10],"right_children":[2,4,6,8,10,-1,-1,-1,-1,12,14,-1,-1,-1,-1],"split_conditions":[6.1330048E1,3.728E-1,1.6231004E-4,-3.6739304E-5,7.629943E0,-3.75652E-2,3.5807285E-3,2.63298E-2,2.6819084E-3,5.038071E1,4.1485214E-1,-3.2454334E-2,6.1065233E-3,3.1524915E-2,-5.2191857E-3],"split_indices":[6,2,1,1,2,0,0,0,0,0,5,0,0,0,0],"split_type":[0,0,0,0,0,0,0,0,0,0,0,0,0,0,0],"sum_hessian":[5.739922E1,3.809779E1,1.930143E1,1.4526703E1,2.3571089E1,9.691805E0,9.609625E0,8.632489E0,5.8942137E0,1.2220005E1,1.1351084E1,7.103936E0,5.1160684E0,5.0085435E0,6.3425403E0],"tree_param":{"num_deleted":"0","num_feature":"7","num_nodes":"15","size_leaf_vector":"1"}},{"base_weights":[-1.0864739E-2,-7.323386E-2,2.5594598E-2,1.545353E-1,-2.1275754E-1,-1.1988238E-1,3.684705E-2,-5.7540846E-1,1.5482734E-2,8.360433E-3,-2.5667995E-2,-4.314978E-2,-6.7554065E-3,2.2706274E-2,-1.1173421E-2],"categories":[],"categories_nodes":[],"categories_segments":[],"categories_sizes":[],"default_left":[0,0,0,0,0,0,0,0,0,0,0,0,0,0,0],"id":78,"left_children":[1,3,-1,5,7,9,-1,11,13,-1,-1,-1,-1,-1,-1],"loss_changes":[1.8725998E0,1.6587162E0,0E0,3.2869685E0,2.6697536E0,1.7197322E0,0E0,1.4590425E0,2.2714992E0,0E0,0E0,0E0,0E0,0E0,0E0],"parents":[2147483647,0,0,1,1,3,3,4,4,5,5,7,7,8,8],"right_children":[2,4,-1,6,8,10,-1,12,14,-1,-1,-1,-1,-1,-1],"split_conditions":[4.44835E5,8.232286E-1,2.5594598E-2,2.4786429E-1,2.7275E0,1.1464429E-1,3.684705E-2,5.075E1,7.729857E0,8.360433E-3,-2.5667995E-2,-4.314978E-2,-6.7554065E-3,2.2706274E-2,-1.1173421E-2],"split_indices":[4,2,0,2,2,2,0,0,2,0,0,0,0,0,0],"split_type":[0,0,0,0,0,0,0,0,0,0,0,0,0,0,0],"sum_hessian":[5.528509E1,5.016045E1,5.1246405E0,1.90136E1,3.114685E1,1.3463863E1,5.549737E0,1.1443388E1,1.970346E1,8.116737E0,5.347126E0,6.341409E0,5.1019793E0,6.6308017E0,1.307266E1],"tree_param":{"num_deleted":"0","num_feature":"7","num_nodes":"15","size_leaf_vector":"1"}},{"base_weights":[-6.984955E-2,-3.251339E-2,1.9864604E-2,3.1034848E-2,-6.303196E-2,-2.444425E-1,1.968044E-1,-2.2443576E-2,7.5877244E-3,2.2293696E-2,-4.284908E-3],"categories":[],"categories_nodes":[],"categories_segments":[],"categories_sizes":[],"default_left":[0,0,0,0,0,0,0,0,0,0,0],"id":79,"left_children":[1,-1,3,-1,5,7,9,-1,-1,-1,-1],"loss_changes":[2.9659958E0,0E0,2.5339434E0,0E0,2.1657224E0,2.246919E0,1.3767864E0,0E0,0E0,0E0,0E0],"parents":[2147483647,0,0,2,2,4,4,5,5,6,6],"right_children":[2,-1,4,-1,6,8,10,-1,-1,-1,-1],"split_conditions":[5.684345E1,-3.251339E-2,-1.636374E-3,3.1034848E-2,1.0390612E4,1.6231004E-4,6.0732137E4,-2.2443576E-2,7.5877244E-3,2.2293696E-2,-4.284908E-3],"split_indices":[4,0,1,0,4,1,4,0,0,0,