{"learner":{"attributes":{"scikit_learn":"{\"_estimator_type\": \"classifier\"}"},"feature_names":[],"feature_types":[],"gradient_booster":{"model":{"cats":{"enc":[],"feature_segments":[],"sorted_idx":[]},"gbtree_model_param":{"num_parallel_tree":"1","num_trees":"200"},"iteration_indptr":[0,1,2,3,4,5,6,7,8,9,10,11,12,13,14,15,16,17,18,19,20,21,22,23,24,25,26,27,28,29,30,31,32,33,34,35,36,37,38,39,40,41,42,43,44,45,46,47,48,49,50,51,52,53,54,55,56,57,58,59,60,61,62,63,64,65,66,67,68,69,70,71,72,73,74,75,76,77,78,79,80,81,82,83,84,85,86,87,88,89,90,91,92,93,94,95,96,97,98,99,100,101,102,103,104,105,106,107,108,109,110,111,112,113,114,115,116,117,118,119,120,121,122,123,124,125,126,127,128,129,130,131,132,133,134,135,136,137,138,139,140,141,142,143,144,145,146,147,148,149,150,151,152,153,154,155,156,157,158,159,160,161,162,163,164,165,166,167,168,169,170,171,172,173,174,175,176,177,178,179,180,181,182,183,184,185,186,187,188,189,190,191,192,193,194,195,196,197,198,199,200],"tree_info":[0,0,0,0,0,0,0,0,0,0,0,0,0,0,0,0,0,0,0,0,0,0,0,0,0,0,0,0,0,0,0,0,0,0,0,0,0,0,0,0,0,0,0,0,0,0,0,0,0,0,0,0,0,0,0,0,0,0,0,0,0,0,0,0,0,0,0,0,0,0,0,0,0,0,0,0,0,0,0,0,0,0,0,0,0,0,0,0,0,0,0,0,0,0,0,0,0,0,0,0,0,0,0,0,0,0,0,0,0,0,0,0,0,0,0,0,0,0,0,0,0,0,0,0,0,0,0,0,0,0,0,0,0,0,0,0,0,0,0,0,0,0,0,0,0,0,0,0,0,0,0,0,0,0,0,0,0,0,0,0,0,0,0,0,0,0,0,0,0,0,0,0,0,0,0,0,0,0,0,0,0,0,0,0,0,0,0,0,0,0,0,0,0,0,0,0,0,0,0,0],"trees":[{"base_weights":[-1.621827E-1,-5.157908E-1,7.427866E-2,-4.2752214E-2,5.8936235E-2],"categories":[],"categories_nodes":[],"categories_segments":[],"categories_sizes":[],"default_left":[0,0,0,0,0],"id":0,"left_children":[1,3,-1,-1,-1],"loss_changes":[1.9069975E1,1.6302868E1,0E0,0E0,0E0],"parents":[2147483647,0,0,1,1],"right_children":[2,4,-1,-1,-1],"split_conditions":[6.5218836E-2,1.2395998E0,7.427866E-2,-4.2752214E-2,5.8936235E-2],"split_indices":[3,0,0,0,0],"split_type":[0,0,0,0,0],"sum_hessian":[3.0414091E1,2.5606018E1,4.808073E0,2.1747438E1,3.8585794E0],"tree_param":{"num_deleted":"0","num_feature":"5","num_nodes":"5","size_leaf_vector":"1"}},{"base_weights":[8.320716E-2,8.9364305E-2,-8.09682E-1,-4.4393453E-1,-6.1062735E-2,-6.713747E-2,1.8983206E-2],"categories":[],"categories_nodes":[],"categories_segments":[],"categories_sizes":[],"default_left":[0,0,0,0,0,0,0],"id":1,"left_children":[1,-1,3,5,-1,-1,-1],"loss_changes":[4.7981453E1,0E0,2.5823479E0,9.808354E0,0E0,0E0,0E0],"parents":[2147483647,0,0,2,2,3,3],"right_children":[2,-1,4,6,-1,-1,-1],"split_conditions":[-4.3317683E-2,8.9364305E-2,7.761487E-1,2.369335E-1,-6.1062735E-2,-6.713747E-2,1.8983206E-2],"split_indices":[4,0,4,4,0,0,0],"split_type":[0,0,0,0,0,0,0],"sum_hessian":[2.9583424E1,9.826968E0,1.9756456E1,1.1561162E1,8.195293E0,5.2267394E0,6.334423E0],"tree_param":{"num_deleted":"0","num_feature":"5","num_nodes":"7","size_leaf_vector":"1"}},{"base_weights":[9.896547E-4,8.5055076E-2,-8.660966E-1,-5.806602E-1,-5.9925128E-2,-6.318224E-2,3.1412337E-2,2.1321973E-2,-1.9546058E-2],"categories":[],"categories_nodes":[],"categories_segments":[],"categories_sizes":[],"default_left":[0,0,0,0,0,0,0,0,0],"id":2,"left_children":[1,-1,3,5,-1,-1,7,-1,-1],"loss_changes":[4.3984528E1,0E0,1.178956E0,5.2948723E0,0E0,0E0,1.4355489E0,0E0,0E0],"parents":[2147483647,0,0,2,2,3,3,6,6],"right_children":[2,-1,4,6,-1,-1,8,-1,-1],"split_conditions":[-4.3317683E-2,8.5055076E-2,7.761487E-1,2.369335E-1,-5.9925128E-2,-6.318224E-2,3.6047843E-1,2.1321973E-2,-1.9546058E-2],"split_indices":[4,0,4,4,0,0,4,0,0],"split_type":[0,0,0,0,0,0,0,0,0],"sum_hessian":[2.7837904E1,9.077542E0,1.8760363E1,1.1571111E1,7.189251E0,4.9656396E0,6.605471E0,3.4080498E0,3.197421E0],"tree_param":{"num_deleted":"0","num_feature":"5","num_nodes":"9","size_leaf_vector":"1"}},{"base_weights":[-1.5478586E-2,8.2170986E-2,-8.3547586E-1,-6.615102E-2,-5.5537796E-1,1.5352008E-1,-5.8533765E-2,-1.8076781E-3,1.7031949E-2],"categories":[],"categories_nodes":[],"categories_segments":[],"categories_sizes":[],"default_left":[0,0,0,0,0,0,0,0,0],"id":3,"left_children":[1,-1,3,-1,5,7,-1,-1,-1],"loss_changes":[4.4084236E1,0E0,2.2251873E0,0E0,6.9361057E0,2.9914045E-1,0E0,0E0,0E0],"parents":[2147483647,0,0,2,2,4,4,5,5],"right_children":[2,-1,4,-1,6,8,-1,-1,-1],"split_conditions":[-4.3317683E-2,8.2170986E-2,2.369335E-1,-6.615102E-2,8.179906E-1,4.8086712E-1,-5.8533765E-2,-1.8076781E-3,1.7031949E-2],"split_indices":[4,0,4,0,4,4,0,0,0],"split_type":[0,0,0,0,0,0,0,0,0],"sum_hessian":[3.0398552E1,9.723406E0,2.0675146E1,6.1853566E0,1.4489789E1,7.0815125E0,7.4082766E0,3.917408E0,3.1641045E0],"tree_param":{"num_deleted":"0","num_feature":"5","num_nodes":"9","size_leaf_vector":"1"}},{"base_weights":[3.4920603E-2,8.044902E-2,-8.5705763E-1,-7.377174E-2,-5.869501E-1,2.1538255E-1,-5.9800655E-2,2.0251466E-2,-1.1111869E-3],"categories":[],"categories_nodes":[],"categories_segments":[],"categories_sizes":[],"default_left":[0,0,0,0,0,0,0,0,0],"id":4,"left_children":[1,-1,3,-1,5,7,-1,-1,-1],"loss_changes":[4.5849567E1,0E0,2.6197987E0,0E0,8.167051E0,3.6192212E-1,0E0,0E0,0E0],"parents":[2147483647,0,0,2,2,4,4,5,5],"right_children":[2,-1,4,-1,6,8,-1,-1,-1],"split_conditions":[-3.0180182E-2,8.044902E-2,2.369335E-1,-7.377174E-2,8.179906E-1,3.384E-1,-5.9800655E-2,2.0251466E-2,-1.1111869E-3],"split_indices":[4,0,4,0,4,4,0,0,0],"split_type":[0,0,0,0,0,0,0,0,0],"sum_hessian":[3.067359E1,1.0804039E1,1.986955E1,4.683916E0,1.5185635E1,6.8320227E0,8.353612E0,3.4076023E0,3.4244206E0],"tree_param":{"num_deleted":"0","num_feature":"5","num_nodes":"9","size_leaf_vector":"1"}},{"base_weights":[-6.4887024E-2,7.728549E-2,-8.721855E-1,-5.703437E-1,-5.9877466E-2,-6.601487E-2,7.0888594E-2,-6.715012E-3,1.5416995E-2],"categories":[],"categories_nodes":[],"categories_segments":[],"categories_sizes":[],"default_left":[0,0,0,0,0,0,0,0,0],"id":5,"left_children":[1,-1,3,5,-1,-1,7,-1,-1],"loss_changes":[4.446736E1,0E0,1.5492077E0,6.681982E0,0E0,0E0,4.4748765E-1,0E0,0E0],"parents":[2147483647,0,0,2,2,3,3,6,6],"right_children":[2,-1,4,6,-1,-1,8,-1,-1],"split_conditions":[-4.3317683E-2,7.728549E-2,7.761487E-1,1.6887346E-1,-5.9877466E-2,-6.601487E-2,4.8086712E-1,-6.715012E-3,1.5416995E-2],"split_indices":[4,0,4,4,0,0,4,0,0],"split_type":[0,0,0,0,0,0,0,0,0],"sum_hessian":[3.21627E1,1.0433243E1,2.1729458E1,1.2700277E1,9.029181E0,5.3657546E0,7.3345222E0,4.1675906E0,3.1669316E0],"tree_param":{"num_deleted":"0","num_feature":"5","num_nodes":"9","size_leaf_vector":"1"}},{"base_weights":[-2.6332172E-2,7.3806934E-2,-7.3705715E-1,-4.2193532E-1,-5.5327047E-2,-5.1461913E-2,1.6815105E-2],"categories":[],"categories_nodes":[],"categories_segments":[],"categories_sizes":[],"default_left":[0,0,0,0,0,0,0],"id":6,"left_children":[1,-1,3,5,-1,-1,-1],"loss_changes":[3.363036E1,0E0,2.0195732E0,6.3977127E0,0E0,0E0,0E0],"parents":[2147483647,0,0,2,2,3,3],"right_children":[2,-1,4,6,-1,-1,-1],"split_conditions":[-4.3317683E-2,7.3806934E-2,8.179906E-1,2.8372172E-1,-5.5327047E-2,-5.1461913E-2,1.6815105E-2],"split_indices":[4,0,4,4,0,0,0],"split_type":[0,0,0,0,0,0,0],"sum_hessian":[2.947484E1,9.119433E0,2.0355406E1,1.2141897E1,8.213509E0,6.54352E0,5.598377E0],"tree_param":{"num_deleted":"0","num_feature":"5","num_nodes":"7","size_leaf_vector":"1"}},{"base_weights":[-7.953701E-2,7.1788356E-2,-8.1218696E-1,-4.715937E-1,-6.222893E-2,-6.094422E-2,1.4268576E-1,-1.1481488E-2,2.7504658E-2],"categories":[],"categories_nodes":[],"categories_segments":[],"categories_sizes":[],"default_left":[0,0,0,0,0,0,0,0,0],"id":7,"left_children":[1,-1,3,5,-1,-1,7,-1,-1],"loss_changes":[3.390056E1,0E0,2.434205E0,6.180702E0,0E0,0E0,1.3514781E0,0E0,0E0],"parents":[2147483647,0,0,2,2,3,3,6,6],"right_children":[2,-1,4,6,-1,-1,8,-1,-1],"split_conditions":[-4.3317683E-2,7.1788356E-2,8.179906E-1,1.6887346E-1,-6.222893E-2,-6.094422E-2,4.808816E-1,-1.1481488E-2,2.7504658E-2],"split_indices":[4,0,4,4,0,0,4,0,0],"split_type":[0,0,0,0,0,0,0,0,0],"sum_hessian":[2.8485516E1,8.971178E0,1.951434E1,1.2085387E1,7.4289513E0,5.0083356E0,7.0770516E0,3.9257805E0,3.1512713E0],"tree_param":{"num_deleted":"0","num_feature":"5","num_nodes":"9","size_leaf_vector":"1"}},{"base_weights":[-6.7410335E-2,7.019039E-2,-7.95323E-1,-4.1390747E-1,-6.187571E-2,-5.1203694E-2,2.2965454E-2],"categories":[],"categories_nodes":[],"categories_segments":[],"categories_sizes":[],"default_left":[0,0,0,0,0,0,0],"id":8,"left_children":[1,-1,3,5,-1,-1,-1],"loss_changes":[3.3089535E1,0E0,2.9641457E0,7.1672025E0,0E0,0E0,0E0],"parents":[2147483647,0,0,2,2,3,3],"right_children":[2,-1,4,6,-1,-1,-1],"split_conditions":[-6.8807326E-2,7.019039E-2,8.179906E-1,3.3833006E-1,-6.187571E-2,-5.1203694E-2,2.2965454E-2],"split_indices":[4,0,4,4,0,0,0],"split_type":[0,0,0,0,0,0,0],"sum_hessian":[2.8855736E1,9.243906E0,1.961183E1,1.1568964E1,8.042866E0,6.708554E0,4.8604107E0],"tree_param":{"num_deleted":"0","num_feature":"5","num_nodes":"7","size_leaf_vector":"1"}},{"base_weights":[-6.0588956E-2,-2.9609007E-1,4.962167E-2,-2.5759507E-2,4.775938E-2],"categories":[],"categories_nodes":[],"categories_segments":[],"categories_sizes":[],"default_left":[0,0,0,0,0],"id":9,"left_children":[1,3,-1,-1,-1],"loss_changes":[7.9412637E0,7.6124253E0,0E0,0E0,0E0],"parents":[2147483647,0,0,1,1],"right_children":[2,4,-1,-1,-1],"split_conditions":[1.2395998E0,6.5218836E-2,4.962167E-2,-2.5759507E-2,4.775938E-2],"split_indices":[0,3,0,0,0],"split_type":[0,0,0,0,0],"sum_hessian":[2.9837849E1,2.4971882E1,4.8659678E0,2.1751448E1,3.2204335E0],"tree_param":{"num_deleted":"0","num_feature":"5","num_nodes":"5","size_leaf_vector":"1"}},{"base_weights":[1.5421316E-1,6.870601E-2,-5.383371E-1,-1.7814267E-1,-4.9047243E-2,-4.9620803E-2,4.576323E-1,3.0090982E-2,1.1500757E-2],"categories":[],"categories_nodes":[],"categories_segments":[],"categories_sizes":[],"default_left":[0,0,0,0,0,0,0,0,0],"id":10,"left_children":[1,-1,3,5,-1,-1,7,-1,-1],"loss_changes":[2.7257473E1,0E0,3.131701E0,7.006301E0,0E0,0E0,1.1728811E-1,0E0,0E0],"parents":[2147483647,0,0,2,2,3,3,6,6],"right_children":[2,-1,4,6,-1,-1,8,-1,-1],"split_conditions":[-4.3317683E-2,6.870601E-2,8.179906E-1,2.369335E-1,-4.9047243E-2,-4.9620803E-2,3.6047843E-1,3.0090982E-2,1.1500757E-2],"split_indices":[4,0,4,4,0,0,4,0,0],"split_type":[0,0,0,0,0,0,0,0,0],"sum_hessian":[3.0387619E1,1.0647759E1,1.973986E1,1.1656377E1,8.083484E0,4.864797E0,6.7915797E0,3.1513271E0,3.6402524E0],"tree_param":{"num_deleted":"0","num_feature":"5","num_nodes":"9","size_leaf_vector":"1"}},{"base_weights":[1.928435E-2,6.5790124E-2,-5.785354E-1,-4.881568E-2,-3.355429E-1,1.8047929E-2,-8.1392163E-1,-5.3759128E-2,-1.6194684E-2],"categories":[],"categories_nodes":[],"categories_segments":[],"categories_sizes":[],"default_left":[0,0,0,0,0,0,0,0,0],"id":11,"left_children":[1,-1,3,-1,5,-1,7,-1,-1],"loss_changes":[2.248632E1,0E0,1.5937891E0,0E0,4.9130793E0,0E0,7.433038E-1,0E0,0E0],"parents":[2147483647,0,0,2,2,4,4,6,6],"right_children":[2,-1,4,-1,6,-1,8,-1,-1],"split_conditions":[-4.3317683E-2,6.5790124E-2,2.8152123E-1,-4.881568E-2,7.761487E-1,1.8047929E-2,9.182364E-1,-5.3759128E-2,-1.6194684E-2],"split_indices":[4,0,4,0,4,0,4,0,0],"split_type":[0,0,0,0,0,0,0,0,0],"sum_hessian":[2.7029324E1,8.150965E0,1.887836E1,6.0145984E0,1.2863762E1,5.33771E0,7.5260515E0,4.1299973E0,3.3960543E0],"tree_param":{"num_deleted":"0","num_feature":"5","num_nodes":"9","size_leaf_vector":"1"}},{"base_weights":[5.8235742E-2,-1.7551187E-1,5.4961044E-2,-1.984196E-2,4.113596E-2],"categories":[],"categories_nodes":[],"categories_segments":[],"categories_sizes":[],"default_left":[0,0,0,0,0],"id":12,"left_children":[1,3,-1,-1,-1],"loss_changes":[7.340572E0,5.816844E0,0E0,0E0,0E0],"parents":[2147483647,0,0,1,1],"right_children":[2,4,-1,-1,-1],"split_conditions":[6.5218836E-2,1.1565906E0,5.4961044E-2,-1.984196E-2,4.113596E-2],"split_indices":[3,0,0,0,0],"split_type":[0,0,0,0,0],"sum_hessian":[2.8374557E1,2.3850462E1,4.5240946E0,2.0015167E1,3.8352962E0],"tree_param":{"num_deleted":"0","num_feature":"5","num_nodes":"5","size_leaf_vector":"1"}},{"base_weights":[-2.7575681E-2,6.351533E-2,-5.890501E-1,-5.307683E-2,-3.8966092E-1,1.877002E-1,-4.4955336E-2,1.5877744E-2,8.667772E-4],"categories":[],"categories_nodes":[],"categories_segments":[],"categories_sizes":[],"default_left":[0,0,0,0,0,0,0,0,0],"id":13,"left_children":[1,-1,3,-1,5,7,-1,-1,-1],"loss_changes":[2.129231E1,0E0,1.5046139E0,0E0,4.8452168E0,1.7767152E-1,0E0,0E0,0E0],"parents":[2147483647,0,0,2,2,4,4,5,5],"right_children":[2,-1,4,-1,6,8,-1,-1,-1],"split_conditions":[-4.3317683E-2,6.351533E-2,2.369335E-1,-5.307683E-2,8.179906E-1,3.6047843E-1,-4.4955336E-2,1.5877744E-2,8.667772E-4],"split_indices":[4,0,4,0,4,4,0,0,0],"split_type":[0,0,0,0,0,0,0,0,0],"sum_hessian":[2.7191647E1,7.8299026E0,1.9361744E1,4.462693E0,1.4899051E1,7.280046E0,7.6190047E0,3.6409125E0,3.6391335E0],"tree_param":{"num_deleted":"0","num_feature":"5","num_nodes":"9","size_leaf_vector":"1"}},{"base_weights":[-1.808133E-1,5.9071332E-2,-7.107766E-1,-5.4070868E-2,-5.2099675E-1,6.9357716E-3,-7.0088744E-1,-8.12792E-1,-1.6409887E-2,-1.6807383E-2,-5.254451E-2],"categories":[],"categories_nodes":[],"categories_segments":[],"categories_sizes":[],"default_left":[0,0,0,0,0,0,0,0,0,0,0],"id":14,"left_children":[1,-1,3,-1,5,-1,7,9,-1,-1,-1],"loss_changes":[2.0852106E1,0E0,8.8424873E-1,0E0,1.9415765E0,0E0,2.4941444E-1,6.501179E-1,0E0,0E0,0E0],"parents":[2147483647,0,0,2,2,4,4,6,6,7,7],"right_children":[2,-1,4,-1,6,-1,8,10,-1,-1,-1],"split_conditions":[-3.0180182E-2,5.9071332E-2,2.369335E-1,-5.4070868E-2,3.6047843E-1,6.9357716E-3,9.182364E-1,7.761487E-1,-1.6409887E-2,-1.6807383E-2,-5.254451E-2],"split_indices":[4,0,4,0,4,0,4,4,0,0,0],"split_type":[0,0,0,0,0,0,0,0,0,0,0],"sum_hessian":[2.6720383E1,7.1394863E0,1.9580896E1,5.0398264E0,1.454107E1,3.1645658E0,1.1376505E1,7.8412066E0,3.535298E0,3.4155276E0,4.425679E0],"tree_param":{"num_deleted":"0","num_feature":"5","num_nodes":"11","size_leaf_vector":"1"}},{"base_weights":[3.7116054E-2,6.135431E-2,-4.7337797E-1,-4.8736658E-2,-2.9463175E-1,2.3452948E-1,-7.711219E-1,-1.0696413E-3,2.5597459E-2,-4.8358973E-2,-2.1128017E-2],"categories":[],"categories_nodes":[],"categories_segments":[],"categories_sizes":[],"default_left":[0,0,0,0,0,0,0,0,0,0,0],"id":15,"left_children":[1,-1,3,-1,5,7,9,-1,-1,-1,-1],"loss_changes":[1.7540253E1,0E0,1.5282707E0,0E0,4.307678E0,6.159798E-1,1.9578886E-1,0E0,0E0,0E0,0E0],"parents":[2147483647,0,0,2,2,4,4,5,5,6,6],"right_children":[2,-1,4,-1,6,8,10,-1,-1,-1,-1],"split_conditions":[-4.3317683E-2,6.135431E-2,2.369335E-1,-4.8736658E-2,8.179906E-1,5.2606547E-1,9.182364E-1,-1.0696413E-3,2.5597459E-2,-4.8358973E-2,-2.1128017E-2],"split_indices":[4,0,4,0,4,4,4,0,0,0,0],"split_type":[0,0,0,0,0,0,0,0,0,0,0],"sum_hessian":[2.6917925E1,7.6595836E0,1.925834E1,3.8911393E0,1.5367202E1,7.521773E0,7.845429E0,4.3925185E0,3.129254E0,3.8852785E0,3.9601505E0],"tree_param":{"num_deleted":"0","num_feature":"5","num_nodes":"11","size_leaf_vector":"1"}},{"base_weights":[8.6873345E-2,6.0021844E-2,-4.18848E-1,-4.530674E-2,-2.4455224E-1,1.9006854E-1,-6.703334E-1,1.5075328E-2,1.8827337E-3,-4.4718508E-2,-1.5103358E-2],"categories":[],"categories_nodes":[],"categories_segments":[],"categories_sizes":[],"default_left":[0,0,0,0,0,0,0,0,0,0,0],"id":16,"left_children":[1,-1,3,-1,5,7,9,-1,-1,-1,-1],"loss_changes":[1.5233413E1,0E0,1.3691354E0,0E0,2.9337044E0,1.293411E-1,3.8008046E-1,0E0,0E0,0E0,0E0],"parents":[2147483647,0,0,2,2,4,4,5,5,6,6],"right_children":[2,-1,4,-1,6,8,10,-1,-1,-1,-1],"split_conditions":[-4.3317683E-2,6.0021844E-2,1.6887346E-1,-4.530674E-2,8.179906E-1,3.6047843E-1,9.182364E-1,1.5075328E-2,1.8827337E-3,-4.4718508E-2,-1.5103358E-2],"split_indices":[4,0,4,0,4,4,4,0,0,0,0],"split_type":[0,0,0,0,0,0,0,0,0,0,0],"sum_hessian":[2.5157398E1,7.4279203E0,1.7729479E1,3.5646863E0,1.4164792E1,7.283589E0,6.8812037E0,3.6422987E0,3.64129E0,3.3901749E0,3.4910288E0],"tree_param":{"num_deleted":"0","num_feature":"5","num_nodes":"11","size_leaf_vector":"1"}},{"base_weights":[1.6840344E-2,6.077217E-2,-5.519356E-1,-4.8893634E-2,-3.5677865E-1,1.2881002E-2,-8.2727605E-1,-5.5462997E-2,-1.9886449E-2],"categories":[],"categories_nodes":[],"categories_segments":[],"categories_sizes":[],"default_left":[0,0,0,0,0,0,0,0,0],"id":17,"left_children":[1,-1,3,-1,5,-1,7,-1,-1],"loss_changes":[1.8951534E1,0E0,1.2199311E0,0E0,4.409682E0,0E0,5.834031E-1,0E0,0E0],"parents":[2147483647,0,0,2,2,4,4,6,6],"right_children":[2,-1,4,-1,6,-1,8,-1,-1],"split_conditions":[-3.0180182E-2,6.077217E-2,2.369335E-1,-4.8893634E-2,6.306565E-1,1.2881002E-2,9.182364E-1,-5.5462997E-2,-1.9886449E-2],"split_indices":[4,0,4,0,4,0,4,0,0],"split_type":[0,0,0,0,0,0,0,0,0],"sum_hessian":[2.5814884E1,7.941827E0,1.7873058E1,4.355759E0,1.3517299E1,6.0583973E0,7.458901E0,3.5476124E0,3.9112885E0],"tree_param":{"num_deleted":"0","num_feature":"5","num_nodes":"9","size_leaf_vector":"1"}},{"base_weights":[7.491819E-2,5.8765024E-2,-4.735971E-1,-4.822032E-2,-2.5402698E-1,1.2027536E-2,-6.608808E-1,-4.4645824E-2,-1.3883687E-2],"categories":[],"categories_nodes":[],"categories_segments":[],"categories_sizes":[],"default_left":[0,0,0,0,0,0,0,0,0],"id":18,"left_children":[1,-1,3,-1,5,-1,7,-1,-1],"loss_changes":[1.6458078E1,0E0,1.7265291E0,0E0,2.97552E0,0E0,4.5865178E-1,0E0,0E0],"parents":[2147483647,0,0,2,2,4,4,6,6],"right_children":[2,-1,4,-1,6,-1,8,-1,-1],"split_conditions":[-4.3317683E-2,5.8765024E-2,2.369335E-1,-4.822032E-2,7.761487E-1,1.2027536E-2,9.182364E-1,-4.4645824E-2,-1.3883687E-2],"split_indices":[4,0,4,0,4,0,4,0,0],"split_type":[0,0,0,0,0,0,0,0,0],"sum_hessian":[2.5345388E1,8.051166E0,1.7294222E1,4.2969413E0,1.2997281E1,6.050706E0,6.946575E0,3.4982417E0,3.4483337E0],"tree_param":{"num_deleted":"0","num_feature":"5","num_nodes":"9","size_leaf_vector":"1"}},{"base_weights":[1.9084983E-2,5.472509E-2,-4.6403158E-1,-4.473892E-2,-2.9043725E-1,2.4412937E-2,-5.943734E-1,-3.647825E-2,-1.0323065E-2],"categories":[],"categories_nodes":[],"categories_segments":[],"categories_sizes":[],"default_left":[0,0,0,0,0,0,0,0,0],"id":19,"left_children":[1,-1,3,-1,5,-1,7,-1,-1],"loss_changes":[1.3777145E1,0E0,1.110395E0,0E0,3.7319112E0,0E0,4.2154527E-1,0E0,0E0],"parents":[2147483647,0,0,2,2,4,4,6,6],"right_children":[2,-1,4,-1,6,-1,8,-1,-1],"split_conditions":[-3.0180182E-2,5.472509E-2,2.369335E-1,-4.473892E-2,3.6047843E-1,2.4412937E-2,9.182364E-1,-3.647825E-2,-1.0323065E-2],"split_indices":[4,0,4,0,4,0,4,0,0],"split_type":[0,0,0,0,0,0,0,0,0],"sum_hessian":[2.4539833E1,7.2146134E0,1.732522E1,3.7832537E0,1.3541966E1,3.6314926E0,9.910474E0,6.6960716E0,3.2144022E0],"tree_param":{"num_deleted":"0","num_feature":"5","num_nodes":"9","size_leaf_vector":"1"}},{"base_weights":[-5.8495417E-2,5.441577E-2,-5.7493323E-1,-4.3682884E-2,-4.4201663E-1,-1.3563587E-1,-6.667016E-1,-1.3688348E-2,2.2372697E-3,-4.4773445E-2,-1.3038351E-2],"categories":[],"categories_nodes":[],"categories_segments":[],"categories_sizes":[],"default_left":[0,0,0,0,0,0,0,0,0,0,0],"id":20,"left_children":[1,-1,3,-1,5,7,9,-1,-1,-1,-1],"loss_changes":[1.6050377E1,0E0,3.5281134E-1,0E0,9.3558574E-1,2.0064797E-1,5.4128504E-1,0E0,0E0,0E0,0E0],"parents":[2147483647,0,0,2,2,4,4,5,5,6,6],"right_children":[2,-1,4,-1,6,8,10,-1,-1,-1,-1],"split_conditions":[-3.0180182E-2,5.441577E-2,2.369335E-1,-4.3682884E-2,8.179906E-1,4.8086712E-1,9.182364E-1,-1.3688348E-2,2.2372697E-3,-4.4773445E-2,-1.3038351E-2],"split_indices":[4,0,4,0,4,4,4,0,0,0,0],"split_type":[0,0,0,0,0,0,0,0,0,0,0],"sum_hessian":[2.5043903E1,7.432287E0,1.7611616E1,3.7070978E0,1.3904518E1,6.561254E0,7.343264E0,3.4226038E0,3.13865E0,3.9252298E0,3.4180346E0],"tree_param":{"num_deleted":"0","num_feature":"5","num_nodes":"11","size_leaf_vector":"1"}},{"base_weights":[-2.8000738E-2,5.1606696E-2,-4.581599E-1,-1.7797537E-1,-3.8264293E-2,-3.7899513E-2,3.0420294E-2],"categories":[],"categories_nodes":[],"categories_segments":[],"categories_sizes":[],"default_left":[0,0,0,0,0,0,0],"id":21,"left_children":[1,-1,3,5,-1,-1,-1],"loss_changes":[1.152694E1,0E0,1.4072154E0,5.333526E0,0E0,0E0,0E0],"parents":[2147483647,0,0,2,2,3,3],"right_children":[2,-1,4,6,-1,-1,-1],"split_conditions":[-3.0180182E-2,5.1606696E-2,8.179906E-1,3.3833006E-1,-3.8264293E-2,-3.7899513E-2,3.0420294E-2],"split_indices":[4,0,4,4,0,0,0],"split_type":[0,0,0,0,0,0,0],"sum_hessian":[2.3239939E1,6.3040576E0,1.693588E1,9.682357E0,7.2535243E0,5.593118E0,4.089239E0],"tree_param":{"num_deleted":"0","num_feature":"5","num_nodes":"7","size_leaf_vector":"1"}},{"base_weights":[-1.39390575E-2,5.6247737E-2,-4.8400432E-1,-2.095095E-1,-4.2225014E-2,-4.3648995E-2,2.2438976E-1,1.8400734E-2,8.633886E-5],"categories":[],"categories_nodes":[],"categories_segments":[],"categories_sizes":[],"default_left":[0,0,0,0,0,0,0,0,0],"id":22,"left_children":[1,-1,3,5,-1,-1,7,-1,-1],"loss_changes":[1.4189578E1,0E0,1.6775432E0,3.6416278E0,0E0,0E0,2.5623456E-1,0E0,0E0],"parents":[2147483647,0,0,2,2,3,3,6,6],"right_children":[2,-1,4,6,-1,-1,8,-1,-1],"split_conditions":[-3.0180182E-2,5.6247737E-2,7.761487E-1,2.369335E-1,-4.2225014E-2,-4.3648995E-2,3.3878353E-1,1.8400734E-2,8.633886E-5],"split_indices":[4,0,4,4,0,0,4,0,0],"split_type":[0,0,0,0,0,0,0,0,0],"sum_hessian":[2.4487968E1,6.7472534E0,1.7740715E1,1.0969391E1,6.771324E0,3.9371693E0,7.0322213E0,3.8779976E0,3.1542237E0],"tree_param":{"num_deleted":"0","num_feature":"5","num_nodes":"9","size_leaf_vector":"1"}},{"base_weights":[-1.9211283E-2,5.393047E-2,-4.5007277E-1,-2.3127244E-1,-3.8791623E-2,-3.8741093E-2,1.5957557E-1,2.7379418E-2,-9.297161E-3],"categories":[],"categories_nodes":[],"categories_segments":[],"categories_sizes":[],"default_left":[0,0,0,0,0,0,0,0,0],"id":23,"left_children":[1,-1,3,5,-1,-1,7,-1,-1],"loss_changes":[1.2514096E1,0E0,1.1725507E0,2.8369029E0,0E0,0E0,1.2090139E0,0E0,0E0],"parents":[2147483647,0,0,2,2,3,3,6,6],"right_children":[2,-1,4,6,-1,-1,8,-1,-1],"split_conditions":[-4.3317683E-2,5.393047E-2,8.179906E-1,2.369335E-1,-3.8791623E-2,-3.8741093E-2,3.3878353E-1,2.7379418E-2,-9.297161E-3],"split_indices":[4,0,4,4,0,0,4,0,0],"split_type":[0,0,0,0,0,0,0,0,0],"sum_hessian":[2.4430073E1,6.461925E0,1.7968147E1,1.1771577E1,6.1965704E0,4.512987E0,7.2585897E0,3.1435723E0,4.1150174E0],"tree_param":{"num_deleted":"0","num_feature":"5","num_nodes":"9","size_leaf_vector":"1"}},{"base_weights":[-1.0156284E-1,5.226772E-2,-4.9587217E-1,-4.5159522E-2,-3.095457E-1,1.9742936E-2,-5.629106E-1,-3.338362E-2,-1.3818619E-2],"categories":[],"categories_nodes":[],"categories_segments":[],"categories_sizes":[],"default_left":[0,0,0,0,0,0,0,0,0],"id":24,"left_children":[1,-1,3,-1,5,-1,7,-1,-1],"loss_changes":[1.1513519E1,0E0,1.1450105E0,0E0,2.7923684E0,0E0,1.4577651E-1,0E0,0E0],"parents":[2147483647,0,0,2,2,4,4,6,6],"right_children":[2,-1,4,-1,6,-1,8,-1,-1],"split_conditions":[-4.3317683E-2,5.226772E-2,2.369335E-1,-4.5159522E-2,3.6047843E-1,1.9742936E-2,9.182364E-1,-3.338362E-2,-1.3818619E-2],"split_indices":[4,0,4,0,4,0,4,0,0],"split_type":[0,0,0,0,0,0,0,0,0],"sum_hessian":[2.331265E1,5.5419173E0,1.7770733E1,4.370112E0,1.340062E1,3.3972201E0,1.0003401E1,6.351195E0,3.6522057E0],"tree_param":{"num_deleted":"0","num_feature":"5","num_nodes":"9","size_leaf_vector":"1"}},{"base_weights":[-3.117779E-2,5.4105002E-2,-4.6796948E-1,-2.6168135E-1,-3.483531E-2,-3.7846968E-2,3.5915826E-2,1.8345112E-2,-1.5029934E-2],"categories":[],"categories_nodes":[],"categories_segments":[],"categories_sizes":[],"default_left":[0,0,0,0,0,0,0,0,0],"id":25,"left_children":[1,-1,3,5,-1,-1,7,-1,-1],"loss_changes":[1.2098318E1,0E0,6.5849304E-1,1.6441528E0,0E0,0E0,9.799214E-1,0E0,0E0],"parents":[2147483647,0,0,2,2,3,3,6,6],"right_children":[2,-1,4,6,-1,-1,8,-1,-1],"split_conditions":[-3.0180182E-2,5.4105002E-2,7.761487E-1,2.369335E-1,-3.483531E-2,-3.7846968E-2,3.3878353E-1,1.8345112E-2,-1.5029934E-2],"split_indices":[4,0,4,4,0,0,4,0,0],"split_type":[0,0,0,0,0,0,0,0,0],"sum_hessian":[2.2838438E1,6.0192986E0,1.681914E1,9.970861E0,6.8482776E0,3.163198E0,6.8076634E0,3.3864968E0,3.4211667E0],"tree_param":{"num_deleted":"0","num_feature":"5","num_nodes":"9","size_leaf_vector":"1"}},{"base_weights":[-4.5086764E-2,5.005573E-2,-3.8988292E-1,-4.232457E-2,-2.1343099E-1,1.2960801E-2,-3.2797027E-2],"categories":[],"categories_nodes":[],"categories_segments":[],"categories_sizes":[],"default_left":[0,0,0,0,0,0,0],"id":26,"left_children":[1,-1,3,-1,5,-1,-1],"loss_changes":[8.51097E0,0E0,1.241502E0,0E0,3.1124992E0,0E0,0E0],"parents":[2147483647,0,0,2,2,4,4],"right_children":[2,-1,4,-1,6,-1,-1],"split_conditions":[-6.8807326E-2,5.005573E-2,2.369335E-1,-4.232457E-2,8.179906E-1,1.2960801E-2,-3.2797027E-2],"split_indices":[4,0,4,0,4,0,0],"split_type":[0,0,0,0,0,0,0],"sum_hessian":[2.1511957E1,4.860484E0,1.6651472E1,3.5828254E0,1.3068646E1,6.519425E0,6.5492215E0],"tree_param":{"num_deleted":"0","num_feature":"5","num_nodes":"7","size_leaf_vector":"1"}},{"base_weights":[1.4062044E-2,5.0472803E-2,-3.4582213E-1,-1.1274965E-1,-3.2338053E-2,-3.1272344E-2,2.6393995E-2],"categories":[],"categories_nodes":[],"categories_segments":[],"categories_sizes":[],"default_left":[0,0,0,0,0,0,0],"id":27,"left_children":[1,-1,3,5,-1,-1,-1],"loss_changes":[8.702567E0,0E0,1.180604E0,4.035914E0,0E0,0E0,0E0],"parents":[2147483647,0,0,2,2,3,3],"right_children":[2,-1,4,6,-1,-1,-1],"split_conditions":[-6.8807326E-2,5.0472803E-2,8.179906E-1,3.3833006E-1,-3.2338053E-2,-3.1272344E-2,2.6393995E-2],"split_indices":[4,0,4,4,0,0,0],"split_type":[0,0,0,0,0,0,0],"sum_hessian":[2.2318972E1,5.4473486E0,1.6871624E1,1.0282583E1,6.58904E0,5.724752E0,4.557832E0],"tree_param":{"num_deleted":"0","num_feature":"5","num_nodes":"7","size_leaf_vector":"1"}},{"base_weights":[-2.056147E-2,5.231431E-2,-4.2736802E-1,-1.7696285E-1,-3.703705E-2,-3.7279102E-1,1.1575707E-2,-2.6023075E-2,-8.221234E-3],"categories":[],"categories_nodes":[],"categories_segments":[],"categories_sizes":[],"default_left":[0,0,0,0,0,0,0,0,0],"id":28,"left_children":[1,-1,3,5,-1,7,-1,-1,-1],"loss_changes":[1.0289712E1,0E0,1.2129669E0,9.529706E-1,0E0,1.5155268E-1,0E0,0E0,0E0],"parents":[2147483647,0,0,2,2,3,3,5,5],"right_children":[2,-1,4,6,-1,8,-1,-1,-1],"split_conditions":[-3.0180182E-2,5.231431E-2,8.179906E-1,4.8086712E-1,-3.703705E-2,2.3752663E-1,1.1575707E-2,-2.6023075E-2,-8.221234E-3],"split_indices":[4,0,4,4,0,4,0,0,0],"split_type":[0,0,0,0,0,0,0,0,0],"sum_hessian":[2.1678684E1,5.5505223E0,1.6128162E1,9.834482E0,6.29368E0,6.7066207E0,3.1278613E0,3.0483894E0,3.658231E0],"tree_param":{"num_deleted":"0","num_feature":"5","num_nodes":"9","size_leaf_vector":"1"}},{"base_weights":[-2.3147438E-2,5.1861472E-2,-4.0944007E-1,-4.7643926E-2,-2.3077536E-1,1.2186134E-2,-4.0795854E-1,-5.312755E-1,-2.9575636E-3,-9.555719E-3,-3.82447E-2],"categories":[],"categories_nodes":[],"categories_segments":[],"categories_sizes":[],"default_left":[0,0,0,0,0,0,0,0,0,0,0],"id":29,"left_children":[1,-1,3,-1,5,-1,7,9,-1,-1,-1],"loss_changes":[9.993862E0,0E0,1.5122755E0,0E0,1.3391552E0,0E0,4.4648528E-1,4.9617958E-1,0E0,0E0,0E0],"parents":[2147483647,0,0,2,2,4,4,6,6,7,7],"right_children":[2,-1,4,-1,6,-1,8,10,-1,-1,-1],"split_conditions":[-3.0180182E-2,5.1861472E-2,2.369335E-1,-4.7643926E-2,3.6047843E-1,1.2186134E-2,9.182364E-1,8.179906E-1,-2.9575636E-3,-9.555719E-3,-3.82447E-2],"split_indices":[4,0,4,0,4,0,4,4,0,0,0],"split_type":[0,0,0,0,0,0,0,0,0,0,0],"sum_hessian":[2.2361353E1,5.5210185E0,1.6840334E1,3.0945156E0,1.3745819E1,3.6351953E0,1.0110623E1,7.083286E0,3.0273376E0,3.6242473E0,3.4590385E0],"tree_param":{"num_deleted":"0","num_feature":"5","num_nodes":"11","size_leaf_vector":"1"}},{"base_weights":[4.419037E-2,4.8586655E-2,-2.871514E-1,-2.334391E-2,-2.6017122E-2,1.0131897E-2,-1.1121009E-2],"categories":[],"categories_nodes":[],"categories_segments":[],"categories_sizes":[],"default_left":[0,0,0,0,0,0,0],"id":30,"left_children":[1,-1,3,-1,5,-1,-1],"loss_changes":[6.846233E0,0E0,7.629961E-1,0E0,3.9500406E-1,0E0,0E0],"parents":[2147483647,0,0,2,2,4,4],"right_children":[2,-1,4,-1,6,-1,-1],"split_conditions":[-4.3317683E-2,4.8586655E-2,6.1290014E-1,-2.334391E-2,8.7624246E-1,1.0131897E-2,-1.1121009E-2],"split_indices":[4,0,4,0,4,0,0],"split_type":[0,0,0,0,0,0,0],"sum_hessian":[2.0368301E1,4.852294E0,1.5516007E1,8.723877E0,6.7921305E0,3.1237147E0,3.6684158E0],"tree_param":{"num_deleted":"0","num_feature":"5","num_nodes":"7","size_leaf_vector":"1"}},{"base_weights":[1.7531647E-1,4.884021E-2,-1.15626045E-1,-3.1407855E-2,6.562468E-2,3.5495195E-1,-1.7216254E-2,3.5594662E-3,2.5155028E-2],"categories":[],"categories_nodes":[],"categories_segments":[],"categories_sizes":[],"default_left":[0,0,0,0,0,0,0,0,0],"id":31,"left_children":[1,-1,3,-1,5,7,-1,-1,-1],"loss_changes":[5.4868727E0,0E0,1.6949781E0,0E0,1.7894804E0,3.3131647E-1,0E0,0E0,0E0],"parents":[2147483647,0,0,2,2,4,4,5,5],"right_children":[2,-1,4,-1,6,8,-1,-1,-1],"split_conditions":[-4.3317683E-2,4.884021E-2,2.369335E-1,-3.1407855E-2,8.179906E-1,3.383513E-1,-1.7216254E-2,3.5594662E-3,2.5155028E-2],"split_indices":[4,0,4,0,4,4,0,0,0],"split_type":[0,0,0,0,0,0,0,0,0],"sum_hessian":[2.204559E1,5.2434816E0,1.6802109E1,3.7453969E0,1.3056711E1,7.7331204E0,5.323591E0,3.160346E0,4.5727744E0],"tree_param":{"num_deleted":"0","num_feature":"5","num_nodes":"9","size_leaf_vector":"1"}},{"base_weights":[1.3913658E-1,4.7534984E-2,-1.4792365E-1,-3.8980838E-2,7.0715144E-2,4.76262E-1,-1.9589528E-2,3.6684077E-2,6.273448E-3],"categories":[],"categories_nodes":[],"categories_segments":[],"categories_sizes":[],"default_left":[0,0,0,0,0,0,0,0,0],"id":32,"left_children":[1,-1,3,-1,5,7,-1,-1,-1],"loss_changes":[5.093144E0,0E0,2.3435352E0,0E0,2.6673055E0,5.8503103E-1,0E0,0E0,0E0],"parents":[2147483647,0,0,2,2,4,4,5,5],"right_children":[2,-1,4,-1,6,8,-1,-1,-1],"split_conditions":[-4.3317683E-2,4.7534984E-2,1.6887346E-1,-3.8980838E-2,8.179906E-1,3.3878353E-1,-1.9589528E-2,3.6684077E-2,6.273448E-3],"split_indices":[4,0,4,0,4,4,0,0,0],"split_type":[0,0,0,0,0,0,0,0,0],"sum_hessian":[2.0258389E1,4.689267E0,1.5569121E1,3.3434427E0,1.2225678E1,6.498097E0,5.7275815E0,3.1183157E0,3.3797812E0],"tree_param":{"num_deleted":"0","num_feature":"5","num_nodes":"9","size_leaf_vector":"1"}},{"base_weights":[5.3486694E-2,4.976469E-2,-2.892435E-1,-3.4935035E-2,-1.3644752E-1,6.933444E-3,-2.2886638E-2],"categories":[],"categories_nodes":[],"categories_segments":[],"categories_sizes":[],"default_left":[0,0,0,0,0,0,0],"id":33,"left_children":[1,-1,3,-1,5,-1,-1],"loss_changes":[7.0378027E0,0E0,9.1236377E-1,0E0,1.2101136E0,0E0,0E0],"parents":[2147483647,0,0,2,2,4,4],"right_children":[2,-1,4,-1,6,-1,-1],"split_conditions":[-3.0180182E-2,4.976469E-2,2.369335E-1,-3.4935035E-2,8.179906E-1,6.933444E-3,-2.2886638E-2],"split_indices":[4,0,4,0,4,0,0],"split_type":[0,0,0,0,0,0,0],"sum_hessian":[1.9911459E1,4.8046055E0,1.51068535E1,3.1344635E0,1.197239E1,6.755797E0,5.216593E0],"tree_param":{"num_deleted":"0","num_feature":"5","num_nodes":"7","size_leaf_vector":"1"}},{"base_weights":[-1.0433445E-1,4.1373413E-2,-3.6179158E-1,-1.3595553E-1,-3.4300484E-2,-4.202577E-1,2.4528172E-2,-3.509593E-2,-6.05457E-3],"categories":[],"categories_nodes":[],"categories_segments":[],"categories_sizes":[],"default_left":[0,0,0,0,0,0,0,0,0],"id":34,"left_children":[1,-1,3,5,-1,7,-1,-1,-1],"loss_changes":[5.509391E0,0E0,1.203593E0,2.2878628E0,0E0,6.3778555E-1,0E0,0E0,0E0],"parents":[2147483647,0,0,2,2,3,3,5,5],"right_children":[2,-1,4,6,-1,8,-1,-1,-1],"split_conditions":[-3.0180182E-2,4.1373413E-2,8.179906E-1,5.2606547E-1,-3.4300484E-2,2.369335E-1,2.4528172E-2,-3.509593E-2,-6.05457E-3],"split_indices":[4,0,4,4,0,4,0,0,0],"split_type":[0,0,0,0,0,0,0,0,0],"sum_hessian":[2.0717531E1,4.005739E0,1.6711792E1,1.0687018E1,6.0247736E0,7.5776467E0,3.1093717E0,3.209602E0,4.3680444E0],"tree_param":{"num_deleted":"0","num_feature":"5","num_nodes":"9","size_leaf_vector":"1"}},{"base_weights":[-5.9491056E-3,-4.3392694E-3,1.7202089E-2],"categories":[],"categories_nodes":[],"categories_segments":[],"categories_sizes":[],"default_left":[0,0,0],"id":35,"left_children":[1,-1,-1],"loss_changes":[6.20201E-1,0E0,0E0],"parents":[2147483647,0,0],"right_children":[2,-1,-1],"split_conditions":[1.1565906E0,-4.3392694E-3,1.7202089E-2],"split_indices":[0,0,0],"split_type":[0,0,0],"sum_hessian":[1.9866114E1,1.6749557E1,3.1165564E0],"tree_param":{"num_deleted":"0","num_feature":"5","num_nodes":"3","size_leaf_vector":"1"}},{"base_weights":[2.8931104E-2,4.5768853E-2,-2.567174E-1,-8.0812685E-2,-2.4886897E-2,-2.097447E-2,2.2282252E-2],"categories":[],"categories_nodes":[],"categories_segments":[],"categories_sizes":[],"default_left":[0,0,0,0,0,0,0],"id":36,"left_children":[1,-1,3,5,-1,-1,-1],"loss_changes":[5.3689675E0,0E0,6.4300287E-1,2.060833E0,0E0,0E0,0E0],"parents":[2147483647,0,0,2,2,3,3],"right_children":[2,-1,4,6,-1,-1,-1],"split_conditions":[-4.3317683E-2,4.5768853E-2,8.179906E-1,3.3833006E-1,-2.4886897E-2,-2.097447E-2,2.2282252E-2],"split_indices":[4,0,4,4,0,0,0],"split_type":[0,0,0,0,0,0,0],"sum_hessian":[1.9275402E1,4.1602974E0,1.5115105E1,9.509819E0,5.605286E0,5.9106255E0,3.599193E0],"tree_param":{"num_deleted":"0","num_feature":"5","num_nodes":"7","size_leaf_vector":"1"}},{"base_weights":[-2.4615748E-2,4.4819914E-2,-3.0256417E-1,-1.7016374E-1,-2.385954E-2,-2.534091E-2,3.6069896E-2,1.2272595E-2,-8.483826E-3],"categories":[],"categories_nodes":[],"categories_segments":[],"categories_sizes":[],"default_left":[0,0,0,0,0,0,0,0,0],"id":37,"left_children":[1,-1,3,5,-1,-1,7,-1,-1],"loss_changes":[5.334481E0,0E0,2.8737116E-1,7.556963E-1,0E0,0E0,3.6560053E-1,0E0,0E0],"parents":[2147483647,0,0,2,2,3,3,6,6],"right_children":[2,-1,4,6,-1,-1,8,-1,-1],"split_conditions":[-4.3317683E-2,4.4819914E-2,7.761487E-1,2.3752663E-1,-2.385954E-2,-2.534091E-2,3.3878353E-1,1.2272595E-2,-8.483826E-3],"split_indices":[4,0,4,4,0,0,4,0,0],"split_type":[0,0,0,0,0,0,0,0,0],"sum_hessian":[1.8778803E1,3.837559E0,1.4941244E1,9.621072E0,5.3201723E0,3.1011994E0,6.5198727E0,3.1357403E0,3.3841326E0],"tree_param":{"num_deleted":"0","num_feature":"5","num_nodes":"9","size_leaf_vector":"1"}},{"base_weights":[4.0537827E-2,4.750701E-2,-2.4250466E-1,-3.2439917E-2,-3.809529E-2,2.2412937E-2,-2.4534095E-2],"categories":[],"categories_nodes":[],"categories_segments":[],"categories_sizes":[],"default_left":[0,0,0,0,0,0,0],"id":38,"left_children":[1,-1,3,-1,5,-1,-1],"loss_changes":[5.447636E0,0E0,1.325011E0,0E0,2.8337586E0,0E0,0E0],"parents":[2147483647,0,0,2,2,4,4],"right_children":[2,-1,4,-1,6,-1,-1],"split_conditions":[-3.0180182E-2,4.750701E-2,2.8372172E-1,-3.2439917E-2,8.179906E-1,2.2412937E-2,-2.4534095E-2],"split_indices":[4,0,4,0,4,0,0],"split_type":[0,0,0,0,0,0,0],"sum_hessian":[1.9264513E1,4.0125756E0,1.5251937E1,4.3773317E0,1.0874605E1,5.2463684E0,5.628237E0],"tree_param":{"num_deleted":"0","num_feature":"5","num_nodes":"7","size_leaf_vector":"1"}},{"base_weights":[-3.3575117E-3,4.4013344E-2,-2.773516E-1,3.452726E-3,-2.4677817E-2,-2.4063442E-2,2.120411E-2],"categories":[],"categories_nodes":[],"categories_segments":[],"categories_sizes":[],"default_left":[0,0,0,0,0,0,0],"id":39,"left_children":[1,-1,3,5,-1,-1,-1],"loss_changes":[4.823155E0,0E0,9.2433345E-1,1.7544496E0,0E0,0E0,0E0],"parents":[2147483647,0,0,2,2,3,3],"right_children":[2,-1,4,6,-1,-1,-1],"split_conditions":[-4.3317683E-2,4.4013344E-2,3.6047843E-1,1.6887346E-1,-2.4677817E-2,-2.4063442E-2,2.120411E-2],"split_indices":[4,0,4,4,0,0,0],"split_type":[0,0,0,0,0,0,0],"sum_hessian":[1.7913107E1,3.7160885E0,1.4197018E1,6.603933E0,7.5930853E0,3.001233E0,3.6026998E0],"tree_param":{"num_deleted":"0","num_feature":"5","num_nodes":"7","size_leaf_vector":"1"}},{"base_weights":[1.6514927E-1,4.4549804E-2,-8.218234E-2,-2.2107003E-2,8.7763645E-2,2.4557224E-2,-1.875116E-2],"categories":[],"categories_nodes":[],"categories_segments":[],"categories_sizes":[],"default_left":[0,0,0,0,0,0,0],"id":40,"left_children":[1,-1,3,-1,5,-1,-1],"loss_changes":[3.5628757E0,0E0,9.817066E-1,0E0,2.29454E0,0E0,0E0],"parents":[2147483647,0,0,2,2,4,4],"right_children":[2,-1,4,-1,6,-1,-1],"split_conditions":[-4.3317683E-2,4.4549804E-2,2.8372172E-1,-2.2107003E-2,8.179906E-1,2.4557224E-2,-1.875116E-2],"split_indices":[4,0,4,0,4,0,0],"split_type":[0,0,0,0,0,0,0],"sum_hessian":[1.8438263E1,4.0246487E0,1.4413615E1,4.108939E0,1.0304676E1,5.472971E0,4.831705E0],"tree_param":{"num_deleted":"0","num_feature":"5","num_nodes":"7","size_leaf_vector":"1"}},{"base_weights":[-6.276062E-2,4.0888812E-2,-3.6494398E-1,-2.7197165E-2,-4.517292E-3],"categories":[],"categories_nodes":[],"categories_segments":[],"categories_sizes":[],"default_left":[0,0,0,0,0],"id":41,"left_children":[1,-1,3,-1,-1],"loss_changes":[5.3808956E0,0E0,6.83831E-1,0E0,0E0],"parents":[2147483647,0,0,2,2],"right_children":[2,-1,4,-1,-1],"split_conditions":[-3.0180182E-2,4.0888812E-2,6.1290014E-1,-2.7197165E-2,-4.517292E-3],"split_indices":[4,0,4,0,0],"split_type":[0,0,0,0,0],"sum_hessian":[1.8100964E1,4.1888328E0,1.3912131E1,7.828308E0,6.083823E0],"tree_param":{"num_deleted":"0","num_feature":"5","num_nodes":"5","size_leaf_vector":"1"}},{"base_weights":[3.70412E-2,-4.898387E-3,2.8719017E-2],"categories":[],"categories_nodes":[],"categories_segments":[],"categories_sizes":[],"default_left":[0,0,0],"id":42,"left_children":[1,-1,-1],"loss_changes":[1.467915E0,0E0,0E0],"parents":[2147483647,0,0],"right_children":[2,-1,-1],"split_conditions":[1.2395998E0,-4.898387E-3,2.8719017E-2],"split_indices":[0,0,0],"split_type":[0,0,0],"sum_hessian":[1.8458721E1,1.5405659E1,3.053063E0],"tree_param":{"num_deleted":"0","num_feature":"5","num_nodes":"3","size_leaf_vector":"1"}},{"base_weights":[1.5358005E-1],"categories":[],"categories_nodes":[],"categories_segments":[],"categories_sizes":[],"default_left":[0],"id":43,"left_children":[-1],"loss_changes":[0E0],"parents":[2147483647],"right_children":[-1],"split_conditions":[7.679003E-3],"split_indices":[0],"split_type":[0],"sum_hessian":[1.7063555E1],"tree_param":{"num_deleted":"0","num_feature":"5","num_nodes":"1","size_leaf_vector":"1"}},{"base_weights":[3.4431618E-2,4.2470008E-2,-1.977875E-1,-5.922949E-2,-2.0087823E-2,-1.8262742E-2,1.3632365E-2],"categories":[],"categories_nodes":[],"categories_segments":[],"categories_sizes":[],"default_left":[0,0,0,0,0,0,0],"id":44,"left_children":[1,-1,3,5,-1,-1,-1],"loss_changes":[3.7160795E0,0E0,4.1147816E-1,1.1501843E0,0E0,0E0,0E0],"parents":[2147483647,0,0,2,2,3,3],"right_children":[2,-1,4,6,-1,-1,-1],"split_conditions":[-4.3317683E-2,4.2470008E-2,8.179906E-1,3.0241996E-1,-2.0087823E-2,-1.8262742E-2,1.3632365E-2],"split_indices":[4,0,4,4,0,0,0],"split_type":[0,0,0,0,0,0,0],"sum_hessian":[1.7747978E1,3.3463328E0,1.4401645E1,9.344336E0,5.057309E0,4.8091865E0,4.5351496E0],"tree_param":{"num_deleted":"0","num_feature":"5","num_nodes":"7","size_leaf_vector":"1"}},{"base_weights":[1.2439975E-3,3.003953E-1,-2.9171067E-1,2.6440103E-2,5.3560487E-3,-1.9065771E-2,-4.9854014E-3],"categories":[],"categories_nodes":[],"categories_segments":[],"categories_sizes":[],"default_left":[0,0,0,0,0,0,0],"id":45,"left_children":[1,3,5,-1,-1,-1,-1],"loss_changes":[1.6770273E0,3.6122185E-1,1.2834984E-1,0E0,0E0,0E0,0E0],"parents":[2147483647,0,0,1,1,2,2],"right_children":[2,4,6,-1,-1,-1,-1],"split_conditions":[3.6047843E-1,1.3059722E-2,8.4994185E-1,2.6440103E-2,5.3560487E-3,-1.9065771E-2,-4.9854014E-3],"split_indices":[4,4,4,0,0,0,0],"split_type":[0,0,0,0,0,0,0],"sum_hessian":[1.7136002E1,8.465767E0,8.670235E0,3.0845299E0,5.3812375E0,5.2391925E0,3.4310427E0],"tree_param":{"num_deleted":"0","num_feature":"5","num_nodes":"7","size_leaf_vector":"1"}},{"base_weights":[1.0130748E-1,4.157814E-2,-9.7099915E-2,-2.4612598E-2,3.9050154E-2,2.3906965E-2,-1.5350087E-1,-1.1543782E-2,5.1086507E-4],"categories":[],"categories_nodes":[],"categories_segments":[],"categories_sizes":[],"default_left":[0,0,0,0,0,0,0,0,0],"id":46,"left_children":[1,-1,3,-1,5,-1,7,-1,-1],"loss_changes":[2.8224483E0,0E0,8.679442E-1,0E0,1.1437109E0,0E0,1.2342705E-1,0E0,0E0],"parents":[2147483647,0,0,2,2,4,4,6,6],"right_children":[2,-1,4,-1,6,-1,8,-1,-1],"split_conditions":[-4.3317683E-2,4.157814E-2,1.6887346E-1,-2.4612598E-2,4.0599912E-1,2.3906965E-2,8.7624246E-1,-1.1543782E-2,5.1086507E-4],"split_indices":[4,0,4,0,4,0,4,0,0],"split_type":[0,0,0,0,0,0,0,0,0],"sum_hessian":[1.792291E1,3.1474104E0,1.4775499E1,3.1160865E0,1.1659412E1,3.1021516E0,8.557261E0,5.532396E0,3.0248652E0],"tree_param":{"num_deleted":"0","num_feature":"5","num_nodes":"9","size_leaf_vector":"1"}},{"base_weights":[-4.9839202E-2,4.1367672E-2,-2.7598703E-1,-1.809942E-2,-3.500996E-2,-1.9063588E-2,2.3856834E-2],"categories":[],"categories_nodes":[],"categories_segments":[],"categories_sizes":[],"default_left":[0,0,0,0,0,0,0],"id":47,"left_children":[1,-1,3,5,-1,-1,-1],"loss_changes":[3.9768643E0,0E0,1.7128698E0,2.1308475E0,0E0,0E0,0E0],"parents":[2147483647,0,0,2,2,3,3],"right_children":[2,-1,4,6,-1,-1,-1],"split_conditions":[-4.3317683E-2,4.1367672E-2,8.179906E-1,3.3833006E-1,-3.500996E-2,-1.9063588E-2,2.3856834E-2],"split_indices":[4,0,4,4,0,0,0],"split_type":[0,0,0,0,0,0,0],"sum_hessian":[1.7896135E1,3.1232126E0,1.4772923E1,9.836047E0,4.9368763E0,5.8074102E0,4.028637E0],"tree_param":{"num_deleted":"0","num_feature":"5","num_nodes":"7","size_leaf_vector":"1"}},{"base_weights":[6.8011165E-2,3.7375707E-2,-1.2503107E-1,-2.985631E-1,5.3019475E-2,-1.0329739E-3,-2.6261464E-2,2.1368641E-2,-1.6695296E-2],"categories":[],"categories_nodes":[],"categories_segments":[],"categories_sizes":[],"default_left":[0,0,0,0,0,0,0,0,0],"id":48,"left_children":[1,-1,3,5,7,-1,-1,-1,-1],"loss_changes":[2.4210818E0,0E0,4.69267E-1,4.6680516E-1,1.3148996E0,0E0,0E0,0E0,0E0],"parents":[2147483647,0,0,2,2,3,3,4,4],"right_children":[2,-1,4,6,8,-1,-1,-1,-1],"split_conditions":[1.0968733E-2,3.7375707E-2,5.2606547E-1,2.5934452E-1,8.7191164E-1,-1.0329739E-3,-2.6261464E-2,2.1368641E-2,-1.6695296E-2],"split_indices":[4,0,4,4,4,0,0,0,0],"split_type":[0,0,0,0,0,0,0,0,0],"sum_hessian":[1.6744686E1,3.0691357E0,1.36755495E1,6.5828824E0,7.0926676E0,3.4473772E0,3.135505E0,3.5517688E0,3.540899E0],"tree_param":{"num_deleted":"0","num_feature":"5","num_nodes":"9","size_leaf_vector":"1"}},{"base_weights":[-4.9952406E-2,4.0826377E-2,-2.8139302E-1,-7.323082E-2,-3.1867005E-2,-2.0938264E-2,1.764354E-2],"categories":[],"categories_nodes":[],"categories_segments":[],"categories_sizes":[],"default_left":[0,0,0,0,0,0,0],"id":49,"left_children":[1,-1,3,5,-1,-1,-1],"loss_changes":[3.8330808E0,0E0,1.0591325E0,1.7006106E0,0E0,0E0,0E0],"parents":[2147483647,0,0,2,2,3,3],"right_children":[2,-1,4,6,-1,-1,-1],"split_conditions":[-4.3317683E-2,4.0826377E-2,8.179906E-1,3.3833006E-1,-3.1867005E-2,-2.0938264E-2,1.764354E-2],"split_indices":[4,0,4,4,0,0,0],"split_type":[0,0,0,0,0,0,0],"sum_hessian":[1.6968185E1,3.0439727E0,1.3924212E1,9.546839E0,4.377373E0,5.2813234E0,4.2655153E0],"tree_param":{"num_deleted":"0","num_feature":"5","num_nodes":"7","size_leaf_vector":"1"}},{"base_weights":[1.6021684E-1,4.0375378E-2,-2.6896682E-2,-1.2744178E-2,9.6989416E-2,1.9552004E-2,-9.697626E-3],"categories":[],"categories_nodes":[],"categories_segments":[],"categories_sizes":[],"default_left":[0,0,0,0,0,0,0],"id":50,"left_children":[1,-1,3,-1,5,-1,-1],"loss_changes":[2.1944633E0,0E0,4.4511536E-1,0E0,9.6285707E-1,0E0,0E0],"parents":[2147483647,0,0,2,2,4,4],"right_children":[2,-1,4,-1,6,-1,-1],"split_conditions":[5.4958197E-3,4.0375378E-2,3.3833006E-1,-1.2744178E-2,8.179906E-1,1.9552004E-2,-9.697626E-3],"split_indices":[4,0,4,0,4,0,0],"split_type":[0,0,0,0,0,0,0],"sum_hessian":[1.6939238E1,3.0550733E0,1.3884164E1,4.5159974E0,9.368167E0,4.488082E0,4.8800845E0],"tree_param":{"num_deleted":"0","num_feature":"5","num_nodes":"7","size_leaf_vector":"1"}},{"base_weights":[-2.5802428E-2,3.6093265E-2,-2.1884818E-1,-9.203373E-2,-2.0217417E-2,-1.811319E-2,9.443511E-3],"categories":[],"categories_nodes":[],"categories_segments":[],"categories_sizes":[],"default_left":[0,0,0,0,0,0,0],"id":51,"left_children":[1,-1,3,5,-1,-1,-1],"loss_changes":[2.9455757E0,0E0,3.419358E-1,8.933749E-1,0E0,0E0,0E0],"parents":[2147483647,0,0,2,2,3,3],"right_children":[2,-1,4,6,-1,-1,-1],"split_conditions":[-3.0180182E-2,3.6093265E-2,8.179906E-1,3.3833006E-1,-2.0217417E-2,-1.811319E-2,9.443511E-3],"split_indices":[4,0,4,4,0,0,0],"split_type":[0,0,0,0,0,0,0],"sum_hessian":[1.8313501E1,3.1960044E0,1.5117497E1,9.867716E0,5.249782E0,4.8817897E0,4.9859257E0],"tree_param":{"num_deleted":"0","num_feature":"5","num_nodes":"7","size_leaf_vector":"1"}},{"base_weights":[-1.2864594E-1,2.7937982E-2,-3.0379534E-1,-4.7059965E-1,-3.6668554E-3,-9.852837E-3,-3.1937804E-2],"categories":[],"categories_nodes":[],"categories_segments":[],"categories_sizes":[],"default_left":[0,0,0,0,0,0,0],"id":52,"left_children":[1,-1,3,5,-1,-1,-1],"loss_changes":[2.3424764E0,0E0,5.4324234E-1,2.6668668E-1,0E0,0E0,0E0],"parents":[2147483647,0,0,2,2,3,3],"right_children":[2,-1,4,6,-1,-1,-1],"split_conditions":[8.688586E-3,2.7937982E-2,6.1290014E-1,2.8751746E-1,-3.6668554E-3,-9.852837E-3,-3.1937804E-2],"split_indices":[4,0,4,4,0,0,0],"split_type":[0,0,0,0,0,0,0],"sum_hessian":[1.7046112E1,3.0166261E0,1.4029485E1,7.534234E0,6.495251E0,3.6951444E0,3.8390896E0],"tree_param":{"num_deleted":"0","num_feature":"5","num_nodes":"7","size_leaf_vector":"1"}},{"base_weights":[-5.6704316E-2,2.3256915E-2,-2.0721236E-1,-2.1835668E-2,4.5971065E-3],"categories":[],"categories_nodes":[],"categories_segments":[],"categories_sizes":[],"default_left":[0,0,0,0,0],"id":53,"left_children":[1,-1,3,-1,-1],"loss_changes":[1.3982553E0,0E0,9.709185E-1,0E0,0E0],"parents":[2147483647,0,0,2,2],"right_children":[2,-1,4,-1,-1],"split_conditions":[3.397295E-2,2.3256915E-2,6.1290014E-1,-2.1835668E-2,4.5971065E-3],"split_indices":[4,0,4,0,0],"split_type":[0,0,0,0,0],"sum_hessian":[1.5575603E1,3.0186975E0,1.2556905E1,6.845471E0,5.7114344E0],"tree_param":{"num_deleted":"0","num_feature":"5","num_nodes":"5","size_leaf_vector":"1"}},{"base_weights":[6.557546E-2],"categories":[],"categories_nodes":[],"categories_segments":[],"categories_sizes":[],"default_left":[0],"id":54,"left_children":[-1],"loss_changes":[0E0],"parents":[2147483647],"right_children":[-1],"split_conditions":[3.278773E-3],"split_indices":[0],"split_type":[0],"sum_hessian":[1.6009275E1],"tree_param":{"num_deleted":"0","num_feature":"5","num_nodes":"1","size_leaf_vector":"1"}},{"base_weights":[-3.3763204E-2,2.7268996E-2,-1.8864563E-1,-6.27814E-2,-1.8260937E-2,-1.4642678E-2,9.556181E-3],"categories":[],"categories_nodes":[],"categories_segments":[],"categories_sizes":[],"default_left":[0,0,0,0,0,0,0],"id":55,"left_children":[1,-1,3,5,-1,-1,-1],"loss_changes":[1.7038391E0,0E0,3.0654645E-1,6.3212997E-1,0E0,0E0,0E0],"parents":[2147483647,0,0,2,2,3,3],"right_children":[2,-1,4,6,-1,-1,-1],"split_conditions":[8.688586E-3,2.7268996E-2,8.179906E-1,3.3833006E-1,-1.8260937E-2,-1.4642678E-2,9.556181E-3],"split_indices":[4,0,4,4,0,0,0],"split_type":[0,0,0,0,0,0,0],"sum_hessian":[1.6848066E1,3.023017E0,1.3825049E1,8.862948E0,4.9621015E0,4.5692205E0,4.293728E0],"tree_param":{"num_deleted":"0","num_feature":"5","num_nodes":"7","size_leaf_vector":"1"}},{"base_weights":[-1.0824432E-1,1.3076921E-2,-3.1803706E-1,-2.6900867E-2,-3.7192572E-3],"categories":[],"categories_nodes":[],"categories_segments":[],"categories_sizes":[],"default_left":[0,0,0,0,0],"id":56,"left_children":[1,-1,3,-1,-1],"loss_changes":[1.3014643E0,0E0,5.21201E-1,0E0,0E0],"parents":[2147483647,0,0,2,2],"right_children":[2,-1,4,-1,-1],"split_conditions":[2.5934452E-1,1.3076921E-2,6.1290014E-1,-2.6900867E-2,-3.7192572E-3],"split_indices":[4,0,4,0,0],"split_type":[0,0,0,0,0],"sum_hessian":[1.47040615E1,5.2332435E0,9.4708185E0,4.3422728E0,5.1285453E0],"tree_param":{"num_deleted":"0","num_feature":"5","num_nodes":"5","size_leaf_vector":"1"}},{"base_weights":[-1.10651635E-1,2.7040888E-2,-2.804601E-1,-5.123348E-1,1.7426252E-2,-3.3387747E-2,-1.3934444E-2,1.567815E-2,-1.36557E-2],"categories":[],"categories_nodes":[],"categories_segments":[],"categories_sizes":[],"default_left":[0,0,0,0,0,0,0,0,0],"id":57,"left_children":[1,-1,3,5,7,-1,-1,-1,-1],"loss_changes":[2.1487408E0,0E0,1.0435269E0,1.2094545E-1,7.329268E-1,0E0,0E0,0E0,0E0],"parents":[2147483647,0,0,2,2,3,3,4,4],"right_children":[2,-1,4,6,8,-1,-1,-1,-1],"split_conditions":[8.688586E-3,2.7040888E-2,6.1290014E-1,2.8372172E-1,8.7191164E-1,-3.3387747E-2,-1.3934444E-2,1.567815E-2,-1.36557E-2],"split_indices":[4,0,4,4,4,0,0,0,0],"split_type":[0,0,0,0,0,0,0,0,0],"sum_hessian":[1.7052546E1,3.0740597E0,1.3978485E1,7.4553447E0,6.5231404E0,3.3613887E0,4.093956E0,3.1912143E0,3.331926E0],"tree_param":{"num_deleted":"0","num_feature":"5","num_nodes":"9","size_leaf_vector":"1"}},{"base_weights":[-9.387586E-2,3.1547928E-1,-2.3941556E-2,2.6333285E-2,5.3755185E-3],"categories":[],"categories_nodes":[],"categories_segments":[],"categories_sizes":[],"default_left":[0,0,0,0,0],"id":58,"left_children":[1,3,-1,-1,-1],"loss_changes":[2.7604113E0,3.223114E-1,0E0,0E0,0E0],"parents":[2147483647,0,0,1,1],"right_children":[2,4,-1,-1,-1],"split_conditions":[3.6047843E-1,8.688586E-3,-2.3941556E-2,2.6333285E-2,5.3755185E-3],"split_indices":[4,4,0,0,0],"split_type":[0,0,0,0,0],"sum_hessian":[1.5558533E1,7.627767E0,7.930765E0,3.0242767E0,4.6034904E0],"tree_param":{"num_deleted":"0","num_feature":"5","num_nodes":"5","size_leaf_vector":"1"}},{"base_weights":[8.189309E-2,2.6846161E-2,-4.821638E-2,-2.2116032E-1,1.4739348E-1,4.888038E-3,-2.1868346E-2,1.8383244E-2,-4.2160386E-3],"categories":[],"categories_nodes":[],"categories_segments":[],"categories_sizes":[],"default_left":[0,0,0,0,0,0,0,0,0],"id":59,"left_children":[1,-1,3,5,7,-1,-1,-1,-1],"loss_changes":[1.0830382E0,0E0,5.333867E-1,6.1208546E-1,4.1617692E-1,0E0,0E0,0E0,0E0],"parents":[2147483647,0,0,2,2,3,3,4,4],"right_children":[2,-1,4,6,8,-1,-1,-1,-1],"split_conditions":[1.3059722E-2,2.6846161E-2,6.1290014E-1,2.5934452E-1,8.7191164E-1,4.888038E-3,-2.1868346E-2,1.8383244E-2,-4.2160386E-3],"split_indices":[4,0,4,4,4,0,0,0,0],"split_type":[0,0,0,0,0,0,0,0,0],"sum_hessian":[1.6856134E1,3.0528252E0,1.38033085E1,7.2567773E0,6.5465317E0,3.1532829E0,4.103494E0,3.0553493E0,3.4911823E0],"tree_param":{"num_deleted":"0","num_feature":"5","num_nodes":"9","size_leaf_vector":"1"}},{"base_weights":[1.8183496E-2,2.406445E-1,-2.127791E-1,-5.097585E-4,2.5646478E-2,-1.5024985E-2,-2.2289974E-3],"categories":[],"categories_nodes":[],"categories_segments":[],"categories_sizes":[],"default_left":[0,0,0,0,0,0,0],"id":60,"left_children":[1,3,5,-1,-1,-1,-1],"loss_changes":[9.631182E-1,6.5475076E-1,1.2291375E-1,0E0,0E0,0E0,0E0],"parents":[2147483647,0,0,1,1,2,2],"right_children":[2,4,6,-1,-1,-1,-1],"split_conditions":[3.6047843E-1,2.369335E-1,8.415045E-1,-5.097585E-4,2.5646478E-2,-1.5024985E-2,-2.2289974E-3],"split_indices":[4,4,4,0,0,0,0],"split_type":[0,0,0,0,0,0,0],"sum_hessian":[1.6748365E1,8.509844E0,8.238521E0,4.93036E0,3.579484E0,4.897675E0,3.3408458E0],"tree_param":{"num_deleted":"0","num_feature":"5","num_nodes":"7","size_leaf_vector":"1"}},{"base_weights":[-2.831204E-2,1.8198629E-1,-2.4297543E-1,5.263487E-4,1.7537305E-2,-2.3546891E-2,-2.4742207E-3],"categories":[],"categories_nodes":[],"categories_segments":[],"categories_sizes":[],"default_left":[0,0,0,0,0,0,0],"id":61,"left_children":[1,3,5,-1,-1,-1,-1],"loss_changes":[8.5478836E-1,2.7529484E-1,3.8751352E-1,0E0,0E0,0E0,0E0],"parents":[2147483647,0,0,1,1,2,2],"right_children":[2,4,6,-1,-1,-1,-1],"split_conditions":[3.6047843E-1,2.369335E-1,6.1717564E-1,5.263487E-4,1.7537305E-2,-2.3546891E-2,-2.4742207E-3],"split_indices":[4,4,4,0,0,0,0],"split_type":[0,0,0,0,0,0,0],"sum_hessian":[1.6955471E1,8.64171E0,8.313761E0,4.8135448E0,3.828165E0,3.1585727E0,5.1551886E0],"tree_param":{"num_deleted":"0","num_feature":"5","num_nodes":"7","size_leaf_vector":"1"}},{"base_weights":[-7.870275E-2,9.10421E-2,-2.2133945E-2,-1.2675062E-1,1.9547543E-2,1.3642442E-2,-2.1964904E-2],"categories":[],"categories_nodes":[],"categories_segments":[],"categories_sizes":[],"default_left":[0,0,0,0,0,0,0],"id":62,"left_children":[1,3,-1,5,-1,-1,-1],"loss_changes":[1.0526263E0,8.335918E-1,0E0,1.082649E0,0E0,0E0,0E0],"parents":[2147483647,0,0,1,1,3,3],"right_children":[2,4,-1,6,-1,-1,-1],"split_conditions":[8.179906E-1,3.3833006E-1,-2.2133945E-2,3.6020566E-2,1.9547543E-2,1.3642442E-2,-2.1964904E-2],"split_indices":[4,4,0,4,0,0,0],"split_type":[0,0,0,0,0,0,0],"sum_hessian":[1.5385133E1,1.1003419E1,4.381715E0,6.708846E0,4.2945724E0,3.000127E0,3.7087188E0],"tree_param":{"num_deleted":"0","num_feature":"5","num_nodes":"7","size_leaf_vector":"1"}},{"base_weights":[1.8803796E-2,3.548018E-1,-3.1818408E-1,-2.2262777E-3,3.5853956E-2,-2.3050182E-2,-4.943109E-3],"categories":[],"categories_nodes":[],"categories_segments":[],"categories_sizes":[],"default_left":[0,0,0,0,0,0,0],"id":63,"left_children":[1,3,5,-1,-1,-1,-1],"loss_changes":[1.8881388E0,1.2360849E0,2.1613115E-1,0E0,0E0,0E0,0E0],"parents":[2147483647,0,0,1,1,2,2],"right_children":[2,4,6,-1,-1,-1,-1],"split_conditions":[3.3878353E-1,1.1215533E-1,8.4994185E-1,-2.2262777E-3,3.5853956E-2,-2.3050182E-2,-4.943109E-3],"split_indices":[4,4,4,0,0,0,0],"split_type":[0,0,0,0,0,0,0],"sum_hessian":[1.4678615E1,7.3236322E0,7.3549824E0,3.9008915E0,3.4227405E0,3.786992E0,3.5679903E0],"tree_param":{"num_deleted":"0","num_feature":"5","num_nodes":"7","size_leaf_vector":"1"}},{"base_weights":[-1.7490529E-1,1.101248E-2,-4.0019616E-1,-3.5812303E-2,-1.7407772E-1,5.370486E-3,-1.839032E-2],"categories":[],"categories_nodes":[],"categories_segments":[],"categories_sizes":[],"default_left":[0,0,0,0,0,0,0],"id":64,"left_children":[1,-1,3,-1,5,-1,-1],"loss_changes":[1.6201639E0,0E0,6.839521E-1,0E0,4.712426E-1,0E0,0E0],"parents":[2147483647,0,0,2,2,4,4],"right_children":[2,-1,4,-1,6,-1,-1],"split_conditions":[2.5934452E-1,1.101248E-2,5.2606547E-1,-3.5812303E-2,8.3194554E-1,5.370486E-3,-1.839032E-2],"split_indices":[4,0,4,0,4,0,0],"split_type":[0,0,0,0,0,0,0],"sum_hessian":[1.6208923E1,5.8937693E0,1.0315155E1,3.3980577E0,6.917097E0,3.0014958E0,3.9156015E0],"tree_param":{"num_deleted":"0","num_feature":"5","num_nodes":"7","size_leaf_vector":"1"}},{"base_weights":[-2.4726057E-1,3.336825E-2,-4.1853003E-2,1.9098137E-2,-1.17678985E-1,-1.1987065E-2,1.3702426E-3],"categories":[],"categories_nodes":[],"categories_segments":[],"categories_sizes":[],"default_left":[0,0,0,0,0,0,0],"id":65,"left_children":[1,3,-1,-1,5,-1,-1],"loss_changes":[2.912323E0,7.1734405E-1,0E0,0E0,1.7788897E-1,0E0,0E0],"parents":[2147483647,0,0,1,1,4,4],"right_children":[2,4,-1,-1,6,-1,-1],"split_conditions":[7.761487E-1,3.397295E-2,-4.1853003E-2,1.9098137E-2,3.3833006E-1,-1.1987065E-2,1.3702426E-3],"split_indices":[4,4,0,0,4,0,0],"split_type":[0,0,0,0,0,0,0],"sum_hessian":[1.64268E1,1.177001E1,4.6567907E0,3.0960424E0,8.673967E0,4.356398E0,4.317569E0],"tree_param":{"num_deleted":"0","num_feature":"5","num_nodes":"7","size_leaf_vector":"1"}},{"base_weights":[7.892003E-2,-6.264232E-2,1.4544521E-2,9.205858E-3,-2.0230776E-2],"categories":[],"categories_nodes":[],"categories_segments":[],"categories_sizes":[],"default_left":[0,0,0,0,0],"id":66,"left_children":[1,3,-1,-1,-1],"loss_changes":[4.9056125E-1,9.403501E-1,0E0,0E0,0E0],"parents":[2147483647,0,0,1,1],"right_children":[2,4,-1,-1,-1],"split_conditions":[6.1290014E-1,2.5934452E-1,1.4544521E-2,9.205858E-3,-2.0230776E-2],"split_indices":[4,4,0,0,0],"split_type":[0,0,0,0,0],"sum_hessian":[1.4740951E1,9.2607355E0,5.480215E0,5.64735E0,3.613386E0],"tree_param":{"num_deleted":"0","num_feature":"5","num_nodes":"5","size_leaf_vector":"1"}},{"base_weights":[1.3579421E-1],"categories":[],"categories_nodes":[],"categories_segments":[],"categories_sizes":[],"default_left":[0],"id":67,"left_children":[-1],"loss_changes":[0E0],"parents":[2147483647],"right_children":[-1],"split_conditions":[6.7897104E-3],"split_indices":[0],"split_type":[0],"sum_hessian":[1.6183445E1],"tree_param":{"num_deleted":"0","num_feature":"5","num_nodes":"1","size_leaf_vector":"1"}},{"base_weights":[-2.4088135E-2],"categories":[],"categories_nodes":[],"categories_segments":[],"categories_sizes":[],"default_left":[0],"id":68,"left_children":[-1],"loss_changes":[0E0],"parents":[2147483647],"right_children":[-1],"split_conditions":[-1.2044067E-3],"split_indices":[0],"split_type":[0],"sum_hessian":[1.6316519E1],"tree_param":{"num_deleted":"0","num_feature":"5","num_nodes":"1","size_leaf_vector":"1"}},{"base_weights":[4.580475E-2,2.2753237E-1,-1.7812061E-1,3.5231542E-3,1.8537337E-2,-2.5036827E-2,1.2057686E-2],"categories":[],"categories_nodes":[],"categories_segments":[],"categories_sizes":[],"default_left":[0,0,0,0,0,0,0],"id":69,"left_children":[1,3,5,-1,-1,-1,-1],"loss_changes":[7.214027E-1,1.9151682E-1,1.2105205E0,0E0,0E0,0E0,0E0],"parents":[2147483647,0,0,1,1,2,2],"right_children":[2,4,6,-1,-1,-1,-1],"split_conditions":[3.3878353E-1,2.369335E-1,8.415045E-1,3.5231542E-3,1.8537337E-2,-2.5036827E-2,1.2057686E-2],"split_indices":[4,4,4,0,0,0,0],"split_type":[0,0,0,0,0,0,0],"sum_hessian":[1.5731807E1,8.675256E0,7.0565505E0,4.8490777E0,3.8261786E0,3.878159E0,3.1783917E0],"tree_param":{"num_deleted":"0","num_feature":"5","num_nodes":"7","size_leaf_vector":"1"}},{"base_weights":[-4.2198645E-3,1.93385E-1,-2.2221422E-2,9.570605E-3,2.370723E-2,1.5163346E-2,-1.08965095E-2],"categories":[],"categories_nodes":[],"categories_segments":[],"categories_sizes":[],"default_left":[0,0,0,0,0,0,0],"id":70,"left_children":[1,3,-1,5,-1,-1,-1],"loss_changes":[1.5348423E0,6.2470293E-1,0E0,6.2662214E-1,0E0,0E0,0E0],"parents":[2147483647,0,0,1,1,3,3],"right_children":[2,4,-1,6,-1,-1,-1],"split_conditions":[8.179906E-1,3.3833006E-1,-2.2221422E-2,3.6020566E-2,2.370723E-2,1.5163346E-2,-1.08965095E-2],"split_indices":[4,4,0,4,0,0,0],"split_type":[0,0,0,0,0,0,0],"sum_hessian":[1.5656402E1,1.11927805E1,4.463621E0,7.389158E0,3.8036225E0,3.0799732E0,4.3091846E0],"tree_param":{"num_deleted":"0","num_feature":"5","num_nodes":"7","size_leaf_vector":"1"}},{"base_weights":[6.4865455E-2,-1.4692155E-1,3.267771E-1,1.4777422E-2,-2.3501473E-2,2.5131894E-2,2.2130134E-3],"categories":[],"categories_nodes":[],"categories_segments":[],"categories_sizes":[],"default_left":[0,0,0,0,0,0,0],"id":71,"left_children":[1,3,5,-1,-1,-1,-1],"loss_changes":[9.694501E-1,1.550637E0,3.6216038E-1,0E0,0E0,0E0,0E0],"parents":[2147483647,0,0,1,1,2,2],"right_children":[2,4,6,-1,-1,-1,-1],"split_conditions":[5.2606547E-1,1.1220992E-1,8.7191164E-1,1.4777422E-2,-2.3501473E-2,2.5131894E-2,2.2130134E-3],"split_indices":[4,4,4,0,0,0,0],"split_type":[0,0,0,0,0,0,0],"sum_hessian":[1.5611649E1,8.874551E0,6.737098E0,3.7814531E0,5.0930977E0,3.6721306E0,3.0649676E0],"tree_param":{"num_deleted":"0","num_feature":"5","num_nodes":"7","size_leaf_vector":"1"}},{"base_weights":[1.8304168E-1,2.8447467E-1,-3.8913656E-3,1.0753068E-1,2.3830527E-2,1.9248338E-2,-7.9982495E-3],"categories":[],"categories_nodes":[],"categories_segments":[],"categories_sizes":[],"default_left":[0,0,0,0,0,0,0],"id":72,"left_children":[1,3,-1,5,-1,-1,-1],"loss_changes":[4.58431E-1,3.59671E-1,0E0,6.2437856E-1,0E0,0E0,0E0],"parents":[2147483647,0,0,1,1,3,3],"right_children":[2,4,-1,6,-1,-1,-1],"split_conditions":[8.179906E-1,3.3833006E-1,-3.8913656E-3,4.4535458E-2,2.3830527E-2,1.9248338E-2,-7.9982495E-3],"split_indices":[4,4,0,4,0,0,0],"split_type":[0,0,0,0,0,0,0],"sum_hessian":[1.5488256E1,1.10868845E1,4.4013715E0,6.5835476E0,4.503337E0,3.0161564E0,3.5673912E0],"tree_param":{"num_deleted":"0","num_feature":"5","num_nodes":"7","size_leaf_vector":"1"}},{"base_weights":[5.549956E-2,2.3344833E-1,-1.3277312E-1,-2.2385926E-3,2.5735948E-2,-1.192983E-2,2.571366E-3],"categories":[],"categories_nodes":[],"categories_segments":[],"categories_sizes":[],"default_left":[0,0,0,0,0,0,0],"id":73,"left_children":[1,3,5,-1,-1,-1,-1],"loss_changes":[5.9611654E-1,7.300189E-1,1.8446152E-1,0E0,0E0,0E0,0E0],"parents":[2147483647,0,0,1,1,2,2],"right_children":[2,4,6,-1,-1,-1,-1],"split_conditions":[3.6047843E-1,2.369335E-1,8.4994185E-1,-2.2385926E-3,2.5735948E-2,-1.192983E-2,2.571366E-3],"split_indices":[4,4,4,0,0,0,0],"split_type":[0,0,0,0,0,0,0],"sum_hessian":[1.5867824E1,8.034215E0,7.8336077E0,4.461713E0,3.5725024E0,4.787736E0,3.045872E0],"tree_param":{"num_deleted":"0","num_feature":"5","num_nodes":"7","size_leaf_vector":"1"}},{"base_weights":[-4.688829E-2,2.693057E-1,-3.7653768E-1,4.158401E-3,2.0448457E-2,-7.4789836E-3,-2.5491932E-2],"categories":[],"categories_nodes":[],"categories_segments":[],"categories_sizes":[],"default_left":[0,0,0,0,0,0,0],"id":74,"left_children":[1,3,5,-1,-1,-1,-1],"loss_changes":[1.7094338E0,1.8584919E-1,1.6485763E-1,0E0,0E0,0E0,0E0],"parents":[2147483647,0,0,1,1,2,2],"right_children":[2,4,6,-1,-1,-1,-1],"split_conditions":[3.6047843E-1,1.1215533E-1,7.761487E-1,4.158401E-3,2.0448457E-2,-7.4789836E-3,-2.5491932E-2],"split_indices":[4,4,4,0,0,0,0],"split_type":[0,0,0,0,0,0,0],"sum_hessian":[1.4427242E1,7.457342E0,6.9699E0,3.8807397E0,3.5766025E0,3.3641772E0,3.6057227E0],"tree_param":{"num_deleted":"0","num_feature":"5","num_nodes":"7","size_leaf_vector":"1"}},{"base_weights":[1.1394846E-1,4.1031727E-1,-1.8633291E-1,3.8480777E-3,3.361267E-2,-1.9781305E-2,6.245948E-3],"categories":[],"categories_nodes":[],"categories_segments":[],"categories_sizes":[],"default_left":[0,0,0,0,0,0,0],"id":75,"left_children":[1,3,5,-1,-1,-1,-1],"loss_changes":[1.6438601E0,7.4951565E-1,6.641218E-1,0E0,0E0,0E0,0E0],"parents":[2147483647,0,0,1,1,2,2],"right_children":[2,4,6,-1,-1,-1,-1],"split_conditions":[3.6047843E-1,1.1215533E-1,8.4994185E-1,3.8480777E-3,3.361267E-2,-1.9781305E-2,6.245948E-3],"split_indices":[4,4,4,0,0,0,0],"split_type":[0,0,0,0,0,0,0],"sum_hessian":[1.6612469E1,8.17628E0,8.436189E0,4.166965E0,4.0093145E0,4.8822007E0,3.5539882E0],"tree_param":{"num_deleted":"0","num_feature":"5","num_nodes":"7","size_leaf_vector":"1"}},{"base_weights":[-7.281774E-2],"categories":[],"categories_nodes":[],"categories_segments":[],"categories_sizes":[],"default_left":[0],"id":76,"left_children":[-1],"loss_changes":[0E0],"parents":[2147483647],"right_children":[-1],"split_conditions":[-3.640887E-3],"split_indices":[0],"split_type":[0],"sum_hessian":[1.5070514E1],"tree_param":{"num_deleted":"0","num_feature":"5","num_nodes":"1","size_leaf_vector":"1"}},{"base_weights":[-3.7639607E-2,2.7493015E-1,-2.2633657E-1,2.0135334E-2,4.125808E-3,-3.4246784E-2,4.8378434E-2,1.695831E-2,-9.701832E-3],"categories":[],"categories_nodes":[],"categories_segments":[],"categories_sizes":[],"default_left":[0,0,0,0,0,0,0,0,0],"id":77,"left_children":[1,3,5,-1,-1,-1,7,-1,-1],"loss_changes":[1.1021419E0,1.410526E-1,1.4873302E0,0E0,0E0,0E0,6.4049673E-1,0E0,0E0],"parents":[2147483647,0,0,1,1,2,2,6,6],"right_children":[2,4,6,-1,-1,-1,8,-1,-1],"split_conditions":[2.5934452E-1,1.0968733E-2,5.2606547E-1,2.0135334E-2,4.125808E-3,-3.4246784E-2,8.2864594E-1,1.695831E-2,-9.701832E-3],"split_indices":[4,4,4,0,0,0,4,0,0],"split_type":[0,0,0,0,0,0,0,0,0],"sum_hessian":[1.663137E1,6.0886865E0,1.0542685E1,3.0021372E0,3.0865495E0,3.3901064E0,7.152578E0,3.0703921E0,4.0821857E0],"tree_param":{"num_deleted":"0","num_feature":"5","num_nodes":"9","size_leaf_vector":"1"}},{"base_weights":[3.7674285E-2,2.6553127E-1,-2.3100499E-2,7.869106E-4,4.2519665E-1,3.698975E-2,4.525294E-4],"categories":[],"categories_nodes":[],"categories_segments":[],"categories_sizes":[],"default_left":[0,0,0,0,0,0,0],"id":78,"left_children":[1,3,-1,-1,5,-1,-1],"loss_changes":[1.9837208E0,4.663769E-1,0E0,0E0,9.3561244E-1,0E0,0E0],"parents":[2147483647,0,0,1,1,4,4],"right_children":[2,4,-1,-1,6,-1,-1],"split_conditions":[6.306565E-1,2.369335E-1,-2.3100499E-2,7.869106E-4,3.6047843E-1,3.698975E-2,4.525294E-4],"split_indices":[4,4,0,0,4,0,0],"split_type":[0,0,0,0,0,0,0],"sum_hessian":[1.5345506E1,1.0861323E1,4.4841824E0,4.663675E0,6.1976485E0,3.0865486E0,3.1111E0],"tree_param":{"num_deleted":"0","num_feature":"5","num_nodes":"7","size_leaf_vector":"1"}},{"base_weights":[3.0542549E-2],"categories":[],"categories_nodes":[],"categories_segments":[],"categories_sizes":[],"default_left":[0],"id":79,"left_children":[-1],"loss_changes":[0E0],"parents":[2147483647],"right_children":[-1],"split_conditions":[1.5271275E-3],"split_indices":[0],"split_type":[0],"sum_hessian":[1.6034483E1],"tree_param":{"num_deleted":"0","num_feature":"5","num_nodes":"1","size_leaf_vector":"1"}},{"base_weights":[8.4525295E-2,-1.5951566E-1,2.2279786E-2,6.4474912E-3,-2.7858695E-2],"categories":[],"categories_nodes":[],"categories_segments":[],"categories_sizes":[],"default_left":[0,0,0,0,0],"id":80,"left_children":[1,3,-1,-1,-1],"loss_changes":[1.5187253E0,1.2808414E0,0E0,0E0,0E0],"parents":[2147483647,0,0,1,1],"right_children":[2,4,-1,-1,-1],"split_conditions":[5.2606547E-1,2.5934452E-1,2.2279786E-2,6.4474912E-3,-2.7858695E-2],"split_indices":[4,4,0,0,0],"split_type":[0,0,0,0,0],"sum_hessian":[1.5428869E1,9.539505E0,5.8893642E0,5.920465E0,3.6190405E0],"tree_param":{"num_deleted":"0","num_feature":"5","num_nodes":"5","size_leaf_vector":"1"}},{"base_weights":[5.3284768E-2,3.0612436E-1,-2.536368E-1,4.545948E-3,2.470927E-2,-3.306484E-2,1.5509227E-2],"categories":[],"categories_nodes":[],"categories_segments":[],"categories_sizes":[],"default_left":[0,0,0,0,0,0,0],"id":81,"left_children":[1,3,5,-1,-1,-1,-1],"loss_changes":[1.3484625E0,3.3680975E-1,2.0309958E0,0E0,0E0,0E0,0E0],"parents":[2147483647,0,0,1,1,2,2],"right_children":[2,4,6,-1,-1,-1,-1],"split_conditions":[3.6047843E-1,2.369335E-1,8.380291E-1,4.545948E-3,2.470927E-2,-3.306484E-2,1.5509227E-2],"split_indices":[4,4,4,0,0,0,0],"split_type":[0,0,0,0,0,0,0],"sum_hessian":[1.5376116E1,8.432273E0,6.943843E0,4.6241436E0,3.8081293E0,3.9296803E0,3.0141623E0],"tree_param":{"num_deleted":"0","num_feature":"5","num_nodes":"7","size_leaf_vector":"1"}},{"base_weights":[-5.6774057E-2],"categories":[],"categories_nodes":[],"categories_segments":[],"categories_sizes":[],"default_left":[0],"id":82,"left_children":[-1],"loss_changes":[0E0],"parents":[2147483647],"right_children":[-1],"split_conditions":[-2.8387029E-3],"split_indices":[0],"split_type":[0],"sum_hessian":[1.5459263E1],"tree_param":{"num_deleted":"0","num_feature":"5","num_nodes":"1","size_leaf_vector":"1"}},{"base_weights":[9.5575966E-2,2.6365033E-1,-1.4624539E-2,4.9393803E-2,2.546226E-2,1.651427E-2,-1.0062599E-2],"categories":[],"categories_nodes":[],"categories_segments":[],"categories_sizes":[],"default_left":[0,0,0,0,0,0,0],"id":83,"left_children":[1,3,-1,5,-1,-1,-1],"loss_changes":[1.1963236E0,6.325751E-1,0E0,6.144332E-1,0E0,0E0,0E0],"parents":[2147483647,0,0,1,1,3,3],"right_children":[2,4,-1,6,-1,-1,-1],"split_conditions":[8.179906E-1,2.8372172E-1,-1.4624539E-2,3.397295E-2,2.546226E-2,1.651427E-2,-1.0062599E-2],"split_indices":[4,4,0,4,0,0,0],"split_type":[0,0,0,0,0,0,0],"sum_hessian":[1.6159437E1,1.1499521E1,4.6599154E0,6.7830873E0,4.716434E0,3.0487275E0,3.7343595E0],"tree_param":{"num_deleted":"0","num_feature":"5","num_nodes":"7","size_leaf_vector":"1"}},{"base_weights":[-5.402733E-2,9.732311E-2,-2.0851946E-2,-5.135193E-2,1.5757114E-2,1.7203446E-2,-1.6165359E-2],"categories":[],"categories_nodes":[],"categories_segments":[],"categories_sizes":[],"default_left":[0,0,0,0,0,0,0],"id":84,"left_children":[1,3,-1,5,-1,-1,-1],"loss_changes":[1.0036601E0,4.4306734E-1,0E0,1.0461934E0,0E0,0E0,0E0],"parents":[2147483647,0,0,1,1,3,3],"right_children":[2,4,-1,6,-1,-1,-1],"split_conditions":[8.179906E-1,3.3833006E-1,-2.0851946E-2,3.6020566E-2,1.5757114E-2,1.7203446E-2,-1.6165359E-2],"split_indices":[4,4,0,4,0,0,0],"split_type":[0,0,0,0,0,0,0],"sum_hessian":[1.6528908E1,1.2181835E1,4.3470726E0,7.6942673E0,4.487568E0,3.0273523E0,4.666915E0],"tree_param":{"num_deleted":"0","num_feature":"5","num_nodes":"7","size_leaf_vector":"1"}},{"base_weights":[-1.19708814E-1],"categories":[],"categories_nodes":[],"categories_segments":[],"categories_sizes":[],"default_left":[0],"id":85,"left_children":[-1],"loss_changes":[0E0],"parents":[2147483647],"right_children":[-1],"split_conditions":[-5.9854407E-3],"split_indices":[0],"split_type":[0],"sum_hessian":[1.49498825E1],"tree_param":{"num_deleted":"0","num_feature":"5","num_nodes":"1","size_leaf_vector":"1"}},{"base_weights":[5.970892E-3],"categories":[],"categories_nodes":[],"categories_segments":[],"categories_sizes":[],"default_left":[0],"id":86,"left_children":[-1],"loss_changes":[0E0],"parents":[2147483647],"right_children":[-1],"split_conditions":[2.9854462E-4],"split_indices":[0],"split_type":[0],"sum_hessian":[1.6102285E1],"tree_param":{"num_deleted":"0","num_feature":"5","num_nodes":"1","size_leaf_vector":"1"}},{"base_weights":[-6.0226724E-2],"categories":[],"categories_nodes":[],"categories_segments":[],"categories_sizes":[],"default_left":[0],"id":87,"left_children":[-1],"loss_changes":[0E0],"parents":[2147483647],"right_children":[-1],"split_conditions":[-3.0113363E-3],"split_indices":[0],"split_type":[0],"sum_hessian":[1.645689E1],"tree_param":{"num_deleted":"0","num_feature":"5","num_nodes":"1","size_leaf_vector":"1"}},{"base_weights":[3.790303E-2],"categories":[],"categories_nodes":[],"categories_segments":[],"categories_sizes":[],"default_left":[0],"id":88,"left_children":[-1],"loss_changes":[0E0],"parents":[2147483647],"right_children":[-1],"split_conditions":[1.8951515E-3],"split_indices":[0],"split_type":[0],"sum_hessian":[1.4953151E1],"tree_param":{"num_deleted":"0","num_feature":"5","num_nodes":"1","size_leaf_vector":"1"}},{"base_weights":[-6.7239866E-2,1.1731733E-1,-2.316105E-1,-4.1815573E-3,1.7314075E-2,-1.7979546E-2,-3.6177854E-4],"categories":[],"categories_nodes":[],"categories_segments":[],"categories_sizes":[],"default_left":[0,0,0,0,0,0,0],"id":89,"left_children":[1,3,5,-1,-1,-1,-1],"loss_changes":[5.228459E-1,4.1364583E-1,2.552257E-1,0E0,0E0,0E0,0E0],"parents":[2147483647,0,0,1,1,2,2],"right_children":[2,4,6,-1,-1,-1,-1],"split_conditions":[3.6047843E-1,1.1471993E-1,8.4994185E-1,-4.1815573E-3,1.7314075E-2,-1.7979546E-2,-3.6177854E-4],"split_indices":[4,4,4,0,0,0,0],"split_type":[0,0,0,0,0,0,0],"sum_hessian":[1.53395815E1,7.3609204E0,7.9786606E0,4.2583537E0,3.102567E0,4.6969504E0,3.2817101E0],"tree_param":{"num_deleted":"0","num_feature":"5","num_nodes":"7","size_leaf_vector":"1"}},{"base_weights":[9.559916E-3,2.7546692E-1,-2.9108593E-1,-2.5590823E-3,2.9374218E-2,-2.3233753E-2,-2.993779E-3],"categories":[],"categories_nodes":[],"categories_segments":[],"categories_sizes":[],"default_left":[0,0,0,0,0,0,0],"id":90,"left_children":[1,3,5,-1,-1,-1,-1],"loss_changes":[1.3170822E0,9.1923606E-1,2.831443E-1,0E0,0E0,0E0,0E0],"parents":[2147483647,0,0,1,1,2,2],"right_children":[2,4,6,-1,-1,-1,-1],"split_conditions":[3.6047843E-1,2.369335E-1,8.4994185E-1,-2.5590823E-3,2.9374218E-2,-2.3233753E-2,-2.993779E-3],"split_indices":[4,4,4,0,0,0,0],"split_type":[0,0,0,0,0,0,0],"sum_hessian":[1.4472084E1,7.7241707E0,6.747913E0,4.1820164E0,3.542154E0,3.2774813E0,3.4704318E0],"tree_param":{"num_deleted":"0","num_feature":"5","num_nodes":"7","size_leaf_vector":"1"}},{"base_weights":[-1.4631477E-1,1.2570125E-2,-3.6157224E-1,-3.4372035E-2,-1.3255402E-1,1.6197816E-2,-3.216819E-2],"categories":[],"categories_nodes":[],"categories_segments":[],"categories_sizes":[],"default_left":[0,0,0,0,0,0,0],"id":91,"left_children":[1,-1,3,-1,5,-1,-1],"loss_changes":[1.506728E0,0E0,7.402817E-1,0E0,2.0229425E0,0E0,0E0],"parents":[2147483647,0,0,2,2,4,4],"right_children":[2,-1,4,-1,6,-1,-1],"split_conditions":[2.5934452E-1,1.2570125E-2,5.2606547E-1,-3.4372035E-2,8.7191164E-1,1.6197816E-2,-3.216819E-2],"split_indices":[4,0,4,0,4,0,0],"split_type":[0,0,0,0,0,0,0],"sum_hessian":[1.5537804E1,5.397422E0,1.0140382E1,3.3590815E0,6.7813E0,3.7741463E0,3.007154E0],"tree_param":{"num_deleted":"0","num_feature":"5","num_nodes":"7","size_leaf_vector":"1"}},{"base_weights":[1.4402226E-1,-3.594179E-2,3.6623874E-1,7.349927E-3,-1.3998243E-2,2.9742157E-2,4.7009606E-3],"categories":[],"categories_nodes":[],"categories_segments":[],"categories_sizes":[],"default_left":[0,0,0,0,0,0,0],"id":92,"left_children":[1,3,5,-1,-1,-1,-1],"loss_changes":[6.9825494E-1,5.043606E-1,4.266752E-1,0E0,0E0,0E0,0E0],"parents":[2147483647,0,0,1,1,2,2],"right_children":[2,4,6,-1,-1,-1,-1],"split_conditions":[5.2606547E-1,2.5934452E-1,8.3194554E-1,7.349927E-3,-1.3998243E-2,2.9742157E-2,4.7009606E-3],"split_indices":[4,4,4,0,0,0,0],"split_type":[0,0,0,0,0,0,0],"sum_hessian":[1.6131155E1,9.376096E0,6.7550583E0,5.585978E0,3.7901177E0,3.0274818E0,3.7275767E0],"tree_param":{"num_deleted":"0","num_feature":"5","num_nodes":"7","size_leaf_vector":"1"}},{"base_weights":[4.0227655E-2,1.3297725E-2,-9.631347E-2,-2.437927E-2,1.2078797E-2],"categories":[],"categories_nodes":[],"categories_segments":[],"categories_sizes":[],"default_left":[0,0,0,0,0],"id":93,"left_children":[1,-1,3,-1,-1],"loss_changes":[4.9780145E-1,0E0,1.4768875E0,0E0,0E0],"parents":[2147483647,0,0,2,2],"right_children":[2,-1,4,-1,-1],"split_conditions":[2.4347095E-1,1.3297725E-2,6.1290014E-1,-2.437927E-2,1.2078797E-2],"split_indices":[4,0,4,0,0],"split_type":[0,0,0,0,0],"sum_hessian":[1.4320286E1,5.040177E0,9.280108E0,4.095053E0,5.1850557E0],"tree_param":{"num_deleted":"0","num_feature":"5","num_nodes":"5","size_leaf_vector":"1"}},{"base_weights":[1.2688581E-2],"categories":[],"categories_nodes":[],"categories_segments":[],"categories_sizes":[],"default_left":[0],"id":94,"left_children":[-1],"loss_changes":[0E0],"parents":[2147483647],"right_children":[-1],"split_conditions":[6.3442905E-4],"split_indices":[0],"split_type":[0],"sum_hessian":[1.6097008E1],"tree_param":{"num_deleted":"0","num_feature":"5","num_nodes":"1","size_leaf_vector":"1"}},{"base_weights":[-9.116033E-2,2.524861E-1,-2.2381252E-2,1.8603379E-2,9.6421066E-4],"categories":[],"categories_nodes":[],"categories_segments":[],"categories_sizes":[],"default_left":[0,0,0,0,0],"id":95,"left_children":[1,3,-1,-1,-1],"loss_changes":[2.1204169E0,2.4333012E-1,0E0,0E0,0E0],"parents":[2147483647,0,0,1,1],"right_children":[2,4,-1,-1,-1],"split_conditions":[3.6047843E-1,2.4347095E-1,-2.2381252E-2,1.8603379E-2,9.6421066E-4],"split_indices":[4,4,0,0,0],"split_type":[0,0,0,0,0],"sum_hessian":[1.5387213E1,7.982985E0,7.4042277E0,4.8833985E0,3.0995867E0],"tree_param":{"num_deleted":"0","num_feature":"5","num_nodes":"5","size_leaf_vector":"1"}},{"base_weights":[1.7683943E-1,2.261157E-2,2.3036597E-2,1.6183227E-1,-1.0090927E-2,-6.3991005E-4,1.6623983E-2],"categories":[],"categories_nodes":[],"categories_segments":[],"categories_sizes":[],"default_left":[0,0,0,0,0,0,0],"id":96,"left_children":[1,3,-1,5,-1,-1,-1],"loss_changes":[7.270332E-1,4.0652454E-1,0E0,2.408555E-1,0E0,0E0,0E0],"parents":[2147483647,0,0,1,1,3,3],"right_children":[2,4,-1,6,-1,-1,-1],"split_conditions":[6.1290014E-1,2.8751746E-1,2.3036597E-2,1.1139608E-1,-1.0090927E-2,-6.3991005E-4,1.6623983E-2],"split_indices":[4,4,0,4,0,0,0],"split_type":[0,0,0,0,0,0,0],"sum_hessian":[1.5842886E1,1.0965436E1,4.87745E0,6.9395466E0,4.0258894E0,3.886912E0,3.0526345E0],"tree_param":{"num_deleted":"0","num_feature":"5","num_nodes":"7","size_leaf_vector":"1"}},{"base_weights":[8.018457E-2,-4.9129046E-2,2.0375152E-1,1.4613475E-2,-1.3247396E-2,2.1102963E-2,-1.8871719E-3],"categories":[],"categories_nodes":[],"categories_segments":[],"categories_sizes":[],"default_left":[0,0,0,0,0,0,0],"id":97,"left_children":[1,3,5,-1,-1,-1,-1],"loss_changes":[2.8183842E-1,7.492738E-1,4.8479357E-1,0E0,0E0,0E0,0E0],"parents":[2147483647,0,0,1,1,2,2],"right_children":[2,4,6,-1,-1,-1,-1],"split_conditions":[3.3833006E-1,1.3059722E-2,7.761487E-1,1.4613475E-2,-1.3247396E-2,2.1102963E-2,-1.8871719E-3],"split_indices":[4,4,4,0,0,0,0],"split_type":[0,0,0,0,0,0,0],"sum_hessian":[1.6011717E1,8.118286E0,7.89343E0,3.0071363E0,5.11115E0,3.753043E0,4.1403875E0],"tree_param":{"num_deleted":"0","num_feature":"5","num_nodes":"7","size_leaf_vector":"1"}},{"base_weights":[-1.2838629E-1,7.747133E-2,-2.9391093E-2,1.6116776E-1,-5.3545786E-3,-4.9286656E-4,1.6655708E-2],"categories":[],"categories_nodes":[],"categories_segments":[],"categories_sizes":[],"default_left":[0,0,0,0,0,0,0],"id":98,"left_children":[1,3,-1,5,-1,-1,-1],"loss_changes":[1.5630491E0,2.0206842E-1,0E0,2.5707793E-1,0E0,0E0,0E0],"parents":[2147483647,0,0,1,1,3,3],"right_children":[2,4,-1,6,-1,-1,-1],"split_conditions":[7.761487E-1,3.6047843E-1,-2.9391093E-2,2.369335E-1,-5.3545786E-3,-4.9286656E-4,1.6655708E-2],"split_indices":[4,4,0,4,0,0,0],"split_type":[0,0,0,0,0,0,0],"sum_hessian":[1.504501E1,1.0963853E1,4.081157E0,7.630361E0,3.3334916E0,4.2980313E0,3.33233E0],"tree_param":{"num_deleted":"0","num_feature":"5","num_nodes":"7","size_leaf_vector":"1"}},{"base_weights":[-2.2716157E-2,-1.7487437E-1,1.298368E-2,7.5888573E-3,-3.088413E-1,-2.3178184E-2,-6.2532374E-3],"categories":[],"categories_nodes":[],"categories_segments":[],"categories_sizes":[],"default_left":[0,0,0,0,0,0,0],"id":99,"left_children":[1,3,-1,-1,5,-1,-1],"loss_changes":[7.717585E-1,5.537473E-1,0E0,0E0,1.849562E-1,0E0,0E0],"parents":[2147483647,0,0,1,1,4,4],"right_children":[2,4,-1,-1,6,-1,-1],"split_conditions":[6.1290014E-1,3.6020566E-2,1.298368E-2,7.5888573E-3,2.8372172E-1,-2.3178184E-2,-6.2532374E-3],"split_indices":[4,4,0,0,4,0,0],"split_type":[0,0,0,0,0,0,0],"sum_hessian":[1.5904432E1,1.058287E1,5.3215632E0,3.039271E0,7.543598E0,3.2689888E0,4.2746096E0],"tree_param":{"num_deleted":"0","num_feature":"5","num_nodes":"7","size_leaf_vector":"1"}},{"base_weights":[5.5807177E-2],"categories":[],"categories_nodes":[],"categories_segments":[],"categories_sizes":[],"default_left":[0],"id":100,"left_children":[-1],"loss_changes":[0E0],"parents":[2147483647],"right_children":[-1],"split_conditions":[2.7903588E-3],"split_indices":[0],"split_type":[0],"sum_hessian":[1.5008819E1],"tree_param":{"num_deleted":"0","num_feature":"5","num_nodes":"1","size_leaf_vector":"1"}},{"base_weights":[4.4987034E-2,1.2936354E-2,-7.4617E-2,-2.8680792E-2,2.0563304E-1,2.0252235E-2,-1.6218106E-3],"categories":[],"categories_nodes":[],"categories_segments":[],"categories_sizes":[],"default_left":[0,0,0,0,0,0,0],"id":101,"left_children":[1,-1,3,-1,5,-1,-1],"loss_changes":[4.14689E-1,0E0,1.613332E0,0E0,3.7315875E-1,0E0,0E0],"parents":[2147483647,0,0,2,2,4,4],"right_children":[2,-1,4,-1,6,-1,-1],"split_conditions":[2.4347095E-1,1.2936354E-2,5.2606547E-1,-2.8680792E-2,8.7191164E-1,2.0252235E-2,-1.6218106E-3],"split_indices":[4,0,4,0,4,0,0],"split_type":[0,0,0,0,0,0,0],"sum_hessian":[1.4466317E1,4.7731667E0,9.6931505E0,3.1095843E0,6.583566E0,3.2009835E0,3.3825827E0],"tree_param":{"num_deleted":"0","num_feature":"5","num_nodes":"7","size_leaf_vector":"1"}},{"base_weights":[4.1807137E-2],"categories":[],"categories_nodes":[],"categories_segments":[],"categories_sizes":[],"default_left":[0],"id":102,"left_children":[-1],"loss_changes":[0E0],"parents":[2147483647],"right_children":[-1],"split_conditions":[2.090357E-3],"split_indices":[0],"split_type":[0],"sum_hessian":[1.6352304E1],"tree_param":{"num_deleted":"0","num_feature":"5","num_nodes":"1","size_leaf_vector":"1"}},{"base_weights":[6.7338936E-2,2.2405156E-1,-9.36929E-2,-1.5054255E-3,2.4919538E-2,-9.886588E-3,3.6720273E-3],"categories":[],"categories_nodes":[],"categories_segments":[],"categories_sizes":[],"default_left":[0,0,0,0,0,0,0],"id":103,"left_children":[1,3,5,-1,-1,-1,-1],"loss_changes":[4.2252195E-1,5.9781784E-1,1.6323692E-1,0E0,0E0,0E0,0E0],"parents":[2147483647,0,0,1,1,2,2],"right_children":[2,4,6,-1,-1,-1,-1],"split_conditions":[3.6047843E-1,1.6887346E-1,8.380291E-1,-1.5054255E-3,2.4919538E-2,-9.886588E-3,3.6720273E-3],"split_indices":[4,4,4,0,0,0,0],"split_type":[0,0,0,0,0,0,0],"sum_hessian":[1.4911171E1,7.3585973E0,7.552574E0,4.2819023E0,3.076695E0,4.542091E0,3.010483E0],"tree_param":{"num_deleted":"0","num_feature":"5","num_nodes":"7","size_leaf_vector":"1"}},{"base_weights":[1.2936845E-2,2.1525234E-1,-2.066075E-2,-2.6597744E-3,2.0483216E-2],"categories":[],"categories_nodes":[],"categories_segments":[],"categories_sizes":[],"default_left":[0,0,0,0,0],"id":104,"left_children":[1,3,-1,-1,-1],"loss_changes":[1.3853748E0,5.882393E-1,0E0,0E0,0E0],"parents":[2147483647,0,0,1,1],"right_children":[2,4,-1,-1,-1],"split_conditions":[6.306565E-1,2.369335E-1,-2.066075E-2,-2.6597744E-3,2.0483216E-2],"split_indices":[4,4,0,0,0],"split_type":[0,0,0,0,0],"sum_hessian":[1.4036798E1,9.853665E0,4.1831326E0,4.443866E0,5.409799E0],"tree_param":{"num_deleted":"0","num_feature":"5","num_nodes":"5","size_leaf_vector":"1"}},{"base_weights":[9.8496534E-2,2.604439E-1,-1.3262296E-2,-3.998451E-3,2.6193244E-2],"categories":[],"categories_nodes":[],"categories_segments":[],"categories_sizes":[],"default_left":[0,0,0,0,0],"id":105,"left_children":[1,3,-1,-1,-1],"loss_changes":[1.0078353E0,1.0759295E0,0E0,0E0,0E0],"parents":[2147483647,0,0,1,1],"right_children":[2,4,-1,-1,-1],"split_conditions":[7.761487E-1,2.369335E-1,-1.3262296E-2,-3.998451E-3,2.6193244E-2],"split_indices":[4,4,0,0,0],"split_type":[0,0,0,0,0],"sum_hessian":[1.4936163E1,1.0531333E1,4.404829E0,4.898079E0,5.6332545E0],"tree_param":{"num_deleted":"0","num_feature":"5","num_nodes":"5","size_leaf_vector":"1"}},{"base_weights":[6.506391E-2,-1.3060522E-1,2.067014E-2,6.0977223E-3,-1.9112617E-2],"categories":[],"categories_nodes":[],"categories_segments":[],"categories_sizes":[],"default_left":[0,0,0,0,0],"id":106,"left_children":[1,3,-1,-1,-1],"loss_changes":[1.1949681E0,7.761619E-1,0E0,0E0,0E0],"parents":[2147483647,0,0,1,1],"right_children":[2,4,-1,-1,-1],"split_conditions":[6.1290014E-1,2.4347095E-1,2.067014E-2,6.0977223E-3,-1.9112617E-2],"split_indices":[4,4,0,0,0],"split_type":[0,0,0,0,0],"sum_hessian":[1.573987E1,1.0478784E1,5.261086E0,5.4871306E0,4.9916534E0],"tree_param":{"num_deleted":"0","num_feature":"5","num_nodes":"5","size_leaf_vector":"1"}},{"base_weights":[-1.9465448E-2,1.8265021E-1,-2.2917412E-1,-1.0109223E-2,2.8012065E-2,-2.1482918E-2,4.0306454E-3],"categories":[],"categories_nodes":[],"categories_segments":[],"categories_sizes":[],"default_left":[0,0,0,0,0,0,0],"id":107,"left_children":[1,3,5,-1,-1,-1,-1],"loss_changes":[6.9988763E-1,1.3428942E0,5.3539824E-1,0E0,0E0,0E0,0E0],"parents":[2147483647,0,0,1,1,2,2],"right_children":[2,4,6,-1,-1,-1,-1],"split_conditions":[3.6047843E-1,2.369335E-1,8.330943E-1,-1.0109223E-2,2.8012065E-2,-2.1482918E-2,4.0306454E-3],"split_indices":[4,4,4,0,0,0,0],"split_type":[0,0,0,0,0,0,0],"sum_hessian":[1.4524894E1,7.462053E0,7.0628414E0,3.9256427E0,3.5364099E0,4.052953E0,3.0098886E0],"tree_param":{"num_deleted":"0","num_feature":"5","num_nodes":"7","size_leaf_vector":"1"}},{"base_weights":[-4.8712905E-2,9.014345E-2,-1.7236909E-2,-6.2404433E-3,1.8551212E-2],"categories":[],"categories_nodes":[],"categories_segments":[],"categories_sizes":[],"default_left":[0,0,0,0,0],"id":108,"left_children":[1,3,-1,-1,-1],"loss_changes":[6.390581E-1,7.0204866E-1,0E0,0E0,0E0],"parents":[2147483647,0,0,1,1],"right_children":[2,4,-1,-1,-1],"split_conditions":[8.179906E-1,3.0241996E-1,-1.7236909E-2,-6.2404433E-3,1.8551212E-2],"split_indices":[4,4,0,0,0],"split_type":[0,0,0,0,0],"sum_hessian":[1.3790959E1,9.860969E0,3.9299903E0,5.9008336E0,3.9601355E0],"tree_param":{"num_deleted":"0","num_feature":"5","num_nodes":"5","size_leaf_vector":"1"}},{"base_weights":[-3.607041E-2,2.0867277E-2,-1.7446087E-1,-2.8195038E-2,1.4962962E-1,2.3986602E-2,-7.52487E-3],"categories":[],"categories_nodes":[],"categories_segments":[],"categories_sizes":[],"default_left":[0,0,0,0,0,0,0],"id":109,"left_children":[1,-1,3,-1,5,-1,-1],"loss_changes":[1.0911351E0,0E0,1.7426873E0,0E0,8.6095756E-1,0E0,0E0],"parents":[2147483647,0,0,2,2,4,4],"right_children":[2,-1,4,-1,6,-1,-1],"split_conditions":[3.397295E-2,2.0867277E-2,5.2606547E-1,-2.8195038E-2,8.2642496E-1,2.3986602E-2,-7.52487E-3],"split_indices":[4,0,4,0,4,0,0],"split_type":[0,0,0,0,0,0,0],"sum_hessian":[1.5228684E1,3.089777E0,1.2138907E1,5.177487E0,6.9614205E0,3.030175E0,3.9312458E0],"tree_param":{"num_deleted":"0","num_feature":"5","num_nodes":"7","size_leaf_vector":"1"}},{"base_weights":[-5.687812E-3],"categories":[],"categories_nodes":[],"categories_segments":[],"categories_sizes":[],"default_left":[0],"id":110,"left_children":[-1],"loss_changes":[0E0],"parents":[2147483647],"right_children":[-1],"split_conditions":[-2.843906E-4],"split_indices":[0],"split_type":[0],"sum_hessian":[1.4913106E1],"tree_param":{"num_deleted":"0","num_feature":"5","num_nodes":"1","size_leaf_vector":"1"}},{"base_weights":[-4.7813103E-2,-1.7722869E-1,5.9571963E-2,4.3815575E-3,-2.1983497E-2,1.6376475E-2,-9.15948E-3],"categories":[],"categories_nodes":[],"categories_segments":[],"categories_sizes":[],"default_left":[0,0,0,0,0,0,0],"id":111,"left_children":[1,3,5,-1,-1,-1,-1],"loss_changes":[2.4824493E-1,5.95134E-1,7.167147E-1,0E0,0E0,0E0,0E0],"parents":[2147483647,0,0,1,1,2,2],"right_children":[2,4,6,-1,-1,-1,-1],"split_conditions":[3.3833006E-1,1.1220992E-1,7.761487E-1,4.3815575E-3,-2.1983497E-2,1.6376475E-2,-9.15948E-3],"split_indices":[4,4,4,0,0,0,0],"split_type":[0,0,0,0,0,0,0],"sum_hessian":[1.610311E1,7.0075393E0,9.095571E0,3.8192174E0,3.1883218E0,4.157446E0,4.9381247E0],"tree_param":{"num_deleted":"0","num_feature":"5","num_nodes":"7","size_leaf_vector":"1"}},{"base_weights":[-4.350753E-4,-8.7878495E-2,1.4809415E-2,6.408952E-3,-2.695759E-1,-1.9467091E-2,-5.518321E-3],"categories":[],"categories_nodes":[],"categories_segments":[],"categories_sizes":[],"default_left":[0,0,0,0,0,0,0],"id":112,"left_children":[1,3,-1,-1,5,-1,-1],"loss_changes":[4.6328476E-1,5.7594556E-1,0E0,0E0,1.0601437E-1,0E0,0E0],"parents":[2147483647,0,0,1,1,4,4],"right_children":[2,4,-1,-1,6,-1,-1],"split_conditions":[8.4994185E-1,2.5934452E-1,1.4809415E-2,6.408952E-3,4.808816E-1,-1.9467091E-2,-5.518321E-3],"split_indices":[4,4,0,0,4,0,0],"split_type":[0,0,0,0,0,0,0],"sum_hessian":[1.5857901E1,1.2790923E1,3.0669775E0,5.9775395E0,6.813383E0,3.0634346E0,3.7499485E0],"tree_param":{"num_deleted":"0","num_feature":"5","num_nodes":"7","size_leaf_vector":"1"}},{"base_weights":[2.6075508E-2,-1.9988945E-1,2.0175157E-2,8.930562E-3,-3.0563265E-2],"categories":[],"categories_nodes":[],"categories_segments":[],"categories_sizes":[],"default_left":[0,0,0,0,0],"id":113,"left_children":[1,3,-1,-1,-1],"loss_changes":[1.42764E0,1.7515529E0,0E0,0E0,0E0],"parents":[2147483647,0,0,1,1],"right_children":[2,4,-1,-1,-1],"split_conditions":[6.1290014E-1,2.5934452E-1,2.0175157E-2,8.930562E-3,-3.0563265E-2],"split_indices":[4,4,0,0,0],"split_type":[0,0,0,0,0],"sum_hessian":[1.4793837E1,9.5479145E0,5.245922E0,5.2673373E0,4.2805777E0],"tree_param":{"num_deleted":"0","num_feature":"5","num_nodes":"5","size_leaf_vector":"1"}},{"base_weights":[-4.3153856E-2,-2.2385599E-1,1.2603751E-2,4.064654E-3,-3.4855047E-1,-2.47512E-2,-5.245017E-3],"categories":[],"categories_nodes":[],"categories_segments":[],"categories_sizes":[],"default_left":[0,0,0,0,0,0,0],"id":114,"left_children":[1,3,-1,-1,5,-1,-1],"loss_changes":[9.5708674E-1,4.4697285E-1,0E0,0E0,2.3356628E-1,0E0,0E0],"parents":[2147483647,0,0,1,1,4,4],"right_children":[2,4,-1,-1,6,-1,-1],"split_conditions":[6.1290014E-1,4.8751973E-2,1.2603751E-2,4.064654E-3,3.3833006E-1,-2.47512E-2,-5.245017E-3],"split_indices":[4,4,0,0,4,0,0],"split_type":[0,0,0,0,0,0,0],"sum_hessian":[1.58825445E1,1.0002203E1,5.8803415E0,3.0025363E0,6.999667E0,3.7272692E0,3.2723978E0],"tree_param":{"num_deleted":"0","num_feature":"5","num_nodes":"7","size_leaf_vector":"1"}},{"base_weights":[3.7182465E-2,-1.4233862E-1,1.5506188E-2,2.3728234E-3,-1.7776785E-2],"categories":[],"categories_nodes":[],"categories_segments":[],"categories_sizes":[],"default_left":[0,0,0,0,0],"id":115,"left_children":[1,3,-1,-1,-1],"loss_changes":[8.7495E-1,4.5848143E-1,0E0,0E0,0E0],"parents":[2147483647,0,0,1,1],"right_children":[2,4,-1,-1,-1],"split_conditions":[5.291724E-1,2.5934452E-1,1.5506188E-2,2.3728234E-3,-1.7776785E-2],"split_indices":[4,4,0,0,0],"split_type":[0,0,0,0,0],"sum_hessian":[1.5955697E1,9.91369E0,6.042008E0,5.6559668E0,4.2577224E0],"tree_param":{"num_deleted":"0","num_feature":"5","num_nodes":"5","size_leaf_vector":"1"}},{"base_weights":[2.6812881E-2,-1.3385193E-1,1.5152958E-2,5.9255953E-3,-1.9394388E-2],"categories":[],"categories_nodes":[],"categories_segments":[],"categories_sizes":[],"default_left":[0,0,0,0,0],"id":116,"left_children":[1,3,-1,-1,-1],"loss_changes":[7.668941E-1,7.537866E-1,0E0,0E0,0E0],"parents":[2147483647,0,0,1,1],"right_children":[2,4,-1,-1,-1],"split_conditions":[6.1290014E-1,2.5934452E-1,1.5152958E-2,5.9255953E-3,-1.9394388E-2],"split_indices":[4,4,0,0,0],"split_type":[0,0,0,0,0],"sum_hessian":[1.5365006E1,1.0040762E1,5.3242445E0,5.3045797E0,4.736182E0],"tree_param":{"num_deleted":"0","num_feature":"5","num_nodes":"5","size_leaf_vector":"1"}},{"base_weights":[-8.8254556E-2],"categories":[],"categories_nodes":[],"categories_segments":[],"categories_sizes":[],"default_left":[0],"id":117,"left_children":[-1],"loss_changes":[0E0],"parents":[2147483647],"right_children":[-1],"split_conditions":[-4.412728E-3],"split_indices":[0],"split_type":[0],"sum_hessian":[1.4958183E1],"tree_param":{"num_deleted":"0","num_feature":"5","num_nodes":"1","size_leaf_vector":"1"}},{"base_weights":[1.3836197E-2],"categories":[],"categories_nodes":[],"categories_segments":[],"categories_sizes":[],"default_left":[0],"id":118,"left_children":[-1],"loss_changes":[0E0],"parents":[2147483647],"right_children":[-1],"split_conditions":[6.9180987E-4],"split_indices":[0],"split_type":[0],"sum_hessian":[1.487318E1],"tree_param":{"num_deleted":"0","num_feature":"5","num_nodes":"1","size_leaf_vector":"1"}},{"base_weights":[1.4448611E-1,2.5188762E-1,6.308322E-3,1.8557169E-3,2.2761365E-2,-1.0841631E-2,1.3850617E-2],"categories":[],"categories_nodes":[],"categories_segments":[],"categories_sizes":[],"default_left":[0,0,0,0,0,0,0],"id":119,"left_children":[1,3,5,-1,-1,-1,-1],"loss_changes":[2.3806372E-1,3.7879276E-1,5.486274E-1,0E0,0E0,0E0,0E0],"parents":[2147483647,0,0,1,1,2,2],"right_children":[2,4,6,-1,-1,-1,-1],"split_conditions":[3.6047843E-1,2.369335E-1,8.4994185E-1,1.8557169E-3,2.2761365E-2,-1.0841631E-2,1.3850617E-2],"split_indices":[4,4,4,0,0,0,0],"split_type":[0,0,0,0,0,0,0],"sum_hessian":[1.5148556E1,8.060469E0,7.0880866E0,4.4951186E0,3.5653503E0,3.9944623E0,3.0936244E0],"tree_param":{"num_deleted":"0","num_feature":"5","num_nodes":"7","size_leaf_vector":"1"}},{"base_weights":[3.2736275E-2,1.1409122E-1,-7.0196125E-3,-6.614019E-2,2.0177964E-2,6.9364193E-3,-1.371441E-2],"categories":[],"categories_nodes":[],"categories_segments":[],"categories_sizes":[],"default_left":[0,0,0,0,0,0,0],"id":120,"left_children":[1,3,-1,5,-1,-1,-1],"loss_changes":[2.5103924E-1,6.477102E-1,0E0,3.8751504E-1,0E0,0E0,0E0],"parents":[2147483647,0,0,1,1,3,3],"right_children":[2,4,-1,6,-1,-1,-1],"split_conditions":[8.179906E-1,3.3833006E-1,-7.0196125E-3,1.1220992E-1,2.0177964E-2,6.9364193E-3,-1.371441E-2],"split_indices":[4,4,0,4,0,0,0],"split_type":[0,0,0,0,0,0,0],"sum_hessian":[1.5686123E1,1.0903469E1,4.782654E0,7.195098E0,3.7083707E0,3.794194E0,3.400904E0],"tree_param":{"num_deleted":"0","num_feature":"5","num_nodes":"7","size_leaf_vector":"1"}},{"base_weights":[3.444883E-2,-1.3054594E-2,1.4422591E-1,2.6420517E-2,-4.415752E-2,4.9614003E-3,-7.1480884E-3],"categories":[],"categories_nodes":[],"categories_segments":[],"categories_sizes":[],"default_left":[0,0,0,0,0,0,0],"id":121,"left_children":[1,-1,3,-1,5,-1,-1],"loss_changes":[5.5099154E-1,0E0,9.049343E-1,0E0,1.4305362E-1,0E0,0E0],"parents":[2147483647,0,0,2,2,4,4],"right_children":[2,-1,4,-1,6,-1,-1],"split_conditions":[1.657097E-1,-1.3054594E-2,3.6047843E-1,2.6420517E-2,8.179906E-1,4.9614003E-3,-7.1480884E-3],"split_indices":[4,0,4,0,4,0,0],"split_type":[0,0,0,0,0,0,0],"sum_hessian":[1.48223915E1,3.6412022E0,1.118119E1,3.0849166E0,8.096273E0,3.3012228E0,4.79505E0],"tree_param":{"num_deleted":"0","num_feature":"5","num_nodes":"7","size_leaf_vector":"1"}},{"base_weights":[-6.5765237E-3,1.5808511E-1,-1.916604E-2,-1.1124443E-1,2.6557444E-2,1.2956011E-2,-2.0328393E-2],"categories":[],"categories_nodes":[],"categories_segments":[],"categories_sizes":[],"default_left":[0,0,0,0,0,0,0],"id":122,"left_children":[1,3,-1,5,-1,-1,-1],"loss_changes":[1.0497371E0,1.2450577E0,0E0,9.4553596E-1,0E0,0E0,0E0],"parents":[2147483647,0,0,1,1,3,3],"right_children":[2,4,-1,6,-1,-1,-1],"split_conditions":[8.179906E-1,3.3833006E-1,-1.916604E-2,4.4535458E-2,2.6557444E-2,1.2956011E-2,-2.0328393E-2],"split_indices":[4,4,0,4,0,0,0],"split_type":[0,0,0,0,0,0,0],"sum_hessian":[1.4944781E1,1.0803391E1,4.14139E0,6.6815343E0,4.1218567E0,3.018556E0,3.6629782E0],"tree_param":{"num_deleted":"0","num_feature":"5","num_nodes":"7","size_leaf_vector":"1"}},{"base_weights":[6.030753E-2,3.086265E-1,-2.1008286E-1,-2.3231637E-3,3.017417E-2,-1.7472142E-2,-2.4237428E-4],"categories":[],"categories_nodes":[],"categories_segments":[],"categories_sizes":[],"default_left":[0,0,0,0,0,0,0],"id":123,"left_children":[1,3,5,-1,-1,-1,-1],"loss_changes":[1.1123936E0,9.2196065E-1,2.2894883E-1,0E0,0E0,0E0,0E0],"parents":[2147483647,0,0,1,1,2,2],"right_children":[2,4,6,-1,-1,-1,-1],"split_conditions":[3.6047843E-1,1.1215533E-1,8.4994185E-1,-2.3231637E-3,3.017417E-2,-1.7472142E-2,-2.4237428E-4],"split_indices":[4,4,4,0,0,0,0],"split_type":[0,0,0,0,0,0,0],"sum_hessian":[1.4601856E1,7.5378733E0,7.0639834E0,3.801831E0,3.7360425E0,3.7887099E0,3.2752733E0],"tree_param":{"num_deleted":"0","num_feature":"5","num_nodes":"7","size_leaf_vector":"1"}},{"base_weights":[-6.540921E-2,7.000131E-3,-2.4060658E-1,-2.5927747E-2,8.443068E-3],"categories":[],"categories_nodes":[],"categories_segments":[],"categories_sizes":[],"default_left":[0,0,0,0,0],"id":124,"left_children":[1,-1,3,-1,-1],"loss_changes":[6.154515E-1,0E0,1.1223736E0,0E0,0E0],"parents":[2147483647,0,0,2,2],"right_children":[2,-1,4,-1,-1],"split_conditions":[3.6047843E-1,7.000131E-3,8.4994185E-1,-2.5927747E-2,8.443068E-3],"split_indices":[4,0,4,0,0],"split_type":[0,0,0,0,0],"sum_hessian":[1.5165731E1,7.0733733E0,8.092359E0,4.661621E0,3.4307373E0],"tree_param":{"num_deleted":"0","num_feature":"5","num_nodes":"5","size_leaf_vector":"1"}},{"base_weights":[3.8537573E-2,1.596578E-2,-1.24430336E-1,-3.4438232E-1,1.55051695E-2,-2.4160845E-2,-5.8594113E-3],"categories":[],"categories_nodes":[],"categories_segments":[],"categories_sizes":[],"default_left":[0,0,0,0,0,0,0],"id":125,"left_children":[1,-1,3,5,-1,-1,-1],"loss_changes":[7.384611E-1,0E0,1.0990415E0,1.7573124E-1,0E0,0E0,0E0],"parents":[2147483647,0,0,2,2,3,3],"right_children":[2,-1,4,6,-1,-1,-1],"split_conditions":[2.4347095E-1,1.596578E-2,8.415045E-1,5.2606547E-1,1.55051695E-2,-2.4160845E-2,-5.8594113E-3],"split_indices":[4,0,4,4,0,0,0],"split_type":[0,0,0,0,0,0,0],"sum_hessian":[1.4270149E1,4.8884478E0,9.381701E0,6.366552E0,3.01515E0,3.2522597E0,3.1142921E0],"tree_param":{"num_deleted":"0","num_feature":"5","num_nodes":"7","size_leaf_vector":"1"}},{"base_weights":[-5.9443306E-2,-1.0361441E-2,1.2088442E-2,1.5285528E-2,-1.4428718E-1,-1.6068555E-2,4.3705814E-3],"categories":[],"categories_nodes":[],"categories_segments":[],"categories_sizes":[],"default_left":[0,0,0,0,0,0,0],"id":126,"left_children":[1,-1,3,-1,5,-1,-1],"loss_changes":[1.8910149E-1,0E0,6.336164E-1,0E0,3.996914E-1,0E0,0E0],"parents":[2147483647,0,0,2,2,4,4],"right_children":[2,-1,4,-1,6,-1,-1],"split_conditions":[2.369335E-1,-1.0361441E-2,3.6047843E-1,1.5285528E-2,8.4994185E-1,-1.6068555E-2,4.3705814E-3],"split_indices":[4,0,4,0,4,0,0],"split_type":[0,0,0,0,0,0,0],"sum_hessian":[1.665113E1,4.8121495E0,1.1838982E1,3.7822263E0,8.056755E0,4.34722E0,3.7095356E0],"tree_param":{"num_deleted":"0","num_feature":"5","num_nodes":"7","size_leaf_vector":"1"}},{"base_weights":[1.521218E-3,1.4755742E-1,-1.8642131E-2,-4.661642E-3,1.9951597E-2],"categories":[],"categories_nodes":[],"categories_segments":[],"categories_sizes":[],"default_left":[0,0,0,0,0],"id":127,"left_children":[1,3,-1,-1,-1],"loss_changes":[9.8987806E-1,8.2545996E-1,0E0,0E0,0E0],"parents":[2147483647,0,0,1,1],"right_children":[2,4,-1,-1,-1],"split_conditions":[8.179906E-1,2.8372172E-1,-1.8642131E-2,-4.661642E-3,1.9951597E-2],"split_indices":[4,4,0,0,0],"split_type":[0,0,0,0,0],"sum_hessian":[1.609989E1,1.2017721E1,4.082168E0,6.4607353E0,5.5569863E0],"tree_param":{"num_deleted":"0","num_feature":"5","num_nodes":"5","size_leaf_vector":"1"}},{"base_weights":[2.54232E-2,-1.0201044E-1,1.3194367E-2,9.7424835E-3,-1.831773E-2],"categories":[],"categories_nodes":[],"categories_segments":[],"categories_sizes":[],"default_left":[0,0,0,0,0],"id":128,"left_children":[1,3,-1,-1,-1],"loss_changes":[5.0540876E-1,9.332652E-1,0E0,0E0,0E0],"parents":[2147483647,0,0,1,1],"right_children":[2,4,-1,-1,-1],"split_conditions":[6.1290014E-1,2.4347095E-1,1.3194367E-2,9.7424835E-3,-1.831773E-2],"split_indices":[4,4,0,0,0],"split_type":[0,0,0,0,0],"sum_hessian":[1.4745817E1,9.983123E0,4.762695E0,4.8261833E0,5.1569395E0],"tree_param":{"num_deleted":"0","num_feature":"5","num_nodes":"5","size_leaf_vector":"1"}},{"base_weights":[6.5697036E-3,2.5873885E-1,-1.3707446E-2,3.8762186E-3,2.013682E-2],"categories":[],"categories_nodes":[],"categories_segments":[],"categories_sizes":[],"default_left":[0,0,0,0,0],"id":129,"left_children":[1,3,-1,-1,-1],"loss_changes":[1.145603E0,1.9088966E-1,0E0,0E0,0E0],"parents":[2147483647,0,0,1,1],"right_children":[2,4,-1,-1,-1],"split_conditions":[3.6047843E-1,1.6887346E-1,-1.3707446E-2,3.8762186E-3,2.013682E-2],"split_indices":[4,4,0,0,0],"split_type":[0,0,0,0,0],"sum_hessian":[1.4181405E1,7.5118337E0,6.669572E0,4.007255E0,3.5045788E0],"tree_param":{"num_deleted":"0","num_feature":"5","num_nodes":"5","size_leaf_vector":"1"}},{"base_weights":[-5.8318414E-2,1.0725868E-1,-2.0995049E-2,-3.0605944E-3,2.0959136E-1,1.6065953E-2,2.810897E-3],"categories":[],"categories_nodes":[],"categories_segments":[],"categories_sizes":[],"default_left":[0,0,0,0,0,0,0],"id":130,"left_children":[1,3,-1,-1,5,-1,-1],"loss_changes":[1.0379649E0,2.2267789E-1,0E0,0E0,1.1557174E-1,0E0,0E0],"parents":[2147483647,0,0,1,1,4,4],"right_children":[2,4,-1,-1,6,-1,-1],"split_conditions":[8.179906E-1,2.369335E-1,-2.0995049E-2,-3.0605944E-3,3.384E-1,1.6065953E-2,2.810897E-3],"split_indices":[4,4,0,0,4,0,0],"split_type":[0,0,0,0,0,0,0],"sum_hessian":[1.5584774E1,1.117215E1,4.412625E0,4.373643E0,6.7985063E0,3.2997391E0,3.498767E0],"tree_param":{"num_deleted":"0","num_feature":"5","num_nodes":"7","size_leaf_vector":"1"}},{"base_weights":[-4.635679E-2,-1.5926953E-1,8.000728E-3,8.969563E-3,-1.49334E-2],"categories":[],"categories_nodes":[],"categories_segments":[],"categories_sizes":[],"default_left":[0,0,0,0,0],"id":131,"left_children":[1,3,-1,-1,-1],"loss_changes":[4.265368E-1,6.0241145E-1,0E0,0E0,0E0],"parents":[2147483647,0,0,1,1],"right_children":[2,4,-1,-1,-1],"split_conditions":[6.1290014E-1,3.397295E-2,8.000728E-3,8.969563E-3,-1.49334E-2],"split_indices":[4,4,0,0,0],"split_type":[0,0,0,0,0],"sum_hessian":[1.6211063E1,1.062565E1,5.585414E0,3.0147028E0,7.610947E0],"tree_param":{"num_deleted":"0","num_feature":"5","num_nodes":"5","size_leaf_vector":"1"}},{"base_weights":[-8.046672E-2,1.3780622E-1,-3.1716314E-1,-6.993753E-3,2.2032952E-2,-6.243768E-3,-2.315685E-2],"categories":[],"categories_nodes":[],"categories_segments":[],"categories_sizes":[],"default_left":[0,0,0,0,0,0,0],"id":132,"left_children":[1,3,5,-1,-1,-1,-1],"loss_changes":[9.098605E-1,8.5374606E-1,1.7642766E-1,0E0,0E0,0E0,0E0],"parents":[2147483647,0,0,1,1,2,2],"right_children":[2,4,6,-1,-1,-1,-1],"split_conditions":[3.6047843E-1,2.369335E-1,8.179906E-1,-6.993753E-3,2.2032952E-2,-6.243768E-3,-2.315685E-2],"split_indices":[4,4,4,0,0,0,0],"split_type":[0,0,0,0,0,0,0],"sum_hessian":[1.5764986E1,8.419042E0,7.345945E0,4.67278E0,3.7462616E0,3.9707875E0,3.375157E0],"tree_param":{"num_deleted":"0","num_feature":"5","num_nodes":"7","size_leaf_vector":"1"}},{"base_weights":[-1.05634555E-1,1.6033521E-1,-2.0920757E-2,-3.0943363E-3,1.9389153E-2],"categories":[],"categories_nodes":[],"categories_segments":[],"categories_sizes":[],"default_left":[0,0,0,0,0],"id":133,"left_children":[1,3,-1,-1,-1],"loss_changes":[1.3200922E0,4.7197217E-1,0E0,0E0,0E0],"parents":[2147483647,0,0,1,1],"right_children":[2,4,-1,-1,-1],"split_conditions":[3.6047843E-1,2.369335E-1,-2.0920757E-2,-3.0943363E-3,1.9389153E-2],"split_indices":[4,4,0,0,0],"split_type":[0,0,0,0,0],"sum_hessian":[1.4061943E1,7.8630586E0,6.1988845E0,4.3454037E0,3.5176547E0],"tree_param":{"num_deleted":"0","num_feature":"5","num_nodes":"5","size_leaf_vector":"1"}},{"base_weights":[-5.9528735E-2,