{"learner":{"attributes":{"scikit_learn":"{\"_estimator_type\": \"classifier\"}"},"feature_names":[],"feature_types":[],"gradient_booster":{"model":{"cats":{"enc":[],"feature_segments":[],"sorted_idx":[]},"gbtree_model_param":{"num_parallel_tree":"1","num_trees":"200"},"iteration_indptr":[0,1,2,3,4,5,6,7,8,9,10,11,12,13,14,15,16,17,18,19,20,21,22,23,24,25,26,27,28,29,30,31,32,33,34,35,36,37,38,39,40,41,42,43,44,45,46,47,48,49,50,51,52,53,54,55,56,57,58,59,60,61,62,63,64,65,66,67,68,69,70,71,72,73,74,75,76,77,78,79,80,81,82,83,84,85,86,87,88,89,90,91,92,93,94,95,96,97,98,99,100,101,102,103,104,105,106,107,108,109,110,111,112,113,114,115,116,117,118,119,120,121,122,123,124,125,126,127,128,129,130,131,132,133,134,135,136,137,138,139,140,141,142,143,144,145,146,147,148,149,150,151,152,153,154,155,156,157,158,159,160,161,162,163,164,165,166,167,168,169,170,171,172,173,174,175,176,177,178,179,180,181,182,183,184,185,186,187,188,189,190,191,192,193,194,195,196,197,198,199,200],"tree_info":[0,0,0,0,0,0,0,0,0,0,0,0,0,0,0,0,0,0,0,0,0,0,0,0,0,0,0,0,0,0,0,0,0,0,0,0,0,0,0,0,0,0,0,0,0,0,0,0,0,0,0,0,0,0,0,0,0,0,0,0,0,0,0,0,0,0,0,0,0,0,0,0,0,0,0,0,0,0,0,0,0,0,0,0,0,0,0,0,0,0,0,0,0,0,0,0,0,0,0,0,0,0,0,0,0,0,0,0,0,0,0,0,0,0,0,0,0,0,0,0,0,0,0,0,0,0,0,0,0,0,0,0,0,0,0,0,0,0,0,0,0,0,0,0,0,0,0,0,0,0,0,0,0,0,0,0,0,0,0,0,0,0,0,0,0,0,0,0,0,0,0,0,0,0,0,0,0,0,0,0,0,0,0,0,0,0,0,0,0,0,0,0,0,0,0,0,0,0,0,0],"trees":[{"base_weights":[4.1424963E-3,-8.9081323E-1,7.828296E-1,-1.4626464E0,-3.1720737E-1,9.0614027E-1,-4.7346964E-4,-1.0980713E-1,-1.811154E-2,-6.383217E-2,2.705465E-1,6.0235775E-1,1.2099396E0,3.3177216E-2,-1.246544E-2,4.07152E-2,-2.3702616E-3,6.693175E-2,3.7134193E-2],"categories":[],"categories_nodes":[],"categories_segments":[],"categories_sizes":[],"default_left":[0,0,0,0,0,0,0,0,0,0,0,0,0,0,0,0,0,0,0],"id":0,"left_children":[1,3,5,7,9,11,-1,-1,-1,-1,13,15,17,-1,-1,-1,-1,-1,-1],"loss_changes":[5.991603E1,1.2657589E1,4.4999676E0,1.5150536E1,1.23273535E1,2.943428E0,0E0,0E0,0E0,0E0,3.0259202E0,3.0528111E0,1.4254951E-1,0E0,0E0,0E0,0E0,0E0,0E0],"parents":[2147483647,0,0,1,1,2,2,3,3,4,4,5,5,10,10,11,11,12,12],"right_children":[2,4,6,8,10,12,-1,-1,-1,-1,14,16,18,-1,-1,-1,-1,-1,-1],"split_conditions":[5.695174E3,2.691543E0,1.2078686E0,1.211908E3,5.8912426E1,2.4701142E-1,-4.7346964E-4,-1.0980713E-1,-1.811154E-2,-6.383217E-2,1.5753242E2,8.1628144E-2,3.3111143E-1,3.3177216E-2,-1.246544E-2,4.07152E-2,-2.3702616E-3,6.693175E-2,3.7134193E-2],"split_indices":[4,2,2,4,4,2,0,0,0,0,4,2,2,0,0,0,0,0,0],"split_type":[0,0,0,0,0,0,0,0,0,0,0,0,0,0,0,0,0,0,0],"sum_hessian":[8.397559E1,3.900389E1,4.49717E1,1.875597E1,2.0247921E1,3.8790756E1,6.1809444E0,1.0656801E1,8.099169E0,7.2466245E0,1.3001297E1,2.088733E1,1.7903425E1,7.2466245E0,5.7546725E0,1.5558929E1,5.3284006E0,1.2575025E1,5.3284006E0],"tree_param":{"num_deleted":"0","num_feature":"7","num_nodes":"19","size_leaf_vector":"1"}},{"base_weights":[-2.9055648E-2,8.221011E-1,-7.8402627E-1,-5.516488E-3,1.0013812E0,-1.0566244E0,4.650367E-2,6.2452693E-2,1.4609829E-2,-1.8886687E0,-3.2479066E-1,-1.239211E-1,-3.292277E-2,2.1118594E-2,-3.9944243E-2],"categories":[],"categories_nodes":[],"categories_segments":[],"categories_sizes":[],"default_left":[0,0,0,0,0,0,0,0,0,0,0,0,0,0,0],"id":1,"left_children":[1,3,5,-1,7,9,-1,-1,-1,11,13,-1,-1,-1,-1],"loss_changes":[5.4833126E1,6.8183193E0,2.2103163E1,0E0,5.5639343E0,2.3418533E1,0E0,0E0,0E0,1.1616959E1,8.203174E0,0E0,0E0,0E0,0E0],"parents":[2147483647,0,0,1,1,2,2,4,4,5,5,9,9,10,10],"right_children":[2,4,6,-1,8,10,-1,-1,-1,12,14,-1,-1,-1,-1],"split_conditions":[3.7393144E-1,4.7031456E1,2.5883478E5,-5.516488E-3,5.949786E-1,2.691543E0,4.650367E-2,6.2452693E-2,1.4609829E-2,5.1205936E1,7.7562857E0,-1.239211E-1,-3.292277E-2,2.1118594E-2,-3.9944243E-2],"split_indices":[2,0,4,0,5,2,0,0,0,0,2,0,0,0,0],"split_type":[0,0,0,0,0,0,0,0,0,0,0,0,0,0,0],"sum_hessian":[8.3327286E1,3.9126736E1,4.420055E1,6.371796E0,3.275494E1,3.8466656E1,5.7338934E0,2.3712452E1,9.042489E0,1.726117E1,2.1205486E1,1.0981911E1,6.279259E0,8.274362E0,1.2931125E1],"tree_param":{"num_deleted":"0","num_feature":"7","num_nodes":"15","size_leaf_vector":"1"}},{"base_weights":[8.381974E-2,-7.7171826E-1,7.4189293E-1,-1.4452059E0,-2.1210512E-2,-1.3445431E-2,8.685287E-1,-1.03581026E-1,-8.957147E-3,5.956508E-2,-5.6310284E-1,1.0158957E0,1.4163111E-2,1.1857157E-2,-5.3411204E-2,5.9773333E-2,1.947795E-2],"categories":[],"categories_nodes":[],"categories_segments":[],"categories_sizes":[],"default_left":[0,0,0,0,0,0,0,0,0,0,0,0,0,0,0,0,0],"id":2,"left_children":[1,3,5,7,9,-1,11,-1,-1,-1,13,15,-1,-1,-1,-1,-1],"loss_changes":[4.780444E1,1.8653093E1,6.3685493E0,1.5067581E1,1.282447E1,0E0,3.4061584E0,0E0,0E0,0E0,5.6953306E0,3.338894E0,0E0,0E0,0E0,0E0,0E0],"parents":[2147483647,0,0,1,1,2,2,3,3,4,4,6,6,10,10,11,11],"right_children":[2,4,6,8,10,-1,12,-1,-1,-1,14,16,-1,-1,-1,-1,-1],"split_conditions":[5.068949E3,7.63282E0,4.148593E1,5.2058113E1,7.74572E0,-1.3445431E-2,5.949786E-1,-1.03581026E-1,-8.957147E-3,5.956508E-2,4.5728675E-1,8.43686E-1,1.4163111E-2,1.1857157E-2,-5.3411204E-2,5.9773333E-2,1.947795E-2],"split_indices":[4,3,0,0,3,0,5,0,0,0,5,3,0,0,0,0,0],"split_type":[0,0,0,0,0,0,0,0,0,0,0,0,0,0,0,0,0],"sum_hessian":[8.289228E1,3.596402E1,4.692826E1,1.8466757E1,1.7497263E1,5.0996428E0,4.1828617E1,1.1928554E1,6.538203E0,5.034314E0,1.2462949E1,3.2827133E1,9.001484E0,5.0279174E0,7.4350314E0,2.4806454E1,8.020679E0],"tree_param":{"num_deleted":"0","num_feature":"7","num_nodes":"17","size_leaf_vector":"1"}},{"base_weights":[-6.7010865E-2,-8.317671E-1,9.3795115E-1,1.2463515E-1,-1.1315587E0,1.0353223E0,2.6877487E-2,-3.4002036E-2,5.162838E-2,-1.88632E0,-4.2956036E-1,8.3781236E-1,6.309201E-2,-1.0674323E-1,-5.6966122E-2,-5.6263816E-2,2.7225039E-3,2.8281221E-2,5.18241E-2],"categories":[],"categories_nodes":[],"categories_segments":[],"categories_sizes":[],"default_left":[0,0,0,0,0,0,0,0,0,0,0,0,0,0,0,0,0,0,0],"id":3,"left_children":[1,3,5,7,9,11,-1,-1,-1,13,15,17,-1,-1,-1,-1,-1,-1,-1],"loss_changes":[6.665249E1,1.4248188E1,9.058151E-1,9.938901E0,1.9089935E1,2.4433899E-1,0E0,0E0,0E0,8.73291E-1,7.050005E0,4.1502762E-1,0E0,0E0,0E0,0E0,0E0,0E0,0E0],"parents":[2147483647,0,0,1,1,2,2,3,3,4,4,5,5,9,9,10,10,11,11],"right_children":[2,4,6,8,10,12,-1,-1,-1,14,16,18,-1,-1,-1,-1,-1,-1,-1],"split_conditions":[1.0390612E4,3.5474285E-1,8.438357E-1,2.3930429E-1,2.691543E0,2.4701142E-1,2.6877487E-2,-3.4002036E-2,5.162838E-2,9.283521E2,5.9983902E1,7.072736E4,6.309201E-2,-1.0674323E-1,-5.6966122E-2,-5.6263816E-2,2.7225039E-3,2.8281221E-2,5.18241E-2],"split_indices":[4,2,2,2,2,2,0,0,0,4,4,4,0,0,0,0,0,0,0],"split_type":[0,0,0,0,0,0,0,0,0,0,0,0,0,0,0,0,0,0,0],"sum_hessian":[8.470978E1,4.820163E1,3.650815E1,1.1642789E1,3.655884E1,2.8091131E1,8.417016E0,6.305445E0,5.3373437E0,1.6804365E1,1.9754477E1,1.7516478E1,1.0574653E1,1.1214948E1,5.5894184E0,7.5611653E0,1.2193311E1,9.013947E0,8.502531E0],"tree_param":{"num_deleted":"0","num_feature":"7","num_nodes":"19","size_leaf_vector":"1"}},{"base_weights":[-3.821532E-2,-7.683739E-1,6.4247453E-1,-9.3799144E-2,-4.8781034E-1,8.117023E-1,3.4040198E-2,-1.1845475E0,1.3258915E-1,1.051681E0,6.9363783E-3,-1.4765221E-2,1.7950587E-2,-9.328782E-2,4.1709314E-3,5.5838853E-2,-2.4168152E-2,3.9487675E-2,6.266475E-2],"categories":[],"categories_nodes":[],"categories_segments":[],"categories_sizes":[],"default_left":[0,0,0,0,0,0,0,0,0,0,0,0,0,0,0,0,0,0,0],"id":4,"left_children":[1,3,5,-1,7,9,11,13,15,17,-1,-1,-1,-1,-1,-1,-1,-1,-1],"loss_changes":[4.415163E1,1.2396332E1,4.709236E0,0E0,1.551497E1,5.6600323E0,1.2892063E0,1.469766E1,1.247844E1,4.0161514E-1,0E0,0E0,0E0,0E0,0E0,0E0,0E0,0E0,0E0],"parents":[2147483647,0,0,1,1,2,2,4,4,5,5,6,6,7,7,8,8,9,9],"right_children":[2,4,6,-1,8,10,12,14,16,18,-1,-1,-1,-1,-1,-1,-1,-1,-1],"split_conditions":[5.591628E3,4.358E1,3.4809142E-1,-9.3799144E-2,1.8857571E0,5.222215E-1,1.255157E0,1.3186498E3,7.7562857E0,2.4701142E-1,6.9363783E-3,-1.4765221E-2,1.7950587E-2,-9.328782E-2,4.1709314E-3,5.5838853E-2,-2.4168152E-2,3.9487675E-2,6.266475E-2],"split_indices":[4,0,2,0,2,5,2,4,2,2,0,0,0,0,0,0,0,0,0],"split_type":[0,0,0,0,0,0,0,0,0,0,0,0,0,0,0,0,0,0,0],"sum_hessian":[8.6840965E1,4.1835876E1,4.500509E1,7.3061547E0,3.452972E1,3.4950108E1,1.0054981E1,1.5835921E1,1.8693798E1,2.5348314E1,9.601793E0,5.0392303E0,5.015751E0,9.994803E0,5.841118E0,6.8829355E0,1.18108635E1,1.3163741E1,1.2184573E1],"tree_param":{"num_deleted":"0","num_feature":"7","num_nodes":"19","size_leaf_vector":"1"}},{"base_weights":[8.3121145E-3,-7.7470726E-1,7.703573E-1,-9.250545E-2,-5.016674E-1,4.2797875E-1,9.634582E-1,-9.9597996E-1,3.782038E-2,-6.120213E-3,7.4644053E-1,5.9121806E-2,2.4338014E-2,-7.617337E-2,5.935657E-3,5.1144898E-2,-2.2913327E-2,2.0718567E-2,4.8898924E-2],"categories":[],"categories_nodes":[],"categories_segments":[],"categories_sizes":[],"default_left":[0,0,0,0,0,0,0,0,0,0,0,0,0,0,0,0,0,0,0],"id":5,"left_children":[1,3,5,-1,7,9,11,13,15,-1,17,-1,-1,-1,-1,-1,-1,-1,-1],"loss_changes":[5.310134E1,1.1961344E1,2.5690365E0,0E0,9.739551E0,3.2570238E0,2.3507729E0,1.1365475E1,9.440487E0,0E0,4.8524475E-1,0E0,0E0,0E0,0E0,0E0,0E0,0E0,0E0],"parents":[2147483647,0,0,1,1,2,2,4,4,5,5,6,6,7,7,8,8,10,10],"right_children":[2,4,6,-1,8,10,12,14,16,-1,18,-1,-1,-1,-1,-1,-1,-1,-1],"split_conditions":[5.695174E3,4.3178223E1,5.0532917E1,-9.250545E-2,4.8860145E0,1.3026642E4,5.0798453E4,1.6132157E3,7.7562857E0,-6.120213E-3,4.7031456E1,5.9121806E-2,2.4338014E-2,-7.617337E-2,5.935657E-3,5.1144898E-2,-2.2913327E-2,2.0718567E-2,4.8898924E-2],"split_indices":[4,0,0,0,2,4,4,4,2,0,0,0,0,0,0,0,0,0,0],"split_type":[0,0,0,0,0,0,0,0,0,0,0,0,0,0,0,0,0,0,0],"sum_hessian":[8.699209E1,4.2897396E1,4.4094696E1,7.5165515E0,3.5380844E1,1.7060982E1,2.7033716E1,1.8021894E1,1.735895E1,6.4790955E0,1.0581886E1,1.7509848E1,9.523868E0,1.1984131E1,6.0377626E0,5.458365E0,1.1900584E1,5.4932184E0,5.088668E0],"tree_param":{"num_deleted":"0","num_feature":"7","num_nodes":"19","size_leaf_vector":"1"}},{"base_weights":[4.780244E-2,7.0375454E-1,-5.21018E-1,3.8111836E-1,5.959263E-2,-1.1288481E0,1.12531185E-2,7.1346164E-1,-2.592512E-2,-8.427679E-2,-6.532771E-3,5.5875087E-1,-5.1450574E-1,1.119889E-2,4.45051E-2,1.0774717E-2,3.748913E-2,-4.9117785E-2,-5.3431704E-3],"categories":[],"categories_nodes":[],"categories_segments":[],"categories_sizes":[],"default_left":[0,0,0,0,0,0,0,0,0,0,0,0,0,0,0,0,0,0,0],"id":6,"left_children":[1,3,5,7,-1,9,11,13,-1,-1,-1,15,17,-1,-1,-1,-1,-1,-1],"loss_changes":[3.1924393E1,5.798586E0,1.4853746E1,7.956583E0,0E0,1.1685747E1,7.612238E0,1.4391413E0,0E0,0E0,0E0,6.872554E-1,2.469959E0,0E0,0E0,0E0,0E0,0E0,0E0],"parents":[2147483647,0,0,1,1,2,2,3,3,5,5,6,6,7,7,11,11,12,12],"right_children":[2,4,6,8,-1,10,12,14,-1,-1,-1,16,18,-1,-1,-1,-1,-1,-1],"split_conditions":[3.7393144E-1,2.4701142E-1,2.741429E0,1.0504571E-1,5.959263E-2,5.1846478E1,1.0793571E1,4.95285E1,-2.592512E-2,-8.427679E-2,-6.532771E-3,4.7375328E1,4.855E1,1.119889E-2,4.45051E-2,1.0774717E-2,3.748913E-2,-4.9117785E-2,-5.3431704E-3],"split_indices":[2,2,2,2,0,0,2,0,0,0,0,0,0,0,0,0,0,0,0],"split_type":[0,0,0,0,0,0,0,0,0,0,0,0,0,0,0,0,0,0,0],"sum_hessian":[8.357817E1,3.8705994E1,4.4872177E1,2.4374865E1,1.4331132E1,2.0425896E1,2.444628E1,1.7950436E1,6.4244275E0,1.2670838E1,7.755058E0,1.1944819E1,1.2501461E1,5.361448E0,1.2588988E1,5.0316763E0,6.9131427E0,5.164422E0,7.337039E0],"tree_param":{"num_deleted":"0","num_feature":"7","num_nodes":"19","size_leaf_vector":"1"}},{"base_weights":[7.3467456E-3,-6.147888E-1,6.1596173E-1,-1.1343024E0,-7.5505905E-2,7.817453E-1,9.2116356E-2,-7.7836834E-2,-1.6400203E-2,-3.7821874E-2,3.2279223E-1,9.7273666E-1,2.5047346E-3,-3.742371E-2,4.3533947E-2,2.871877E-2,-1.0231608E-3,3.4591537E-2,6.015501E-2],"categories":[],"categories_nodes":[],"categories_segments":[],"categories_sizes":[],"default_left":[0,0,0,0,0,0,0,0,0,0,0,0,0,0,0,0,0,0,0],"id":7,"left_children":[1,3,5,7,9,11,13,-1,-1,-1,15,17,-1,-1,-1,-1,-1,-1,-1],"loss_changes":[3.2560818E1,1.1829906E1,3.7025547E0,6.8434505E0,6.1944714E0,4.546072E0,8.231508E0,0E0,0E0,0E0,1.2676883E0,8.514557E-1,0E0,0E0,0E0,0E0,0E0,0E0,0E0],"parents":[2147483647,0,0,1,1,2,2,3,3,4,4,5,5,6,6,10,10,11,11],"right_children":[2,4,6,8,10,12,14,-1,-1,-1,16,18,-1,-1,-1,-1,-1,-1,-1],"split_conditions":[5.695174E3,2.699916E0,3.486036E-1,5.0799374E1,5.657004E1,6.25E1,3.88081E5,-7.7836834E-2,-1.6400203E-2,-3.7821874E-2,5.573539E-1,2.471384E-1,2.5047346E-3,-3.742371E-2,4.3533947E-2,2.871877E-2,-1.0231608E-3,3.4591537E-2,6.015501E-2],"split_indices":[4,3,3,0,4,6,4,0,0,0,5,3,0,0,0,0,0,0,0],"split_type":[0,0,0,0,0,0,0,0,0,0,0,0,0,0,0,0,0,0,0],"sum_hessian":[8.399379E1,4.1530518E1,4.2463272E1,2.0591E1,2.0939516E1,3.188133E1,1.0581941E1,1.2901139E1,7.6898603E0,7.3960447E0,1.3543472E1,2.5020441E1,6.8608904E0,5.106862E0,5.475079E0,7.4268055E0,6.116667E0,1.3077234E1,1.1943206E1],"tree_param":{"num_deleted":"0","num_feature":"7","num_nodes":"19","size_leaf_vector":"1"}},{"base_weights":[9.126911E-2,-5.242477E-1,7.0660156E-1,-8.1223786E-2,-2.5484782E-1,-4.5320275E-3,8.2205695E-1,-6.8889076E-1,1.1525477E-1,1.2757008E-2,9.585582E-1,-6.673337E-2,1.2402233E-2,5.437976E-2,-2.4378931E-2,5.3665012E-2,1.6513908E-2],"categories":[],"categories_nodes":[],"categories_segments":[],"categories_sizes":[],"default_left":[0,0,0,0,0,0,0,0,0,0,0,0,0,0,0,0,0],"id":8,"left_children":[1,3,5,-1,7,-1,9,11,13,-1,15,-1,-1,-1,-1,-1,-1],"loss_changes":[3.2301697E1,1.224872E1,3.9943771E0,0E0,5.7828484E0,0E0,2.6417503E0,1.0304726E1,1.2265454E1,0E0,1.7864151E0,0E0,0E0,0E0,0E0,0E0,0E0],"parents":[2147483647,0,0,1,1,2,2,4,4,6,6,7,7,8,8,10,10],"right_children":[2,4,6,-1,8,-1,10,12,14,-1,16,-1,-1,-1,-1,-1,-1],"split_conditions":[5.695174E3,4.3178223E1,4.327291E1,-8.1223786E-2,1.8857571E0,-4.5320275E-3,1.1299228E4,1.1937092E3,7.7562857E0,1.2757008E-2,1.2078686E0,-6.673337E-2,1.2402233E-2,5.437976E-2,-2.4378931E-2,5.3665012E-2,1.6513908E-2],"split_indices":[4,0,0,0,2,0,4,4,2,0,2,0,0,0,0,0,0],"split_type":[0,0,0,0,0,0,0,0,0,0,0,0,0,0,0,0,0],"sum_hessian":[8.330752E1,4.172152E1,4.1585995E1,7.2170672E0,3.450445E1,5.2877774E0,3.6298218E1,1.5484013E1,1.9020441E1,7.600591E0,2.8697626E1,8.914944E0,6.569069E0,6.9715447E0,1.2048896E1,2.3667028E1,5.0305986E0],"tree_param":{"num_deleted":"0","num_feature":"7","num_nodes":"17","size_leaf_vector":"1"}},{"base_weights":[-4.6972677E-2,-5.823444E-1,7.038256E-1,9.066613E-2,-7.87301E-1,8.534602E-1,6.3234395E-3,-4.5429777E-2,5.066663E-2,-1.4239845E0,-2.4503148E-1,9.136888E-3,1.003959E0,-8.251433E-2,-3.7057303E-2,1.9704519E-2,-3.2542367E-2,5.5909056E-2,2.5380611E-2],"categories":[],"categories_nodes":[],"categories_segments":[],"categories_sizes":[],"default_left":[0,0,0,0,0,0,0,0,0,0,0,0,0,0,0,0,0,0,0],"id":9,"left_children":[1,3,5,7,9,11,-1,-1,-1,13,15,-1,17,-1,-1,-1,-1,-1,-1],"loss_changes":[3.4153896E1,6.906559E0,2.950098E0,1.2412795E1,1.280113E1,2.6366177E0,0E0,0E0,0E0,1.4519386E0,5.904689E0,0E0,7.1339226E-1,0E0,0E0,0E0,0E0,0E0,0E0],"parents":[2147483647,0,0,1,1,2,2,3,3,4,4,5,5,9,9,10,10,12,12],"right_children":[2,4,6,8,10,12,-1,-1,-1,14,16,-1,18,-1,-1,-1,-1,-1,-1],"split_conditions":[1.0390612E4,3.5474285E-1,6.25E1,2.3930429E-1,1.8857571E0,1.4594531E-1,6.3234395E-3,-4.5429777E-2,5.066663E-2,1.1607291E3,7.7562857E0,9.136888E-3,1.2237328E0,-8.251433E-2,-3.7057303E-2,1.9704519E-2,-3.2542367E-2,5.5909056E-2,2.5380611E-2],"split_indices":[4,2,6,2,2,5,0,0,0,4,2,0,2,0,0,0,0,0,0],"split_type":[0,0,0,0,0,0,0,0,0,0,0,0,0,0,0,0,0,0,0],"sum_hessian":[8.2949524E1,4.8552536E1,3.439699E1,1.1464499E1,3.7088036E1,2.6937365E1,7.459626E0,5.5111217E0,5.9533777E0,1.6311079E1,2.0776957E1,5.342378E0,2.1594986E1,1.1186813E1,5.1242666E0,8.080236E0,1.269672E1,1.6536652E1,5.0583353E0],"tree_param":{"num_deleted":"0","num_feature":"7","num_nodes":"19","size_leaf_vector":"1"}},{"base_weights":[-3.825539E-2,-4.910102E-1,6.172537E-1,1.3393319E-1,-6.7863137E-1,7.948466E-1,1.8473951E-3,-3.2901544E-2,5.5697422E-2,-1.3086268E0,-7.8407146E-2,9.577739E-1,1.8565936E-2,-9.260952E-2,-4.590211E-2,-3.864406E-2,2.1502785E-2,2.9465957E-2,5.2452225E-2],"categories":[],"categories_nodes":[],"categories_segments":[],"categories_sizes":[],"default_left":[0,0,0,0,0,0,0,0,0,0,0,0,0,0,0,0,0,0,0],"id":10,"left_children":[1,3,5,7,9,11,-1,-1,-1,13,15,17,-1,-1,-1,-1,-1,-1,-1],"loss_changes":[2.5895208E1,6.1364946E0,3.6467962E0,1.0621377E1,1.49548645E1,1.5256615E0,0E0,0E0,0E0,2.4108315E0,7.908643E0,2.261734E-2,0E0,0E0,0E0,0E0,0E0,0E0,0E0],"parents":[2147483647,0,0,1,1,2,2,3,3,4,4,5,5,9,9,10,10,11,11],"right_children":[2,4,6,8,10,12,-1,-1,-1,14,16,18,-1,-1,-1,-1,-1,-1,-1],"split_conditions":[1.0390612E4,3.5474285E-1,6.25E1,2.3930429E-1,2.691543E0,8.438357E-1,1.8473951E-3,-3.2901544E-2,5.5697422E-2,8.948143E-1,5.8912426E1,1.7167254E-1,1.8565936E-2,-9.260952E-2,-4.590211E-2,-3.864406E-2,2.1502785E-2,2.9465957E-2,5.2452225E-2],"split_indices":[4,2,6,2,2,2,0,0,0,2,4,5,0,0,0,0,0,0,0],"split_type":[0,0,0,0,0,0,0,0,0,0,0,0,0,0,0,0,0,0,0],"sum_hessian":[8.523125E1,5.0560482E1,3.4670765E1,1.1740491E1,3.8819992E1,2.6263544E1,8.407223E0,6.674934E0,5.065557E0,1.8364443E1,2.045555E1,1.8056107E1,8.2074375E0,6.1138725E0,1.225057E1,8.4264345E0,1.2029115E1,5.0651565E0,1.299095E1],"tree_param":{"num_deleted":"0","num_feature":"7","num_nodes":"19","size_leaf_vector":"1"}},{"base_weights":[-3.207848E-2,-1.0863454E0,2.0603198E-1,-1.7989935E-2,-7.5956486E-2,5.8982015E-1,-4.7893396E-1,5.38796E-2,1.417315E-1,-9.613748E-1,9.465096E-3,-2.7605966E-2,3.9138567E-2,-2.4224646E-2,-6.270936E-2],"categories":[],"categories_nodes":[],"categories_segments":[],"categories_sizes":[],"default_left":[0,0,0,0,0,0,0,0,0,0,0,0,0,0,0],"id":11,"left_children":[1,3,5,-1,-1,7,9,-1,11,13,-1,-1,-1,-1,-1],"loss_changes":[2.0017792E1,4.0715675E0,1.7412758E1,0E0,0E0,9.073212E0,7.9037275E0,0E0,1.0729914E1,1.3576336E0,0E0,0E0,0E0,0E0,0E0],"parents":[2147483647,0,0,1,1,2,2,5,5,6,6,8,8,9,9],"right_children":[2,4,6,-1,-1,8,10,-1,12,14,-1,-1,-1,-1,-1],"split_conditions":[4.3178223E1,3.582752E-1,5.0375307E-1,-1.7989935E-2,-7.5956486E-2,8.43686E-1,8.362381E-1,5.38796E-2,3.030672E0,5.259E1,9.465096E-3,-2.7605966E-2,3.9138567E-2,-2.4224646E-2,-6.270936E-2],"split_indices":[0,3,5,0,0,3,5,0,3,0,0,0,0,0,0],"split_type":[0,0,0,0,0,0,0,0,0,0,0,0,0,0,0],"sum_hessian":[7.785038E1,1.3686989E1,6.416339E1,5.7930794E0,7.8939095E0,4.121143E1,2.2951965E1,1.9059326E1,2.2152105E1,1.3074208E1,9.877757E0,1.07044735E1,1.1447632E1,5.983669E0,7.090539E0],"tree_param":{"num_deleted":"0","num_feature":"7","num_nodes":"15","size_leaf_vector":"1"}},{"base_weights":[2.2685675E-2,-3.8340676E-1,6.026799E-1,5.159456E-2,-6.947439E-1,9.32392E-1,3.3328643E-1,3.6644366E-2,-2.8787026E-1,-9.778837E-1,-1.8037556E-1,2.2504978E-2,5.696807E-2,-1.0584473E-3,5.9947896E-1,-3.6173522E-2,1.0624451E-2,-6.838978E-2,-1.8455878E-2,2.8133964E-2,-4.4427466E-2,1.2554257E-2,4.137357E-2],"categories":[],"categories_nodes":[],"categories_segments":[],"categories_sizes":[],"default_left":[0,0,0,0,0,0,0,0,0,0,0,0,0,0,0,0,0,0,0,0,0,0,0],"id":12,"left_children":[1,3,5,7,9,11,13,-1,15,17,19,-1,-1,-1,21,-1,-1,-1,-1,-1,-1,-1,-1],"loss_changes":[1.9448069E1,6.6179256E0,2.7082615E0,5.115103E0,3.959135E0,9.572544E-1,1.9244835E0,0E0,3.3949287E0,3.7886505E0,6.4501486E0,0E0,0E0,0E0,7.1410227E-1,0E0,0E0,0E0,0E0,0E0,0E0,0E0,0E0],"parents":[2147483647,0,0,1,1,2,2,3,3,4,4,5,5,6,6,8,8,9,9,10,10,14,14],"right_children":[2,4,6,8,10,12,14,-1,16,18,20,-1,-1,-1,22,-1,-1,-1,-1,-1,-1,-1,-1],"split_conditions":[8.906466E3,-1.2374096E-4,2.881431E4,1.6469942E0,2.691543E0,2.4877286E-1,2.5883478E5,3.6644366E-2,7.8824286E0,1.6132157E3,4.0950547E-3,2.2504978E-2,5.696807E-2,-1.0584473E-3,8.7467E-2,-3.6173522E-2,1.0624451E-2,-6.838978E-2,-1.8455878E-2,2.8133964E-2,-4.4427466E-2,1.2554257E-2,4.137357E-2],"split_indices":[4,1,4,2,2,2,4,0,2,4,1,0,0,0,2,0,0,0,0,0,0,0,0],"split_type":[0,0,0,0,0,0,0,0,0,0,0,0,0,0,0,0,0,0,0,0,0,0,0],"sum_hessian":[8.059001E1,4.760061E1,3.29894E1,2.0204746E1,2.7395863E1,1.3727345E1,1.9262053E1,6.3339014E0,1.3870846E1,1.7088287E1,1.0307575E1,5.0752983E0,8.652047E0,8.6561775E0,1.0605876E1,7.1769075E0,6.693938E0,9.6565075E0,7.431781E0,5.1301694E0,5.177406E0,5.026381E0,5.579495E0],"tree_param":{"num_deleted":"0","num_feature":"7","num_nodes":"23","size_leaf_vector":"1"}},{"base_weights":[-3.527521E-2,4.9395642E-1,-4.5419908E-1,1.04838885E-1,5.8099188E-2,4.5393994E-1,-7.456357E-1,4.8365292E-1,-4.0804338E-2,-5.111392E-3,4.731459E-2,-1.2419397E0,-1.845416E-1,4.208399E-2,-1.0699387E-2,-8.717097E-2,-4.2489514E-2,1.7157402E-2,-2.9640248E-2],"categories":[],"categories_nodes":[],"categories_segments":[],"categories_sizes":[],"default_left":[0,0,0,0,0,0,0,0,0,0,0,0,0,0,0,0,0,0,0],"id":13,"left_children":[1,3,5,7,-1,9,11,13,-1,-1,-1,15,17,-1,-1,-1,-1,-1,-1],"loss_changes":[1.7551224E1,8.978428E0,1.20215645E1,8.495873E0,0E0,3.203643E0,9.182327E0,4.446664E0,0E0,0E0,0E0,2.0109158E0,3.873923E0,0E0,0E0,0E0,0E0,0E0,0E0],"parents":[2147483647,0,0,1,1,2,2,3,3,5,5,6,6,7,7,11,11,12,12],"right_children":[2,4,6,8,-1,10,12,14,-1,-1,-1,16,18,-1,-1,-1,-1,-1,-1],"split_conditions":[3.5474285E-1,2.4701142E-1,-1.636374E-3,1.0504571E-1,5.8099188E-2,4.973822E1,1.4930556E-4,6.25E1,-4.0804338E-2,-5.111392E-3,4.731459E-2,1.1252714E0,1.749E-3,4.208399E-2,-1.0699387E-2,-8.717097E-2,-4.2489514E-2,1.7157402E-2,-2.9640248E-2],"split_indices":[2,2,1,2,0,6,1,6,0,0,0,2,1,0,0,0,0,0,0],"split_type":[0,0,0,0,0,0,0,0,0,0,0,0,0,0,0,0,0,0,0],"sum_hessian":[7.715184E1,3.400889E1,4.3142952E1,2.2221867E1,1.1787022E1,1.0346102E1,3.279685E1,1.6081652E1,6.140216E0,5.2302756E0,5.115826E0,1.675932E1,1.6037529E1,1.0491158E1,5.590494E0,5.8423424E0,1.0916978E1,7.065153E0,8.972376E0],"tree_param":{"num_deleted":"0","num_feature":"7","num_nodes":"19","size_leaf_vector":"1"}},{"base_weights":[-6.690688E-2,-6.5873975E-1,5.5603254E-1,7.484553E-3,-8.846474E-1,3.8748637E-3,7.228512E-1,-1.1437224E0,-4.1948986E-1,8.367243E-3,8.450392E-1,-1.7641364E-2,-7.005667E-2,2.3866957E-2,-5.927534E-2,4.603733E-2,2.4217783E-2],"categories":[],"categories_nodes":[],"categories_segments":[],"categories_sizes":[],"default_left":[0,0,0,0,0,0,0,0,0,0,0,0,0,0,0,0,0],"id":14,"left_children":[1,3,5,-1,7,-1,9,11,13,-1,15,-1,-1,-1,-1,-1,-1],"loss_changes":[2.8848148E1,7.4511833E0,2.991867E0,0E0,3.3122463E0,0E0,1.7720842E0,3.5021896E0,9.383673E0,0E0,1.782875E-1,0E0,0E0,0E0,0E0,0E0,0E0],"parents":[2147483647,0,0,1,1,2,2,4,4,6,6,7,7,8,8,10,10],"right_children":[2,4,6,-1,8,-1,10,12,14,-1,16,-1,-1,-1,-1,-1,-1],"split_conditions":[5.695174E3,-1.636374E-3,4.7588917E1,7.484553E-3,1.8857571E0,3.8748637E-3,1.1299228E4,3.5474285E-1,7.842486E0,8.367243E-3,3.7393144E-1,-1.7641364E-2,-7.005667E-2,2.3866957E-2,-5.927534E-2,4.603733E-2,2.4217783E-2],"split_indices":[4,1,0,0,2,0,4,2,2,0,2,0,0,0,0,0,0],"split_type":[0,0,0,0,0,0,0,0,0,0,0,0,0,0,0,0,0],"sum_hessian":[7.625446E1,3.907408E1,3.718038E1,8.607775E0,3.0466309E1,9.989399E0,2.7190985E1,1.863085E1,1.1835459E1,5.3297534E0,2.186123E1,5.1569114E0,1.3473938E1,5.6258006E0,6.209658E0,1.678523E1,5.076E0],"tree_param":{"num_deleted":"0","num_feature":"7","num_nodes":"17","size_leaf_vector":"1"}},{"base_weights":[-3.4008347E-4,-4.0242684E-1,6.29176E-1,1.9972682E-1,-5.660214E-1,4.545089E-2,2.9663253E-1,3.166392E-2,-1.2706031E-2,9.7607695E-2,-8.4072214E-1,-9.381141E-3,2.7117355E-2,-2.1612398E-2,3.247753E-2,-6.105724E-2,-1.459291E-2],"categories":[],"categories_nodes":[],"categories_segments":[],"categories_sizes":[],"default_left":[0,0,0,0,0,0,0,0,0,0,0,0,0,0,0,0,0],"id":15,"left_children":[1,3,5,7,9,-1,11,-1,-1,13,15,-1,-1,-1,-1,-1,-1],"loss_changes":[2.0468962E1,4.9741564E0,2.6635466E0,2.3807738E0,7.203617E0,0E0,1.9922304E0,0E0,0E0,3.8874078E0,5.434189E0,0E0,0E0,0E0,0E0,0E0,0E0],"parents":[2147483647,0,0,1,1,2,2,3,3,4,4,6,6,9,9,10,10],"right_children":[2,4,6,8,10,-1,12,-1,-1,14,16,-1,-1,-1,-1,-1,-1],"split_conditions":[1.0390612E4,-1.636374E-3,6.0732137E4,3.151939E-1,3.5474285E-1,4.545089E-2,3.6660134E5,3.166392E-2,-1.2706031E-2,2.011456E-1,2.645E0,-9.381141E-3,2.7117355E-2,-2.1612398E-2,3.247753E-2,-6.105724E-2,-1.459291E-2],"split_indices":[4,1,4,5,2,0,4,0,0,3,2,0,0,0,0,0,0],"split_type":[0,0,0,0,0,0,0,0,0,0,0,0,0,0,0,0,0],"sum_hessian":[7.88663E1,4.83468E1,3.0519505E1,1.0281632E1,3.806517E1,1.5631643E1,1.4887861E1,5.0561943E0,5.225438E0,1.13324995E1,2.673267E1,5.090971E0,9.79689E0,5.892583E0,5.4399166E0,1.506566E1,1.1667009E1],"tree_param":{"num_deleted":"0","num_feature":"7","num_nodes":"17","size_leaf_vector":"1"}},{"base_weights":[2.5928624E-2,5.029534E-1,-3.253015E-1,1.735864E-1,5.229674E-2,-7.68207E-1,9.4922125E-2,6.5821797E-1,-2.5750592E-2,-1.2025082E0,4.7198846E-3,-2.7989987E-2,3.4014687E-1,2.1328276E-2,4.0963758E-2,-3.901905E-2,-7.34077E-2,3.5611816E-2,-2.2036005E-3],"categories":[],"categories_nodes":[],"categories_segments":[],"categories_sizes":[],"default_left":[0,0,0,0,0,0,0,0,0,0,0,0,0,0,0,0,0,0,0],"id":16,"left_children":[1,3,5,7,-1,9,11,13,-1,15,-1,-1,17,-1,-1,-1,-1,-1,-1],"loss_changes":[1.2682625E1,5.555378E0,8.195448E0,7.402388E0,0E0,8.114605E0,3.9287848E0,1.3038826E-1,0E0,4.5536995E-1,0E0,0E0,2.5420578E0,0E0,0E0,0E0,0E0,0E0,0E0],"parents":[2147483647,0,0,1,1,2,2,3,3,5,5,6,6,7,7,9,9,12,12],"right_children":[2,4,6,8,-1,10,12,14,-1,16,-1,-1,18,-1,-1,-1,-1,-1,-1],"split_conditions":[3.5474285E-1,2.4701142E-1,2.741429E0,8.3191E-2,5.229674E-2,5.1846478E1,4.7244095E1,3.8726572E-2,-2.5750592E-2,4.7571938E1,4.7198846E-3,-2.7989987E-2,5.0622406E1,2.1328276E-2,4.0963758E-2,-3.901905E-2,-7.34077E-2,3.5611816E-2,-2.2036005E-3],"split_indices":[2,2,2,2,0,0,6,2,0,0,0,0,6,0,0,0,0,0,0],"split_type":[0,0,0,0,0,0,0,0,0,0,0,0,0,0,0,0,0,0,0],"sum_hessian":[7.3720085E1,3.1078587E1,4.26415E1,2.0165867E1,1.091272E1,2.0357304E1,2.2284193E1,1.1861752E1,8.304115E0,1.3278067E1,7.079238E0,5.722629E0,1.6561565E1,6.361044E0,5.500708E0,6.6494164E0,6.62865E0,7.9798784E0,8.581686E0],"tree_param":{"num_deleted":"0","num_feature":"7","num_nodes":"19","size_leaf_vector":"1"}},{"base_weights":[-2.3314714E-2,-3.9871383E-1,5.721129E-1,-6.226445E-2,-1.9403194E-1,7.404338E-1,6.0603314E-4,-6.204128E-1,2.8897712E-1,8.562827E-1,1.9221274E-2,-6.2517576E-2,-6.6946057E-4,5.097696E-2,-7.0869746E-3,3.1311408E-2,5.2517332E-2],"categories":[],"categories_nodes":[],"categories_segments":[],"categories_sizes":[],"default_left":[0,0,0,0,0,0,0,0,0,0,0,0,0,0,0,0,0],"id":17,"left_children":[1,3,5,-1,7,9,-1,11,13,15,-1,-1,-1,-1,-1,-1,-1],"loss_changes":[1.7177048E1,7.918956E0,2.7934418E0,0E0,8.233867E0,6.1295605E-1,0E0,8.048034E0,6.129323E0,7.532978E-2,0E0,0E0,0E0,0E0,0E0,0E0,0E0],"parents":[2147483647,0,0,1,1,2,2,4,4,5,5,7,7,8,8,9,9],"right_children":[2,4,6,-1,8,10,-1,12,14,16,-1,-1,-1,-1,-1,-1,-1],"split_conditions":[1.0390612E4,4.3706776E1,6.25E1,-6.226445E-2,1.8857571E0,1.177344E0,6.0603314E-4,1.1937092E3,7.7562857E0,2.4701142E-1,1.9221274E-2,-6.2517576E-2,-6.6946057E-4,5.097696E-2,-7.0869746E-3,3.1311408E-2,5.2517332E-2],"split_indices":[4,0,6,0,2,3,0,4,2,2,0,0,0,0,0,0,0],"split_type":[0,0,0,0,0,0,0,0,0,0,0,0,0,0,0,0,0],"sum_hessian":[7.482636E1,4.6095146E1,2.873122E1,7.9849496E0,3.8110195E1,2.184338E1,6.8878407E0,2.0090574E1,1.8019623E1,1.5420238E1,6.4231415E0,9.339108E0,1.0751465E1,6.176405E0,1.1843217E1,8.989951E0,6.4302864E0],"tree_param":{"num_deleted":"0","num_feature":"7","num_nodes":"17","size_leaf_vector":"1"}},{"base_weights":[-1.9590594E-2,-3.543801E-1,5.3899455E-1,-5.341309E-2,-1.8231367E-1,6.910119E-1,2.0113925E-3,3.161038E-1,-5.713048E-1,3.4597968E-3,8.6144835E-1,2.7511606E-2,-5.969725E-3,-4.0503513E-2,7.7110413E-3,4.9226202E-2,2.3832373E-2],"categories":[],"categories_nodes":[],"categories_segments":[],"categories_sizes":[],"default_left":[0,0,0,0,0,0,0,0,0,0,0,0,0,0,0,0,0],"id":18,"left_children":[1,3,5,-1,7,9,-1,11,13,-1,15,-1,-1,-1,-1,-1,-1],"loss_changes":[1.495171E1,5.94146E0,2.244998E0,0E0,8.218589E0,2.3685884E0,0E0,1.98432E0,4.2203836E0,0E0,3.7825298E-1,0E0,0E0,0E0,0E0,0E0,0E0],"parents":[2147483647,0,0,1,1,2,2,4,4,5,5,7,7,8,8,10,10],"right_children":[2,4,6,-1,8,10,-1,12,14,-1,16,-1,-1,-1,-1,-1,-1],"split_conditions":[1.1299228E4,4.3706776E1,6.25E1,-5.341309E-2,-6.3661224E-5,1.662164E-1,2.0113925E-3,5.2895252E1,8.362381E-1,3.4597968E-3,4.8982234E-5,2.7511606E-2,-5.969725E-3,-4.0503513E-2,7.7110413E-3,4.9226202E-2,2.3832373E-2],"split_indices":[4,0,6,0,1,5,0,0,5,0,1,0,0,0,0,0,0],"split_type":[0,0,0,0,0,0,0,0,0,0,0,0,0,0,0,0,0],"sum_hessian":[7.7930664E1,4.8954956E1,2.897571E1,8.496332E0,4.0458626E1,2.1911835E1,7.0638742E0,1.781697E1,2.2641653E1,5.0163393E0,1.6895496E1,1.1416102E1,6.400868E0,1.694774E1,5.693913E0,1.1620301E1,5.2751946E0],"tree_param":{"num_deleted":"0","num_feature":"7","num_nodes":"17","size_leaf_vector":"1"}},{"base_weights":[-8.967345E-3,4.7484523E-1,-3.6718747E-1,1.2899394E-1,5.1969755E-2,-5.311657E-1,3.7818648E-2,-3.288687E-2,4.2137426E-1,-7.257295E-2,-2.772821E-1,3.5142656E-2,-7.573501E-3,2.9400041E-2,-2.7706591E-2],"categories":[],"categories_nodes":[],"categories_segments":[],"categories_sizes":[],"default_left":[0,0,0,0,0,0,0,0,0,0,0,0,0,0,0],"id":19,"left_children":[1,3,5,7,-1,9,-1,-1,11,-1,13,-1,-1,-1,-1],"loss_changes":[1.3242404E1,6.214267E0,8.487705E0,5.1775784E0,0E0,8.683188E0,0E0,0E0,2.7091293E0,0E0,7.9230876E0,0E0,0E0,0E0,0E0],"parents":[2147483647,0,0,1,1,2,2,3,3,5,5,8,8,10,10],"right_children":[2,4,6,8,-1,10,-1,-1,12,-1,14,-1,-1,-1,-1],"split_conditions":[3.5474285E-1,2.4701142E-1,2.5883478E5,4.7167847E1,5.1969755E-2,4.358E1,3.7818648E-2,-3.288687E-2,8.1628144E-2,-7.257295E-2,-1.636374E-3,3.5142656E-2,-7.573501E-3,2.9400041E-2,-2.7706591E-2],"split_indices":[2,2,4,0,0,0,0,0,2,0,1,0,0,0,0],"split_type":[0,0,0,0,0,0,0,0,0,0,0,0,0,0,0],"sum_hessian":[7.440212E1,3.1513872E1,4.2888245E1,2.0303904E1,1.12099695E1,3.788619E1,5.0020585E0,5.162677E0,1.5141227E1,7.1719236E0,3.0714264E1,1.00003805E1,5.140846E0,7.1726203E0,2.3541643E1],"tree_param":{"num_deleted":"0","num_feature":"7","num_nodes":"15","size_leaf_vector":"1"}},{"base_weights":[-8.869585E-2,-4.872225E-1,3.7898308E-1,1.0344585E-1,-6.8228066E-1,5.3454506E-1,-7.868402E-3,2.352824E-2,-1.4890052E-2,-8.4876496E-1,-1.0799448E-2,-7.617295E-3,6.924442E-1,-7.0631476E-3,-5.5675674E-2,4.2629063E-2,1.3890787E-2],"categories":[],"categories_nodes":[],"categories_segments":[],"categories_sizes":[],"default_left":[0,0,0,0,0,0,0,0,0,0,0,0,0,0,0,0,0],"id":20,"left_children":[1,3,5,7,9,11,-1,-1,-1,13,-1,-1,15,-1,-1,-1,-1],"loss_changes":[1.4582893E1,4.9264946E0,3.09652E0,1.8093011E0,2.2865095E0,3.1656246E0,0E0,0E0,0E0,4.170187E0,0E0,0E0,1.2983332E0,0E0,0E0,0E0,0E0],"parents":[2147483647,0,0,1,1,2,2,3,3,4,4,5,5,9,9,12,12],"right_children":[2,4,6,8,10,12,-1,-1,-1,14,-1,-1,16,-1,-1,-1,-1],"split_conditions":[5.695174E3,-1.636374E-3,6.25E1,3.151939E-1,5.342E1,-3.3160474E-4,-7.868402E-3,2.352824E-2,-1.4890052E-2,1.8301978E2,-1.0799448E-2,-7.617295E-3,1.4632606E-5,-7.0631476E-3,-5.5675674E-2,4.2629063E-2,1.3890787E-2],"split_indices":[4,1,6,5,0,1,0,0,0,4,0,0,1,0,0,0,0],"split_type":[0,0,0,0,0,0,0,0,0,0,0,0,0,0,0,0,0],"sum_hessian":[7.625105E1,4.1146664E1,3.5104393E1,1.0331337E1,3.0815325E1,2.7214525E1,7.8898673E0,5.3048935E0,5.0264435E0,2.210333E1,8.711994E0,5.0932207E0,2.2121304E1,6.4364424E0,1.5666888E1,1.5196056E1,6.9252477E0],"tree_param":{"num_deleted":"0","num_feature":"7","num_nodes":"17","size_leaf_vector":"1"}},{"base_weights":[-4.5183923E-2,3.5482615E-1,-2.9788932E-1,-1.0834065E-2,5.425958E-2,-5.998909E-2,-1.1647209E-1,4.1638818E-1,-2.9958373E-2,2.3489347E-2,-2.8191113E-1,3.54602E-2,-5.9996813E-4,-6.50374E-2,-1.3380932E-3],"categories":[],"categories_nodes":[],"categories_segments":[],"categories_sizes":[],"default_left":[0,0,0,0,0,0,0,0,0,0,0,0,0,0,0],"id":21,"left_children":[1,3,5,7,-1,-1,9,11,-1,-1,13,-1,-1,-1,-1],"loss_changes":[7.9646006E0,8.172326E0,7.7449336E0,5.616339E0,0E0,0E0,4.131026E0,1.6341665E0,0E0,0E0,8.486073E0,0E0,0E0,0E0,0E0],"parents":[2147483647,0,0,1,1,2,2,3,3,6,6,7,7,10,10],"right_children":[2,4,6,8,-1,-1,10,12,-1,-1,14,-1,-1,-1,-1],"split_conditions":[3.5474285E-1,2.4701142E-1,8.948143E-1,8.3191E-2,5.425958E-2,-5.998909E-2,1.7880828E0,5.771812E1,-2.9958373E-2,2.3489347E-2,1.8452286E0,3.54602E-2,-5.9996813E-4,-6.50374E-2,-1.3380932E-3],"split_indices":[2,2,2,2,0,0,2,6,0,0,2,0,0,0,0],"split_type":[0,0,0,0,0,0,0,0,0,0,0,0,0,0,0],"sum_hessian":[7.6745705E1,2.955642E1,4.7189285E1,2.0352188E1,9.204232E0,6.9625373E0,4.0226746E1,1.1959775E1,8.392413E0,8.448507E0,3.1778238E1,6.7146144E0,5.2451606E0,5.5436993E0,2.6234539E1],"tree_param":{"num_deleted":"0","num_feature":"7","num_nodes":"15","size_leaf_vector":"1"}},{"base_weights":[-2.7675292E-2,-4.9878758E-1,3.5941967E-1,-5.800698E-2,-2.734825E-1,-2.762103E-2,5.1341033E-1,-3.872261E-2,7.0542455E-2,1.769608E-1,6.656061E-1,2.8292343E-2,-2.429816E-2,2.5113184E-2,-6.381362E-3,3.7593182E-2,1.4151438E-2],"categories":[],"categories_nodes":[],"categories_segments":[],"categories_sizes":[],"default_left":[0,0,0,0,0,0,0,0,0,0,0,0,0,0,0,0,0],"id":22,"left_children":[1,3,5,-1,7,-1,9,-1,11,13,15,-1,-1,-1,-1,-1,-1],"loss_changes":[1.3689483E1,4.724206E0,6.075615E0,0E0,4.629574E0,0E0,1.7157946E0,0E0,4.8655486E0,1.3041319E0,5.888672E-1,0E0,0E0,0E0,0E0,0E0,0E0],"parents":[2147483647,0,0,1,1,2,2,4,4,6,6,8,8,9,9,10,10],"right_children":[2,4,6,-1,8,-1,10,-1,12,14,16,-1,-1,-1,-1,-1,-1],"split_conditions":[1.3186498E3,4.445184E1,4.148593E1,-5.800698E-2,1.8857571E0,-2.762103E-2,1.0390612E4,-3.872261E-2,5.6E1,5.4578066E3,1.178786E0,2.8292343E-2,-2.429816E-2,2.5113184E-2,-6.381362E-3,3.7593182E-2,1.4151438E-2],"split_indices":[4,0,0,0,2,0,4,0,6,4,2,0,0,0,0,0,0],"split_type":[0,0,0,0,0,0,0,0,0,0,0,0,0,0,0,0,0],"sum_hessian":[7.308326E1,3.2834106E1,4.0249153E1,7.289015E0,2.5545094E1,5.4413548E0,3.4807796E1,9.890859E0,1.5654235E1,1.151501E1,2.3292788E1,8.273669E0,7.380565E0,5.254336E0,6.2606735E0,1.8219648E1,5.073139E0],"tree_param":{"num_deleted":"0","num_feature":"7","num_nodes":"17","size_leaf_vector":"1"}},{"base_weights":[-9.966162E-3,-2.7569532E-1,5.214667E-1,9.848261E-3,-3.9186487E-1,6.832122E-1,-1.6642107E-4,-5.975302E-1,-9.909751E-2,4.2198528E-2,1.0718836E-2,-1.6883172E-2,-6.5570585E-2,3.467402E-2,-3.0175647E-2],"categories":[],"categories_nodes":[],"categories_segments":[],"categories_sizes":[],"default_left":[0,0,0,0,0,0,0,0,0,0,0,0,0,0,0],"id":23,"left_children":[1,3,5,-1,7,9,-1,11,13,-1,-1,-1,-1,-1,-1],"loss_changes":[1.1019822E1,2.932312E0,2.2108378E0,0E0,2.4741273E0,1.3184509E0,0E0,4.1049166E0,7.838362E0,0E0,0E0,0E0,0E0,0E0,0E0],"parents":[2147483647,0,0,1,1,2,2,4,4,5,5,7,7,8,8],"right_children":[2,4,6,-1,8,10,-1,12,14,-1,-1,-1,-1,-1,-1],"split_conditions":[1.0390612E4,1.967213E1,6.25E1,9.848261E-3,2.691543E0,1.177344E0,-1.6642107E-4,1.7880828E0,7.7562857E0,4.2198528E-2,1.0718836E-2,-1.6883172E-2,-6.5570585E-2,3.467402E-2,-3.0175647E-2],"split_indices":[4,6,6,0,2,3,0,2,2,0,0,0,0,0,0],"split_type":[0,0,0,0,0,0,0,0,0,0,0,0,0,0,0],"sum_hessian":[7.601651E1,5.0997673E1,2.5018837E1,9.924054E0,4.107362E1,1.8893778E1,6.1250587E0,2.3514214E1,1.7559406E1,1.3473667E1,5.4201097E0,1.8318808E1,5.1954055E0,6.6832805E0,1.0876125E1],"tree_param":{"num_deleted":"0","num_feature":"7","num_nodes":"15","size_leaf_vector":"1"}},{"base_weights":[-2.2505898E-2,-4.75451E-2,1.3388285E-1,-1.5633084E-1,4.723512E-1,3.7172118E-1,-4.4551587E-1,4.1017603E-2,2.7273804E-1,3.6874153E-2,-1.6971743E-3,-4.5452464E-2,-2.9584581E-3,-4.343686E-3,2.8676951E-2],"categories":[],"categories_nodes":[],"categories_segments":[],"categories_sizes":[],"default_left":[0,0,0,0,0,0,0,0,0,0,0,0,0,0,0],"id":24,"left_children":[1,-1,3,5,7,9,11,-1,13,-1,-1,-1,-1,-1,-1],"loss_changes":[1.1097469E1,0E0,6.511791E0,5.66863E0,1.8952174E0,1.9980117E0,4.197665E0,0E0,2.308745E0,0E0,0E0,0E0,0E0,0E0,0E0],"parents":[2147483647,0,0,2,2,3,3,4,4,5,5,6,6,8,8],"right_children":[2,-1,4,6,8,10,12,-1,14,-1,-1,-1,-1,-1,-1],"split_conditions":[4.234961E1,-4.75451E-2,5.695174E3,-4.46E-4,3.9903847E1,7.74572E0,5.072279E1,4.1017603E-2,2.434E-1,3.6874153E-2,-1.6971743E-3,-4.5452464E-2,-2.9584581E-3,-4.343686E-3,2.8676951E-2],"split_indices":[0,0,4,1,6,3,0,0,3,0,0,0,0,0,0],"split_type":[0,0,0,0,0,0,0,0,0,0,0,0,0,0,0],"sum_hessian":[7.45569E1,1.001613E1,6.4540764E1,3.5037018E1,2.950375E1,1.2297099E1,2.273992E1,9.621006E0,1.9882744E1,6.0364532E0,6.2606454E0,9.7223015E0,1.3017618E1,9.380007E0,1.0502737E1],"tree_param":{"num_deleted":"0","num_feature":"7","num_nodes":"15","size_leaf_vector":"1"}},{"base_weights":[1.3407716E-2,4.2737147E-1,-2.5580883E-1,8.033239E-2,5.016899E-2,-5.654418E-2,-8.4585674E-2,4.755316E-1,-2.7834887E-2,2.989369E-2,-2.7154624E-1,-4.274376E-3,4.337054E-2,-5.9030958E-2,2.1954372E-3],"categories":[],"categories_nodes":[],"categories_segments":[],"categories_sizes":[],"default_left":[0,0,0,0,0,0,0,0,0,0,0,0,0,0,0],"id":25,"left_children":[1,3,5,7,-1,-1,9,11,-1,-1,13,-1,-1,-1,-1],"loss_changes":[8.550309E0,5.960511E0,6.8745127E0,5.2861733E0,0E0,0E0,5.2644944E0,2.898962E0,0E0,0E0,9.250423E0,0E0,0E0,0E0,0E0],"parents":[2147483647,0,0,1,1,2,2,3,3,6,6,7,7,10,10],"right_children":[2,4,6,8,-1,-1,10,12,-1,-1,14,-1,-1,-1,-1],"split_conditions":[3.5474285E-1,2.3930429E-1,8.948143E-1,8.3191E-2,5.016899E-2,-5.654418E-2,1.7880828E0,2.3635143E-2,-2.7834887E-2,2.989369E-2,2.741429E0,-4.274376E-3,4.337054E-2,-5.9030958E-2,2.1954372E-3],"split_indices":[2,2,2,2,0,0,2,2,0,0,2,0,0,0,0],"split_type":[0,0,0,0,0,0,0,0,0,0,0,0,0,0,0],"sum_hessian":[7.474065E1,2.9221077E1,4.551957E1,1.8945858E1,1.0275219E1,6.5319295E0,3.898764E1,1.1848704E1,7.097153E0,7.911295E0,3.1076347E1,5.194313E0,6.6543913E0,7.29916E0,2.3777187E1],"tree_param":{"num_deleted":"0","num_feature":"7","num_nodes":"15","size_leaf_vector":"1"}},{"base_weights":[4.523439E-2,4.7910285E-1,-2.4462771E-1,-1.2972302E-2,6.457318E-1,-6.4152104E-1,7.261554E-2,4.8920967E-2,3.923254E-1,-2.3780403E-1,-6.370376E-2,2.735419E-1,-2.1828458E-2,8.590714E-3,2.9302662E-2,-5.151979E-2,2.1202002E-2,2.490789E-2,-2.7490451E-3],"categories":[],"categories_nodes":[],"categories_segments":[],"categories_sizes":[],"default_left":[0,0,0,0,0,0,0,0,0,0,0,0,0,0,0,0,0,0,0],"id":26,"left_children":[1,3,5,-1,7,9,11,-1,13,15,-1,17,-1,-1,-1,-1,-1,-1,-1],"loss_changes":[9.229317E0,3.7803273E0,5.5990515E0,0E0,1.6596613E0,4.7257004E0,2.7187304E0,0E0,5.584049E-1,7.387224E0,0E0,1.4170705E0,0E0,0E0,0E0,0E0,0E0,0E0,0E0],"parents":[2147483647,0,0,1,1,2,2,4,4,5,5,6,6,8,8,9,9,11,11],"right_children":[2,4,6,-1,8,10,12,-1,14,16,-1,18,-1,-1,-1,-1,-1,-1,-1],"split_conditions":[8.438357E-1,4.349464E1,2.741429E0,-1.2972302E-2,3.77907E1,1.7880828E0,4.4287913E-3,4.8920967E-2,6.4683304E1,1.1506286E0,-6.370376E-2,5.1240105E1,-2.1828458E-2,8.590714E-3,2.9302662E-2,-5.151979E-2,2.1202002E-2,2.490789E-2,-2.7490451E-3],"split_indices":[2,0,2,0,6,2,1,0,6,2,0,0,0,0,0,0,0,0,0],"split_type":[0,0,0,0,0,0,0,0,0,0,0,0,0,0,0,0,0,0,0],"sum_hessian":[7.1455215E1,2.8357124E1,4.3098087E1,5.1175604E0,2.3239565E1,1.8691523E1,2.4406567E1,8.810946E0,1.4428618E1,1.2249456E1,6.4420667E0,1.7832554E1,6.574013E0,7.6302996E0,6.798319E0,5.3207426E0,6.928714E0,1.0284518E1,7.5480347E0],"tree_param":{"num_deleted":"0","num_feature":"7","num_nodes":"19","size_leaf_vector":"1"}},{"base_weights":[-8.7385215E-3,-7.432726E-1,1.2946424E-1,-5.400304E-2,-1.204473E-2,3.3610794E-1,-2.2616014E-1,8.259288E-1,7.6859184E-3,-5.711234E-1,1.88335E-1,5.2949276E-2,2.2497939E-2,3.0590078E-2,-1.7687863E-2,-6.1507683E-2,3.6699057E-3,-1.2215632E-2,2.8936336E-2],"categories":[],"categories_nodes":[],"categories_segments":[],"categories_sizes":[],"default_left":[0,0,0,0,0,0,0,0,0,0,0,0,0,0,0,0,0,0,0],"id":27,"left_children":[1,3,5,-1,-1,7,9,11,13,15,17,-1,-1,-1,-1,-1,-1,-1,-1],"loss_changes":[7.6824856E0,1.7671752E0,4.760721E0,0E0,0E0,6.5444994E0,3.542997E0,9.5484066E-1,5.75967E0,5.765526E0,2.1116946E0,0E0,0E0,0E0,0E0,0E0,0E0,0E0,0E0],"parents":[2147483647,0,0,1,1,2,2,5,5,6,6,7,7,8,8,9,9,10,10],"right_children":[2,4,6,-1,-1,8,10,12,14,16,18,-1,-1,-1,-1,-1,-1,-1,-1],"split_conditions":[4.234961E1,-7.941131E-5,5.093633E1,-5.400304E-2,-1.204473E-2,3.5474285E-1,1.6231004E-4,3.77907E1,-1.4862902E-3,1.1299228E4,5.225308E1,5.2949276E-2,2.2497939E-2,3.0590078E-2,-1.7687863E-2,-6.1507683E-2,3.6699057E-3,-1.2215632E-2,2.8936336E-2],"split_indices":[0,1,6,0,0,2,1,6,1,4,0,0,0,0,0,0,0,0,0],"split_type":[0,0,0,0,0,0,0,0,0,0,0,0,0,0,0,0,0,0,0],"sum_hessian":[7.373068E1,1.0982365E1,6.274832E1,5.8863373E0,5.0960274E0,3.9721886E1,2.3026434E1,1.5335343E1,2.4386543E1,1.2361068E1,1.0665366E1,8.345469E0,6.9898744E0,8.869467E0,1.5517077E1,5.662485E0,6.6985826E0,5.236384E0,5.4289827E0],"tree_param":{"num_deleted":"0","num_feature":"7","num_nodes":"19","size_leaf_vector":"1"}},{"base_weights":[2.7892493E-2,-4.8718184E-2,1.7834818E-1,3.848328E-1,-2.2824316E-1,7.995856E-1,7.821445E-2,-5.8289635E-1,2.8722394E-2,4.8297003E-2,2.6089726E-2,-1.9045895E-2,2.6392085E-2,-3.7132874E-2,-1.4682907E-2],"categories":[],"categories_nodes":[],"categories_segments":[],"categories_sizes":[],"default_left":[0,0,0,0,0,0,0,0,0,0,0,0,0,0,0],"id":28,"left_children":[1,-1,3,5,7,9,11,13,-1,-1,-1,-1,-1,-1,-1],"loss_changes":[1.0816153E1,0E0,5.3105536E0,5.2314553E0,6.4780703E0,3.086567E-1,5.3709106E0,4.964509E-1,0E0,0E0,0E0,0E0,0E0,0E0,0E0],"parents":[2147483647,0,0,2,2,3,3,4,4,5,5,6,6,7,7],"right_children":[2,-1,4,6,8,10,12,14,-1,-1,-1,-1,-1,-1,-1],"split_conditions":[4.1274864E1,-4.8718184E-2,5.809426E-1,8.438357E-1,8.9065295E-1,3.77907E1,3.0472715E0,8.224299E1,2.8722394E-2,4.8297003E-2,2.6089726E-2,-1.9045895E-2,2.6392085E-2,-3.7132874E-2,-1.4682907E-2],"split_indices":[0,0,5,2,5,6,2,6,0,0,0,0,0,0,0],"split_type":[0,0,0,0,0,0,0,0,0,0,0,0,0,0,0],"sum_hessian":[6.957505E1,8.3664055E0,6.1208645E1,4.0629E1,2.0579643E1,1.6585957E1,2.4043045E1,1.4463191E1,6.116453E0,8.824318E0,7.7616386E0,1.1971392E1,1.2071653E1,8.307112E0,6.1560793E0],"tree_param":{"num_deleted":"0","num_feature":"7","num_nodes":"15","size_leaf_vector":"1"}},{"base_weights":[2.5838466E-2,-3.972379E-2,1.6856843E-1,2.724722E-1,-2.737388E-2,7.186377E-2,6.6962504E-1,-1.1316164E-2,2.9441321E-2,1.3252064E-2,5.011952E-2],"categories":[],"categories_nodes":[],"categories_segments":[],"categories_sizes":[],"default_left":[0,0,0,0,0,0,0,0,0,0,0],"id":29,"left_children":[1,-1,3,5,-1,7,9,-1,-1,-1,-1],"loss_changes":[8.552392E0,0E0,4.767181E0,4.323676E0,0E0,5.925882E0,2.1973953E0,0E0,0E0,0E0,0E0],"parents":[2147483647,0,0,2,2,3,3,5,5,6,6],"right_children":[2,-1,4,6,-1,8,10,-1,-1,-1,-1],"split_conditions":[4.234961E1,-3.972379E-2,2.189E-3,1.3026642E4,-2.737388E-2,4.8860145E0,8.3717E-2,-1.1316164E-2,2.9441321E-2,1.3252064E-2,5.011952E-2],"split_indices":[0,0,1,4,0,2,2,0,0,0,0],"split_type":[0,0,0,0,0,0,0,0,0,0,0],"sum_hessian":[7.090145E1,9.831341E0,6.1070114E1,5.3872307E1,7.197808E0,3.6577404E1,1.72949E1,2.35537E1,1.3023705E1,8.6159315E0,8.678968E0],"tree_param":{"num_deleted":"0","num_feature":"7","num_nodes":"11","size_leaf_vector":"1"}},{"base_weights":[8.6969027E-4,3.9799106E-1,-2.7844238E-1,6.6941224E-2,5.0120424E-2,-6.3033275E-2,-1.1580459E-1,2.7075455E-2,-3.6225677E-1,-4.873027E-2,8.533346E-2,-6.49326E-3,-2.6810372E-2,3.8185585E-2,-6.5069604E-3],"categories":[],"categories_nodes":[],"categories_segments":[],"categories_sizes":[],"default_left":[0,0,0,0,0,0,0,0,0,0,0,0,0,0,0],"id":30,"left_children":[1,3,5,7,-1,-1,9,-1,11,-1,13,-1,-1,-1,-1],"loss_changes":[8.132617E0,5.990481E0,6.73048E0,4.3985534E0,0E0,0E0,6.652751E0,0E0,3.9254117E-1,0E0,4.7380896E0,0E0,0E0,0E0,0E0],"parents":[2147483647,0,0,1,1,2,2,3,3,6,6,8,8,10,10],"right_children":[2,4,6,8,-1,-1,10,-1,12,-1,14,-1,-1,-1,-1],"split_conditions":[8.28643E-1,2.3930429E-1,8.948143E-1,7.438714E-2,5.0120424E-2,-6.3033275E-2,4.3178223E1,2.7075455E-2,-3.2332468E-6,-4.873027E-2,-1.8431669E-3,-6.49326E-3,-2.6810372E-2,3.8185585E-2,-6.5069604E-3],"split_indices":[2,2,2,2,0,0,0,0,1,0,1,0,0,0,0],"split_type":[0,0,0,0,0,0,0,0,0,0,0,0,0,0,0],"sum_hessian":[7.132007E1,2.9273947E1,4.2046124E1,1.9631945E1,9.642001E0,5.013937E0,3.7032185E1,9.198932E0,1.0433014E1,6.297641E0,3.0734545E1,5.213944E0,5.21907E0,6.7955575E0,2.3938986E1],"tree_param":{"num_deleted":"0","num_feature":"7","num_nodes":"15","size_leaf_vector":"1"}},{"base_weights":[-2.3842568E-2,-2.536207E-1,3.9248362E-1,-4.4055596E-2,-1.3714856E-1,6.076245E-1,-1.0647921E-2,3.6562482E-1,-3.2319555E-1,1.2634079E-2,4.064868E-2,3.3893805E-2,-8.407712E-4,-3.3166036E-2,-2.2132348E-4],"categories":[],"categories_nodes":[],"categories_segments":[],"categories_sizes":[],"default_left":[0,0,0,0,0,0,0,0,0,0,0,0,0,0,0],"id":31,"left_children":[1,3,5,-1,7,9,-1,11,13,-1,-1,-1,-1,-1,-1],"loss_changes":[6.9682612E0,3.3049352E0,3.5066252E0,0E0,3.9270668E0,1.2078242E0,0E0,1.3808051E0,3.2770603E0,0E0,0E0,0E0,0E0,0E0,0E0],"parents":[2147483647,0,0,1,1,2,2,4,4,5,5,7,7,8,8],"right_children":[2,4,6,-1,8,10,-1,12,14,-1,-1,-1,-1,-1,-1],"split_conditions":[1.0390612E4,4.1274864E1,5.222215E-1,-4.4055596E-2,2.675786E-1,3.3163443E-1,-1.0647921E-2,1.6469942E0,2.691543E0,1.2634079E-2,4.064868E-2,3.3893805E-2,-8.407712E-4,-3.3166036E-2,-2.2132348E-4],"split_indices":[4,0,5,0,5,5,0,2,2,0,0,0,0,0,0],"split_type":[0,0,0,0,0,0,0,0,0,0,0,0,0,0,0],"sum_hessian":[7.080147E1,4.5873722E1,2.4927746E1,6.1540284E0,3.9719692E1,1.8389517E1,6.538228E0,1.046739E1,2.9252302E1,7.5573144E0,1.0832203E1,5.3372116E0,5.1301785E0,1.3629165E1,1.5623137E1],"tree_param":{"num_deleted":"0","num_feature":"7","num_nodes":"15","size_leaf_vector":"1"}},{"base_weights":[-7.315167E-2,2.8634486E-1,-3.0812868E-1,-1.1889713E-2,4.691283E-2,-4.708971E-2,-1.8293583E-1,-2.478564E-2,2.0870148E-1,1.8618437E-2,-3.4300202E-1,2.3518285E-2,-4.861266E-3,-6.1747998E-2,-4.4776155E-3],"categories":[],"categories_nodes":[],"categories_segments":[],"categories_sizes":[],"default_left":[0,0,0,0,0,0,0,0,0,0,0,0,0,0,0],"id":32,"left_children":[1,3,5,7,-1,-1,9,-1,11,-1,13,-1,-1,-1,-1],"loss_changes":[6.1349945E0,5.61294E0,3.2999582E0,2.3187027E0,0E0,0E0,3.4866724E0,0E0,1.2432802E0,0E0,6.6385345E0,0E0,0E0,0E0,0E0],"parents":[2147483647,0,0,1,1,2,2,3,3,6,6,8,8,10,10],"right_children":[2,4,6,8,-1,-1,10,-1,12,-1,14,-1,-1,-1,-1],"split_conditions":[3.582752E-1,2.471384E-1,8.97896E-1,4.7031456E1,4.691283E-2,-4.708971E-2,1.792952E0,-2.478564E-2,7.4022E-2,1.8618437E-2,2.685752E0,2.3518285E-2,-4.861266E-3,-6.1747998E-2,-4.4776155E-3],"split_indices":[3,3,3,0,0,0,3,0,3,0,3,0,0,0,0],"split_type":[0,0,0,0,0,0,0,0,0,0,0,0,0,0,0],"sum_hessian":[7.058184E1,2.781241E1,4.276943E1,1.9756178E1,8.056233E0,5.979805E0,3.6789623E1,5.7961874E0,1.395999E1,7.9350076E0,2.8854616E1,7.2346034E0,6.7253866E0,5.527887E0,2.3326729E1],"tree_param":{"num_deleted":"0","num_feature":"7","num_nodes":"15","size_leaf_vector":"1"}},{"base_weights":[3.8791222E-3,-4.2257555E-2,1.5424691E-1,4.0265465E-1,-2.50087E-1,2.0695771E-1,3.8626034E-2,-6.564953E-1,2.643699E-2,-8.760763E-3,2.677012E-2,-1.2127895E-2,-4.28432E-2],"categories":[],"categories_nodes":[],"categories_segments":[],"categories_sizes":[],"default_left":[0,0,0,0,0,0,0,0,0,0,0,0,0],"id":33,"left_children":[1,-1,3,5,7,9,-1,11,-1,-1,-1,-1,-1],"loss_changes":[9.134272E0,0E0,6.203511E0,2.5921335E0,7.861372E0,3.3863678E0,0E0,1.1230092E0,0E0,0E0,0E0,0E0,0E0],"parents":[2147483647,0,0,2,2,3,3,4,4,5,5,7,7],"right_children":[2,-1,4,6,8,10,-1,12,-1,-1,-1,-1,-1],"split_conditions":[4.1274864E1,-4.2257555E-2,5.0658226E-1,4.6924898E-1,8.362381E-1,5.036989E1,3.8626034E-2,7.77424E-1,2.643699E-2,-8.760763E-3,2.677012E-2,-1.2127895E-2,-4.28432E-2],"split_indices":[0,0,5,5,5,0,0,3,0,0,0,0,0],"split_type":[0,0,0,0,0,0,0,0,0,0,0,0,0],"sum_hessian":[6.952664E1,9.765663E0,5.976098E1,3.7020878E1,2.27401E1,2.5230772E1,1.1790109E1,1.5045902E1,7.6941986E0,1.18771925E1,1.3353579E1,5.6285524E0,9.41735E0],"tree_param":{"num_deleted":"0","num_feature":"7","num_nodes":"13","size_leaf_vector":"1"}},{"base_weights":[3.949883E-2,-1.9224495E-1,4.657642E-1,-4.082582E-1,6.064065E-2,4.6549845E-2,1.8387191E-1,-2.2287266E-1,-4.561818E-2,-2.5281256E-2,4.776234E-1,-3.7636606E-3,1.8423172E-2,1.1768274E-2,-2.8112218E-2,3.3628434E-2,8.110984E-3],"categories":[],"categories_nodes":[],"categories_segments":[],"categories_sizes":[],"default_left":[0,0,0,0,0,0,0,0,0,0,0,0,0,0,0,0,0],"id":34,"left_children":[1,3,5,7,9,-1,11,13,-1,-1,15,-1,-1,-1,-1,-1,-1],"loss_changes":[6.5994635E0,2.3954873E0,2.9109392E0,1.9961026E0,5.167903E0,0E0,7.8739315E-1,3.0140476E0,0E0,0E0,6.613171E-1,0E0,0E0,0E0,0E0,0E0,0E0],"parents":[2147483647,0,0,1,1,2,2,3,3,4,4,6,6,7,7,10,10],"right_children":[2,4,6,8,10,-1,12,14,-1,-1,16,-1,-1,-1,-1,-1,-1],"split_conditions":[1.1299228E4,1.90084E0,2.881431E4,1.534796E0,5.9983902E1,4.6549845E-2,2.5883478E5,-5.397812E-5,-4.561818E-2,-2.5281256E-2,6.444444E1,-3.7636606E-3,1.8423172E-2,1.1768274E-2,-2.8112218E-2,3.3628434E-2,8.110984E-3],"split_indices":[4,3,4,3,4,0,4,1,0,0,6,0,0,0,0,0,0],"split_type":[0,0,0,0,0,0,0,0,0,0,0,0,0,0,0,0,0],"sum_hessian":[6.490035E1,4.2398792E1,2.250156E1,2.2535076E1,1.9863714E1,7.621096E0,1.4880464E1,1.753037E1,5.0047054E0,8.333787E0,1.1529927E1,6.436533E0,8.443931E0,7.589322E0,9.941049E0,6.4258327E0,5.1040945E0],"tree_param":{"num_deleted":"0","num_feature":"7","num_nodes":"17","size_leaf_vector":"1"}},{"base_weights":[2.8479697E-2,-1.850126E-1,4.1887686E-1,-2.7323177E-1,2.0665862E-2,-4.6308567E-3,5.541828E-1,-1.14127204E-1,-5.023721E-2,7.6692754E-1,3.3434723E-3,-1.6815558E-2,1.9985134E-2,2.5869096E-2,4.8786834E-2],"categories":[],"categories_nodes":[],"categories_segments":[],"categories_sizes":[],"default_left":[0,0,0,0,0,0,0,0,0,0,0,0,0,0,0],"id":35,"left_children":[1,3,5,7,-1,-1,9,11,-1,13,-1,-1,-1,-1,-1],"loss_changes":[6.0098166E0,2.5783267E0,1.8140078E0,4.6929755E0,0E0,0E0,2.051674E0,4.136605E0,0E0,2.2595596E-1,0E0,0E0,0E0,0E0,0E0],"parents":[2147483647,0,0,1,1,2,2,3,3,6,6,7,7,9,9],"right_children":[2,4,6,8,-1,-1,10,12,-1,14,-1,-1,-1,-1,-1],"split_conditions":[1.0390612E4,8.428095E-1,2.332272E-2,1.3249466E-3,2.0665862E-2,-4.6308567E-3,1.177344E0,7.63282E0,-5.023721E-2,2.471384E-1,3.3434723E-3,-1.6815558E-2,1.9985134E-2,2.5869096E-2,4.8786834E-2],"split_indices":[4,5,3,1,0,0,3,3,0,3,0,0,0,0,0],"split_type":[0,0,0,0,0,0,0,0,0,0,0,0,0,0,0],"sum_hessian":[7.017634E1,4.570709E1,2.4469252E1,4.0307407E1,5.3996787E0,5.1847935E0,1.9284458E1,3.4056175E1,6.2512326E0,1.3024576E1,6.259882E0,2.4016666E1,1.0039509E1,7.5178494E0,5.506727E0],"tree_param":{"num_deleted":"0","num_feature":"7","num_nodes":"15","size_leaf_vector":"1"}},{"base_weights":[1.0417036E-2,-2.2982611E-1,3.1382695E-1,-3.976879E-2,-4.5091104E-2,1.5454212E-1,4.3970834E-2,1.8782005E-2,-2.3149788E-1,3.7406635E-1,-2.8298173E-2,-2.787956E-2,8.347646E-4,3.631252E-2,-1.1176007E-2],"categories":[],"categories_nodes":[],"categories_segments":[],"categories_sizes":[],"default_left":[0,0,0,0,0,0,0,0,0,0,0,0,0,0,0],"id":36,"left_children":[1,3,5,-1,7,9,-1,-1,11,13,-1,-1,-1,-1,-1],"loss_changes":[5.0917206E0,4.0397253E0,2.6437085E0,0E0,2.4762182E0,4.2113366E0,0E0,0E0,1.7680051E0,4.3681593E0,0E0,0E0,0E0,0E0,0E0],"parents":[2147483647,0,0,1,1,2,2,4,4,5,5,8,8,9,9],"right_children":[2,4,6,-1,8,10,-1,-1,12,14,-1,-1,-1,-1,-1],"split_conditions":[5.695174E3,4.477E1,5.682927E1,-3.976879E-2,-6.8246614E-4,5.0622406E1,4.3970834E-2,1.8782005E-2,5.072279E1,3.4282E-1,-2.8298173E-2,-2.787956E-2,8.347646E-4,3.631252E-2,-1.1176007E-2],"split_indices":[4,0,0,0,1,6,0,0,0,2,0,0,0,0,0],"split_type":[0,0,0,0,0,0,0,0,0,0,0,0,0,0,0],"sum_hessian":[6.786331E1,3.800951E1,2.9853804E1,8.544818E0,2.9464691E1,2.428715E1,5.566654E0,8.734728E0,2.0729963E1,1.8983936E1,5.303213E0,8.420252E0,1.23097105E1,1.1809041E1,7.1748943E0],"tree_param":{"num_deleted":"0","num_feature":"7","num_nodes":"15","size_leaf_vector":"1"}},{"base_weights":[9.9955894E-2,-1.6425636E-1,4.441466E-1,-2.8242901E-2,-1.2542792E-2,6.017729E-1,3.132584E-3,-3.4769523E-1,5.218359E-1,3.9053178E-1,4.85752E-2,-3.717708E-3,-4.5377824E-2,1.4652282E-2,3.254676E-2,8.589383E-3,3.2809157E-2],"categories":[],"categories_nodes":[],"categories_segments":[],"categories_sizes":[],"default_left":[0,0,0,0,0,0,0,0,0,0,0,0,0,0,0,0,0],"id":37,"left_children":[1,3,5,-1,7,9,-1,11,13,15,-1,-1,-1,-1,-1,-1,-1],"loss_changes":[6.270218E0,2.3803945E0,1.7581515E0,0E0,5.467537E0,1.2620382E0,0E0,2.8001904E0,1.5707445E-1,7.616601E-1,0E0,0E0,0E0,0E0,0E0,0E0,0E0],"parents":[2147483647,0,0,1,1,2,2,4,4,5,5,7,7,8,8,9,9],"right_children":[2,4,6,-1,8,10,-1,12,14,16,-1,-1,-1,-1,-1,-1,-1],"split_conditions":[5.695174E3,7.358107E1,3.4399715E-1,-2.8242901E-2,1.8857571E0,2.3930429E-1,3.132584E-3,1.6176857E0,4.7929985E1,3.88405E-6,4.85752E-2,-3.717708E-3,-4.5377824E-2,1.4652282E-2,3.254676E-2,8.589383E-3,3.2809157E-2],"split_indices":[4,4,2,0,2,2,0,2,0,1,0,0,0,0,0,0,0],"split_type":[0,0,0,0,0,0,0,0,0,0,0,0,0,0,0,0,0],"sum_hessian":[6.714718E1,3.8282803E1,2.8864378E1,9.767749E0,2.8515055E1,2.001653E1,8.847849E0,1.7738895E1,1.0776159E1,1.4047135E1,5.9693937E0,1.2680635E1,5.058259E0,5.066756E0,5.7094035E0,8.606769E0,5.4403663E0],"tree_param":{"num_deleted":"0","num_feature":"7","num_nodes":"17","size_leaf_vector":"1"}},{"base_weights":[2.3241626E-2,-6.923334E-1,1.7508543E-1,-4.936055E-2,-1.5760077E-2,-4.6629623E-2,6.15354E-1,2.256962E-1,-2.8538904E-1,7.301457E-1,1.2817237E-2,3.1935077E-2,-3.7046932E-3,-4.2513553E-2,2.5819454E-3,2.0355886E-2,4.9512442E-2],"categories":[],"categories_nodes":[],"categories_segments":[],"categories_sizes":[],"default_left":[0,0,0,0,0,0,0,0,0,0,0,0,0,0,0,0,0],"id":38,"left_children":[1,3,5,-1,-1,7,9,11,13,15,-1,-1,-1,-1,-1,-1,-1],"loss_changes":[7.423894E0,1.0196533E0,5.5187454E0,0E0,0E0,2.5569618E0,5.920291E-1,2.3338144E0,4.0167637E0,7.551198E-1,0E0,0E0,0E0,0E0,0E0,0E0,0E0],"parents":[2147483647,0,0,1,1,2,2,5,5,6,6,7,7,8,8,9,9],"right_children":[2,4,6,-1,-1,8,10,12,14,16,-1,-1,-1,-1,-1,-1,-1],"split_conditions":[4.3178223E1,4.1666668E1,1.2820939E4,-4.936055E-2,-1.5760077E-2,-4.7194833E-5,1.185414E0,1.6469942E0,6.444444E1,7.744214E-2,1.2817237E-2,3.1935077E-2,-3.7046932E-3,-4.2513553E-2,2.5819454E-3,2.0355886E-2,4.9512442E-2],"split_indices":[0,6,4,0,0,1,2,2,6,2,0,0,0,0,0,0,0],"split_type":[0,0,0,0,0,0,0,0,0,0,0,0,0,0,0,0,0],"sum_hessian":[6.6209366E1,1.0967011E1,5.5242355E1,5.2468467E0,5.720165E0,3.7334927E1,1.7907425E1,1.7467005E1,1.9867922E1,1.2785527E1,5.1218987E0,6.8708677E0,1.0596138E1,6.855232E0,1.3012691E1,6.847132E0,5.938395E0],"tree_param":{"num_deleted":"0","num_feature":"7","num_nodes":"17","size_leaf_vector":"1"}},{"base_weights":[5.98946E-2,4.702985E-1,-1.7824627E-1,7.7515894E-1,-8.73865E-3,-3.9933123E-2,-6.636049E-2,1.768797E-2,4.6263505E-2,2.6121888E-2,-2.3278831E-1,-5.422271E-2,1.7712411E-4],"categories":[],"categories_nodes":[],"categories_segments":[],"categories_sizes":[],"default_left":[0,0,0,0,0,0,0,0,0,0,0,0,0],"id":39,"left_children":[1,3,5,7,-1,-1,9,-1,-1,-1,11,-1,-1],"loss_changes":[6.505068E0,4.9338727E0,2.8833818E0,7.3243046E-1,0E0,0E0,3.7403712E0,0E0,0E0,0E0,5.9379725E0,0E0,0E0],"parents":[2147483647,0,0,1,1,2,2,3,3,6,6,10,10],"right_children":[2,4,6,8,-1,-1,10,-1,-1,-1,12,-1,-1],"split_conditions":[3.5474285E-1,6.25E1,1.10462E0,1.662164E-1,-8.73865E-3,-3.9933123E-2,1.7880828E0,1.768797E-2,4.6263505E-2,2.6121888E-2,1.8857571E0,-5.422271E-2,1.7712411E-4],"split_indices":[2,6,2,5,0,0,2,0,0,0,2,0,0],"split_type":[0,0,0,0,0,0,0,0,0,0,0,0,0],"sum_hessian":[6.470122E1,2.3399845E1,4.1301376E1,1.5753219E1,7.646626E0,5.372456E0,3.5928917E1,5.0193357E0,1.0733883E1,7.4461966E0,2.8482721E1,5.4073887E0,2.3075333E1],"tree_param":{"num_deleted":"0","num_feature":"7","num_nodes":"13","size_leaf_vector":"1"}},{"base_weights":[4.2368617E-2,3.4515998E-1,-1.4792508E-1,3.9521683E-2,5.0377082E-2,-5.284639E-2,1.246607E-2,2.662225E-1,-2.2480153E-2,2.8612092E-2,-1.1563286E-1,-4.33854E-3,2.8696567E-2,-5.7342615E-2,7.2597577E-3],"categories":[],"categories_nodes":[],"categories_segments":[],"categories_sizes":[],"default_left":[0,0,0,0,0,0,0,0,0,0,0,0,0,0,0],"id":40,"left_children":[1,3,5,7,-1,-1,9,11,-1,-1,13,-1,-1,-1,-1],"loss_changes":[3.803596E0,5.1092534E0,5.945984E0,2.1648948E0,0E0,0E0,2.617327E0,1.4869554E0,0E0,0E0,8.177588E0,0E0,0E0,0E0,0E0],"parents":[2147483647,0,0,1,1,2,2,3,3,6,6,7,7,10,10],"right_children":[2,4,6,8,-1,-1,10,12,-1,-1,14,-1,-1,-1,-1],"split_conditions":[3.5474285E-1,2.3930429E-1,1.1252714E0,1.0504571E-1,5.0377082E-2,-5.284639E-2,1.7880828E0,3.8726572E-2,-2.2480153E-2,2.8612092E-2,1.8857571E0,-4.33854E-3,2.8696567E-2,-5.7342615E-2,7.2597577E-3],"split_indices":[2,2,2,2,0,0,2,2,0,0,2,0,0,0,0],"split_type":[0,0,0,0,0,0,0,0,0,0,0,0,0,0,0],"sum_hessian":[6.4126434E1,2.4433897E1,3.9692535E1,1.744434E1,6.989557E0,5.1148553E0,3.457768E1,1.2231136E1,5.213203E0,5.7935276E0,2.8784153E1,6.030807E0,6.20033E0,5.124958E0,2.3659195E1],"tree_param":{"num_deleted":"0","num_feature":"7","num_nodes":"15","size_leaf_vector":"1"}},{"base_weights":[-5.0006427E-2,-3.0577517E-1,4.2163014E-1,-5.7814765E-1,-1.6006466E-3,-3.8602613E-3,6.036804E-1,-1.0256201E-2,-8.384441E-1,2.5329811E-2,-3.202289E-1,4.1843683E-2,1.5177007E-2,-5.563581E-2,-2.4005802E-2,-3.285758E-2,2.6697197E-3],"categories":[],"categories_nodes":[],"categories_segments":[],"categories_sizes":[],"default_left":[0,0,0,0,0,0,0,0,0,0,0,0,0,0,0,0,0],"id":41,"left_children":[1,3,5,7,9,-1,11,-1,13,-1,15,-1,-1,-1,-1,-1,-1],"loss_changes":[8.051462E0,3.5750794E0,2.1819296E0,2.038827E0,3.6264486E0,0E0,9.5960855E-1,0E0,7.519579E-1,0E0,1.7674979E0,0E0,0E0,0E0,0E0,0E0,0E0],"parents":[2147483647,0,0,1,1,2,2,3,3,4,4,6,6,8,8,10,10],"right_children":[2,4,6,8,10,-1,12,-1,14,-1,16,-1,-1,-1,-1,-1,-1],"split_conditions":[1.1299228E4,1.90084E0,4.7031456E1,3.582752E-1,7.74572E0,-3.8602613E-3,5.3831947E1,-1.0256201E-2,1.1694864E0,2.5329811E-2,4.736596E1,4.1843683E-2,1.5177007E-2,-5.563581E-2,-2.4005802E-2,-3.285758E-2,2.6697197E-3],"split_indices":[4,3,0,3,3,0,0,0,3,0,3,0,0,0,0,0,0],"split_type":[0,0,0,0,0,0,0,0,0,0,0,0,0,0,0,0,0],"sum_hessian":[6.4676414E1,4.2163044E1,2.2513369E1,2.1769173E1,2.0393873E1,6.1734433E0,1.6339924E1,9.682086E0,1.2087087E1,7.631718E0,1.2762155E1,8.189125E0,8.1508E0,5.6540527E0,6.4330335E0,6.31164E0,6.450515E0],"tree_param":{"num_deleted":"0","num_feature":"7","num_nodes":"17","size_leaf_vector":"1"}},{"base_weights":[-2.48105E-2,8.140158E-2,-3.33496E-2,-3.2333948E-2,3.341405E-2,-2.3417968E-1,2.5782013E-1,-2.6604384E-2,2.5885964E-2,4.1763797E-2,-4.8637525E-3],"categories":[],"categories_nodes":[],"categories_segments":[],"categories_sizes":[],"default_left":[0,0,0,0,0,0,0,0,0,0,0],"id":42,"left_children":[1,3,-1,5,-1,7,9,-1,-1,-1,-1],"loss_changes":[4.583851E0,3.884714E0,0E0,2.9555266E0,0E0,6.9230795E0,4.3373923E0,0E0,0E0,0E0,0E0],"parents":[2147483647,0,0,1,1,3,3,5,5,6,6],"right_children":[2,4,-1,6,-1,8,10,-1,-1,-1,-1],"split_conditions":[2.0031743E-3,7.546465E4,-3.33496E-2,5.2157066E1,3.341405E-2,7.63282E0,4.2203334E-1,-2.6604384E-2,2.5885964E-2,4.1763797E-2,-4.8637525E-3],"split_indices":[1,4,0,0,0,3,5,0,0,0,0],"split_type":[0,0,0,0,0,0,0,0,0,0,0],"sum_hessian":[6.540855E1,5.6875072E1,8.533476E0,4.8433674E1,8.4414E0,2.8677252E1,1.9756422E1,2.0748774E1,7.9284787E0,7.007906E0,1.2748516E1],"tree_param":{"num_deleted":"0","num_feature":"7","num_nodes":"11","size_leaf_vector":"1"}},{"base_weights":[5.459045E-2,-3.1816315E-2,1.6680512E-1,-1.5300772E-2,2.4214421E-1,4.383353E-2,1.5036333E-1,2.1237656E-2,-4.267858E-3],"categories":[],"categories_nodes":[],"categories_segments":[],"categories_sizes":[],"default_left":[0,0,0,0,0,0,0,0,0],"id":43,"left_children":[1,-1,3,-1,5,-1,7,-1,-1],"loss_changes":[5.154097E0,0E0,2.097567E0,0E0,2.7541454E0,0E0,2.9144902E0,0E0,0E0],"parents":[2147483647,0,0,2,2,4,4,6,6],"right_children":[2,-1,4,-1,6,-1,8,-1,-1],"split_conditions":[5.8912426E1,-3.1816315E-2,4.1274864E1,-1.5300772E-2,-1.4862902E-3,4.383353E-2,3.4809142E-1,2.1237656E-2,-4.267858E-3],"split_indices":[4,0,0,0,1,0,2,0,0],"split_type":[0,0,0,0,0,0,0,0,0],"sum_hessian":[6.4108864E1,8.304798E0,5.5804066E1,7.248894E0,4.8555172E1,5.0550876E0,4.3500084E1,1.973069E1,2.3769394E1],"tree_param":{"num_deleted":"0","num_feature":"7","num_nodes":"9","size_leaf_vector":"1"}},{"base_weights":[6.63656E-2,-2.8997961E-2,1.9976816E-1,4.786828E-1,4.411888E-3,4.9379535E-2,2.1677361E-1,-4.3809864E-1,2.9299945E-1,2.4563028E-2,-1.5124968E-3,-3.695267E-2,-6.120922E-3,3.7222262E-2,4.4246283E-4],"categories":[],"categories_nodes":[],"categories_segments":[],"categories_sizes":[],"default_left":[0,0,0,0,0,0,0,0,0,0,0,0,0,0,0],"id":44,"left_children":[1,-1,3,5,7,-1,9,11,13,-1,-1,-1,-1,-1,-1],"loss_changes":[5.37171E0,0E0,2.7915976E0,2.5996437E0,4.107856E0,0E0,1.0467517E0,1.116231E0,2.4897943E0,0E0,0E0,0E0,0E0,0E0,0E0],"parents":[2147483647,0,0,2,2,3,3,4,4,6,6,7,7,8,8],"right_children":[2,-1,4,6,8,-1,10,12,14,-1,-1,-1,-1,-1,-1],"split_conditions":[4.3178223E1,-2.8997961E-2,8.438357E-1,-5.218057E-5,1.8857571E0,4.9379535E-2,7.438714E-2,5.1205936E1,7.7223E0,2.4563028E-2,-1.5124968E-3,-3.695267E-2,-6.120922E-3,3.7222262E-2,4.4246283E-4],"split_indices":[0,0,2,1,2,0,2,0,2,0,0,0,0,0,0],"split_type":[0,0,0,0,0,0,0,0,0,0,0,0,0,0,0],"sum_hessian":[5.9957645E1,9.685369E0,5.0272278E1,2.0110191E1,3.0162088E1,5.8916206E0,1.421857E1,1.1701428E1,1.8460659E1,6.2665753E0,7.951995E0,5.3038454E0,6.397583E0,6.505344E0,1.1955316E1],"tree_param":{"num_deleted":"0","num_feature":"7","num_nodes":"15","size_leaf_vector":"1"}},{"base_weights":[2.2417553E-2,-2.393143E-2,1.2574124E-1,2.9662153E-2,1.8717322E-2,2.430768E-2,-5.5399604E-2,-7.6359236E-3,1.5060062E-2],"categories":[],"categories_nodes":[],"categories_segments":[],"categories_sizes":[],"default_left":[0,0,0,0,0,0,0,0,0],"id":45,"left_children":[1,-1,3,-1,5,-1,7,-1,-1],"loss_changes":[3.334697E0,0E0,2.6521847E0,0E0,1.5633159E0,0E0,1.4055266E0,0E0,0E0],"parents":[2147483647,0,0,2,2,4,4,6,6],"right_children":[2,-1,4,-1,6,-1,8,-1,-1],"split_conditions":[4.234961E1,-2.393143E-2,1.967213E1,2.9662153E-2,4.541733E1,2.430768E-2,5.846715E1,-7.6359236E-3,1.5060062E-2],"split_indices":[0,0,6,0,0,0,0,0,0],"split_type":[0,0,0,0,0,0,0,0,0],"sum_hessian":[6.225126E1,1.0021553E1,5.2229706E1,8.883167E0,4.334654E1,5.1715617E0,3.8174976E1,3.0439548E1,7.735428E0],"tree_param":{"num_deleted":"0","num_feature":"7","num_nodes":"9","size_leaf_vector":"1"}},{"base_weights":[2.5102902E-2,-3.618672E-2,1.5342501E-1,6.403444E-2,3.7947908E-2,3.279627E-2,-4.8050314E-2,1.2323031E-2,-1.2837851E-2],"categories":[],"categories_nodes":[],"categories_segments":[],"categories_sizes":[],"default_left":[0,0,0,0,0,0,0,0,0],"id":46,"left_children":[1,-1,3,5,-1,-1,7,-1,-1],"loss_changes":[6.442167E0,0E0,3.0406647E0,3.403217E0,0E0,0E0,2.747082E0,0E0,0E0],"parents":[2147483647,0,0,2,2,3,3,6,6],"right_children":[2,-1,4,6,-1,-1,8,-1,-1],"split_conditions":[4.1274864E1,-3.618672E-2,3.6660134E5,-1.8431669E-3,3.7947908E-2,3.279627E-2,3.486036E-1,1.2323031E-2,-1.2837851E-2],"split_indices":[0,0,4,1,0,0,3,0,0],"split_type":[0,0,0,0,0,0,0,0,0],"sum_hessian":[6.488585E1,8.813537E0,5.6072308E1,4.9823036E1,6.2492733E0,7.160136E0,4.26629E1,1.7619175E1,2.5043724E1],"tree_param":{"num_deleted":"0","num_feature":"7","num_nodes":"9","size_leaf_vector":"1"}},{"base_weights":[7.163487E-2,3.6330903E-1,-1.16488755E-1,1.4453821E-1,3.7963998E-2,-4.9156556E-1,1.22156344E-1,2.3426691E-2,-1.3607517E-2,-4.374575E-2,6.0947104E-3,2.7874822E-2,-1.4434046E-1,1.4625534E-2,-1.851417E-2],"categories":[],"categories_nodes":[],"categories_segments":[],"categories_sizes":[],"default_left":[0,0,0,0,0,0,0,0,0,0,0,0,0,0,0],"id":47,"left_children":[1,3,5,7,-1,9,11,-1,-1,-1,-1,-1,13,-1,-1],"loss_changes":[3.6488175E0,2.1437378E0,3.704313E0,2.5564175E0,0E0,3.8765075E0,3.0601258E0,0E0,0E0,0E0,0E0,0E0,1.7591419E0,0E0,0E0],"parents":[2147483647,0,0,1,1,2,2,3,3,5,5,6,6,12,12],"right_children":[2,4,6,8,-1,10,12,-1,-1,-1,-1,-1,14,-1,-1],"split_conditions":[8.438357E-1,2.3930429E-1,1.8452286E0,8.3191E-2,3.7963998E-2,5.1205936E1,7.7562857E0,2.3426691E-2,-1.3607517E-2,-4.374575E-2,6.0947104E-3,2.7874822E-2,4.5728675E-1,1.4625534E-2,-1.851417E-2],"split_indices":[2,2,2,2,0,0,2,0,0,0,0,0,5,0,0],"split_type":[0,0,0,0,0,0,0,0,0,0,0,0,0,0,0],"sum_hessian":[6.472706E1,2.501367E1,3.9713387E1,1.6991194E1,8.022477E0,1.5030399E1,2.468299E1,9.488782E0,7.5024114E0,8.987768E0,6.04263E0,8.957834E0,1.5725155E1,5.260186E0,1.046497E1],"tree_param":{"num_deleted":"0","num_feature":"7","num_nodes":"15","size_leaf_vector":"1"}},{"base_weights":[-3.287871E-2,5.41581E-2,-4.1412356E-1,-2.4036175E-1,2.3175877E-1,-2.623393E-2,-1.1510432E-2,9.327567E-3,-3.1133337E-2,6.652717E-1,-2.0741059E-1,1.774019E-2,4.4761542E-2,-2.6014661E-2,1.3673142E-2],"categories":[],"categories_nodes":[],"categories_segments":[],"categories_sizes":[],"default_left":[0,0,0,0,0,0,0,0,0,0,0,0,0,0,0],"id":48,"left_children":[1,3,5,7,9,-1,-1,-1,-1,11,13,-1,-1,-1,-1],"loss_changes":[2.0543633E0,2.709671E0,1.12982154E-1,3.3114147E0,6.260949E0,0E0,0E0,0E0,0E0,8.548393E-1,2.660709E0,0E0,0E0,0E0,0E0],"parents":[2147483647,0,0,1,1,2,2,3,3,4,4,9,9,10,10],"right_children":[2,4,6,8,10,-1,-1,-1,-1,12,14,-1,-1,-1,-1],"split_conditions":[1.0793571E1,3.3163443E-1,7.444714E1,3.4809142E-1,5.809426E-1,-2.623393E-2,-1.1510432E-2,9.327567E-3,-3.1133337E-2,8.632714E-1,9.1979164E1,1.774019E-2,4.4761542E-2,-2.6014661E-2,1.3673142E-2],"split_indices":[2,5,2,2,5,0,0,0,0,2,6,0,0,0,0],"split_type":[0,0,0,0,0,0,0,0,0,0,0,0,0,0,0],"sum_hessian":[6.0235447E1,4.9738316E1,1.0497131E1,1.8577454E1,3.116086E1,5.3989067E0,5.098225E0,9.01859E0,9.558863E0,1.5422329E1,1.5738532E1,7.6444526E0,7.7778764E0,9.485058E0,6.253474E0],"tree_param":{"num_deleted":"0","num_feature":"7","num_nodes":"15","size_leaf_vector":"1"}},{"base_weights":[-4.5197647E-2,-2.2586095E-1,2.9677755E-1,1.0153487E-1,-3.4338185E-1,1.6230881E-2,3.38834E-2,1.8236933E-2,-7.0795105E-3,-1.7539488E-1,-6.323267E-1,3.1741552E-2,-1.9892605E-2,-2.3878256E-2,3.0499995E-2,-4.241322E-2,-1.6061528E-2],"categories":[],"categories_nodes":[],"categories_segments":[],"categories_sizes":[],"default_left":[0,0,0,0,0,0,0,0,0,0,0,0,0,0,0,0,0],"id":49,"left_children":[1,3,5,7,9,11,-1,-1,-1,13,15,-1,-1,-1,-1,-1,-1],"loss_changes":[4.0420704E0,1.6765022E0,2.4117503E0,8.2221717E-1,1.4241316E0,3.85936E0,0E0,0E0,0E0,5.36578E0,4.8277044E-1,0E0,0E0,0E0,0E0,0E0,0E0],"parents":[2147483647,0,0,1,1,2,2,3,3,4,4,5,5,9,9,10,10],"right_children":[2,4,6,8,10,12,-1,-1,-1,14,16,-1,-1,-1,-1,-1,-1],"split_conditions":[1.0196408E4,2.5895557E-1,3.88405E-6,4.9934143E2,7.7223E0,2.881431E4,3.38834E-2,1.8236933E-2,-7.0795105E-3,2.691543E0,7.181243E1,3.1741552E-2,-1.9892605E-2,-2.3878256E-2,3.0499995E-2,-4.241322E-2,-1.6061528E-2],"split_indices":[4,5,1,4,2,4,0,0,0,2,2,0,0,0,0,0,0],"split_type":[0,0,0,0,0,0,0,0,0,0,0,0,0,0,0,0,0],"sum_hessian":[6.333939E1,4.1666687E1,2.1672705E1,1.1041825E1,3.0624863E1,1.308068E1,8.592024E0,5.0617914E0,5.9800344E0,2.0382113E1,1.0242749E1,5.0313E0,8.049379E0,1.5002169E1,5.3799434E0,5.026834E0,5.2159157E0],"tree_param":{"num_deleted":"0","num_feature":"7","num_nodes":"17","size_leaf_vector":"1"}},{"base_weights":[-1.3595572E-2,1.2044028E-1,-2.725124E-1,-1.2214758E-2,3.9144766E-2,-6.132035E-1,1.9702153E-2,4.0038532E-1,-2.3753864E-1,-7.824991E-3,-4.2386297E-2,3.3806257E-2,4.724011E-3,-2.9025514E-2,9.509532E-3],"categories":[],"categories_nodes":[],"categories_segments":[],"categories_sizes":[],"default_left":[0,0,0,0,0,0,0,0,0,0,0,0,0,0,0],"id":50,"left_children":[1,3,5,7,-1,9,-1,11,13,-1,-1,-1,-1,-1,-1],"loss_changes":[2.2323422E0,3.740345E0,5.220589E0,3.4750526E0,0E0,1.4632678E0,0E0,1.0507011E0,3.652018E0,0E0,0E0,0E0,0E0,0E0,0E0],"parents":[2147483647,0,0,1,1,2,2,3,3,5,5,7,7,8,8],"right_children":[2,4,6,8,-1,10,-1,12,14,-1,-1,-1,-1,-1,-1],"split_conditions":[5.809426E-1,5.48146E1,8.6413056E-1,3.582752E-1,3.9144766E-2,2.66057E2,1.9702153E-2,3.77907E1,7.63282E0,-7.824991E-3,-4.2386297E-2,3.3806257E-2,4.724011E-3,-2.9025514E-2,9.509532E-3],"split_indices":[5,0,5,3,0,4,0,6,3,0,0,0,0,0,0],"split_type":[0,0,0,0,0,0,0,0,0,0,0,0,0,0,0],"sum_hessian":[6.2379204E1,4.1454105E1,2.0925098E1,3.535576E1,6.0983458E0,1.390036E1,7.0247383E0,1.22137375E1,2.3142023E1,5.2818713E0,8.618488E0,5.7870784E0,6.426659E0,1.2645294E1,1.0496728E1],"tree_param":{"num_deleted":"0","num_feature":"7","num_nodes":"15","size_leaf_vector":"1"}},{"base_weights":[-6.269266E-2,2.1721698E-2,-3.7740856E-2,1.6751136E-1,-2.9582953E-1,2.1094186E-2,3.7279565E-2,-7.156734E-1,1.709818E-2,2.0043079E-2,-1.1191685E-2,-1.8653244E-2,-4.588489E-2],"categories":[],"categories_nodes":[],"categories_segments":[],"categories_sizes":[],"default_left":[0,0,0,0,0,0,0,0,0,0,0,0,0],"id":51,"left_children":[1,3,-1,5,7,9,-1,11,-1,-1,-1,-1,-1],"loss_changes":[3.786034E0,2.7568784E0,0E0,3.4306011E0,5.2686644E0,3.2073765E0,0E0,4.6312523E-1,0E0,0E0,0E0,0E0,0E0],"parents":[2147483647,0,0,1,1,3,3,4,4,5,5,7,7],"right_children":[2,4,-1,6,8,10,-1,12,-1,-1,-1,-1,-1],"split_conditions":[4.4287913E-3,5.809426E-1,-3.7740856E-2,5.4718403E1,1.6231004E-4,3.5474285E-1,3.7279565E-2,1.3586856E-1,1.709818E-2,2.0043079E-2,-1.1191685E-2,-1.8653244E-2,-4.588489E-2],"split_indices":[1,5,0,0,1,2,0,2,0,0,0,0,0],"split_type":[0,0,0,0,0,0,0,0,0,0,0,0,0],"sum_hessian":[6.3520714E1,5.747896E1,6.041755E0,3.9717094E1,1.7761864E1,3.2517494E1,7.1996017E0,1.0637406E1,7.1244574E0,1.2499706E1,2.0017788E1,5.001727E0,5.6356797E0],"tree_param":{"num_deleted":"0","num_feature":"7","num_nodes":"13","size_leaf_vector":"1"}},{"base_weights":[-2.9649513E-2,-2.660557E-2,4.1556165E-2,-9.771912E-2,5.3488433E-1,3.263841E-2,-2.943852E-2,5.225262E-2,-1.2517011E-3,9.943451E-3,-1.2527155E-2],"categories":[],"categories_nodes":[],"categories_segments":[],"categories_sizes":[],"default_left":[0,0,0,0,0,0,0,0,0,0,0],"id":52,"left_children":[1,-1,3,5,7,9,-1,-1,-1,-1,-1],"loss_changes":[2.259937E0,0E0,3.8800988E0,2.8543987E0,3.5739574E0,1.7419941E0,0E0,0E0,0E0,0E0,0E0],"parents":[2147483647,0,0,2,2,3,3,4,4,5,5],"right_children":[2,-1,4,6,8,10,-1,-1,-1,-1,-1],"split_conditions":[5.657004E1,-2.660557E-2,7.63282E0,1.792952E0,4.871197E1,5.149005E-1,-2.943852E-2,5.225262E-2,-1.2517011E-3,9.943451E-3,-1.2527155E-2],"split_indices":[4,0,3,3,0,5,0,0,0,0,0],"split_type":[0,0,0,0,0,0,0,0,0,0,0],"sum_hessian":[6.154726E1,6.83603E0,5.471123E1,4.329126E1,1.14199705E1,3.494743E1,8.343829E0,5.5220933E0,5.8978777E0,2.2208523E1,1.2738909E1],"tree_param":{"num_deleted":"0","num_feature":"7","num_nodes":"11","size_leaf_vector":"1"}},{"base_weights":[1.13168955E-2,-5.721055E-2,1.94515E-2,-3.5498723E-1,3.3438902E-2,6.5592877E-3,-3.7135184E-2,4.2358004E-2,-1.2694077E-1,-3.1381924E-2,1.0785295E-3],"categories":[],"categories_nodes":[],"categories_segments":[],"categories_sizes":[],"default_left":[0,0,0,0,0,0,0,0,0,0,0],"id":53,"left_children":[1,3,-1,5,7,-1,-1,-1,9,-1,-1],"loss_changes":[1.6584047E0,1.4796615E0,0E0,2.5057087E0,5.667017E0,0E0,0E0,0E0,2.7243671E0,0E0,0E0],"parents":[2147483647,0,0,1,1,3,3,4,4,8,8],"right_children":[2,4,-1,6,8,-1,-1,-1,10,-1,-1],"split_conditions":[7.546465E4,2.4701142E-1,1.94515E-2,8.1628144E-2,3.5474285E-1,6.5592877E-3,-3.7135184E-2,4.2358004E-2,1.2240257E0,-3.1381924E-2,1.0785295E-3],"split_indices":[4,2,0,2,2,0,0,0,2,0,0],"split_type":[0,0,0,0,0,0,0,0,0,0,0],"sum_hessian":[6.221149E1,5.3376137E1,8.835351E0,1.1776189E1,4.159995E1,5.5182643E0,6.257925E0,6.144134E0,3.5455814E1,7.372762E0,2.8083052E1],"tree_param":{"num_deleted":"0","num_feature":"7","num_nodes":"11","size_leaf_vector":"1"}},{"base_weights":[1.9077904E-4,3.1291583E-1,-1.8916273E-1,3.9124697E-2,4.684655E-2,-4.598832E-1,8.9015085E-3,1.6042933E-2,-1.928944E-2,-1.1142123E-3,-5.4574218E-2,-2.3835432E-2,3.2727653E-1,3.1886514E-2,-2.1797745E-3],"categories":[],"categories_nodes":[],"categories_segments":[],"categories_sizes":[],"default_left":[0,0,0,0,0,0,0,0,0,0,0,0,0,0,0],"id":54,"left_children":[1,3,5,7,-1,9,11,-1,-1,-1,-1,-1,13,-1,-1],"loss_changes":[3.6940854E0,3.982942E0,2.087606E0,2.2062976E0,0E0,4.5184674E0,3.776997E0,0E0,0E0,0E0,0E0,0E0,1.7248434E0,0E0,0E0],"parents":[2147483647,0,0,1,1,2,2,3,3,5,5,6,6,12,12],"right_children":[2,4,6,8,-1,10,12,-1,-1,-1,-1,-1,14,-1,-1],"split_conditions":[7.900286E-1,2.4701142E-1,3.4226573E0,6.25E1,4.684655E-2,1.7880828E0,5.8912426E1,1.6042933E-2,-1.928944E-2,-1.1142123E-3,-5.4574218E-2,-2.3835432E-2,4.8464165E1,3.1886514E-2,-2.1797745E-3],"split_indices":[2,2,2,6,0,2,4,0,0,0,0,0,0,0,0],"split_type":[0,0,0,0,0,0,0,0,0,0,0,0,0,0,0],"sum_hessian":[6.0384064E1,2.2527096E1,3.7856964E1,1.6395952E1,6.1311436E0,1.543628E1,2.2420685E1,1.0006286E1,6.3896675E0,9.730132E0,5.706149E0,8.681569E0,1.3739117E1,7.0870585E0,6.6520576E0],"tree_param":{"num_deleted":"0","num_feature":"7","num_nodes":"15","size_leaf_vector":"1"}},{"base_weights":[1.8382493E-3,-2.7533282E-2,1.0510569E-1,2.6469812E-1,-1.4733842E-1,4.156276E-1,-1.796021E-2,-5.5154717E-1,1.7922716E-2,1.1101698E-2,4.789502E-2,-8.954009E-3,-4.309972E-2],"categories":[],"categories_nodes":[],"categories_segments":[],"categories_sizes":[],"default_left":[0,0,0,0,0,0,0,0,0,0,0,0,0],"id":55,"left_children":[1,-1,3,5,7,9,-1,11,-1,-1,-1,-1,-1],"loss_changes":[3.6036305E0,0E0,2.1822853E0,3.2521486E0,4.541712E0,2.6213894E0,0E0,1.2567654E0,0E0,0E0,0E0,0E0,0E0],"parents":[2147483647,0,0,2,2,3,3,4,4,5,5,7,7],"right_children":[2,-1,4,6,8,10,-1,12,-1,-1,-1,-1,-1],"split_conditions":[4.234961E1,-2.7533282E-2,5.093633E1,4.674043E1,9.1441444E1,3.0472715E0,-1.796021E-2,3.8404167E3,1.7922716E-2,1.1101698E-2,4.789502E-2,-8.954009E-3,-4.309972E-2],"split_indices":[0,0,6,2,6,2,0,4,0,0,0,0,0],"split_type":[0,0,0,0,0,0,0,0,0,0,0,0,0],"sum_hessian":[6.1145493E1,8.946626E0,5.2198868E1,3.1951153E1,2.0247715E1,2.5996187E1,5.954965E0,1.1203711E1,9.044005E0,2.0195692E1,5.8004956E0,5.809936E0,5.393774E0],"tree_param":{"num_deleted":"0","num_feature":"7","num_nodes":"13","size_leaf_vector":"1"}},{"base_weights":[1.237576E-2,-2.9486094E-2,1.2001796E-1,2.2055063E-1,-1.9727066E-2,9.6675605E-2,3.8009718E-2,2.122389E-2,-9.777704E-3],"categories":[],"categories_nodes":[],"categories_segments":[],"categories_sizes":[],"default_left":[0,0,0,0,0,0,0,0,0],"id":56,"left_children":[1,-1,3,5,-1,7,-1,-1,-1],"loss_changes":[3.9019413E0,0E0,2.7241282E0,2.8202221E0,0E0,3.5652823E0,0E0,0E0,0E0],"parents":[2147483647,0,0,2,2,3,3,5,5],"right_children":[2,-1,4,6,-1,8,-1,-1,-1],"split_conditions":[4.1274864E1,-2.9486094E-2,1.9635276E-3,1.6231004E-4,-1.9727066E-2,-1.6190847E-4,3.8009718E-2,2.122389E-2,-9.777704E-3],"split_indices":[0,0,1,1,0,1,0,0,0],"split_type":[0,0,0,0,0,0,0,0,0],"sum_hessian":[5.8112766E1,8.134398E0,4.9978367E1,4.2287727E1,7.690638E0,3.5351868E1,6.935861E0,1.6448536E1,1.890333E1],"tree_param":{"num_deleted":"0","num_feature":"7","num_nodes":"9","size_leaf_vector":"1"}},{"base_weights":[-2.3897986E-3,-2.8151631E-2,9.727006E-2,-2.8335648E-2,4.3202975E-1,-1.7998925E-1,2.5190515E-2,3.7756186E-2,5.8524488E-3,1.9449106E-3,-4.6597484E-2],"categories":[],"categories_nodes":[],"categories_segments":[],"categories_sizes":[],"default_left":[0,0,0,0,0,0,0,0,0,0,0],"id":57,"left_children":[1,-1,3,5,7,9,-1,-1,-1,-1,-1],"loss_changes":[3.5270436E0,0E0,2.2667701E0,3.3129106E0,1.4066653E0,5.271877E0,0E0,0E0,0E0,0E0,0E0],"parents":[2147483647,0,0,2,2,3,3,4,4,5,5],"right_children":[2,-1,4,6,8,10,-1,-1,-1,-1,-1],"split_conditions":[5.9983902E1,-2.8151631E-2,5.4718403E1,7.6317E0,7.120253E1,1.7880828E0,2.5190515E-2,3.7756186E-2,5.8524488E-3,1.9449106E-3,-4.6597484E-2],"split_indices":[4,0,0,2,6,2,0,0,0,0,0],"split_type":[0,0,0,0,0,0,0,0,0,0,0],"sum_hessian":[6.1145237E1,8.526927E0,5.2618313E1,3.8927586E1,1.3690725E1,3.0809196E1,8.11839E0,6.0685244E0,7.6222005E0,2.4597425E1,6.2117705E0],"tree_param":{"num_deleted":"0","num_feature":"7","num_nodes":"11","size_leaf_vector":"1"}},{"base_weights":[8.217104E-3,-1.355926E-1,3.517367E-1,-3.0616313E-2,-1.652604E-2,-6.0430868E-3,5.4546946E-1,-2.8046114E-2,9.6360326E-2,3.6090396E-2,1.442E-2,2.7803725E-2,-3.1172617E-3],"categories":[],"categories_nodes":[],"categories_segments":[],"categories_sizes":[],"default_left":[0,0,0,0,0,0,0,0,0,0,0,0,0],"id":58,"left_children":[1,3,5,-1,7,-1,9,-1,11,-1,-1,-1,-1],"loss_changes":[3.0298898E0,2.4462624E0,1.722415E0,0E0,2.245163E0,0E0,3.8174462E-1,0E0,2.251454E0,0E0,0E0,0E0,0E0],"parents":[2147483647,0,0,1,1,2,2,4,4,6,6,8,8],"right_children":[2,4,6,-1,8,-1,10,-1,12,-1,-1,-1,-1],"split_conditions":[1.3026642E4,2.3930429E-1,2.558E-2,-3.0616313E-2,4.3178223E1,-6.0430868E-3,8.438357E-1,-2.8046114E-2,4.8464165E1,3.6090396E-2,1.442E-2,2.7803725E-2,-3.1172617E-3],"split_indices":[4,2,2,0,0,0,2,0,0,0,0,0,0],"split_type":[0,0,0,0,0,0,0,0,0,0,0,0,0],"sum_hessian":[5.9366585E1,4.2274315E1,1.709227E1,7.620335E0,3.465398E1,5.0788617E0,1.2013409E1,5.270071E0,2.938391E1,6.053287E0,5.960121E0,6.8982615E0,2.2485647E1],"tree_param":{"num_deleted":"0","num_feature":"7","num_nodes":"13","size_leaf_vector":"1"}},{"base_weights":[1.387452E-2,2.0554778E-1,-2.282249E-1,4.6409268E-2,4.476617E-2,-3.3657458E-2,8.513021E-3,3.6972128E-2,-2.424912E-1,1.3749503E-1,-1.4046887E-2,1.0085601E-2,-2.3148194E-2,-8.623331E-3,1.6767774E-2],"categories":[],"categories_nodes":[],"categories_segments":[],"categories_sizes":[],"default_left":[0,0,0,0,0,0,0,0,0,0,0,0,0,0,0],"id":59,"left_children":[1,3,5,7,-1,-1,9,-1,11,13,-1,-1,-1,-1,-1],"loss_changes":[2.896348E0,3.7781992E0,2.9136086E0,6.051539E0,0E0,0E0,7.4822843E-1,0E0,2.1943936E0,9.053694E-1,0E0,0E0,0E0,0E0,0E0],"parents":[2147483647,0,0,1,1,2,2,3,3,6,6,8,8,9,9],"right_children":[2,4,6,8,-1,-1,10,-1,12,14,-1,-1,-1,-1,-1],"split_conditions":[1.792952E0,9.609025E-5,4.471154E1,2.967742E1,4.476617E-2,-3.3657458E-2,5.441E1,3.6972128E-2,8.177248E-2,4.7375328E1,-1.4046887E-2,1.0085601E-2,-2.3148194E-2,-8.623331E-3,1.6767774E-2],"split_indices":[3,1,6,6,0,0,0,0,3,0,0,0,0,0,0],"split_type":[0,0,0,0,0,0,0,0,0,0,0,0,0,0,0],"sum_hessian":[6.0405003E1,3.3797813E1,2.6607191E1,2.8329239E1,5.4685736E0,8.600329E0,1.800686E1,7.87608E0,2.045316E1,1.2819396E1,5.187465E0,6.812528E0,1.3640631E1,5.044769E0,7.774627E0],"tree_param":{"num_deleted":"0","num_feature":"7","num_nodes":"15","size_leaf_vector":"1"}},{"base_weights":[-3.4445025E-2,-1.2689792E-1,3.4623164E-1,-6.043291E-3,-4.355297E-1,3.279002E-2,-3.3240542E-3,-1.2894769E-1,2.8868908E-2,-4.8089143E-2,9.0749713E-4,1.2260914E-2,-1.6327633E-2],"categories":[],"categories_nodes":[],"categories_segments":[],"categories_sizes":[],"default_left":[0,0,0,0,0,0,0,0,0,0,0,0,0],"id":60,"left_children":[1,3,5,7,9,-1,-1,11,-1,-1,-1,-1,-1],"loss_changes":[2.2142515E0,1.8753214E0,1.6174068E0,2.7414765E0,3.3966036E0,0E0,0E0,2.4120357E0,0E0,0E0,0E0,0E0,0E0],"parents":[2147483647,0,0,1,1,2,2,3,3,4,4,7,7],"right_children":[2,4,6,8,10,-1,-1,12,-1,-1,-1,-1,-1],"split_conditions":[5.682927E1,5.809426E-1,6.0932297E1,2.5883478E5,9.609025E-5,3.279002E-2,-3.3240542E-3,3.582752E-1,2.8868908E-2,-4.8089143E-2,9.0749713E-4,1.2260914E-2,-1.6327633E-2],"split_indices":[0,5,0,4,1,0,0,3,0,0,0,0,0],"split_type":[0,0,0,0,0,0,0,0,0,0,0,0,0],"sum_hessian":[6.0666046E1,4.934785E1,1.1318193E1,3.6194374E1,1.3153479E1,6.130678E0,5.1875157E0,3.0539795E1,5.654577E0,5.571161E0,7.5823183E0,1.0471329E1,2.0068466E1],"tree_param":{"num_deleted":"0","num_feature":"7","num_nodes":"13","size_leaf_vector":"1"}},{"base_weights":[-5.783748E-2,-2.2233205E-1,2.898609E-1,-3.8741702E-1,1.6374424E-1,-1.3576869E-2,3.583102E-2,-1.5677115E-1,-4.0079568E-2,2.9180808E-2,-2.1195708E-2,2.2135798E-2,-1.8801402E-2,1.6607102E-2,-2.1676827E-2],"categories":[],"categories_nodes":[],"categories_segments":[],"categories_sizes":[],"default_left":[0,0,0,0,0,0,0,0,0,0,0,0,0,0,0],"id":61,"left_children":[1,3,5,7,9,11,-1,13,-1,-1,-1,-1,-1,-1,-1],"loss_changes":[3.5628388E0,2.7459598E0,2.6097536E0,2.7190595E0,3.531362E0,2.2694924E0,0E0,2.9004188E0,0E0,0E0,0E0,0E0,0E0,0E0,0E0],"parents":[2147483647,0,0,1,1,2,2,3,3,4,4,5,5,7,7],"right_children":[2,4,6,8,10,12,-1,14,-1,-1,-1,-1,-1,-1,-1],"split_conditions":[1.1299228E4,1.6231004E-4,3.88405E-6,-5.397812E-5,4.0950547E-3,-9.045939E-5,3.583102E-2,1.6469942E0,-4.0079568E-2,2.9180808E-2,-2.1195708E-2,2.2135798E-2,-1.8801402E-2,1.6607102E-2,-2.1676827E-2],"split_indices":[4,1,1,1,1,1,0,2,0,0,0,0,0,0,0],"split_type":[0,0,0,0,0,0,0,0,0,0,0,0,0,0,0],"sum_hessian":[6.0166615E1,4.1088425E1,1.907819E1,2.87791E1,1.2309323E1,1.1715986E1,7.362203E0,1.9370531E1,9.408568E0,7.1836247E0,5.1256986E0,5.088536E0,6.6274505E0,6.92943E0,1.2441102E1],"tree_param":{"num_deleted":"0","num_feature":"7","num_nodes":"15","size_leaf_vector":"1"}},{"base_weights":[1.5237785E-3,-1.3194309E-1,3.3558E-1,1.8526224E-2,-2.5441635E-1,-5.920762E-3,5.596419E-1,2.3555662E-2,-5.3460115E-1,4.0679913E-2,1.2253071E-2,-2.0985184E-2,1.643409E-2,6.483154E-4,-3.9868977E-2],"categories":[],"categories_nodes":[],"categories_segments":[],"categories_sizes":[],"default_left":[0,0,0,0,0,0,0,0,0,0,0,0,0,0,0],"id":62,"left_children":[1,3,5,-1,7,-1,9,11,13,-1,-1,-1,-1,-1,-1],"loss_changes":[2.6938312E0,2.7514756E0,1.8206942E0,0E0,2.7626717E0,0E0,7.371228E-1,2.6648068E0,2.5467095E0,0E0,0E0,0E0,0E0,0E0,0E0],"parents":[2147483647,0,0,1,1,2,2,4,4,6,6,7,7,8,8],"right_children":[2,4,6,-1,8,-1,10,12,14,-1,-1,-1,-1,-1,-1],"split_conditions":[5.48146E1,1.5361142E-1,1.4455429E-1,1.8526224E-2,-8.555211E-5,-5.920762E-3,1.8197428E0,4.6087322E1,4.541733E1,4.0679913E-2,1.2253071E-2,-2.0985184E-2,1.643409E-2,6.483154E-4,-3.9868977E-2],"split_indices":[0,2,2,0,1,0,2,0,0,0,0,0,0,0,0],"split_type":[0,0,0,0,0,0,0,0,0,0,0,0,0,0,0],"sum_hessian":[5.8426434E1,4.2179363E1,1.624707E1,7.8692126E0,3.431015E1,5.5246024E0,1.0722468E1,1.7682867E1,1.6627285E1,5.0551887E0,5.6672797E0,7.0564265E0,1.0626439E1,5.7001624E0,1.0927123E1],"tree_param":{"num_deleted":"0","num_feature":"7","num_nodes":"15","size_leaf_vector":"1"}},{"base_weights":[7.1889594E-2,-3.8551018E-1,1.7535411E-1,-3.183692E-2,-2.9125137E-3,2.6579035E-2,1.0679672E-1,-2.2308988E-2,2.052892E-1,3.5906296E-2,4.4933814E-3],"categories":[],"categories_nodes":[],"categories_segments":[],"categories_sizes":[],"default_left":[0,0,0,0,0,0,0,0,0,0,0],"id":63,"left_children":[1,3,5,-1,-1,-1,7,-1,9,-1,-1],"loss_changes":[2.8875356E0,8.923614E-1,1.1467962E0,0E0,0E0,0E0,2.41066E0,0E0,2.1153545E0,0E0,0E0],"parents":[2147483647,0,0,1,1,2,2,6,6,8,8],"right_children":[2,4,6,-1,-1,-1,8,-1,10,-1,-1],"split_conditions":[4.3178223E1,5.5489014E3,7.6746E-2,-3.183692E-2,-2.9125137E-3,2.6579035E-2,2.434E-1,-2.2308988E-2,8.43686E-1,3.5906296E-2,4.4933814E-3],"split_indices":[0,4,3,0,0,0,3,0,3,0,0],"split_type":[0,0,0,0,0,0,0,0,0,0,0],"sum_hessian":[5.8587025E1,1.0304869E1,4.8282158E1,5.294649E0,5.010219E0,6.7024083E0,4.1579746E1,5.752546E0,3.58272E1,5.6227317E0,3.020447E1],"tree_param":{"num_deleted":"0","num_feature":"7","num_nodes":"11","size_leaf_vector":"1"}},{"base_weights":[3.233374E-2,-5.242612E-2,2.8196895E-2,2.2083393E-1,-2.1662962E-1,-2.1267023E-2,3.9628606E-2,-5.698821E-1,1.5358093E-1,-2.1332772E-2,1.2675746E-2,-4.1468125E-2,-4.9597807E-3,3.66131E-2,-1.4671977E-2],"categories":[],"categories_nodes":[],"categories_segments":[],"categories_sizes":[],"default_left":[0,0,0,0,0,0,0,0,0,0,0,0,0,0,0],"id":64,"left_children":[1,3,-1,5,7,9,-1,11,13,-1,-1,-1,-1,-1,-1],"loss_changes":[2.7542977E0,2.4291039E0,0E0,2.8426955E0,4.488823E0,1.8142607E0,0E0,2.047028E0,4.669558E0,0E0,0E0,0E0,0E0,0E0,0E0],"parents":[2147483647,0,0,1,1,3,3,4,4,5,5,7,7,8,8],"right_children":[2,4,-1,6,8,10,-1,12,14,-1,-1,-1,-1,-1,-1],"split_conditions":[5.8838676E1,3.5474285E-1,2.8196895E-2,2.4701142E-1,4.8860145E0,4.7031456E1,3.9628606E-2,5.1205936E1,1.0793571E1,-2.1332772E-2,1.2675746E-2,-4.1468125E-2,-4.9597807E-3,3.66131E-2,-1.4671977E-2],"split_indices":[0,2,0,2,2,0,0,0,2,0,0,0,0,0,0],"split_type":[0,0,0,0,0,0,0,0,0,0,0,0,0,0,0],"sum_hessian":[5.947075E1,5.2070004E1,7.400747E0,1.941521E1,3.2654793E1,1.431596E1,5.099251E0,1.6434118E1,1.6220675E1,5.5602155E0,8.755744E0,1.0102679E1,6.3314395E0,6.7911882E0,9.429485E0],"tree_param":{"num_deleted":"0","num_feature":"7","num_nodes":"15","size_leaf_vector":"1"}},{"base_weights":[-1.4410523E-2,-1.5355076E-2,4.9680375E-2,3.884573E-1,-6.687703E-2,2.0673003E-3,3.1176263E-2,-2.5369344E-2,7.755641E-2,-1.2835226E-2,1.5786646E-2],"categories":[],"categories_nodes":[],"categories_segments":[],"categories_sizes":[],"default_left":[0,0,0,0,0,0,0,0,0,0,0],"id":65,"left_children":[1,-1,3,5,7,-1,-1,-1,9,-1,-1],"loss_changes":[1.1436564E0,0E0,2.0085437E0,1.0348897E0,2.4703643E0,0E0,0E0,0E0,2.4409242E0,0E0,0E0],"parents":[2147483647,0,0,2,2,3,3,4,4,8,8],"right_children":[2,-1,4,6,8,-1,-1,-1,10,-1,-1],"split_conditions":[4.3178223E1,-1.5355076E-2,2.7508143E-1,9.866645E-2,4.924308E-1,2.0673003E-3,3.1176263E-2,-2.5369344E-2,8.948143E-1,-1.2835226E-2,1.5786646E-2],"split_indices":[0,0,5,5,5,0,0,0,2,0,0],"split_type":[0,0,0,0,0,0,0,0,0,0,0],"sum_hessian":[5.9152985E1,9.944892E0,4.920809E1,1.1999245E1,3.7208847E1,5.319757E0,6.6794877E0,8.567067E0,2.864178E1,1.1884742E1,1.6757038E1],"tree_param":{"num_deleted":"0","num_feature":"7","num_nodes":"11","size_leaf_vector":"1"}},{"base_weights":[-2.514564E-2,1.6756423E-1,-1.492048E-1,-7.34973E-2,3.282146E-2,-3.247982E-2,-7.936129E-3,1.1111322E-2,-2.1346033E-2,-1.4235385E-2,1.3108684E-1,1.550633E-2,-1.0267071E-2],"categories":[],"categories_nodes":[],"categories_segments":[],"categories_sizes":[],"default_left":[0,0,0,0,0,0,0,0,0,0,0,0,0],"id":66,"left_children":[1,3,5,7,-1,-1,9,-1,-1,-1,11,-1,-1],"loss_changes":[1.4742818E0,2.9015923E0,2.6392121E0,1.8837054E0,0E0,0E0,1.1987555E0,0E0,0E0,0E0,1.315165E0,0E0,0E0],"parents":[2147483647,0,0,1,1,2,2,3,3,6,6,10,10],"right_children":[2,4,6,8,-1,-1,10,-1,-1,-1,12,-1,-1],"split_conditions":[8.438357E-1,2.4701142E-1,1.2240257E0,8.3191E-2,3.282146E-2,-3.247982E-2,4.471154E1,1.1111322E-2,-2.1346033E-2,-1.4235385E-2,2.0031743E-3,1.550633E-2,-1.0267071E-2],"split_indices":[2,2,2,2,0,0,6,0,0,0,1,0,0],"split_type":[0,0,0,0,0,0,0,0,0,0,0,0,0],"sum_hessian":[5.9620518E1,2.321239E1,3.6408127E1,1.6115448E1,7.0969424E0,7.2234497E0,2.9184679E1,8.976044E0,7.139404E0,9.407665E0,1.9777014E1,1.2958801E1,6.818211E0],"tree_param":{"num_deleted":"0","num_feature":"7","num_nodes":"13","size_leaf_vector":"1"}},{"base_weights":[-2.1339139E-2,-8.308205E-2,1.737017E-2,-3.1603552E-2,-8.660623E-3,9.532922E-2,-2.4879258E-2,-3.8513455E-3,3.7170183E-2],"categories":[],"categories_nodes":[],"categories_segments":[],"categories_sizes":[],"default_left":[0,0,0,0,0,0,0,0,0],"id":67,"left_children":[1,3,-1,-1,5,7,-1,-1,-1],"loss_changes":[1.4085493E0,2.148281E0,0E0,0E0,2.4592288E0,4.520274E0,0E0,0E0,0E0],"parents":[2147483647,0,0,1,1,4,4,5,5],"right_children":[2,4,-1,-1,6,8,-1,-1,-1],"split_conditions":[5.8838676E1,5.657004E1,1.737017E-2,-3.1603552E-2,7.6299924E-1,5.5E-5,-2.4879258E-2,-3.8513455E-3,3.7170183E-2],"split_indices":[0,4,0,0,5,1,0,0,0],"split_type":[0,0,0,0,0,0,0,0,0],"sum_hessian":[5.9599636E1,5.171506E1,7.8845744E0,5.2791214E0,4.643594E1,3.8955482E1,7.480458E0,3.1467745E1,7.4877377E0],"tree_param":{"num_deleted":"0","num_feature":"7","num_nodes":"9","size_leaf_vector":"1"}},{"base_weights":[-2.510119E-2,4.9299173E-2,-2.3004679E-2,-5.905892E-2,2.2464292E-2,-3.4613963E-2,5.0701395E-2,1.8613601E-2,-5.4483446E-3],"categories":[],"categories_nodes":[],"categories_segments":[],"categories_sizes":[],"default_left":[0,0,0,0,0,0,0,0,0],"id":68,"left_children":[1,3,-1,5,-1,-1,7,-1,-1],"loss_changes":[1.9217203E0,2.2374458E0,0E0,2.8861914E0,0E0,0E0,1.8834844E0,0E0,0E0],"parents":[2147483647,0,0,1,1,3,3,6,6],"right_children":[2,4,-1,6,-1,-1,8,-1,-1],"split_conditions":[2.0031743E-3,5.682927E1,-2.3004679E-2,7.744214E-2,2.2464292E-2,-3.4613963E-2,3.5474285E-1,1.8613601E-2,-5.4483446E-3],"split_indices":[1,0,0,2,0,0,2,0,0],"split_type":[0,0,0,0,0,0,0,0,0],"sum_hessian":[5.7678226E1,5.001108E1,7.6671443E0,4.0021446E1,9.989634E0,5.128327E0,3.489312E1,1.1135262E1,2.3757858E1],"tree_param":{"num_deleted":"0","num_feature":"7","num_nodes":"9","size_leaf_vector":"1"}},{"base_weights":[2.8350698E-2,1.637578E-1,-1.9553657E-1,-6.4345114E-3,2.5318134E-1,-4.406724E-1,1.38237495E-2,3.716515E-1,-1.0355478E-2,-5.3071817E-3,-3.503567E-2,1.01809725E-2,4.0934965E-2],"categories":[],"categories_nodes":[],"categories_segments":[],"categories_sizes":[],"default_left":[0,0,0,0,0,0,0,0,0,0,0,0,0],"id":69,"left_children":[1,3,5,-1,7,9,-1,11,-1,-1,-1,-1,-1],"loss_changes":[1.8092558E0,1.0021447E0,2.7309458E0,0E0,1.6436244E0,1.2502391E0,0E0,1.576546E0,0E0,0E0,0E0,0E0,0E0],"parents":[2147483647,0,0,1,1,2,2,4,4,5,5,7,7],"right_children":[2,4,6,-1,8,10,-1,12,-1,-1,-1,-1,-1],"split_conditions":[5.0658226E-1,4.234961E1,8.362381E-1,-6.4345114E-3,1.0793571E1,1.6469942E0,1.38237495E-2,1.8857571E0,-1.0355478E-2,-5.3071817E-3,-3.503567E-2,1.01809725E-2,4.0934965E-2],"split_indices":[5,0,5,0,2,2,0,2,0,0,0,0,0],"split_type":[0,0,0,0,0,0,0,0,0,0,0,0,0],"sum_hessian":[5.762381E1,3.6074505E1,2.1549305E1,8.344803E0,2.7729704E1,1.4227006E1,7.3222985E0,2.2206694E1,5.52301E0,6.8382044E0,7.388802E0,1.7197964E1,5.00873E0],"tree_param":{"num_deleted":"0","num_feature":"7","num_nodes":"13","size_leaf_vector":"1"}},{"base_weights":[4.061539E-3,5.808014E-2,-2.2699852E-2,-4.046243E-2,3.4221542E-1,9.007749E-2,-2.725329E-2,-5.0131544E-3,3.8666572E-2,-1.913614E-3,3.4190457E-2],"categories":[],"categories_nodes":[],"categories_segments":[],"categories_sizes":[],"default_left":[0,0,0,0,0,0,0,0,0,0,0],"id":70,"left_children":[1,3,-1,5,7,9,-1,-1,-1,-1,-1],"loss_changes":[1.5091671E0,1.5395734E0,0E0,2.7731009E0,2.7744367E0,2.5952427E0,0E0,0E0,0E0,0E0,0E0],"parents":[2147483647,0,0,1,1,3,3,4,4,5,5],"right_children":[2,4,-1,6,8,10,-1,-1,-1,-1,-1],"split_conditions":[4.0950547E-3,7.6317E0,-2.2699852E-2,1.6469942E0,9.969891E1,9.609025E-5,-2.725329E-2,-5.0131544E-3,3.8666572E-2,-1.913614E-3,3.4190457E-2],"split_indices":[1,2,0,2,4,1,0,0,0,0,0],"split_type":[0,0,0,0,0,0,0,0,0,0,0],"sum_hessian":[5.8926365E1,5.349136E1,5.435004E0,4.035367E1,1.3137691E1,3.2712498E1,7.6411715E0,6.862133E0,6.2755575E0,2.7667109E1,5.0453897E0],"tree_param":{"num_deleted":"0","num_feature":"7","num_nodes":"11","size_leaf_vector":"1"}},{"base_weights":[-1.2507469E-2,-3.8690522E-1,7.639022E-2,-3.8441382E-2,4.507886E-3,2.7038505E-2,-2.5281576E-2,2.4897268E-2,-1.617598E-1,-1.4973119E-2,2.1379044E-2],"categories":[],"categories_nodes":[],"categories_segments":[],"categories_sizes":[],"default_left":[0,0,0,0,0,0,0,0,0,0,0],"id":71,"left_children":[1,3,5,-1,-1,-1,7,-1,9,-1,-1],"loss_changes":[2.009022E0,2.1786122E0,2.3223045E0,0E0,0E0,0E0,3.013287E0,0E0,2.8327348E0,0E0,0E0],"parents":[2147483647,0,0,1,1,2,2,6,6,8,8],"right_children":[2,4,6,-1,-1,-1,8,-1,10,-1,-1],"split_conditions":[4.3178223E1,3.2507086E-1,1.967213E1,-3.8441382E-2,4.507886E-3,2.7038505E-2,4.8464165E1,2.4897268E-2,8.6413056E-1,-1.4973119E-2,2.1379044E-2],"split_indices":[0,5,6,0,0,0,0,0,5,0,0],"split_type":[0,0,0,0,0,0,0,0,0,0,0],"sum_hessian":[5.847362E1,1.0576755E1,4.7896866E1,5.534452E0,5.042303E0,7.8273106E0,4.0069557E1,7.7415714E0,3.2327984E1,2.6603746E1,5.724238E0],"tree_param":{"num_deleted":"0","num_feature":"7","num_nodes":"11","size_leaf_vector":"1"}},{"base_weights":[5.226001E-2,3.19967E-1,-1.05263606E-1,7.161667E-2,4.7137164E-2,-3.4977517E-1,1.4420596E-1,-1.7021904E-2,2.1408139E-2,-6.7195094E-1,2.1395046E-2,-1.2938497E-2,2.4986768E-2,-1.607102E-2,-4.716319E-2],"categories":[],"categories_nodes":[],"categories_segments":[],"categories_sizes":[],"default_left":[0,0,0,0,0,0,0,0,0,0,0,0,0,0,0],"id":72,"left_children":[1,3,5,7,-1,9,11,-1,-1,13,-1,-1,-1,-1,-1],"loss_changes":[2.4693666E0,3.2800522E0,2.3143713E0,2.5780437E0,0E0,5.056854E0,2.8627868E0,0E0,0E0,1.0138636E0,0E0,0E0,0E0,0E0,0E0],"parents":[2147483647,0,0,1,1,2,2,3,3,5,5,6,6,9,9],"right_children":[2,4,6,8,-1,10,12,-1,-1,14,-1,-1,-1,-1,-1],"split_conditions":[3.5474285E-1,2.3930429E-1,7.6317E0,1.2820939E4,4.7137164E-2,5.4718403E1,5.9983902E1,-1.7021904E-2,2.1408139E-2,1.7880828E0,2.1395046E-2,-1.2938497E-2,2.4986768E-2,-1.607102E-2,-4.716319E-2],"split_indices":[2,2,2,4,0,0,4,0,0,2,0,0,0,0,0],"split_type":[0,0,0,0,0,0,0,0,0,0,0,0,0,0,0],"sum_hessian":[5.6758488E1,2.064376E1,3.6114727E1,1.55555315E1,5.0882297E0,1.8035547E1,1.8079182E1,7.23701E0,8.3185215E0,1.2848584E1,5.186963E0,8.6017065E0,9.477475E0,6.5590777E0,6.2895064E0],"tree_param":{"num_deleted":"0","num_feature":"7","num_nodes":"15","size_leaf_vector":"1"}},{"base_weights":[9.511987E-2,3.2400882E-1,-4.4363655E-2,5.989149E-1,-5.772434E-3,-3.5458088E-1,1.598666E-1,1.6582241E-2,4.0731378E-2,-2.6129648E-2,-2.7825702E-3,3.460852E-1,-8.545224E-3,1.4814459E-3,3.0517131E-2],"categories":[],"categories_nodes":[],"categories_segments":[],"categories_sizes":[],"default_left":[0,0,0,0,0,0,0,0,0,0,0,0,0,0,0],"id":73,"left_children":[1,3,5,7,-1,9,11,-1,-1,-1,-1,13,-1,-1,-1],"loss_changes":[1.867578E0,2.7389865E0,2.3974793E0,5.2295494E-1,0E0,7.231815E-1,1.473913E0,0E0,0E0,0E0,0E0,1.2384725E0,0E0,0E0,0E0],"parents":[2147483647,0,0,1,1,2,2,3,3,5,5,6,6,11,11],"right_children":[2,4,6,8,-1,10,12,-1,-1,-1,-1,14,-1,-1,-1],"split_conditions":[8.28643E-1,6.25E1,1.8857571E0,1.3586856E-1,-5.772434E-3,-3.683762E-6,2.0031743E-3,1.6582241E-2,4.0731378E-2,-2.6129648E-2,-2.7825702E-3,-3.2134205E-3,-8.545224E-3,1.4814459E-3,3.0517131E-2],"split_indices":[2,6,2,2,0,1,1,0,0,0,0,1,0,0,0],"split_type":[0,0,0,0,0,0,0,0,0,0,0,0,0,0,0],"sum_hessian":[5.7046425E1,2.1099598E1,3.5946827E1,1.2756696E1,8.342901E0,1.3978257E1,2.1968569E1,6.8307576E0,5.925938E0,8.469688E0,5.508569E0,1.4025915E1,7.9426537E0,6.8886595E0,7.137256E0],"tree_param":{"num_deleted":"0","num_feature":"7","num_nodes":"15","size_leaf_vector":"1"}},{"base_weights":[2.2680217E-2,2.4588819E-1,-1.1808759E-1,-2.9700568E-3,4.2940672E-2,1.0472194E-2,-2.2477473E-1,1.5079963E-2,-2.338331E-2,-5.200619E-1,5.5624258E-2,-3.6024597E-2,-1.2800346E-2,3.0068655E-2,-1.5077806E-2],"categories":[],"categories_nodes":[],"categories_segments":[],"categories_sizes":[],"default_left":[0,0,0,0,0,0,0,0,0,0,0,0,0,0,0],"id":74,"left_children":[1,3,5,7,-1,-1,9,-1,-1,11,13,-1,-1,-1,-1],"loss_changes":[1.7998257E0,3.376675E0,1.2783762E0,2.5088146E0,0E0,0E0,2.2695808E0,0E0,0E0,5.182545E-1,3.0632246E0,0E0,0E0,0E0,0E0],"parents":[2147483647,0,0,1,1,2,2,3,3,6,6,9,9,10,10],"right_children":[2,4,6,8,-1,-1,10,-1,-1,12,14,-1,-1,-1,-1],"split_conditions":[8.28643E-1,2.4701142E-1,-1.8431669E-3,1.0504571E-1,4.2940672E-2,1.0472194E-2,4.2219373E-5,1.5079963E-2,-2.338331E-2,1.2240257E0,2.0031743E-3,-3.6024597E-2,-1.2800346E-2,3.0068655E-2,-1.5077806E-2],"split_indices":[2,2,1,2,0,0,1,0,0,2,1,0,0,0,0],"split_type":[0,0,0,0,0,0,0,0,0,0,0,0,0,0,0],"sum_hessian":[5.535778E1,2.1120836E1,3.4236942E1,1.572953E1,5.3913064E0,8.17534E0,2.6061602E1,9.713875E0,6.015655E0,1.2277495E1,1.3784107E1,5.996957E0,6.2805386E0,5.1822667E0,8.601841E0],"tree_param":{"num_deleted":"0","num_feature":"7","num_nodes":"15","size_leaf_vector":"1"}},{"base_weights":[-7.919211E-2,4.0351756E-2,-2.972758E-1,-5.9612606E-2,2.4539243E-2,-3.858685E-2,4.966531E-2,-2.7311504E-1,1.6923632E-1,-1.5936159E-2,1.681331E-2,-2.7417166E-2,-4.674828E-4,1.9564707E-2,-1.1865686E-2],"categories":[],"categories_nodes":[],"categories_segments":[],"categories_sizes":[],"default_left":[0,0,0,0,0,0,0,0,0,0,0,0,0,0,0],"id":75,"left_children":[1,3,5,7,-1,-1,9,11,13,-1,-1,-1,-1,-1,-1],"loss_changes":[1.5708447E0,1.8079621E0,3.5429754E0,1.6693411E0,0E0,0E0,1.5047951E0,1.2702928E0,1.5960846E0,0E0,0E0,0E0,0E0,0E0,0E0],"parents":[2147483647,0,0,1,1,2,2,3,3,6,6,7,7,8,8],"right_children":[2,4,6,8,-1,-1,10,12,14,-1,-1,-1,-1,-1,-1],"split_conditions":[5.809426E-1,2.5883478E5,9.609025E-5,4.95285E1,2.4539243E-2,-3.858685E-2,5.2058113E1,-3.1141087E-4,-4.5969897E-5,-1.5936159E-2,1.681331E-2,-2.7417166E-2,-4.674828E-4,1.9564707E-2,-1.1865686E-2],"split_indices":[5,4,1,0,0,0,0,1,1,0,0,0,0,0,0],"split_type":[0,0,0,0,0,0,0,0,0,0,0,0,0,0,0],"sum_hessian":[5.8793446E1,3.8502853E1,2.0290594E1,3.221995E1,6.2829003E0,8.053113E0,1.2237481E1,1.656881E1,1.5651142E1,5.30566E0,6.931822E0,7.5802383E0,8.98857E0,1.0146594E1,5.5045485E0],"tree_param":{"num_deleted":"0","num_feature":"7","num_nodes":"15","size_leaf_vector":"1"}},{"base_weights":[3.6937945E-2,-4.1304488E-2,2.4431398E-2,6.0319304E-2,-2.1099158E-2,-6.0765017E-2,2.6909525E-2,3.8137764E-3,-3.3109155E-2],"categories":[],"categories_nodes":[],"categories_segments":[],"categories_sizes":[],"default_left":[0,0,0,0,0,0,0,0,0],"id":76,"left_children":[1,3,-1,5,-1,7,-1,-1,-1],"loss_changes":[1.9811149E0,1.890714E0,0E0,2.2853596E0,0E0,2.6845543E0,0E0,0E0,0E0],"parents":[2147483647,0,0,1,1,3,3,5,5],"right_children":[2,4,-1,6,-1,8,-1,-1,-1],"split_conditions":[8.362381E-1,6.5594196E-1,2.4431398E-2,5.48146E1,-2.1099158E-2,5.259E1,2.6909525E-2,3.8137764E-3,-3.3109155E-2],"split_indices":[5,5,0,0,0,0,0,0,0],"split_type":[0,0,0,0,0,0,0,0,0],"sum_hessian":[5.4485535E1,4.721537E1,7.270162E0,3.793106E1,9.28431E0,3.095934E1,6.9717207E0,2.5925148E1,5.0341916E0],"tree_param":{"num_deleted":"0","num_feature":"7","num_nodes":"9","size_leaf_vector":"1"}},{"base_weights":[5.2805063E-3,-6.1921198E-2,1.869294E-2,3.413288E-2,-2.8090248E-2,-1.2415246E-1,4.6361002E-1,1.9860188E-3,-2.732699E-2,4.2205438E-2,5.300133E-5],"categories":[],"categories_nodes":[],"categories_segments":[],"categories_sizes":[],"default_left":[0,0,0,0,0,0,0,0,0,0,0],"id":77,"left_children":[1,3,-1,5,-1,7,9,-1,-1,-1,-1],"loss_changes":[1.4706082E0,2.433618E0,0E0,2.9889956E0,0E0,2.257307E0,2.080139E0,0E0,0E0,0E0,0E0],"parents":[2147483647,0,0,1,1,3,3,5,5,6,6],"right_children":[2,4,-1,6,-1,8,10,-1,-1,-1,-1],"split_conditions":[5.8838676E1,7.6299924E-1,1.869294E-2,1.9323037E-5,-2.8090248E-2,-4.395689E-5,1.0722566E-3,1.9860188E-3,-2.732699E-2,4.2205438E-2,5.300133E-5],"split_indices":[0,5,0,1,0,1,1,0,0,0,0],"split_type":[0,0,0,0,0,0,0,0,0,0,0],"sum_hessian":[5.7438095E1,4.9284256E1,8.153841E0,4.2122093E1,7.1621614E0,3.1298018E1,1.0824076E1,2.3202248E1,8.095771E0,5.48618E0,5.3378954E0],"tree_param":{"num_deleted":"0","num_feature":"7","num_nodes":"11","size_leaf_vector":"1"}},{"base_weights":[-3.59779E-2,-3.571636E-1,1.2006699E-1,-3.5700362E-2,3.2017955E-3,2.637651E-2,4.345866E-2,1.9455947E-1,-2.3894843E-1,2.1210678E-2,-5.0360565E-3,-2.4292303E-2,4.4944524E-3],"categories":[],"categories_nodes":[],"categories_segments":[],"categories_sizes":[],"default_left":[0,0,0,0,0,0,0,0,0,0,0,0,0],"id":78,"left_children":[1,3,5,-1,-1,-1,7,9,11,-1,-1,-1,-1],"loss_changes":[2.9355235E0,2.9199903E0,1.2129335E0,0E0,0E0,0E0,1.5150788E0,1.6004622E0,1.054036E0,0E0,0E0,0E0,0E0],"parents":[2147483647,0,0,1,1,2,2,6,6,7,7,8,8],"right_children":[2,4,6,-1,-1,-1,8,10,12,-1,-1,-1,-1],"split_conditions":[4.7031456E1,4.924308E-1,7.438714E-2,-3.5700362E-2,3.2017955E-3,2.637651E-2,6.5594196E-1,5.271458E1,8.318019E-1,2.1210678E-2,-5.0360565E-3,-2.4292303E-2,4.4944524E-3],"split_indices":[0,5,2,0,0,0,5,0,5,0,0,0,0],"split_type":[0,0,0,0,0,0,0,0,0,0,0,0,0],"sum_hessian":[5.671499E1,1.8123243E1,3.8591747E1,9.434814E0,8.688428E0,5.1759453E0,3.3415802E1,2.1971241E1,1.1444559E1,1.2113408E1,9.857833E0,6.263977E0,5.1805825E0],"tree_param":{"num_deleted":"0","num_feature":"7","num_nodes":"13","size_leaf_vector":"1"}},{"base_weights":[-6.1700422E-2,5.3140484E-2,-4.3572575E-1,-2.422565E-2,1.6283299E-1,-4.172741E-2,-1.3307233E-3,4.0108945E-2,2.5752205E-2,1.4655987E-2,-1.1747514E-2],"categories":[],"categories_nodes":[],"categories_segments":[],"categories_sizes":[],"default_left":[0,0,0,0,0,0,0,0,0,0,0],"id":79,"left_children":[1,3,5,-1,7,-1,-1,9,-1,-1,-1],"loss_changes":[2.4571776E0,2.6883821E0,2.1674993E0,0E0,1.6001475E0,0E0,0E0,2.079567E0,0E0,0E0,0E0],"parents":[2147483647,0,0,1,1,2,2,4,4,7,7],"right_children":[2,4,6,-1,8,-1,-1,10,-1,-1,-1],"split_conditions":[7.913043E1,5.8912426E1,9.9E1,-2.422565E-2,1.9323037E-5,-4.172741E-2,-1.3307233E-3,-1.6190847E-4,2.5752205E-2,1.4655987E-2,-1.1747514E-2],"split_indices":[6,4,6,0,1,0,0,1,0,0,0],"split_type":[0,0,0,0,0,0,0,0,0,0,0],"sum_hessian":[5.5666588E1,4.324618E1,1.2420404E1,6.7490363E0,3.6497147E1,5.7627134E0,6.657691E0,2.7892271E1,8.604875E0,1.44942255E1,1.3398046E1],"tree_param":{"num_deleted":"0","num_feature":"7","num_nodes":"11","size_leaf_vector":"1"}},{"base_weights":[5.1216938E-2,-1.5251904E-2,1.2148022E-1,2.4415975E-2,1.4936532E-2,-2.9453386E-2,1.2904298E-1,1.5302755E-2,-7.473218E-3],"categories":[],"categories_nodes":[],"categories_segments":[],"categories_sizes":[],"default_left":[0,0,0,0,0,0,0,0,0],"id":80,"left_children":[1,-1,3,-1,5,-1,7,-1,-1],"loss_changes":[1.4235717E0,0E0,1.8289244E0,0E0,2.6563034E0,0E0,1.6385939E0,0E0,0E0],"parents":[2147483647,0,0,2,2,4,4,6,6],"right_children":[2,-1,4,-1,6,-1,8,-1,-1],"split_conditions":[4.1274864E1,-1.5251904E-2,2.967742E1,2.4415975E-2,4.471154E1,-2.9453386E-2,5.441E1,1.5302755E-2,-7.473218E-3],"split_indices":[0,0,6,0,6,0,0,0,0],"split_type":[0,0,0,0,0,0,0,0,0],"sum_hessian":[5.4390507E1,8.409677E0,4.5980827E1,9.542361E0,3.643847E1,5.128601E0,3.1309866E1,1.9082565E1,